genomestart 1
trait 1 0.1 0 0 0 0 0 0 0
trait 2 0.2 0 0 0 0 0 0 0
trait 3 0.3 0 0 0 0 0 0 0
node 1 0 1 1
node 2 0 1 1
node 3 0 1 1
node 4 0 1 1
node 5 0 1 1
node 6 0 1 1
node 7 0 1 1
node 8 0 1 1
node 9 0 1 1
node 10 0 1 1
node 11 0 1 1
node 12 0 1 1
node 13 0 1 1
node 14 0 1 1
node 15 0 1 1
node 16 0 1 1
node 17 0 1 1
node 18 0 1 1
node 19 0 1 1
node 20 0 1 1
node 21 0 1 1
node 22 0 1 1
node 23 0 1 1
node 24 0 1 1
node 25 0 1 1
node 26 0 1 1
node 27 0 1 1
node 28 0 1 1
node 29 0 1 3
node 30 0 0 2
gene 1 1 30 0.0 0 1 0 1
gene 2 2 30 0.0 0 2 0 1
gene 3 3 30 0.0 0 3 0 1
gene 1 4 30 0.0 0 4 0 1
gene 2 5 30 0.0 0 5 0 1
gene 3 6 30 0.0 0 6 0 1
gene 1 7 30 0.0 0 7 0 1
gene 2 8 30 0.0 0 8 0 1
gene 3 9 30 0.0 0 9 0 1
gene 1 10 30 0.0 0 10 0 1
gene 2 11 30 0.0 0 11 0 1
gene 3 12 30 0.0 0 12 0 1
gene 1 13 30 0.0 0 13 0 1
gene 2 14 30 0.0 0 14 0 1
gene 3 15 30 0.0 0 15 0 1
gene 1 16 30 0.0 0 16 0 1
gene 2 17 30 0.0 0 17 0 1
gene 2 18 30 0.0 0 18 0 1
gene 2 19 30 0.0 0 19 0 1
gene 2 20 30 0.0 0 20 0 1
geen 2 21 30 0.0 0 21 0 1
gene 2 22 30 0.0 0 22 0 1
gene 2 23 30 0.0 0 23 0 1
gene 2 24 30 0.0 0 24 0 1
gene 2 25 30 0.0 0 25 0 1
gene 2 26 30 0.0 0 26 0 1
gene 2 27 30 0.0 0 27 0 1
gene 2 28 30 0.0 0 28 0 1
gene 2 29 30 0.0 0 29 0 1
genomeend 1