
/* Species #1 : (Size 83) (AF 43.3012) (Age 10)  */


/* Organism #0 Fitness: 3 Error: 0 */
genomestart 0
trait 1 0.148759 0 0 0 0 0.00702498 0 0.0114139 
trait 2 0.2 0 0 0 0 0 0 0 
trait 3 0.3 0 0 0.0189444 0 0 0.124928 0 
node 1 2 1 3
node 2 2 1 1
node 3 1 1 1
node 4 3 1 1
node 5 2 1 1
node 6 1 0 2
node 7 1 0 2
gene 3 1 6 2.46821 0 1 2.46821 1
gene 3 2 6 -0.134281 0 2 -0.134281 1
gene 3 3 6 -1.98473 0 3 -1.98473 1
gene 2 4 6 -3.58129 0 4 -3.58129 1
gene 3 5 6 -1.9271 0 5 -1.9271 1
gene 1 1 7 -2.65563 0 6 -2.65563 1
gene 2 2 7 -1.07089 0 7 -1.07089 1
gene 2 3 7 -0.823893 0 8 -0.823893 1
gene 3 4 7 3.6372 0 9 3.6372 1
gene 1 5 7 3.56284 0 10 3.56284 1
genomeend 0

/* Organism #1 Fitness: 27 Error: 0 */
genomestart 1
trait 1 0.145712 0 0 0 0 0.00658592 0 0.0107006 
trait 2 0.206973 0.0259693 0.0179525 0 0.0276154 0.00870636 0 0 
trait 3 0.3 0 0 0.0153923 0 0 0.101504 0 
node 1 2 1 3
node 2 2 1 1
node 3 1 1 1
node 4 3 1 1
node 5 2 1 1
node 6 1 0 2
node 7 1 0 2
gene 3 1 6 1.92935 0 1 1.92935 1
gene 3 2 6 0.38637 0 2 0.38637 1
gene 3 3 6 -0.500721 0 3 -0.500721 1
gene 2 4 6 -3.82648 0 4 -3.82648 1
gene 3 5 6 -2.15944 0 5 -2.15944 1
gene 1 1 7 -2.37544 0 6 -2.37544 1
gene 2 2 7 0.371611 0 7 0.371611 1
gene 2 3 7 -0.248996 0 8 -0.248996 1
gene 3 4 7 2.65578 0 9 2.65578 1
gene 1 5 7 1.90814 0 10 1.90814 1
gene 3 6 7 -0.799066 0 83 -0.799066 1
genomeend 1

/* Organism #2 Fitness: 43 Error: 0 */
genomestart 2
trait 1 0.148759 0 0 0 0 0.00702498 0 0.0114139 
trait 2 0.2 0.652028 0 0 0 0 0 0 
trait 3 0.3 0 0 0 0 0 0 0 
node 1 2 1 3
node 2 2 1 1
node 3 3 1 1
node 4 3 1 1
node 5 2 1 1
node 6 1 0 2
node 7 1 0 2
gene 3 1 6 2.68171 0 1 2.68171 1
gene 1 2 6 -3.07497 0 2 -3.07497 1
gene 3 3 6 2.97636 0 3 2.97636 1
gene 3 4 6 -3.85454 0 4 -3.85454 1
gene 3 5 6 -3.36456 0 5 -3.36456 1
gene 1 1 7 -4.44392 0 6 -4.44392 1
gene 2 2 7 -5.08015 0 7 -5.08015 1
gene 3 3 7 -0.532929 0 8 -0.532929 1
gene 3 4 7 5.38147 0 9 5.38147 1
gene 3 5 7 3.17583 0 10 3.17583 1
genomeend 2

/* Organism #3 Fitness: 16 Error: 0 */
genomestart 3
trait 1 0.148759 0 0 0 0 0.00702498 0 0.0114139 
trait 2 0.880319 0 0.925138 0 0.632649 0 0.144993 0.17246 
trait 3 0.3 0 0 0.0189444 0 0 0.124928 0 
node 1 2 1 3
node 2 2 1 1
node 3 1 1 1
node 4 3 1 1
node 5 2 1 1
node 6 1 0 2
node 7 1 0 2
gene 3 1 6 0.620769 0 1 0.620769 1
gene 3 2 6 -1.0049 0 2 -1.0049 1
gene 3 3 6 -0.721496 0 3 -0.721496 1
gene 2 4 6 -3.13488 0 4 -3.13488 1
gene 3 5 6 -2.62941 0 5 -2.62941 1
gene 1 1 7 -2.04106 0 6 -2.04106 1
gene 2 2 7 -1.58864 0 7 -1.58864 1
gene 2 3 7 -0.982818 0 8 -0.982818 1
gene 3 4 7 3.11289 0 9 3.11289 1
gene 1 5 7 3.56284 0 10 3.56284 1
genomeend 3

/* Organism #4 Fitness: 12 Error: 0 */
genomestart 4
trait 1 0.145712 0 0 0 0 0.00658592 0 0.0107006 
trait 2 0.206973 0.0259693 0.0179525 0 0.0276154 0.00870636 0 0 
trait 3 0.3 0 0 0.0153923 0 0 0.101504 0 
node 1 2 1 3
node 2 2 1 1
node 3 1 1 1
node 4 3 1 1
node 5 2 1 1
node 6 1 0 2
node 7 1 0 2
gene 3 1 6 0.207753 0 1 0.207753 1
gene 3 2 6 -1.57712 0 2 -1.57712 1
gene 3 3 6 -0.822261 0 3 -0.822261 1
gene 2 4 6 -4.07167 0 4 -4.07167 1
gene 3 5 6 0.0248268 0 5 0.0248268 1
gene 1 1 7 -0.775155 0 6 -0.775155 1
gene 2 2 7 -0.617466 0 7 -0.617466 1
gene 2 3 7 0.821177 0 8 0.821177 1
gene 3 4 7 1.07063 0 9 1.07063 1
gene 1 5 7 -2.02653 0 10 -2.02653 1
genomeend 4

/* Organism #5 Fitness: 14 Error: 0 */
genomestart 5
trait 1 0.145712 0 0 0 0 0.00658592 0 0.0107006 
trait 2 0.206973 0.351983 0.0179525 0 0.0276154 0.00870636 0 0 
trait 3 0.3 0 0 0.00592011 0 0 0.0390398 0 
node 1 2 1 3
node 2 2 1 1
node 3 3 1 1
node 4 3 1 1
node 5 2 1 1
node 6 1 0 2
node 7 1 0 2
gene 3 1 6 0.58425 0 1 0.58425 1
gene 1 2 6 -2.95663 0 2 -2.95663 1
gene 3 3 6 0.98329 0 3 0.98329 1
gene 2 4 6 -4.07167 0 4 -4.07167 1
gene 3 5 6 -2.39178 0 5 -2.39178 1
gene 1 1 7 -4.12523 0 6 -4.12523 1
gene 2 2 7 1.81412 0 7 1.81412 1
gene 3 3 7 0.283441 0 8 0.283441 1
gene 3 4 7 1.67436 0 9 1.67436 1
gene 3 5 7 1.6538 0 10 1.6538 1
genomeend 5

/* Organism #6 Fitness: 201 Error: 0 */
genomestart 6
trait 1 0.145712 0 0 0 0 0.00658592 0 0.0107006 
trait 2 0.206973 0.0259693 0.0179525 0 0.0276154 0.00870636 0 0 
trait 3 0.3 0 0 0.0153923 0 0 0.101504 0 
node 1 2 1 3
node 2 2 1 1
node 3 1 1 1
node 4 3 1 1
node 5 2 1 1
node 6 1 0 2
node 7 1 0 2
gene 3 1 6 1.3905 0 1 1.3905 1
gene 3 2 6 0.907022 0 2 0.907022 1
gene 3 3 6 0.98329 0 3 0.98329 1
gene 2 4 6 -3.58129 0 4 -3.58129 1
gene 3 5 6 -1.9271 0 5 -1.9271 1
gene 1 1 7 -2.65563 0 6 -2.65563 1
gene 2 2 7 -1.07089 0 7 -1.07089 1
gene 2 3 7 0.3259 0 8 0.3259 1
gene 3 4 7 3.6372 0 9 3.6372 1
gene 1 5 7 0.253433 0 10 0.253433 1
genomeend 6

/* Organism #7 Fitness: 91 Error: 0 */
genomestart 7
trait 1 0.133522 0 0 0 0 0.00482967 0 0.00784707 
trait 2 0.175 0.326014 0.060049 0.017964 0.0214621 0 0 0 
trait 3 0.151314 0.997162 0.0657521 0.00828816 0 0.037019 0 0 
node 1 3 1 3
node 2 3 1 1
node 3 1 1 1
node 4 3 1 1
node 5 3 1 1
node 6 3 0 2
node 7 3 0 2
gene 3 1 6 1.54295 0 1 1.54295 1
gene 1 2 6 -0.581858 0 2 -0.581858 1
gene 2 3 6 0.149985 0 3 0.149985 1
gene 3 4 6 -4.47349 0 4 -4.47349 1
gene 3 5 6 -4.09324 0 5 -4.09324 1
gene 1 1 7 -2.10936 0 6 -2.10936 1
gene 1 2 7 -1.12197 0 7 -1.12197 1
gene 2 3 7 0.699881 0 8 0.699881 1
gene 3 4 7 5.48557 0 9 5.48557 1
gene 1 5 7 1.35037 0 10 1.35037 1
genomeend 7

/* Organism #8 Fitness: 122 Error: 0 */
genomestart 8
trait 1 0.148759 0 0 0 0 0.00702498 0 0.0114139 
trait 2 0.2 0.326014 0 0 0 0 0 0 
trait 3 0.3 0 0 0.00947218 0 0 0.0624638 0 
node 1 2 1 3
node 2 2 1 1
node 3 3 1 1
node 4 3 1 1
node 5 2 1 1
node 6 1 0 2
node 7 1 0 2
gene 3 1 6 2.46821 0 1 2.46821 1
gene 1 2 6 -2.95663 0 2 -2.95663 1
gene 3 3 6 -1.98473 0 3 -1.98473 1
gene 2 4 6 -3.58129 0 4 -3.58129 1
gene 3 5 6 -3.67547 0 5 -3.67547 1
gene 1 1 7 -2.65563 0 6 -2.65563 1
gene 2 2 7 -2.9714 0 7 -2.9714 1
gene 1 3 7 -0.823893 0 8 -0.823893 1
gene 3 4 7 5.00983 0 9 5.00983 1
gene 1 5 7 3.56284 0 10 3.56284 1
genomeend 8

/* Organism #9 Fitness: 141 Error: 0 */
genomestart 9
trait 1 0.130474 0 0 0 0 0.00439061 0 0.0071337 
trait 2 0.2 0 0 0 0 0 0 0 
trait 3 0.3 0 0.0328761 0.0165763 0 0 0.0936956 0 
node 1 3 1 3
node 2 3 1 1
node 3 1 1 1
node 4 3 1 1
node 5 3 1 1
node 6 3 0 2
node 7 3 0 2
gene 3 1 6 3.1924 0 1 3.1924 1
gene 2 2 6 2.16033 0 2 2.16033 1
gene 3 3 6 -0.340815 0 3 -0.340815 1
gene 2 4 6 -3.48317 0 4 -3.48317 1
gene 1 5 6 -4.47623 0 5 -4.47623 1
gene 1 1 7 -1.99852 0 6 -1.99852 1
gene 1 2 7 -2.82029 0 7 -2.82029 1
gene 2 3 7 -3.62551 0 8 -3.62551 1
gene 3 4 7 3.08897 0 9 3.08897 1
gene 3 5 7 5.11323 0 10 5.11323 1
gene 1 7 6 1.38461 0 72 1.38461 1
genomeend 9

/* Organism #10 Fitness: 66 Error: 0 */
genomestart 10
trait 1 0.148759 0 0 0 0 0.00702498 0 0.0114139 
trait 2 0.2 0.652028 0 0 0 0 0 0 
trait 3 0.3 0 0 0 0 0 0 0 
node 1 2 1 3
node 2 2 1 1
node 3 3 1 1
node 4 3 1 1
node 5 2 1 1
node 6 2 0 2
node 7 1 0 2
gene 3 1 6 0.58425 0 1 0.58425 1
gene 1 2 6 -2.49245 0 2 -2.49245 1
gene 3 3 6 1.80621 0 3 1.80621 1
gene 3 4 6 -4.24198 0 4 -4.24198 1
gene 3 5 6 -3.9026 0 5 -3.9026 1
gene 1 1 7 -4.12523 0 6 -4.12523 1
gene 2 2 7 -0.839221 0 7 -0.839221 1
gene 3 3 7 -1.64426 0 8 -1.64426 1
gene 3 4 7 5.42434 0 9 5.42434 1
gene 3 5 7 1.07738 0 10 1.07738 1
genomeend 10

/* Organism #11 Fitness: 4 Error: 0 */
genomestart 11
trait 1 0.127427 0 0 0 0 0.00395155 0 0.00642033 
trait 2 0.213945 0.0519387 0.035905 0 0.0552309 0.0174127 0 0 
trait 3 0.3 0 0.016438 0.0130243 0 0 0.0780797 0 
node 1 2 1 3
node 2 2 1 1
node 3 1 1 1
node 4 3 1 1
node 5 2 1 1
node 6 1 0 2
node 7 1 0 2
gene 2 1 6 1.35549 0 1 1.35549 1
gene 1 2 6 1.01704 0 2 1.01704 1
gene 2 3 6 0.501201 0 3 0.501201 1
gene 2 4 6 -3.7952 0 4 -3.7952 1
gene 1 5 6 -1.50687 0 5 -1.50687 1
gene 3 1 7 -0.97117 0 6 -0.97117 1
gene 3 2 7 0.574421 0 7 0.574421 1
gene 3 3 7 -0.124271 0 8 -0.124271 1
gene 3 4 7 2.41045 0 9 2.41045 1
gene 1 5 7 2.46015 0 10 2.46015 1
gene 1 6 7 -0.95352 0 55 -0.95352 1
genomeend 11

/* Organism #12 Fitness: 16 Error: 0 */
genomestart 12
trait 1 0.127427 0 0 0 0 0.00395155 0 0.00642033 
trait 2 0.213945 0.0519387 0.035905 0 0.0552309 0.0174127 0 0 
trait 3 0.3 0 0.016438 0.0130243 0 0 0.0780797 0 
node 1 2 1 3
node 2 2 1 1
node 3 1 1 1
node 4 3 1 1
node 5 2 1 1
node 6 1 0 2
node 7 1 0 2
gene 3 1 6 -0.945988 0 1 -0.945988 1
gene 3 2 6 3.14906 0 2 3.14906 1
gene 3 3 6 0.978815 0 3 0.978815 1
gene 2 4 6 -2.24234 0 4 -2.24234 1
gene 1 5 6 -2.04377 0 5 -2.04377 1
gene 1 1 7 -1.81607 0 6 -1.81607 1
gene 2 2 7 2.38783 0 7 2.38783 1
gene 2 3 7 -0.11977 0 8 -0.11977 1
gene 3 4 7 3.49187 0 9 3.49187 1
gene 1 5 7 2.46015 0 10 2.46015 1
gene 1 6 7 0.636921 0 55 0.636921 1
genomeend 12

/* Organism #13 Fitness: 10 Error: 0 */
genomestart 13
trait 1 0.133522 0 0 0 0 0.00482967 0 0.00784707 
trait 2 0.220918 0.077908 0.0538575 0 0.0828463 0.0261191 0 0 
trait 3 0.3 0 0 0.0118402 0 0 0.0780797 0 
node 1 2 1 3
node 2 2 1 1
node 3 1 1 1
node 4 3 1 1
node 5 2 1 1
node 6 1 0 2
node 7 1 0 2
gene 3 1 6 2.59125 0 1 2.59125 1
gene 3 2 6 1.42622 0 2 1.42622 1
gene 3 3 6 -0.997116 0 3 -0.997116 1
gene 2 4 6 -3.67294 0 4 -3.67294 1
gene 2 5 6 -1.4834 0 5 -1.4834 1
gene 1 1 7 -0.0205947 0 6 -0.0205947 1
gene 2 2 7 3.69039 0 7 3.69039 1
gene 2 3 7 -1.52528 0 8 -1.52528 1
gene 3 4 7 4.55746 0 9 4.55746 1
gene 3 5 7 2.26492 0 10 2.26492 1
gene 1 6 7 0.828196 0 55 0.828196 1
genomeend 13

/* Organism #14 Fitness: 32 Error: 0 */
genomestart 14
trait 1 0.136569 0 0 0 0 0.00526873 0 0.00856044 
trait 2 0.213945 0.0519387 0.035905 0 0.0552309 0.0174127 0 0 
trait 3 0.3 0 0 0.0153923 0 0 0.101504 0 
node 1 2 1 3
node 2 2 1 1
node 3 1 1 1
node 4 3 1 1
node 5 2 1 1
node 6 1 0 2
node 7 1 0 2
gene 2 1 6 2.00925 0 1 2.00925 1
gene 3 2 6 0.755649 0 2 0.755649 1
gene 3 3 6 -0.302931 0 3 -0.302931 1
gene 2 4 6 -0.430738 0 4 -0.430738 1
gene 3 5 6 -1.9271 0 5 -1.9271 1
gene 1 1 7 -1.21997 0 6 -1.21997 1
gene 2 2 7 -1.07089 0 7 -1.07089 1
gene 2 3 7 0.397299 0 8 0.397299 1
gene 3 4 7 3.38052 0 9 3.38052 1
gene 1 5 7 3.56284 0 10 3.56284 1
genomeend 14

/* Organism #15 Fitness: 812 Error: 0 */
genomestart 15
trait 1 0.133522 0 0 0 0 0.00482967 0 0.00784707 
trait 2 0.175 0 0.060049 0.017964 0.0214621 0 0 0 
trait 3 0.3 0 0.0657521 0.0177603 0 0 0.0858877 0 
node 1 3 1 3
node 2 3 1 1
node 3 1 1 1
node 4 3 1 1
node 5 3 1 1
node 6 3 0 2
node 7 3 0 2
gene 3 1 6 2.2555 0 1 2.2555 1
gene 3 2 6 0.626675 0 2 0.626675 1
gene 2 3 6 -1.70577 0 3 -1.70577 1
gene 1 4 6 -1.75335 0 4 -1.75335 1
gene 3 5 6 -2.18204 0 5 -2.18204 1
gene 1 1 7 -2.70296 0 6 -2.70296 1
gene 1 2 7 -0.0324068 0 7 -0.0324068 1
gene 2 3 7 -0.225043 0 8 -0.225043 1
gene 1 4 7 2.64518 0 9 2.64518 1
gene 1 5 7 2.43305 0 10 2.43305 1
genomeend 15

/* Organism #16 Fitness: 9 Error: 0 */
genomestart 16
trait 1 0.127427 0 0 0 0 0.00395155 0 0.00642033 
trait 2 0.213945 0.0519387 0.035905 0 0.0552309 0.0174127 0 0 
trait 3 0.3 0 0.016438 0.0130243 0 0 0.0780797 0 
node 1 3 1 3
node 2 3 1 1
node 3 1 1 1
node 4 3 1 1
node 5 3 1 1
node 6 3 0 2
node 7 3 0 2
gene 3 1 6 1.08212 0 1 1.08212 1
gene 3 2 6 1.97208 0 2 1.97208 1
gene 3 3 6 -0.725711 0 3 -0.725711 1
gene 2 4 6 -2.81482 0 4 -2.81482 1
gene 1 5 6 -1.29528 0 5 -1.29528 1
gene 1 1 7 -0.00337039 0 6 -0.00337039 1
gene 3 2 7 1.44831 0 7 1.44831 1
gene 3 3 7 1.47572 0 8 1.47572 1
gene 3 4 7 4.17528 0 9 4.17528 1
gene 1 5 7 0.130085 0 10 0.130085 1
gene 1 7 6 -1.05191 0 72 -1.05191 1
genomeend 16

/* Organism #17 Fitness: 14 Error: 0 */
genomestart 17
trait 1 0.133522 0 0 0 0 0.00482967 0 0.00784707 
trait 2 0.175 0.326014 0.060049 0.017964 0.0214621 0 0 0 
trait 3 0.3 0 0.0657521 0.00828816 0 0 0.0234239 0 
node 1 2 1 3
node 2 2 1 1
node 3 3 1 1
node 4 3 1 1
node 5 2 1 1
node 6 1 0 2
node 7 1 0 2
gene 2 1 6 1.88692 0 1 1.88692 1
gene 3 2 6 0.386548 0 2 0.386548 1
gene 2 3 6 -1.49434 0 3 -1.49434 1
gene 1 4 6 -2.32471 0 4 -2.32471 1
gene 3 5 6 -1.73846 0 5 -1.73846 1
gene 1 1 7 -0.32178 0 6 -0.32178 1
gene 1 2 7 3.37241 0 7 3.37241 1
gene 3 3 7 1.50349 0 8 1.50349 1
gene 1 4 7 1.17555 0 9 1.17555 1
gene 1 5 7 3.64433 0 10 3.64433 1
genomeend 17

/* Organism #18 Fitness: 78 Error: 0 */
genomestart 18
trait 1 0.133522 0 0 0 0 0.00482967 0 0.00784707 
trait 2 0.220918 0.077908 0.0538575 0 0.0828463 0.0261191 0 0 
trait 3 0.3 0 0 0.0106562 0 0 0.0702717 0 
node 1 2 1 3
node 2 2 1 1
node 3 1 1 1
node 4 3 1 1
node 5 2 1 1
node 6 1 0 2
node 7 1 0 2
gene 3 1 6 1.3905 0 1 1.3905 1
gene 3 2 6 0.891114 0 2 0.891114 1
gene 2 3 6 1.93046 0 3 1.93046 1
gene 2 4 6 -4.07167 0 4 -4.07167 1
gene 1 5 6 -1.89108 0 5 -1.89108 1
gene 1 1 7 -2.09525 0 6 -2.09525 1
gene 2 2 7 1.81412 0 7 1.81412 1
gene 3 3 7 1.82546 0 8 1.82546 1
gene 1 4 7 2.62174 0 9 2.62174 1
gene 1 5 7 0.253433 0 10 0.253433 1
genomeend 18

/* Organism #19 Fitness: 216 Error: 0 */
genomestart 19
trait 1 0.133522 0 0 0 0 0.00482967 0 0.00784707 
trait 2 0.075 0 0.060049 0.0630551 0.0214621 0.334437 0 0 
trait 3 0.3 0 0.0657521 0.0177603 0 0 0.0858877 0 
node 1 2 1 3
node 2 2 1 1
node 3 3 1 1
node 4 3 1 1
node 5 2 1 1
node 6 1 0 2
node 7 1 0 2
gene 3 1 6 0.906813 0 1 0.906813 1
gene 3 2 6 1.38285 0 2 1.38285 1
gene 3 3 6 -2.66548 0 3 -2.66548 1
gene 2 4 6 -2.81562 0 4 -2.81562 1
gene 3 5 6 -2.38069 0 5 -2.38069 1
gene 1 1 7 -3.17118 0 6 -3.17118 1
gene 2 2 7 0.362197 0 7 0.362197 1
gene 2 3 7 -1.71835 0 8 -1.71835 1
gene 1 4 7 2.97218 0 9 2.97218 1
gene 1 5 7 1.16655 0 10 1.16655 1
gene 3 6 7 0.0698874 0 73 0.0698874 1
genomeend 19

/* Organism #20 Fitness: 12 Error: 0 */
genomestart 20
trait 1 0.145712 0 0 0 0 0.00658592 0 0.0107006 
trait 2 0.206973 0.0259693 0.0179525 0 0.0276154 0.00870636 0 0 
trait 3 0.3 0 0 0.0153923 0 0 0.101504 0 
node 1 2 1 3
node 2 2 1 1
node 3 1 1 1
node 4 3 1 1
node 5 2 1 1
node 6 1 0 2
node 7 1 0 2
gene 3 1 6 -2.21198 0 1 -2.21198 1
gene 3 2 6 1.17902 0 2 1.17902 1
gene 3 3 6 -0.533692 0 3 -0.533692 1
gene 2 4 6 -3.26405 0 4 -3.26405 1
gene 3 5 6 -0.845058 0 5 -0.845058 1
gene 1 1 7 -2.65563 0 6 -2.65563 1
gene 2 2 7 -1.07089 0 7 -1.07089 1
gene 2 3 7 2.12253 0 8 2.12253 1
gene 3 4 7 4.91508 0 9 4.91508 1
gene 1 5 7 -2.04176 0 10 -2.04176 1
genomeend 20

/* Organism #21 Fitness: 14 Error: 0 */
genomestart 21
trait 1 0.139617 0.226905 0 0 0 0.0057078 0.0822474 0.00927381 
trait 2 0.1 0 0 0.0450911 0 0.334437 0 0 
trait 3 0.3 0 0.016438 0.0177603 0 0 0.109312 0 
node 1 2 1 3
node 2 2 1 1
node 3 3 1 1
node 4 3 1 1
node 5 2 1 1
node 6 1 0 2
node 7 1 0 2
gene 3 1 6 4.35805 0 1 4.35805 1
gene 2 2 6 -0.474181 0 2 -0.474181 1
gene 3 3 6 -5.51302 0 3 -5.51302 1
gene 2 4 6 -5.35037 0 4 -5.35037 1
gene 1 5 6 -0.199591 0 5 -0.199591 1
gene 1 1 7 -4.78062 0 6 -4.78062 1
gene 2 2 7 -2.41844 0 7 -2.41844 1
gene 2 3 7 -2.4678 0 8 -2.4678 1
gene 3 4 7 4.32432 0 9 4.32432 1
gene 1 5 7 -1.21555 0 10 -1.21555 1
gene 3 6 7 1.52013 0 73 1.52013 1
genomeend 21

/* Organism #22 Fitness: 211 Error: 0 */
genomestart 22
trait 1 0.148759 0 0 0 0 0.00702498 0 0.0114139 
trait 2 0.2 0.652028 0 0 0 0 0 0 
trait 3 0.3 0 0 0 0 0 0 0 
node 1 2 1 3
node 2 2 1 1
node 3 3 1 1
node 4 3 1 1
node 5 2 1 1
node 6 1 0 2
node 7 1 0 2
gene 3 1 6 2.26147 0 1 2.26147 1
gene 1 2 6 -4.12397 0 2 -4.12397 1
gene 3 3 6 0.366955 0 3 0.366955 1
gene 3 4 6 -7.06456 0 4 -7.06456 1
gene 3 5 6 -2.01732 0 5 -2.01732 1
gene 1 1 7 -2.51645 0 6 -2.51645 1
gene 2 2 7 -2.22743 0 7 -2.22743 1
gene 3 3 7 -0.627079 0 8 -0.627079 1
gene 3 4 7 3.1337 0 9 3.1337 1
gene 3 5 7 0.90228 0 10 0.90228 1
genomeend 22

/* Organism #23 Fitness: 20 Error: 0 */
genomestart 23
trait 1 0.130474 0 0 0 0 0.00439061 0 0.0071337 
trait 2 0.2 0 0 0 0 0 0 0 
trait 3 0.3 0 0.0328761 0.0165763 0 0 0.0936956 0 
node 1 2 1 3
node 2 2 1 1
node 3 1 1 1
node 4 3 1 1
node 5 2 1 1
node 6 1 0 2
node 7 1 0 2
gene 3 1 6 2.19438 0 1 2.19438 1
gene 1 2 6 -0.496114 0 2 -0.496114 1
gene 3 3 6 -1.34365 0 3 -1.34365 1
gene 2 4 6 -0.376064 0 4 -0.376064 1
gene 1 5 6 -1.12266 0 5 -1.12266 1
gene 1 1 7 0.0133786 0 6 0.0133786 1
gene 2 2 7 2.10898 0 7 2.10898 1
gene 2 3 7 -3.19709 0 8 -3.19709 1
gene 3 4 7 -0.0457015 0 9 -0.0457015 1
gene 1 5 7 0.233238 0 10 0.233238 1
genomeend 23

/* Organism #24 Fitness: 1 Error: 0 */
genomestart 24
trait 1 0.12438 0 0 0 0 0.00351249 0 0.00570696 
trait 2 0.22789 0.103877 0.0718101 0 0.110462 0.0348254 0 0 
trait 3 0.3 0 0 0.0118402 0 0 0.0780797 0 
node 1 2 1 3
node 2 2 1 1
node 3 1 1 1
node 4 3 1 1
node 5 2 1 1
node 6 1 0 2
node 7 1 0 2
gene 2 1 6 2.00925 0 1 2.00925 1
gene 3 2 6 0.755649 0 2 0.755649 1
gene 3 3 6 -0.302931 0 3 -0.302931 1
gene 2 4 6 -0.430738 0 4 -0.430738 1
gene 2 5 6 -1.4834 0 5 -1.4834 1
gene 1 1 7 -1.21997 0 6 -1.21997 1
gene 1 2 7 0.502466 0 7 0.502466 1
gene 2 3 7 0.397299 0 8 0.397299 1
gene 3 4 7 3.38052 0 9 3.38052 1
gene 3 5 7 1.96515 0 10 1.96515 1
gene 1 6 7 -0.95352 0 55 -0.95352 1
genomeend 24

/* Organism #25 Fitness: 49 Error: 0 */
genomestart 25
trait 1 0.148759 0 0 0 0 0.00702498 0 0.0114139 
trait 2 0 0 0 0.0901822 0 0.668874 0 0 
trait 3 0.3 0 0 0.0189444 0 0 0.124928 0 
node 1 2 1 3
node 2 2 1 1
node 3 3 1 1
node 4 3 1 1
node 5 2 1 1
node 6 1 0 2
node 7 1 0 2
gene 3 1 6 -0.229171 0 1 -0.229171 1
gene 3 2 6 1.37806 0 2 1.37806 1
gene 3 3 6 -3.90416 0 3 -3.90416 1
gene 2 4 6 -5.70581 0 4 -5.70581 1
gene 3 5 6 -2.32441 0 5 -2.32441 1
gene 1 1 7 -3.59207 0 6 -3.59207 1
gene 2 2 7 -0.281686 0 7 -0.281686 1
gene 2 3 7 -3.81051 0 8 -3.81051 1
gene 3 4 7 4.29121 0 9 4.29121 1
gene 1 5 7 1.02985 0 10 1.02985 1
gene 3 6 7 0.0698874 0 73 0.0698874 1
genomeend 25

/* Organism #26 Fitness: 1 Error: 0 */
genomestart 26
trait 1 0.148759 0 0 0 0 0.00702498 0 0.0114139 
trait 2 0.1 0 0 0.0450911 0 0.334437 0 0 
trait 3 0.3 0 0 0.0189444 0 0 0.124928 0 
node 1 2 1 3
node 2 2 1 1
node 3 1 1 1
node 4 3 1 1
node 5 2 1 1
node 6 1 0 2
node 7 1 0 2
gene 3 1 6 -0.429754 0 1 -0.429754 1
gene 3 2 6 -1.79846 0 2 -1.79846 1
gene 3 3 6 -1.57897 0 3 -1.57897 1
gene 2 4 6 -3.74562 0 4 -3.74562 1
gene 3 5 6 -2.12576 0 5 -2.12576 1
gene 1 1 7 -3.15262 0 6 -3.15262 1
gene 2 2 7 -0.67629 0 7 -0.67629 1
gene 2 3 7 -0.406743 0 8 -0.406743 1
gene 3 4 7 2.2795 0 9 2.2795 1
gene 1 5 7 3.22922 0 10 3.22922 1
genomeend 26

/* Organism #27 Fitness: 121 Error: 0 */
genomestart 27
trait 1 0.148759 0 0 0 0 0.00702498 0 0.0114139 
trait 2 0.2 0 0 0 0 0 0 0 
trait 3 0.3 0 0 0.0189444 0 0 0.124928 0 
node 1 2 1 3
node 2 2 1 1
node 3 1 1 1
node 4 3 1 1
node 5 2 1 1
node 6 1 0 2
node 7 1 0 2
gene 3 1 6 2.46821 0 1 2.46821 1
gene 3 2 6 -0.134281 0 2 -0.134281 1
gene 3 3 6 -1.98473 0 3 -1.98473 1
gene 2 4 6 -3.58129 0 4 -3.58129 1
gene 3 5 6 -1.9271 0 5 -1.9271 1
gene 1 1 7 -2.65563 0 6 -2.65563 1
gene 2 2 7 -1.07089 0 7 -1.07089 1
gene 2 3 7 -0.823893 0 8 -0.823893 1
gene 3 4 7 3.6372 0 9 3.6372 1
gene 1 5 7 3.56284 0 10 3.56284 1
gene 3 7 6 -0.432295 0 84 -0.432295 1
genomeend 27

/* Organism #28 Fitness: 19 Error: 0 */
genomestart 28
trait 1 0.145712 0 0 0 0 0.00658592 0 0.0107006 
trait 2 0.206973 0.351983 0.0179525 0 0.0276154 0.00870636 0 0 
trait 3 0.3 0 0 0.00592011 0 0 0.0390398 0 
node 1 2 1 3
node 2 2 1 1
node 3 3 1 1
node 4 3 1 1
node 5 2 1 1
node 6 1 0 2
node 7 1 0 2
gene 3 1 6 -0.501624 0 1 -0.501624 1
gene 1 2 6 -1.98889 0 2 -1.98889 1
gene 3 3 6 2.67695 0 3 2.67695 1
gene 3 4 6 1.25797 0 4 1.25797 1
gene 3 5 6 -2.44392 0 5 -2.44392 1
gene 1 1 7 -3.11024 0 6 -3.11024 1
gene 2 2 7 0.684912 0 7 0.684912 1
gene 2 3 7 -1.8507 0 8 -1.8507 1
gene 3 4 7 4.75327 0 9 4.75327 1
gene 1 5 7 -0.109039 0 10 -0.109039 1
genomeend 28

/* Organism #29 Fitness: 11 Error: 0 */
genomestart 29
trait 1 0.148759 0 0 0 0 0.00702498 0 0.0114139 
trait 2 0.2 0.326014 0 0 0 0 0 0 
trait 3 0.3 0 0 0.00947218 0 0 0.0624638 0 
node 1 2 1 3
node 2 2 1 1
node 3 3 1 1
node 4 3 1 1
node 5 2 1 1
node 6 1 0 2
node 7 1 0 2
gene 3 1 6 0.378376 0 1 0.378376 1
gene 3 2 6 0.848186 0 2 0.848186 1
gene 3 3 6 -1.99274 0 3 -1.99274 1
gene 3 4 6 0.665761 0 4 0.665761 1
gene 3 5 6 -3.92534 0 5 -3.92534 1
gene 1 1 7 -2.85675 0 6 -2.85675 1
gene 2 2 7 0.801492 0 7 0.801492 1
gene 3 3 7 1.00917 0 8 1.00917 1
gene 3 4 7 4.66857 0 9 4.66857 1
gene 1 5 7 -1.00284 0 10 -1.00284 1
genomeend 29

/* Organism #30 Fitness: 73 Error: 0 */
genomestart 30
trait 1 0.136569 0 0 0 0 0.00526873 0 0.00856044 
trait 2 0.213945 0.0519387 0.035905 0 0.0552309 0.0174127 0 0 
trait 3 0.3 0 0 0.0142083 0 0 0.0936956 0 
node 1 2 1 3
node 2 2 1 1
node 3 1 1 1
node 4 3 1 1
node 5 2 1 1
node 6 1 0 2
node 7 3 0 2
gene 2 1 6 -0.78176 0 1 -0.78176 1
gene 3 2 6 -0.550338 0 2 -0.550338 1
gene 2 3 6 -0.696253 0 3 -0.696253 1
gene 2 4 6 -3.42605 0 4 -3.42605 1
gene 1 5 6 -1.46886 0 5 -1.46886 1
gene 1 1 7 -2.7525 0 6 -2.7525 1
gene 3 2 7 -1.46654 0 7 -1.46654 1
gene 3 3 7 -1.173 0 8 -1.173 1
gene 1 4 7 4.70262 0 9 4.70262 1
gene 1 5 7 1.84646 0 10 1.84646 1
genomeend 30

/* Organism #31 Fitness: 8 Error: 0 */
genomestart 31
trait 1 0.12438 0 0 0 0 0.00351249 0 0.00570696 
trait 2 0.22789 0.103877 0.0718101 0 0.110462 0.0348254 0 0 
trait 3 0.3 0 0 0.0118402 0 0 0.0780797 0 
node 1 1 1 3
node 2 2 1 1
node 3 1 1 1
node 4 3 1 1
node 5 2 1 1
node 6 1 0 2
node 7 1 0 2
gene 2 1 6 0.238414 0 1 0.238414 1
gene 3 2 6 1.3432 0 2 1.3432 1
gene 3 3 6 -0.889192 0 3 -0.889192 1
gene 2 4 6 0.578707 0 4 0.578707 1
gene 2 5 6 -3.75153 0 5 -3.75153 1
gene 1 1 7 -1.21997 0 6 -1.21997 1
gene 1 2 7 1.47059 0 7 1.47059 1
gene 2 3 7 2.86457 0 8 2.86457 1
gene 3 4 7 3.38052 0 9 3.38052 1
gene 3 5 7 0.751278 0 10 0.751278 1
gene 1 6 7 0.843562 0 55 0.843562 1
genomeend 31

/* Organism #32 Fitness: 2 Error: 0 */
genomestart 32
trait 1 0.148759 0 0 0 0 0.00702498 0 0.0114139 
trait 2 0.2 0 0 0 0 0 0 0 
trait 3 0.3 0 0 0.0189444 0 0 0.124928 0 
node 1 2 1 3
node 2 2 1 1
node 3 1 1 1
node 4 3 1 1
node 5 2 1 1
node 6 1 0 2
node 7 1 0 2
gene 3 1 6 4.27094 0 1 4.27094 1
gene 3 2 6 0.0339518 0 2 0.0339518 1
gene 3 3 6 0.795618 0 3 0.795618 1
gene 2 4 6 -3.93355 0 4 -3.93355 1
gene 3 5 6 -1.96761 0 5 -1.96761 1
gene 1 1 7 -3.11074 0 6 -3.11074 1
gene 2 2 7 -1.9348 0 7 -1.9348 1
gene 2 3 7 -0.823893 0 8 -0.823893 1
gene 3 4 7 -0.266121 0 9 -0.266121 1
gene 1 5 7 -0.912427 0 10 -0.912427 1
genomeend 32

/* Organism #33 Fitness: 60 Error: 0 */
genomestart 33
trait 1 0.127427 0 0 0 0 0.00395155 0 0.00642033 
trait 2 0.213945 0.0519387 0.035905 0 0.0552309 0.0174127 0 0 
trait 3 0.3 0 0.016438 0.0130243 0 0 0.0780797 0 
node 1 3 1 3
node 2 3 1 1
node 3 1 1 1
node 4 3 1 1
node 5 3 1 1
node 6 3 0 2
node 7 3 0 2
gene 3 1 6 2.43912 0 1 2.43912 1
gene 2 2 6 2.16033 0 2 2.16033 1
gene 2 3 6 1.93046 0 3 1.93046 1
gene 2 4 6 -1.69134 0 4 -1.69134 1
gene 1 5 6 -2.22526 0 5 -2.22526 1
gene 1 1 7 -1.99852 0 6 -1.99852 1
gene 3 2 7 1.47089 0 7 1.47089 1
gene 2 3 7 -3.62551 0 8 -3.62551 1
gene 1 4 7 2.62174 0 9 2.62174 1
gene 3 5 7 3.1621 0 10 3.1621 1
gene 1 7 6 0.471877 0 72 0.471877 1
genomeend 33

/* Organism #34 Fitness: 2 Error: 0 */
genomestart 34
trait 1 0.148759 0 0 0 0 0.00702498 0 0.0114139 
trait 2 0.1 0 0 0.0450911 0 0.334437 0 0 
trait 3 0.3 0 0 0.0189444 0 0 0.124928 0 
node 1 2 1 3
node 2 2 1 1
node 3 3 1 1
node 4 3 1 1
node 5 2 1 1
node 6 1 0 2
node 7 1 0 2
gene 3 1 6 1.11952 0 1 1.11952 1
gene 3 2 6 0.45114 0 2 0.45114 1
gene 3 3 6 1.13201 0 3 1.13201 1
gene 2 4 6 -6.36891 0 4 -6.36891 1
gene 3 5 6 -0.198828 0 5 -0.198828 1
gene 1 1 7 -3.12385 0 6 -3.12385 1
gene 2 2 7 1.28208 0 7 1.28208 1
gene 2 3 7 -2.3172 0 8 -2.3172 1
gene 3 4 7 -2.05748 0 9 -2.05748 1
gene 1 5 7 -1.33381 0 10 -1.33381 1
genomeend 34

/* Organism #35 Fitness: 8 Error: 0 */
genomestart 35
trait 1 0.142664 0 0 0 0 0.00614686 0 0.00998718 
trait 2 0.213945 0.0519387 0.035905 0 0.0552309 0.0174127 0 0 
trait 3 0.3 0 0 0.0118402 0 0 0.0780797 0 
node 1 2 1 3
node 2 2 1 1
node 3 1 1 1
node 4 3 1 1
node 5 2 1 1
node 6 1 0 2
node 7 1 0 2
gene 3 1 6 0.140231 0 1 0.140231 1
gene 3 2 6 1.65143 0 2 1.65143 1
gene 3 3 6 0.705283 0 3 0.705283 1
gene 2 4 6 -3.02206 0 4 -3.02206 1
gene 3 5 6 -2.37378 0 5 -2.37378 1
gene 1 1 7 -0.261626 0 6 -0.261626 1
gene 2 2 7 -0.485302 0 7 -0.485302 1
gene 2 3 7 2.16189 0 8 2.16189 1
gene 3 4 7 2.65347 0 9 2.65347 1
gene 1 5 7 2.28642 0 10 2.28642 1
genomeend 35

/* Organism #36 Fitness: 14 Error: 0 */
genomestart 36
trait 1 0.127427 0 0 0 0 0.00395155 0 0.00642033 
trait 2 0.213945 0.0519387 0.035905 0 0.0552309 0.0174127 0 0 
trait 3 0.3 0 0.016438 0.0130243 0 0 0.0780797 0 
node 1 3 1 3
node 2 3 1 1
node 3 1 1 1
node 4 3 1 1
node 5 3 1 1
node 6 3 0 2
node 7 3 0 2
gene 2 1 6 -0.63303 0 1 -0.63303 1
gene 2 2 6 3.94047 0 2 3.94047 1
gene 3 3 6 -1.77852 0 3 -1.77852 1
gene 2 4 6 -3.48317 0 4 -3.48317 1
gene 1 5 6 -0.860393 0 5 -0.860393 1
gene 3 1 7 -1.7327 0 6 -1.7327 1
gene 1 2 7 -1.28086 0 7 -1.28086 1
gene 3 3 7 -0.323649 0 8 -0.323649 1
gene 3 4 7 1.56266 0 9 1.56266 1
gene 3 5 7 4.80484 0 10 4.80484 1
gene 1 7 6 0.489349 0 72 0.489349 1
genomeend 36

/* Organism #37 Fitness: 84 Error: 0 */
genomestart 37
trait 1 0.118285 0 0 0 0 0.00263437 0 0.00428022 
trait 2 0.2 0 0 0 0 0 0 0 
trait 3 0.3 0 0 0.00236805 0 0 0.0156159 0 
node 1 2 1 3
node 2 2 1 1
node 3 1 1 1
node 4 3 1 1
node 5 2 1 1
node 6 1 0 2
node 7 1 0 2
node 9 1 0 0
gene 3 1 6 -2.51679 0 1 -2.51679 1
gene 1 2 6 0.486541 0 2 0.486541 1
gene 2 3 6 -3.12456 0 3 -3.12456 0
gene 2 4 6 -3.9341 0 4 -3.9341 1
gene 1 5 6 2.3294 0 5 2.3294 1
gene 3 1 7 -3.0893 0 6 -3.0893 1
gene 3 2 7 -2.36205 0 7 -2.36205 1
gene 2 3 7 -2.3301 0 8 -2.3301 1
gene 3 4 7 2.34669 0 9 2.34669 1
gene 1 5 7 2.71813 0 10 2.71813 1
gene 2 3 9 1.64808 0 15 1.64808 1
gene 2 9 6 -1.55072 0 16 -1.55072 1
genomeend 37

/* Organism #38 Fitness: 8 Error: 0 */
genomestart 38
trait 1 0.118285 0 0 0 0 0.00263437 0 0.00428022 
trait 2 0.2 0 0 0 0 0 0 0 
trait 3 0.3 0 0 0.00236805 0 0 0.0156159 0 
node 1 2 1 3
node 2 2 1 1
node 3 1 1 1
node 4 3 1 1
node 5 2 1 1
node 6 1 0 2
node 7 1 0 2
node 9 1 0 0
gene 3 1 6 1.34579 0 1 1.34579 1
gene 1 2 6 -3.08031 0 2 -3.08031 1
gene 2 3 6 -2.68235 0 3 -2.68235 0
gene 2 4 6 -3.14054 0 4 -3.14054 1
gene 1 5 6 4.52567 0 5 4.52567 1
gene 3 1 7 -1.68682 0 6 -1.68682 1
gene 3 2 7 -3.4257 0 7 -3.4257 1
gene 2 3 7 -5.4082 0 8 -5.4082 1
gene 3 4 7 1.43495 0 9 1.43495 1
gene 1 5 7 2.85554 0 10 2.85554 1
gene 2 3 9 -0.687277 0 15 -0.687277 1
gene 2 9 6 -1.55072 0 16 -1.55072 1
genomeend 38

/* Organism #39 Fitness: 15 Error: 0 */
genomestart 39
trait 1 0.115237 0 0 0 0 0.00219531 0 0.00356685 
trait 2 0.2 0 0 0 0 0 0 0 
trait 3 0.3 0 0 0.00355207 0 0 0.0234239 0 
node 1 2 1 3
node 2 2 1 1
node 3 1 1 1
node 4 3 1 1
node 5 2 1 1
node 6 1 0 2
node 7 1 0 2
node 9 1 0 0
gene 3 1 6 -1.99843 0 1 -1.99843 1
gene 1 2 6 1.19877 0 2 1.19877 1
gene 2 3 6 -2.94038 0 3 -2.94038 0
gene 2 4 6 -4.4726 0 4 -4.4726 1
gene 1 5 6 -3.33451 0 5 -3.33451 0
gene 1 1 7 -0.418943 0 6 -0.418943 1
gene 3 2 7 -1.9142 0 7 -1.9142 1
gene 2 3 7 -4.32449 0 8 -4.32449 1
gene 3 4 7 1.52235 0 9 1.52235 1
gene 1 5 7 0.302896 0 10 0.302896 1
gene 2 3 9 2.6257 0 15 2.6257 1
gene 2 9 6 -0.959273 0 16 -0.959273 1
genomeend 39

/* Organism #40 Fitness: 32 Error: 0 */
genomestart 40
trait 1 0.115237 0 0 0 0 0.00219531 0 0.00356685 
trait 2 0.2 0.935301 0 0 0.553941 0 0.152593 0.180639 
trait 3 0.3 0 0 0.00355207 0 0 0.0234239 0 
node 1 2 1 3
node 2 2 1 1
node 3 1 1 1
node 4 3 1 1
node 5 2 1 1
node 6 1 0 2
node 7 1 0 2
node 9 1 0 0
gene 3 1 6 -1.35975 0 1 -1.35975 1
gene 1 2 6 2.68448 0 2 2.68448 1
gene 3 3 6 1.23722 0 3 1.23722 0
gene 2 4 6 -2.40978 0 4 -2.40978 1
gene 1 5 6 -3.89536 0 5 -3.89536 0
gene 3 1 7 -1.70011 0 6 -1.70011 1
gene 3 2 7 -0.206227 0 7 -0.206227 1
gene 2 3 7 -4.02037 0 8 -4.02037 1
gene 3 4 7 1.43262 0 9 1.43262 1
gene 1 5 7 2.81152 0 10 2.81152 1
gene 2 3 9 0.179907 0 15 0.179907 1
gene 2 9 6 0.914411 0 16 0.914411 1
genomeend 40

/* Organism #41 Fitness: 16 Error: 0 */
genomestart 41
trait 1 0.116761 0 0 0 0 0.00241484 0 0.00392354 
trait 2 0.2 0 0 0 0 0 0 0 
trait 3 0.3 0 0 0.00296006 0 0 0.0195199 0 
node 1 2 1 3
node 2 2 1 1
node 3 1 1 1
node 4 3 1 1
node 5 2 1 1
node 6 1 0 2
node 7 1 0 2
node 9 1 0 0
gene 3 1 6 -2.16537 0 1 -2.16537 1
gene 1 2 6 5.07615 0 2 5.07615 1
gene 2 3 6 -1.73536 0 3 -1.73536 0
gene 2 4 6 -3.83743 0 4 -3.83743 1
gene 1 5 6 -1.7628 0 5 -1.7628 0
gene 3 1 7 0.189301 0 6 0.189301 1
gene 3 2 7 -0.88469 0 7 -0.88469 1
gene 2 3 7 -2.17589 0 8 -2.17589 1
gene 3 4 7 2.49901 0 9 2.49901 1
gene 1 5 7 0.302896 0 10 0.302896 1
gene 2 3 9 4.58438 0 15 4.58438 1
gene 2 9 6 1.9689 0 16 1.9689 1
genomeend 41

/* Organism #42 Fitness: 205 Error: 0 */
genomestart 42
trait 1 0.118285 0 0 0 0 0.00263437 0 0.00428022 
trait 2 0.2 0 0 0 0 0 0 0 
trait 3 0.3 0 0.525987 0 0 0 0.289794 0 
node 1 2 1 3
node 2 2 1 1
node 3 1 1 1
node 4 3 1 1
node 5 2 1 1
node 6 1 0 2
node 7 1 0 2
node 9 1 0 0
gene 3 1 6 -1.96516 0 1 -1.96516 1
gene 1 2 6 0.486541 0 2 0.486541 1
gene 2 3 6 -2.01766 0 3 -2.01766 0
gene 2 4 6 -5.86226 0 4 -5.86226 1
gene 1 5 6 2.9487 0 5 2.9487 1
gene 3 1 7 -3.46354 0 6 -3.46354 1
gene 3 2 7 -2.59598 0 7 -2.59598 1
gene 2 3 7 -0.195563 0 8 -0.195563 1
gene 3 4 7 1.93548 0 9 1.93548 1
gene 1 5 7 5.16175 0 10 5.16175 1
gene 2 3 9 -1.08219 0 15 -1.08219 1
gene 2 9 6 0.0928526 0 16 0.0928526 1
genomeend 42

/* Organism #43 Fitness: 69 Error: 0 */
genomestart 43
trait 1 0.118285 0 0 0 0 0.00263437 0 0.00428022 
trait 2 0.2 0 0 0 0 0 0 0 
trait 3 0.3 0 0 0.00236805 0 0 0.0156159 0 
node 1 2 1 3
node 2 2 1 1
node 3 1 1 1
node 4 3 1 1
node 5 2 1 1
node 6 1 0 2
node 7 1 0 2
node 9 1 0 0
gene 3 1 6 -0.856353 0 1 -0.856353 1
gene 1 2 6 0.909986 0 2 0.909986 1
gene 2 3 6 -3.31218 0 3 -3.31218 0
gene 2 4 6 -3.98743 0 4 -3.98743 1
gene 1 5 6 2.36198 0 5 2.36198 1
gene 3 1 7 1.75337 0 6 1.75337 1
gene 3 2 7 -1.62221 0 7 -1.62221 1
gene 2 3 7 -3.19523 0 8 -3.19523 1
gene 3 4 7 1.54893 0 9 1.54893 1
gene 1 5 7 2.87172 0 10 2.87172 1
gene 2 3 9 3.08462 0 15 3.08462 1
gene 2 9 6 -0.00648518 0 16 -0.00648518 1
genomeend 43

/* Organism #44 Fitness: 22 Error: 0 */
genomestart 44
trait 1 0.118285 0 0 0 0 0.00263437 0 0.00428022 
trait 2 0.440455 0 0 0.664785 0 0 0.00714133 0 
trait 3 0.3 0 0 0.00236805 0 0 0.0156159 0 
node 1 2 1 3
node 2 2 1 1
node 3 1 1 1
node 4 3 1 1
node 5 2 1 1
node 6 1 0 2
node 7 1 0 2
node 9 1 0 0
gene 3 1 6 -1.04763 0 1 -1.04763 1
gene 1 2 6 -1.49594 0 2 -1.49594 1
gene 2 3 6 -1.27026 0 3 -1.27026 0
gene 2 4 6 -6.19522 0 4 -6.19522 1
gene 1 5 6 1.51212 0 5 1.51212 1
gene 3 1 7 -2.23517 0 6 -2.23517 1
gene 3 2 7 -1.34579 0 7 -1.34579 1
gene 2 3 7 -4.32449 0 8 -4.32449 1
gene 3 4 7 4.33314 0 9 4.33314 1
gene 1 5 7 0.735115 0 10 0.735115 1
gene 2 3 9 -0.644093 0 15 -0.644093 1
gene 2 9 6 0.399335 0 16 0.399335 1
genomeend 44

/* Organism #45 Fitness: 6 Error: 0 */
genomestart 45
trait 1 0.118285 0 0 0 0 0.00263437 0 0.00428022 
trait 2 0.2 0 0 0 0 0 0 0 
trait 3 0.3 0 0 0.00236805 0 0 0.0156159 0 
node 1 2 1 3
node 2 2 1 1
node 3 1 1 1
node 4 3 1 1
node 5 2 1 1
node 6 1 0 2
node 7 1 0 2
node 9 1 0 0
gene 3 1 6 -0.102393 0 1 -0.102393 1
gene 1 2 6 -1.30932 0 2 -1.30932 1
gene 2 3 6 -3.12456 0 3 -3.12456 0
gene 2 4 6 -3.9341 0 4 -3.9341 1
gene 1 5 6 0.636845 0 5 0.636845 1
gene 3 1 7 -0.621653 0 6 -0.621653 1
gene 3 2 7 -2.36205 0 7 -2.36205 1
gene 2 3 7 -4.32449 0 8 -4.32449 1
gene 3 4 7 2.34669 0 9 2.34669 1
gene 1 5 7 0.940809 0 10 0.940809 1
gene 2 3 9 2.6257 0 15 2.6257 1
gene 2 9 6 -1.55072 0 16 -1.55072 1
genomeend 45

/* Organism #46 Fitness: 8 Error: 0 */
genomestart 46
trait 1 0.118285 0 0 0 0 0.00263437 0 0.00428022 
trait 2 0.2 0 0 0 0 0 0 0 
trait 3 0.3 0 0 0.00236805 0 0 0.0156159 0 
node 1 2 1 3
node 2 2 1 1
node 3 1 1 1
node 4 3 1 1
node 5 2 1 1
node 6 1 0 2
node 7 1 0 2
node 9 1 0 0
gene 3 1 6 -3.95803 0 1 -3.95803 1
gene 1 2 6 2.44011 0 2 2.44011 1
gene 2 3 6 -3.60576 0 3 -3.60576 0
gene 2 4 6 -4.90787 0 4 -4.90787 1
gene 1 5 6 0.0341044 0 5 0.0341044 1
gene 3 1 7 -0.69627 0 6 -0.69627 1
gene 3 2 7 -0.124666 0 7 -0.124666 1
gene 2 3 7 -1.15789 0 8 -1.15789 1
gene 3 4 7 3.91419 0 9 3.91419 1
gene 1 5 7 0.804239 0 10 0.804239 1
gene 2 3 9 -0.771432 0 15 -0.771432 1
gene 2 9 6 -1.55072 0 16 -1.55072 1
genomeend 46

/* Organism #47 Fitness: 3 Error: 0 */
genomestart 47
trait 1 0.116761 0 0 0 0 0.00241484 0 0.00392354 
trait 2 0.2 0 0 0 0 0 0 0 
trait 3 0.3 0 0 0.00296006 0 0 0.0195199 0 
node 1 2 1 3
node 2 2 1 1
node 3 1 1 1
node 4 3 1 1
node 5 2 1 1
node 6 1 0 2
node 7 1 0 2
node 9 1 0 0
gene 3 1 6 -0.917543 0 1 -0.917543 1
gene 1 2 6 1.4275 0 2 1.4275 1
gene 2 3 6 -2.35405 0 3 -2.35405 0
gene 2 4 6 -2.88213 0 4 -2.88213 1
gene 1 5 6 -2.4307 0 5 -2.4307 0
gene 3 1 7 -2.74589 0 6 -2.74589 1
gene 3 2 7 1.08612 0 7 1.08612 1
gene 2 3 7 -4.62044 0 8 -4.62044 1
gene 3 4 7 2.74114 0 9 2.74114 1
gene 1 5 7 2.13683 0 10 2.13683 1
gene 2 3 9 4.87903 0 15 4.87903 1
gene 2 9 6 -2.91879 0 16 -2.91879 1
genomeend 47

/* Organism #48 Fitness: 1 Error: 0 */
genomestart 48
trait 1 0.118285 0 0 0 0 0.00263437 0 0.00428022 
trait 2 0.2 0 0 0 0 0 0 0 
trait 3 0.3 0 0 0.00236805 0 0 0.0156159 0 
node 1 2 1 3
node 2 2 1 1
node 3 1 1 1
node 4 3 1 1
node 5 2 1 1
node 6 1 0 2
node 7 1 0 2
node 9 1 0 0
gene 3 1 6 0.0387547 0 1 0.0387547 1
gene 1 2 6 0.95294 0 2 0.95294 1
gene 2 3 6 -1.28666 0 3 -1.28666 0
gene 2 4 6 -4.76016 0 4 -4.76016 1
gene 1 5 6 -0.781426 0 5 -0.781426 1
gene 3 1 7 -1.93418 0 6 -1.93418 1
gene 3 2 7 -2.79275 0 7 -2.79275 1
gene 2 3 7 -4.56467 0 8 -4.56467 1
gene 3 4 7 3.19457 0 9 3.19457 1
gene 1 5 7 -1.42895 0 10 -1.42895 1
gene 2 3 9 2.02216 0 15 2.02216 1
gene 2 9 6 0.969344 0 16 0.969344 1
genomeend 48

/* Organism #49 Fitness: 16 Error: 0 */
genomestart 49
trait 1 0.1 0 0 0 0.196509 0 0 0 
trait 2 0.31156 0.41551 0.28724 0 0.441847 0.139302 0 0 
trait 3 0.3 0 0 0 0 0 0 0 
node 1 1 1 3
node 2 3 1 1
node 3 3 1 1
node 4 1 1 1
node 5 2 1 1
node 6 3 0 2
node 7 2 0 2
gene 3 1 6 3.0192 0 1 3.0192 1
gene 3 2 6 -2.34359 0 2 -2.34359 1
gene 2 3 6 -0.866783 0 3 -0.866783 1
gene 2 4 6 -7.04652 0 4 -7.04652 1
gene 1 5 6 1.55225 0 5 1.55225 1
gene 3 1 7 -1.29696 0 6 -1.29696 1
gene 1 2 7 -5.73584 0 7 -5.73584 1
gene 2 3 7 0.148181 0 8 0.148181 1
gene 2 4 7 6.48004 0 9 6.48004 1
gene 1 5 7 2.35626 0 10 2.35626 1
gene 2 6 7 0.462966 0 20 0.462966 1
genomeend 49

/* Organism #50 Fitness: 15 Error: 0 */
genomestart 50
trait 1 0.1 0 0 0 0.196509 0 0 0 
trait 2 0.31156 0.41551 0.28724 0 0.441847 0.139302 0 0 
trait 3 0.3 0 0 0 0 0 0 0 
node 1 1 1 3
node 2 3 1 1
node 3 3 1 1
node 4 1 1 1
node 5 2 1 1
node 6 3 0 2
node 7 2 0 2
gene 3 1 6 3.6536 0 1 3.6536 1
gene 3 2 6 -2.71118 0 2 -2.71118 1
gene 2 3 6 -1.68208 0 3 -1.68208 1
gene 2 4 6 -5.68326 0 4 -5.68326 1
gene 1 5 6 2.7147 0 5 2.7147 1
gene 3 1 7 -2.04398 0 6 -2.04398 1
gene 1 2 7 -3.91503 0 7 -3.91503 1
gene 2 3 7 -1.08042 0 8 -1.08042 1
gene 2 4 7 5.10221 0 9 5.10221 1
gene 1 5 7 2.35626 0 10 2.35626 1
gene 2 6 7 -0.33166 0 20 -0.33166 1
genomeend 50

/* Organism #51 Fitness: 52 Error: 0 */
genomestart 51
trait 1 0.1 0 0 0 0.196509 0 0 0 
trait 2 0.31156 0.41551 0.28724 0 0.441847 0.139302 0 0 
trait 3 0.3 0 0 0 0 0 0 0 
node 1 1 1 3
node 2 3 1 1
node 3 3 1 1
node 4 1 1 1
node 5 2 1 1
node 6 3 0 2
node 7 2 0 2
gene 3 1 6 3.0192 0 1 3.0192 1
gene 3 2 6 -2.34359 0 2 -2.34359 1
gene 2 3 6 -0.866783 0 3 -0.866783 1
gene 2 4 6 -7.04652 0 4 -7.04652 1
gene 1 5 6 1.55225 0 5 1.55225 1
gene 3 1 7 -1.29696 0 6 -1.29696 1
gene 1 2 7 -5.73584 0 7 -5.73584 1
gene 2 3 7 0.148181 0 8 0.148181 1
gene 2 4 7 6.48004 0 9 6.48004 1
gene 1 5 7 2.35626 0 10 2.35626 1
gene 2 6 7 0.462966 0 20 0.462966 1
genomeend 51

/* Organism #52 Fitness: 8 Error: 0 */
genomestart 52
trait 1 0.1 0 0 0 0.196509 0 0 0 
trait 2 0.31156 0.41551 0.28724 0 0.441847 0.139302 0 0 
trait 3 0.3 0 0 0 0 0 0 0 
node 1 1 1 3
node 2 3 1 1
node 3 3 1 1
node 4 1 1 1
node 5 2 1 1
node 6 3 0 2
node 7 2 0 2
gene 3 1 6 0.832469 0 1 0.832469 1
gene 3 2 6 -3.2329 0 2 -3.2329 1
gene 2 3 6 -0.707629 0 3 -0.707629 1
gene 2 4 6 -7.11358 0 4 -7.11358 1
gene 1 5 6 1.53882 0 5 1.53882 1
gene 3 1 7 0.460601 0 6 0.460601 1
gene 1 2 7 -4.7301 0 7 -4.7301 1
gene 2 3 7 -2.1771 0 8 -2.1771 1
gene 2 4 7 5.5815 0 9 5.5815 1
gene 1 5 7 0.798669 0 10 0.798669 1
gene 2 6 7 0.922803 0 20 0.922803 1
genomeend 52

/* Organism #53 Fitness: 6 Error: 0 */
genomestart 53
trait 1 0.1 0 0 0 0.196509 0 0 0 
trait 2 0.31156 0.41551 0.28724 0 0.441847 0.139302 0 0 
trait 3 0.3 0 0 0 0 0 0 0 
node 1 1 1 3
node 2 3 1 1
node 3 3 1 1
node 4 1 1 1
node 5 2 1 1
node 6 3 0 2
node 7 2 0 2
gene 3 1 6 0.536592 0 1 0.536592 1
gene 3 2 6 -4.78034 0 2 -4.78034 1
gene 2 3 6 0.101493 0 3 0.101493 1
gene 2 4 6 -5.07617 0 4 -5.07617 1
gene 1 5 6 0.783029 0 5 0.783029 1
gene 3 1 7 -1.17565 0 6 -1.17565 1
gene 1 2 7 -3.56498 0 7 -3.56498 1
gene 2 3 7 0.971646 0 8 0.971646 1
gene 2 4 7 6.2423 0 9 6.2423 1
gene 1 5 7 2.24593 0 10 2.24593 1
gene 2 6 7 2.39242 0 20 2.39242 1
genomeend 53

/* Organism #54 Fitness: 65 Error: 0 */
genomestart 54
trait 1 0.1 0 0 0 0.196509 0 0 0 
trait 2 0.31156 0.41551 0.28724 0 0.441847 0.139302 0 0 
trait 3 0.3 0 0 0 0 0 0 0 
node 1 1 1 3
node 2 3 1 1
node 3 3 1 1
node 4 1 1 1
node 5 2 1 1
node 6 3 0 2
node 7 1 0 2
gene 3 1 6 3.18354 0 1 3.18354 1
gene 3 2 6 -0.106734 0 2 -0.106734 1
gene 2 3 6 -0.494991 0 3 -0.494991 1
gene 2 4 6 -7.68771 0 4 -7.68771 1
gene 1 5 6 -0.0362407 0 5 -0.0362407 1
gene 3 1 7 1.0535 0 6 1.0535 1
gene 1 2 7 -7.496 0 7 -7.496 1
gene 2 3 7 -1.79913 0 8 -1.79913 1
gene 2 4 7 7.68102 0 9 7.68102 1
gene 1 5 7 1.87658 0 10 1.87658 1
gene 2 6 7 -0.4429 0 20 -0.4429 1
genomeend 54

/* Organism #55 Fitness: 9 Error: 0 */
genomestart 55
trait 1 0.1 0 0 0 0.196509 0 0 0 
trait 2 0.31156 0.41551 0.28724 0 0.441847 0.139302 0 0 
trait 3 0.3 0 0 0 0 0 0 0 
node 1 1 1 3
node 2 3 1 1
node 3 3 1 1
node 4 1 1 1
node 5 2 1 1
node 6 3 0 2
node 7 2 0 2
gene 3 1 6 5.40452 0 1 5.40452 1
gene 3 2 6 -4.46379 0 2 -4.46379 1
gene 2 3 6 -0.37368 0 3 -0.37368 1
gene 2 4 6 -6.27043 0 4 -6.27043 1
gene 1 5 6 1.65204 0 5 1.65204 1
gene 3 1 7 -0.578555 0 6 -0.578555 1
gene 1 2 7 -6.95673 0 7 -6.95673 1
gene 2 3 7 -0.743418 0 8 -0.743418 1
gene 2 4 7 8 0 9 8 1
gene 1 5 7 -2.06244 0 10 -2.06244 1
gene 2 6 7 0.462966 0 20 0.462966 1
genomeend 55

/* Organism #56 Fitness: 5 Error: 0 */
genomestart 56
trait 1 0.1 0 0 0 0.196509 0 0 0 
trait 2 0.31156 0.41551 0.28724 0 0.441847 0.139302 0 0 
trait 3 0.3 0 0 0 0 0 0 0 
node 1 1 1 3
node 2 3 1 1
node 3 3 1 1
node 4 1 1 1
node 5 2 1 1
node 6 3 0 2
node 7 2 0 2
gene 3 1 6 3.50368 0 1 3.50368 1
gene 3 2 6 -2.00041 0 2 -2.00041 1
gene 2 3 6 -2.74092 0 3 -2.74092 1
gene 2 4 6 -7.03759 0 4 -7.03759 1
gene 1 5 6 -0.821558 0 5 -0.821558 1
gene 3 1 7 -0.426572 0 6 -0.426572 1
gene 1 2 7 -4.73918 0 7 -4.73918 1
gene 2 3 7 -0.398711 0 8 -0.398711 1
gene 2 4 7 7.06226 0 9 7.06226 1
gene 1 5 7 2.35626 0 10 2.35626 1
gene 2 6 7 0.462966 0 20 0.462966 1
genomeend 56

/* Organism #57 Fitness: 38 Error: 0 */
genomestart 57
trait 1 0.1 0 0 0 0.196509 0 0 0 
trait 2 0.31156 0.41551 0.28724 0 0.441847 0.139302 0 0 
trait 3 0.3 0 0 0 0 0 0 0 
node 1 1 1 3
node 2 3 1 1
node 3 3 1 1
node 4 1 1 1
node 5 2 1 1
node 6 3 0 2
node 7 2 0 2
gene 3 1 6 3.0192 0 1 3.0192 1
gene 3 2 6 -2.34359 0 2 -2.34359 1
gene 2 3 6 -0.866783 0 3 -0.866783 1
gene 2 4 6 -7.04652 0 4 -7.04652 1
gene 1 5 6 1.55225 0 5 1.55225 1
gene 3 1 7 -1.29696 0 6 -1.29696 1
gene 1 2 7 -5.73584 0 7 -5.73584 1
gene 2 3 7 0.148181 0 8 0.148181 1
gene 2 4 7 6.48004 0 9 6.48004 1
gene 1 5 7 2.35626 0 10 2.35626 1
gene 2 6 7 0.462966 0 20 0.462966 1
genomeend 57

/* Organism #58 Fitness: 12 Error: 0 */
genomestart 58
trait 1 0.1 0 0 0 0.196509 0 0 0 
trait 2 0.31156 0.41551 0.28724 0 0.441847 0.139302 0 0 
trait 3 0.3 0 0 0 0 0 0 0 
node 1 1 1 3
node 2 3 1 1
node 3 3 1 1
node 4 1 1 1
node 5 2 1 1
node 6 3 0 2
node 7 2 0 2
gene 3 1 6 2.60216 0 1 2.60216 1
gene 2 2 6 -3.30385 0 2 -3.30385 1
gene 2 3 6 0.465503 0 3 0.465503 1
gene 2 4 6 -5.15475 0 4 -5.15475 1
gene 1 5 6 3.93002 0 5 3.93002 1
gene 3 1 7 -3.71975 0 6 -3.71975 1
gene 1 2 7 -7.59175 0 7 -7.59175 1
gene 2 3 7 -1.35051 0 8 -1.35051 1
gene 2 4 7 7.88809 0 9 7.88809 1
gene 1 5 7 4.46707 0 10 4.46707 1
gene 2 6 7 -0.951033 0 20 -0.951033 1
genomeend 58

/* Organism #59 Fitness: 17 Error: 0 */
genomestart 59
trait 1 0.1 0 0 0 0.196509 0 0 0 
trait 2 0.31156 0.41551 0.28724 0 0.441847 0.139302 0 0 
trait 3 0.3 0 0 0 0 0 0 0 
node 1 1 1 3
node 2 3 1 1
node 3 3 1 1
node 4 1 1 1
node 5 2 1 1
node 6 3 0 2
node 7 2 0 2
gene 3 1 6 5.44542 0 1 5.44542 1
gene 3 2 6 -1.44894 0 2 -1.44894 1
gene 2 3 6 -3.33306 0 3 -3.33306 1
gene 2 4 6 -6.13661 0 4 -6.13661 1
gene 1 5 6 2.93931 0 5 2.93931 1
gene 3 1 7 -0.914411 0 6 -0.914411 1
gene 1 2 7 -7.07942 0 7 -7.07942 1
gene 2 3 7 -0.0184503 0 8 -0.0184503 1
gene 2 4 7 7.40452 0 9 7.40452 1
gene 1 5 7 0.317164 0 10 0.317164 1
gene 2 6 7 1.94357 0 20 1.94357 1
genomeend 59

/* Organism #60 Fitness: 14 Error: 0 */
genomestart 60
trait 1 0.1 0 0 0 0.196509 0 0 0 
trait 2 0.31156 0.41551 0.28724 0 0.441847 0.139302 0 0 
trait 3 0.3 0 0 0 0 0 0 0 
node 1 1 1 3
node 2 3 1 1
node 3 3 1 1
node 4 1 1 1
node 5 2 1 1
node 6 3 0 2
node 7 2 0 2
gene 2 1 6 5.0454 0 1 5.0454 1
gene 3 2 6 -0.69246 0 2 -0.69246 1
gene 2 3 6 1.44797 0 3 1.44797 1
gene 2 4 6 -7.96497 0 4 -7.96497 1
gene 1 5 6 2.09197 0 5 2.09197 1
gene 3 1 7 -2.11959 0 6 -2.11959 1
gene 1 2 7 -4.84249 0 7 -4.84249 1
gene 2 3 7 1.90124 0 8 1.90124 1
gene 2 4 7 5.12883 0 9 5.12883 1
gene 1 5 7 1.06395 0 10 1.06395 1
gene 2 6 7 0.462966 0 20 0.462966 1
genomeend 60

/* Organism #61 Fitness: 18 Error: 0 */
genomestart 61
trait 1 0.1 0 0 0 0.196509 0 0 0 
trait 2 0.31156 0.41551 0.28724 0 0.441847 0.139302 0 0 
trait 3 0.3 0 0 0 0 0 0 0 
node 1 1 1 3
node 2 3 1 1
node 3 3 1 1
node 4 1 1 1
node 5 2 1 1
node 6 3 0 2
node 7 2 0 2
gene 3 1 6 4.07315 0 1 4.07315 1
gene 3 2 6 -2.72202 0 2 -2.72202 1
gene 2 3 6 -2.329 0 3 -2.329 1
gene 2 4 6 -6.79398 0 4 -6.79398 1
gene 1 5 6 -0.505997 0 5 -0.505997 1
gene 3 1 7 -1.5022 0 6 -1.5022 1
gene 1 2 7 -6.68436 0 7 -6.68436 1
gene 2 3 7 0.176105 0 8 0.176105 1
gene 2 4 7 6.46821 0 9 6.46821 1
gene 1 5 7 1.72903 0 10 1.72903 1
gene 2 6 7 1.70721 0 20 1.70721 1
genomeend 61

/* Organism #62 Fitness: 7 Error: 0 */
genomestart 62
trait 1 0.1 0 0 0 0.196509 0 0 0 
trait 2 0.31156 0.41551 0.28724 0 0.441847 0.139302 0 0 
trait 3 0.3 0 0 0 0 0 0 0 
node 1 1 1 3
node 2 3 1 1
node 3 3 1 1
node 4 1 1 1
node 5 2 1 1
node 6 3 0 2
node 7 2 0 2
gene 3 1 6 -2.08121 0 1 -2.08121 1
gene 3 2 6 -0.808659 0 2 -0.808659 1
gene 2 3 6 -0.531079 0 3 -0.531079 1
gene 2 4 6 -7.04652 0 4 -7.04652 1
gene 1 5 6 1.85644 0 5 1.85644 1
gene 3 1 7 -2.25372 0 6 -2.25372 1
gene 1 2 7 1.8112 0 7 1.8112 1
gene 2 3 7 2.20116 0 8 2.20116 1
gene 2 4 7 6.48004 0 9 6.48004 1
gene 1 5 7 1.31634 0 10 1.31634 1
gene 2 6 7 1.00658 0 20 1.00658 1
genomeend 62

/* Organism #63 Fitness: 9 Error: 0 */
genomestart 63
trait 1 0.1 0 0 0 0.196509 0 0 0 
trait 2 0.31156 0.540147 0.645344 0 0 0.139302 0 0 
trait 3 0.3 0 0 0 0 0 0 0 
node 1 1 1 3
node 2 3 1 1
node 3 3 1 1
node 4 1 1 1
node 5 2 1 1
node 6 3 0 2
node 7 2 0 2
gene 3 1 6 3.0192 0 1 3.0192 1
gene 3 2 6 -2.34359 0 2 -2.34359 1
gene 2 3 6 -0.866783 0 3 -0.866783 1
gene 2 4 6 -7.04652 0 4 -7.04652 1
gene 1 5 6 1.55225 0 5 1.55225 1
gene 3 1 7 -1.29696 0 6 -1.29696 1
gene 1 2 7 -5.73584 0 7 -5.73584 1
gene 2 3 7 0.148181 0 8 0.148181 1
gene 2 4 7 6.48004 0 9 6.48004 1
gene 1 5 7 2.35626 0 10 2.35626 1
gene 2 6 7 0.462966 0 20 0.462966 1
genomeend 63

/* Organism #64 Fitness: 12 Error: 0 */
genomestart 64
trait 1 0.1 0 0 0 0.196509 0 0 0 
trait 2 0.31156 0.41551 0.28724 0 0.441847 0.139302 0 0 
trait 3 0.3 0 0 0 0 0 0 0 
node 1 1 1 3
node 2 3 1 1
node 3 3 1 1
node 4 1 1 1
node 5 2 1 1
node 6 3 0 2
node 7 2 0 2
gene 3 1 6 4.60318 0 1 4.60318 1
gene 3 2 6 -4.49781 0 2 -4.49781 1
gene 2 3 6 -1.60518 0 3 -1.60518 1
gene 2 4 6 -4.61175 0 4 -4.61175 1
gene 1 5 6 3.7785 0 5 3.7785 1
gene 3 1 7 -2.46597 0 6 -2.46597 1
gene 1 2 7 -4.36167 0 7 -4.36167 1
gene 2 3 7 0.947613 0 8 0.947613 1
gene 2 4 7 6.59578 0 9 6.59578 1
gene 1 5 7 2.35626 0 10 2.35626 1
gene 2 6 7 1.08272 0 20 1.08272 1
genomeend 64

/* Organism #65 Fitness: 10 Error: 0 */
genomestart 65
trait 1 0.1 0 0 0 0.196509 0 0 0 
trait 2 0.31156 0.41551 0.28724 0 0.441847 0.139302 0 0 
trait 3 0.3 0 0 0 0 0 0 0 
node 1 1 1 3
node 2 3 1 1
node 3 3 1 1
node 4 1 1 1
node 5 2 1 1
node 6 3 0 2
node 7 2 0 2
gene 3 1 6 3.0192 0 1 3.0192 1
gene 3 2 6 1.97043 0 2 1.97043 1
gene 2 3 6 -1.3695 0 3 -1.3695 1
gene 2 4 6 -5.02627 0 4 -5.02627 1
gene 1 5 6 -0.53354 0 5 -0.53354 1
gene 3 1 7 -3.25777 0 6 -3.25777 1
gene 1 2 7 0.800272 0 7 0.800272 1
gene 2 3 7 1.33908 0 8 1.33908 1
gene 2 4 7 4.69043 0 9 4.69043 1
gene 1 5 7 2.00209 0 10 2.00209 1
gene 2 6 7 1.47259 0 20 1.47259 1
genomeend 65

/* Organism #66 Fitness: 6 Error: 0 */
genomestart 66
trait 1 0.1 0 0 0 0.196509 0 0 0 
trait 2 0.31156 0.41551 0.28724 0 0.441847 0.139302 0 0 
trait 3 0.3 0 0 0 0 0 0 0 
node 1 1 1 3
node 2 3 1 1
node 3 3 1 1
node 4 1 1 1
node 5 2 1 1
node 6 3 0 2
node 7 2 0 2
gene 3 1 6 3.0192 0 1 3.0192 1
gene 3 2 6 -2.34359 0 2 -2.34359 1
gene 2 3 6 -0.866783 0 3 -0.866783 1
gene 2 4 6 -7.04652 0 4 -7.04652 1
gene 1 5 6 1.55225 0 5 1.55225 1
gene 3 1 7 -1.29696 0 6 -1.29696 1
gene 1 2 7 -5.73584 0 7 -5.73584 1
gene 2 3 7 0.148181 0 8 0.148181 1
gene 2 4 7 6.48004 0 9 6.48004 1
gene 1 5 7 2.35626 0 10 2.35626 1
gene 2 6 7 0.462966 0 20 0.462966 1
genomeend 66

/* Organism #67 Fitness: 19 Error: 0 */
genomestart 67
trait 1 0.1 0 0 0 0.196509 0 0 0 
trait 2 0.31156 0.41551 0.28724 0 0.441847 0.139302 0 0 
trait 3 0.3 0 0 0 0 0 0 0 
node 1 1 1 3
node 2 3 1 1
node 3 3 1 1
node 4 1 1 1
node 5 2 1 1
node 6 3 0 2
node 7 2 0 2
gene 3 1 6 2.31529 0 1 2.31529 1
gene 3 2 6 -0.14122 0 2 -0.14122 1
gene 2 3 6 1.16148 0 3 1.16148 1
gene 2 4 6 -5.49671 0 4 -5.49671 1
gene 1 5 6 0.414747 0 5 0.414747 1
gene 3 1 7 -3.61263 0 6 -3.61263 1
gene 1 2 7 -6.49377 0 7 -6.49377 1
gene 2 3 7 0.354638 0 8 0.354638 1
gene 2 4 7 7.62158 0 9 7.62158 1
gene 1 5 7 0.362331 0 10 0.362331 1
gene 2 6 7 -1.91717 0 20 -1.91717 1
genomeend 67

/* Organism #68 Fitness: 31 Error: 0 */
genomestart 68
trait 1 0.1 0 0 0 0.196509 0 0 0 
trait 2 0.31156 0.41551 0.28724 0 0.441847 0.139302 0 0 
trait 3 0.3 0 0 0 0 0 0 0 
node 1 1 1 3
node 2 3 1 1
node 3 3 1 1
node 4 1 1 1
node 5 2 1 1
node 6 3 0 2
node 7 2 0 2
gene 3 1 6 3.0192 0 1 3.0192 1
gene 3 2 6 -2.34359 0 2 -2.34359 1
gene 2 3 6 -0.866783 0 3 -0.866783 1
gene 2 4 6 -7.04652 0 4 -7.04652 1
gene 1 5 6 1.55225 0 5 1.55225 1
gene 3 1 7 -1.29696 0 6 -1.29696 1
gene 1 2 7 -5.73584 0 7 -5.73584 1
gene 2 3 7 0.148181 0 8 0.148181 1
gene 2 4 7 6.48004 0 9 6.48004 1
gene 1 5 7 2.35626 0 10 2.35626 1
gene 2 6 7 0.462966 0 20 0.462966 1
genomeend 68

/* Organism #69 Fitness: 18 Error: 0 */
genomestart 69
trait 1 0.1 0 0 0 0.196509 0 0 0 
trait 2 0.31156 0.41551 0.28724 0 0.441847 0.139302 0 0 
trait 3 0.3 0 0 0 0 0 0 0 
node 1 1 1 3
node 2 3 1 1
node 3 3 1 1
node 4 1 1 1
node 5 2 1 1
node 6 3 0 2
node 7 2 0 2
gene 3 1 6 4.03882 0 1 4.03882 1
gene 3 2 6 -3.86631 0 2 -3.86631 1
gene 2 3 6 0.0636502 0 3 0.0636502 1
gene 2 4 6 -4.88985 0 4 -4.88985 1
gene 1 5 6 0.599841 0 5 0.599841 1
gene 3 1 7 0.116504 0 6 0.116504 1
gene 1 2 7 -4.94778 0 7 -4.94778 1
gene 2 3 7 -0.0805555 0 8 -0.0805555 1
gene 2 4 7 8 0 9 8 1
gene 1 5 7 1.03778 0 10 1.03778 1
gene 2 6 7 2.32887 0 20 2.32887 1
genomeend 69

/* Organism #70 Fitness: 12 Error: 0 */
genomestart 70
trait 1 0.1 0 0 0 0.196509 0 0 0 
trait 2 0.31156 0.41551 0.28724 0 0.441847 0.139302 0 0 
trait 3 0.3 0 0 0 0 0 0 0 
node 1 1 1 3
node 2 3 1 1
node 3 3 1 1
node 4 1 1 1
node 5 2 1 1
node 6 3 0 2
node 7 2 0 2
gene 3 1 6 0.554827 0 1 0.554827 1
gene 3 2 6 -2.05381 0 2 -2.05381 1
gene 2 3 6 -2.56437 0 3 -2.56437 1
gene 2 4 6 -8 0 4 -8 1
gene 1 5 6 1.55225 0 5 1.55225 1
gene 3 1 7 -0.681097 0 6 -0.681097 1
gene 1 2 7 -4.60895 0 7 -4.60895 1
gene 2 3 7 -2.18893 0 8 -2.18893 1
gene 2 4 7 4.68395 0 9 4.68395 1
gene 1 5 7 -0.843989 0 10 -0.843989 1
gene 2 6 7 -0.547197 0 20 -0.547197 1
genomeend 70

/* Organism #71 Fitness: 6 Error: 0 */
genomestart 71
trait 1 0.1 0 0 0 0.196509 0 0 0 
trait 2 0.31156 0.41551 0.28724 0 0.441847 0.139302 0 0 
trait 3 0.3 0 0 0 0 0 0 0 
node 1 1 1 3
node 2 3 1 1
node 3 3 1 1
node 4 1 1 1
node 5 2 1 1
node 6 3 0 2
node 7 2 0 2
gene 3 1 6 1.71903 0 1 1.71903 1
gene 3 2 6 -0.390708 0 2 -0.390708 1
gene 2 3 6 -0.64499 0 3 -0.64499 1
gene 2 4 6 -8 0 4 -8 1
gene 1 5 6 0.600452 0 5 0.600452 1
gene 3 1 7 -1.78785 0 6 -1.78785 1
gene 1 2 7 -3.70789 0 7 -3.70789 1
gene 2 3 7 1.31361 0 8 1.31361 1
gene 2 4 7 4.2705 0 9 4.2705 1
gene 1 5 7 1.283 0 10 1.283 1
gene 2 6 7 0.462966 0 20 0.462966 1
genomeend 71

/* Organism #72 Fitness: 4 Error: 0 */
genomestart 72
trait 1 0.118285 0 0 0 0 0.00263437 0 0.00428022 
trait 2 0.2 0 0 0 0 0 0 0 
trait 3 0.3 0 0 0.00236805 0 0 0.0156159 0 
node 1 2 1 3
node 2 2 1 1
node 3 1 1 1
node 4 3 1 1
node 5 2 1 1
node 6 1 0 2
node 7 1 0 2
node 9 1 0 0
gene 3 1 6 1.79022 0 1 1.79022 1
gene 1 2 6 -1.63373 0 2 -1.63373 1
gene 2 3 6 -2.89514 0 3 -2.89514 0
gene 2 4 6 -2.07751 0 4 -2.07751 1
gene 1 5 6 2.00499 0 5 2.00499 1
gene 3 1 7 -1.38966 0 6 -1.38966 1
gene 3 2 7 3.86624 0 7 3.86624 1
gene 2 3 7 -3.01318 0 8 -3.01318 1
gene 3 4 7 -1.62999 0 9 -1.62999 1
gene 1 5 7 1.93587 0 10 1.93587 1
gene 2 3 9 3.80867 0 15 3.80867 1
gene 2 9 6 -2.08251 0 16 -2.08251 1
genomeend 72

/* Organism #73 Fitness: 17 Error: 0 */
genomestart 73
trait 1 0.118285 0 0 0 0 0.00263437 0 0.00428022 
trait 2 0.2 0 0 0 0 0 0 0 
trait 3 0.3 0 0 0.00236805 0 0 0.0156159 0 
node 1 2 1 3
node 2 2 1 1
node 3 1 1 1
node 4 3 1 1
node 5 2 1 1
node 6 1 0 2
node 7 1 0 2
node 9 1 0 0
gene 3 1 6 -2.23671 0 1 -2.23671 1
gene 1 2 6 -3.03453 0 2 -3.03453 1
gene 2 3 6 0.481582 0 3 0.481582 0
gene 2 4 6 -4.84065 0 4 -4.84065 1
gene 1 5 6 2.22663 0 5 2.22663 1
gene 3 1 7 -0.745252 0 6 -0.745252 1
gene 3 2 7 -0.713294 0 7 -0.713294 1
gene 2 3 7 -1.56758 0 8 -1.56758 1
gene 3 4 7 0.719321 0 9 0.719321 1
gene 1 5 7 0.510498 0 10 0.510498 1
gene 2 3 9 2.68651 0 15 2.68651 1
gene 2 9 6 0.752358 0 16 0.752358 1
genomeend 73

/* Organism #74 Fitness: 16 Error: 0 */
genomestart 74
trait 1 0.1 0 0 0 0.196509 0 0 0 
trait 2 0.31156 0.41551 0.28724 0 0.441847 0.139302 0 0 
trait 3 0.3 0 0 0 0 0 0 0 
node 1 1 1 3
node 2 3 1 1
node 3 3 1 1
node 4 1 1 1
node 5 2 1 1
node 6 3 0 2
node 7 2 0 2
gene 3 1 6 5.12284 0 1 5.12284 1
gene 3 2 6 -3.92101 0 2 -3.92101 1
gene 2 3 6 -0.597686 0 3 -0.597686 1
gene 2 4 6 -8 0 4 -8 1
gene 1 5 6 2.77497 0 5 2.77497 1
gene 3 1 7 -0.472579 0 6 -0.472579 1
gene 1 2 7 -5.21558 0 7 -5.21558 1
gene 2 3 7 -0.246118 0 8 -0.246118 1
gene 2 4 7 4.25272 0 9 4.25272 1
gene 1 5 7 1.59436 0 10 1.59436 1
gene 2 6 7 1.02176 0 20 1.02176 1
genomeend 74

/* Organism #75 Fitness: 9 Error: 0 */
genomestart 75
trait 1 0.1 0 0 0 0.196509 0 0 0 
trait 2 0.31156 0.41551 0.28724 0 0.441847 0.139302 0 0 
trait 3 0.3 0 0 0 0 0 0 0 
node 1 1 1 3
node 2 3 1 1
node 3 3 1 1
node 4 1 1 1
node 5 2 1 1
node 6 3 0 2
node 7 2 0 2
gene 3 1 6 5.12284 0 1 5.12284 1
gene 3 2 6 -3.92101 0 2 -3.92101 1
gene 2 3 6 -0.597686 0 3 -0.597686 1
gene 2 4 6 -8 0 4 -8 1
gene 1 5 6 2.77497 0 5 2.77497 1
gene 3 1 7 -0.472579 0 6 -0.472579 1
gene 1 2 7 -5.21558 0 7 -5.21558 1
gene 2 3 7 -0.246118 0 8 -0.246118 1
gene 2 4 7 4.25272 0 9 4.25272 1
gene 1 5 7 1.59436 0 10 1.59436 1
gene 2 6 7 1.02176 0 20 1.02176 1
genomeend 75

/* Organism #76 Fitness: 9 Error: 0 */
genomestart 76
trait 1 0.1 0 0 0 0.196509 0 0 0 
trait 2 0.31156 0.41551 0.28724 0 0.441847 0.139302 0 0 
trait 3 0.3 0 0 0 0 0 0 0 
node 1 1 1 3
node 2 3 1 1
node 3 3 1 1
node 4 1 1 1
node 5 2 1 1
node 6 3 0 2
node 7 2 0 2
gene 3 1 6 6.83897 0 1 6.83897 1
gene 3 2 6 -2.70424 0 2 -2.70424 1
gene 2 3 6 -0.744633 0 3 -0.744633 1
gene 2 4 6 -6.97366 0 4 -6.97366 1
gene 1 5 6 4.93553 0 5 4.93553 1
gene 3 1 7 -2.30316 0 6 -2.30316 1
gene 1 2 7 -3.80204 0 7 -3.80204 1
gene 2 3 7 -2.13262 0 8 -2.13262 1
gene 2 4 7 2.33471 0 9 2.33471 1
gene 1 5 7 0.151067 0 10 0.151067 1
gene 2 6 7 -1.81272 0 20 -1.81272 1
genomeend 76

/* Organism #77 Fitness: 11 Error: 0 */
genomestart 77
trait 1 0.1 0 0 0 0.196509 0 0 0 
trait 2 0.31156 0.41551 0.28724 0 0.441847 0.139302 0 0 
trait 3 0.3 0 0 0 0 0 0 0 
node 1 1 1 3
node 2 3 1 1
node 3 3 1 1
node 4 1 1 1
node 5 2 1 1
node 6 3 0 2
node 7 2 0 2
gene 3 1 6 5.12284 0 1 5.12284 1
gene 3 2 6 -3.92101 0 2 -3.92101 1
gene 2 3 6 -0.597686 0 3 -0.597686 1
gene 2 4 6 -8 0 4 -8 1
gene 1 5 6 2.77497 0 5 2.77497 1
gene 3 1 7 -0.472579 0 6 -0.472579 1
gene 1 2 7 -5.21558 0 7 -5.21558 1
gene 2 3 7 -0.246118 0 8 -0.246118 1
gene 2 4 7 4.25272 0 9 4.25272 1
gene 1 5 7 1.59436 0 10 1.59436 1
gene 2 6 7 1.02176 0 20 1.02176 1
genomeend 77

/* Organism #78 Fitness: 20 Error: 0 */
genomestart 78
trait 1 0.1 0 0 0 0.196509 0 0 0 
trait 2 0.31156 0.41551 0.28724 0 0.441847 0.139302 0 0 
trait 3 0.3 0 0 0 0 0 0 0 
node 1 1 1 3
node 2 3 1 1
node 3 3 1 1
node 4 1 1 1
node 5 2 1 1
node 6 3 0 2
node 7 2 0 2
gene 3 1 6 5.27848 0 1 5.27848 1
gene 3 2 6 -1.94548 0 2 -1.94548 1
gene 2 3 6 -0.339671 0 3 -0.339671 1
gene 2 4 6 -8 0 4 -8 1
gene 1 5 6 3.36268 0 5 3.36268 1
gene 3 1 7 -0.667058 0 6 -0.667058 1
gene 1 2 7 -7.33356 0 7 -7.33356 1
gene 2 3 7 1.2965 0 8 1.2965 1
gene 2 4 7 -2.45788 0 9 -2.45788 1
gene 1 5 7 2.38403 0 10 2.38403 1
gene 2 6 7 1.02176 0 20 1.02176 1
genomeend 78

/* Organism #79 Fitness: 9 Error: 0 */
genomestart 79
trait 1 0.1 0 0 0 0.196509 0 0 0 
trait 2 0.31156 0.41551 0.28724 0 0.441847 0.139302 0 0 
trait 3 0.3 0 0 0 0 0 0 0 
node 1 1 1 3
node 2 3 1 1
node 3 3 1 1
node 4 1 1 1
node 5 2 1 1
node 6 3 0 2
node 7 2 0 2
gene 3 1 6 5.12284 0 1 5.12284 1
gene 3 2 6 -1.95837 0 2 -1.95837 1
gene 2 3 6 0.0768494 0 3 0.0768494 1
gene 3 4 6 -8 0 4 -8 1
gene 1 5 6 3.78536 0 5 3.78536 1
gene 3 1 7 0.963469 0 6 0.963469 1
gene 1 2 7 -6.40107 0 7 -6.40107 1
gene 2 3 7 1.66585 0 8 1.66585 1
gene 2 4 7 6.19996 0 9 6.19996 1
gene 1 5 7 0.956679 0 10 0.956679 1
gene 2 6 7 0.514771 0 20 0.514771 1
genomeend 79

/* Organism #80 Fitness: 16 Error: 0 */
genomestart 80
trait 1 0.1 0 0 0 0.196509 0 0 0 
trait 2 0.31156 0.41551 0.28724 0 0.441847 0.139302 0 0 
trait 3 0.3 0 0 0 0 0 0 0 
node 1 1 1 3
node 2 3 1 1
node 3 3 1 1
node 4 1 1 1
node 5 2 1 1
node 6 3 0 2
node 7 2 0 2
gene 3 1 6 7.19291 0 1 7.19291 1
gene 3 2 6 -2.77481 0 2 -2.77481 1
gene 2 3 6 -0.35987 0 3 -0.35987 1
gene 2 4 6 0.255974 0 4 0.255974 1
gene 1 5 6 2.77497 0 5 2.77497 1
gene 3 1 7 0.243309 0 6 0.243309 1
gene 1 2 7 -6.54222 0 7 -6.54222 1
gene 2 3 7 1.71667 0 8 1.71667 1
gene 2 4 7 4.75918 0 9 4.75918 1
gene 1 5 7 2.12012 0 10 2.12012 1
gene 2 6 7 1.64304 0 20 1.64304 1
genomeend 80

/* Organism #81 Fitness: 3 Error: 0 */
genomestart 81
trait 1 0.1 0 0 0 0.196509 0 0 0 
trait 2 0.31156 0.41551 0.28724 0 0.441847 0.139302 0 0 
trait 3 0.3 0 0 0 0 0 0 0 
node 1 1 1 3
node 2 3 1 1
node 3 3 1 1
node 4 1 1 1
node 5 2 1 1
node 6 3 0 2
node 7 2 0 2
gene 3 1 6 7.55333 0 1 7.55333 1
gene 3 2 6 -4.00524 0 2 -4.00524 1
gene 2 3 6 -0.805898 0 3 -0.805898 1
gene 2 4 6 -8 0 4 -8 1
gene 1 5 6 3.06345 0 5 3.06345 1
gene 3 1 7 1.34999 0 6 1.34999 1
gene 1 2 7 -5.02682 0 7 -5.02682 1
gene 2 3 7 -0.183861 0 8 -0.183861 1
gene 2 4 7 5.99495 0 9 5.99495 1
gene 1 5 7 -2.33482 0 10 -2.33482 1
gene 2 6 7 1.02176 0 20 1.02176 1
genomeend 81

/* Organism #82 Fitness: 53 Error: 0 */
genomestart 82
trait 1 0.1 0 0 0 0.196509 0 0 0 
trait 2 0.31156 0.41551 0.28724 0 0.441847 0.139302 0 0 
trait 3 0.3 0 0 0 0 0 0 0 
node 1 1 1 3
node 2 3 1 1
node 3 3 1 1
node 4 1 1 1
node 5 2 1 1
node 6 3 0 2
node 7 2 0 2
gene 3 1 6 2.91383 0 1 2.91383 1
gene 3 2 6 -2.49168 0 2 -2.49168 1
gene 2 3 6 -1.34653 0 3 -1.34653 1
gene 2 4 6 -8 0 4 -8 1
gene 1 5 6 0.663396 0 5 0.663396 1
gene 3 1 7 -1.33618 0 6 -1.33618 1
gene 1 2 7 -5.57646 0 7 -5.57646 1
gene 2 3 7 -0.889525 0 8 -0.889525 1
gene 2 4 7 4.25272 0 9 4.25272 1
gene 1 5 7 1.67005 0 10 1.67005 1
gene 2 6 7 0.00595111 0 20 0.00595111 1
genomeend 82

/* Species #2 : (Size 31) (AF 22.4516) (Age 7)  */


/* Organism #83 Fitness: 32 Error: 0 */
genomestart 83
trait 1 0.116761 0 0 0 0 0.00241484 0 0.00392354 
trait 2 0.2 0 0 0 0 0 0 0 
trait 3 0.3 0 0 0.00296006 0 0 0.0195199 0 
node 1 2 1 3
node 2 2 1 1
node 3 1 1 1
node 4 3 1 1
node 5 2 1 1
node 6 1 0 2
node 7 1 0 2
node 9 1 0 0
gene 3 1 6 -3.44623 0 1 -3.44623 1
gene 1 2 6 4.38315 0 2 4.38315 1
gene 2 3 6 -4.26542 0 3 -4.26542 0
gene 2 4 6 -1.71411 0 4 -1.71411 1
gene 1 5 6 4.56931 0 5 4.56931 0
gene 3 1 7 -4.34064 0 6 -4.34064 1
gene 3 2 7 -3.01332 0 7 -3.01332 1
gene 2 3 7 0.160436 0 8 0.160436 1
gene 3 4 7 4.53189 0 9 4.53189 1
gene 1 5 7 4.61577 0 10 4.61577 1
gene 2 3 9 1.64808 0 15 1.64808 1
gene 2 9 6 -0.389492 0 16 -0.389492 1
genomeend 83

/* Organism #84 Fitness: 9 Error: 0 */
genomestart 84
trait 1 0.11219 0 0 0 0 0.00175624 0 0.00285348 
trait 2 0.2 0 0 0 0 0 0 0 
trait 3 0.3 0 0 0.00473609 0 0 0.0312319 0 
node 1 2 1 3
node 2 2 1 1
node 3 1 1 1
node 4 3 1 1
node 5 2 1 1
node 6 1 0 2
node 7 1 0 2
node 9 1 0 0
node 23 1 0 0
gene 3 1 6 -1.95326 0 1 -1.95326 1
gene 1 2 6 2.77047 0 2 2.77047 1
gene 3 3 6 0.4162 0 3 0.4162 0
gene 2 4 6 -0.224073 0 4 -0.224073 1
gene 1 5 6 -2.18182 0 5 -2.18182 0
gene 1 1 7 -1.12774 0 6 -1.12774 1
gene 3 2 7 -2.57317 0 7 -2.57317 1
gene 2 3 7 -1.7691 0 8 -1.7691 1
gene 3 4 7 2.31323 0 9 2.31323 1
gene 1 5 7 -0.423521 0 10 -0.423521 1
gene 2 3 9 -0.534951 0 15 -0.534951 1
gene 2 9 6 -1.42865 0 16 -1.42865 1
gene 1 5 23 -3.91577 0 57 -3.91577 1
gene 1 23 6 -1.73572 0 58 -1.73572 1
genomeend 84

/* Organism #85 Fitness: 12 Error: 0 */
genomestart 85
trait 1 0.115237 0 0 0 0 0.00219531 0 0.00356685 
trait 2 0.2 0 0 0 0 0 0 0 
trait 3 0.3 0 0 0.00355207 0 0 0.0234239 0 
node 1 2 1 3
node 2 2 1 1
node 3 1 1 1
node 4 3 1 1
node 5 2 1 1
node 6 1 0 2
node 7 1 0 2
node 9 1 0 0
gene 3 1 6 2.32139 0 1 2.32139 1
gene 1 2 6 3.14398 0 2 3.14398 1
gene 3 3 6 -3.00249 0 3 -3.00249 1
gene 2 4 6 0.510257 0 4 0.510257 1
gene 1 5 6 -0.92203 0 5 -0.92203 0
gene 1 1 7 -0.077517 0 6 -0.077517 1
gene 3 2 7 -4.60547 0 7 -4.60547 1
gene 2 3 7 -3.75654 0 8 -3.75654 1
gene 3 4 7 1.91704 0 9 1.91704 1
gene 1 5 7 -2.33261 0 10 -2.33261 1
gene 2 3 9 -0.0628491 0 15 -0.0628491 1
gene 2 9 6 -3.62735 0 16 -3.62735 1
genomeend 85

/* Organism #86 Fitness: 25 Error: 0 */
genomestart 86
trait 1 0.115237 0 0 0 0 0.00219531 0 0.00356685 
trait 2 0.2 0 0 0 0 0 0 0 
trait 3 0.3 0 0 0.00355207 0 0 0.0234239 0 
node 1 2 1 3
node 2 2 1 1
node 3 1 1 1
node 4 3 1 1
node 5 2 1 1
node 6 1 0 2
node 7 1 0 2
node 9 1 0 0
node 23 1 0 0
gene 3 1 6 0.374844 0 1 0.374844 1
gene 1 2 6 2.91162 0 2 2.91162 1
gene 2 3 6 -1.40103 0 3 -1.40103 0
gene 2 4 6 -2.36949 0 4 -2.36949 1
gene 1 5 6 -2.91244 0 5 -2.91244 0
gene 3 1 7 -0.134959 0 6 -0.134959 1
gene 3 2 7 -3.40178 0 7 -3.40178 1
gene 2 3 7 -4.50844 0 8 -4.50844 1
gene 3 4 7 3.46637 0 9 3.46637 1
gene 1 5 7 -0.389874 0 10 -0.389874 1
gene 2 3 9 3.0908 0 15 3.0908 1
gene 2 9 6 -0.223853 0 16 -0.223853 1
gene 1 5 23 -0.27047 0 57 -0.27047 1
gene 1 23 6 -1.63211 0 58 -1.63211 1
genomeend 86

/* Organism #87 Fitness: 81 Error: 0 */
genomestart 87
trait 1 0.115237 0 0 0 0 0.00219531 0 0 
trait 2 0.2 0 0 0 0 0 0 0 
trait 3 0.3 0 0 0.00355207 0 0 0.0234239 0 
node 1 2 1 3
node 2 2 1 1
node 3 1 1 1
node 4 3 1 1
node 5 2 1 1
node 6 1 0 2
node 7 1 0 2
node 9 1 0 0
node 23 1 0 0
gene 3 1 6 1.83424 0 1 1.83424 1
gene 1 2 6 1.06724 0 2 1.06724 1
gene 2 3 6 -3.67207 0 3 -3.67207 0
gene 2 4 6 -5.17994 0 4 -5.17994 1
gene 1 5 6 -3.99348 0 5 -3.99348 0
gene 3 1 7 0.360586 0 6 0.360586 1
gene 3 2 7 -1.01157 0 7 -1.01157 1
gene 2 3 7 -3.52383 0 8 -3.52383 1
gene 3 4 7 3.32362 0 9 3.32362 1
gene 1 5 7 0.738701 0 10 0.738701 1
gene 2 3 9 3.02549 0 15 3.02549 1
gene 2 9 6 -0.688726 0 16 -0.688726 1
gene 1 5 23 0.515671 0 57 0.515671 1
gene 1 23 6 -1.56283 0 58 -1.56283 1
genomeend 87

/* Organism #88 Fitness: 5 Error: 0 */
genomestart 88
trait 1 0.115237 0 0 0 0 0.00219531 0 0.00356685 
trait 2 0.2 0 0 0 0 0 0 0 
trait 3 0.3 0 0 0.00355207 0 0 0.0234239 0 
node 1 2 1 3
node 2 2 1 1
node 3 1 1 1
node 4 3 1 1
node 5 2 1 1
node 6 1 0 2
node 7 1 0 2
node 9 1 0 0
node 23 1 0 0
gene 3 1 6 2.52419 0 1 2.52419 1
gene 1 2 6 2.81747 0 2 2.81747 1
gene 2 3 6 -1.59772 0 3 -1.59772 0
gene 2 4 6 -3.85269 0 4 -3.85269 1
gene 1 5 6 -3.79145 0 5 -3.79145 0
gene 3 1 7 -2.0368 0 6 -2.0368 1
gene 3 2 7 -1.76873 0 7 -1.76873 1
gene 2 3 7 -3.30136 0 8 -3.30136 1
gene 3 4 7 3.55236 0 9 3.55236 1
gene 1 5 7 0.628758 0 10 0.628758 1
gene 2 3 9 2.67163 0 15 2.67163 1
gene 2 9 6 2.13118 0 16 2.13118 1
gene 1 5 23 1.38156 0 57 1.38156 1
gene 1 23 6 -1.63211 0 58 -1.63211 1
genomeend 88

/* Organism #89 Fitness: 6 Error: 0 */
genomestart 89
trait 1 0.113713 0 0 0 0 0.00197578 0 0.00321017 
trait 2 0.2 0 0 0 0 0 0 0 
trait 3 0.3 0 0 0.00414408 0 0 0.0273279 0 
node 1 2 1 3
node 2 2 1 1
node 3 1 1 1
node 4 3 1 1
node 5 2 1 1
node 6 1 0 2
node 7 1 0 2
node 9 1 0 0
node 23 1 0 0
gene 3 1 6 -0.891179 0 1 -0.891179 1
gene 1 2 6 2.35252 0 2 2.35252 1
gene 2 3 6 -1.83035 0 3 -1.83035 0
gene 2 4 6 -1.74857 0 4 -1.74857 1
gene 1 5 6 -2.54866 0 5 -2.54866 0
gene 1 1 7 -0.520298 0 6 -0.520298 1
gene 3 2 7 -1.65504 0 7 -1.65504 1
gene 2 3 7 -2.21978 0 8 -2.21978 1
gene 3 4 7 1.52235 0 9 1.52235 1
gene 1 5 7 0.302896 0 10 0.302896 1
gene 2 3 9 -0.157094 0 15 -0.157094 1
gene 2 9 6 -0.578631 0 16 -0.578631 1
gene 1 5 23 -0.586161 0 57 -0.586161 1
gene 1 23 6 -1.63211 0 58 -1.63211 1
genomeend 89

/* Organism #90 Fitness: 42 Error: 0 */
genomestart 90
trait 1 0.118285 0 0 0 0 0.00263437 0 0.00428022 
trait 2 0.2 0 0 0 0 0 0 0 
trait 3 0.3 0 0 0.00236805 0 0 0.0156159 0 
node 1 2 1 3
node 2 2 1 1
node 3 1 1 1
node 4 3 1 1
node 5 2 1 1
node 6 1 0 2
node 7 1 0 2
node 9 1 0 0
node 28 1 0 0
gene 3 1 6 -0.102393 0 1 -0.102393 1
gene 1 2 6 -1.30932 0 2 -1.30932 1
gene 2 3 6 -2.94038 0 3 -2.94038 0
gene 2 4 6 -4.4726 0 4 -4.4726 1
gene 1 5 6 0.636845 0 5 0.636845 1
gene 3 1 7 -0.621653 0 6 -0.621653 1
gene 3 2 7 -3.4257 0 7 -3.4257 1
gene 2 3 7 -4.32449 0 8 -4.32449 1
gene 3 4 7 0.764607 0 9 0.764607 1
gene 1 5 7 0.940809 0 10 0.940809 1
gene 2 3 9 2.6257 0 15 2.6257 0
gene 2 9 6 -1.55072 0 16 -1.55072 1
gene 2 3 28 1 0 74 0 1
gene 2 28 9 2.6257 0 75 0 1
genomeend 90

/* Organism #91 Fitness: 2 Error: 0 */
genomestart 91
trait 1 0.118285 0 0 0 0 0.00263437 0 0.00428022 
trait 2 0.2 0 0 0 0 0 0 0 
trait 3 0.3 0 0 0.00236805 0 0 0.0156159 0 
node 1 2 1 3
node 2 2 1 1
node 3 1 1 1
node 4 3 1 1
node 5 2 1 1
node 6 1 0 2
node 7 1 0 2
node 9 1 0 0
node 28 1 0 0
gene 3 1 6 0.434351 0 1 0.434351 1
gene 1 2 6 0.371754 0 2 0.371754 1
gene 2 3 6 -0.166975 0 3 -0.166975 0
gene 2 4 6 -2.57023 0 4 -2.57023 1
gene 1 5 6 -1.39489 0 5 -1.39489 1
gene 3 1 7 -0.00678083 0 6 -0.00678083 1
gene 3 2 7 -1.7983 0 7 -1.7983 1
gene 2 3 7 -3.11664 0 8 -3.11664 1
gene 3 4 7 -2.84274 0 9 -2.84274 1
gene 1 5 7 2.79401 0 10 2.79401 1
gene 2 3 9 4.01456 0 15 4.01456 0
gene 2 9 6 -1.73231 0 16 -1.73231 1
gene 2 3 28 2.69279 0 74 2.69279 1
gene 2 28 9 0.15492 0 75 0.15492 1
genomeend 91

/* Organism #92 Fitness: 22 Error: 0 */
genomestart 92
trait 1 0.118285 0 0 0 0 0.00263437 0 0.00428022 
trait 2 0.2 0 0 0 0 0 0 0 
trait 3 0.3 0 0 0.00236805 0 0 0.0156159 0 
node 1 2 1 3
node 2 2 1 1
node 3 1 1 1
node 4 3 1 1
node 5 1 1 1
node 6 1 0 2
node 7 1 0 2
node 9 1 0 0
node 28 1 0 0
gene 3 1 6 2.01445 0 1 2.01445 1
gene 1 2 6 -1.30932 0 2 -1.30932 1
gene 2 3 6 -2.06145 0 3 -2.06145 0
gene 2 4 6 -2.31242 0 4 -2.31242 1
gene 1 5 6 -0.320063 0 5 -0.320063 1
gene 3 1 7 0.599765 0 6 0.599765 1
gene 3 2 7 1.48709 0 7 1.48709 1
gene 2 3 7 -4.48967 0 8 -4.48967 1
gene 3 4 7 3.05624 0 9 3.05624 1
gene 1 5 7 3.13738 0 10 3.13738 1
gene 2 3 9 4.4253 0 15 4.4253 0
gene 2 9 6 -1.46886 0 16 -1.46886 1
gene 2 3 28 -0.951964 0 74 -0.951964 1
gene 2 28 9 3.34593 0 75 3.34593 1
genomeend 92

/* Organism #93 Fitness: 15 Error: 0 */
genomestart 93
trait 1 0.118285 0 0 0 0 0.00263437 0 0.00428022 
trait 2 0.2 0 0 0 0 0 0 0 
trait 3 0.3 0 0 0.00236805 0 0 0.0156159 0 
node 1 2 1 3
node 2 2 1 1
node 3 1 1 1
node 4 3 1 1
node 5 2 1 1
node 6 1 0 2
node 7 1 0 2
node 9 1 0 0
node 28 1 0 0
gene 3 1 6 -0.829039 0 1 -0.829039 1
gene 1 2 6 -2.28813 0 2 -2.28813 1
gene 2 3 6 -0.643483 0 3 -0.643483 0
gene 2 4 6 -2.02219 0 4 -2.02219 1
gene 1 5 6 -1.69561 0 5 -1.69561 1
gene 3 1 7 2.68243 0 6 2.68243 1
gene 3 2 7 2.66694 0 7 2.66694 1
gene 2 3 7 -2.31286 0 8 -2.31286 1
gene 3 4 7 0.297903 0 9 0.297903 1
gene 1 5 7 4.22056 0 10 4.22056 1
gene 2 3 9 -0.325518 0 15 -0.325518 0
gene 2 9 6 -1.64602 0 16 -1.64602 1
gene 2 3 28 1 0 74 1 1
gene 2 28 9 3.06013 0 75 3.06013 1
genomeend 93

/* Organism #94 Fitness: 22 Error: 0 */
genomestart 94
trait 1 0.118285 0 0 0 0 0.00263437 0 0.00428022 
trait 2 0.2 0 0 0 0 0 0 0 
trait 3 0.3 0 0 0.00236805 0 0 0.0156159 0 
node 1 2 1 3
node 2 2 1 1
node 3 1 1 1
node 4 3 1 1
node 5 2 1 1
node 6 1 0 2
node 7 1 0 2
node 9 1 0 0
node 28 1 0 0
gene 3 1 6 -1.21502 0 1 -1.21502 1
gene 1 2 6 -2.96354 0 2 -2.96354 1
gene 2 3 6 -3.3525 0 3 -3.3525 1
gene 2 4 6 0.86787 0 4 0.86787 1
gene 1 5 6 1.12907 0 5 1.12907 1
gene 3 1 7 1.10982 0 6 1.10982 1
gene 3 2 7 -1.19808 0 7 -1.19808 1
gene 2 3 7 -4.66622 0 8 -4.66622 1
gene 3 4 7 1.55316 0 9 1.55316 1
gene 1 5 7 -0.421499 0 10 -0.421499 1
gene 2 3 9 4.06827 0 15 4.06827 0
gene 2 9 6 -3.87501 0 16 -3.87501 1
gene 2 3 28 2.61214 0 74 2.61214 1
gene 2 28 9 2.61311 0 75 2.61311 1
genomeend 94

/* Organism #95 Fitness: 11 Error: 0 */
genomestart 95
trait 1 0.118285 0 0 0 0 0.00263437 0 0.00428022 
trait 2 0.2 0 0 0 0 0 0 0 
trait 3 0.3 0 0 0.00236805 0 0 0.0156159 0 
node 1 2 1 3
node 2 2 1 1
node 3 1 1 1
node 4 3 1 1
node 5 2 1 1
node 6 1 0 2
node 7 1 0 2
node 9 1 0 0
node 28 1 0 0
gene 3 1 6 1.60672 0 1 1.60672 1
gene 1 2 6 -0.958434 0 2 -0.958434 1
gene 2 3 6 -4.41077 0 3 -4.41077 1
gene 2 4 6 -6.88936 0 4 -6.88936 1
gene 1 5 6 -1.01833 0 5 -1.01833 1
gene 3 1 7 -0.621653 0 6 -0.621653 1
gene 3 2 7 -1.28918 0 7 -1.28918 1
gene 2 3 7 -4.04997 0 8 -4.04997 1
gene 3 4 7 -0.616203 0 9 -0.616203 1
gene 1 5 7 -0.0483718 0 10 -0.0483718 1
gene 2 3 9 2.97636 0 15 2.97636 0
gene 2 9 6 -0.923948 0 16 -0.923948 1
gene 2 3 28 2.46062 0 74 2.46062 1
gene 2 28 9 4.01543 0 75 4.01543 1
genomeend 95

/* Organism #96 Fitness: 8 Error: 0 */
genomestart 96
trait 1 0.118285 0 0 0 0 0.00263437 0 0.00428022 
trait 2 0.2 0 0 0 0 0 0 0 
trait 3 0.3 0 0 0.00236805 0 0 0.0156159 0 
node 1 2 1 3
node 2 2 1 1
node 3 1 1 1
node 4 3 1 1
node 5 2 1 1
node 6 1 0 2
node 7 1 0 2
node 9 1 0 0
node 28 1 0 0
gene 3 1 6 -0.102393 0 1 -0.102393 1
gene 1 2 6 -2.1569 0 2 -2.1569 1
gene 2 3 6 -1.00955 0 3 -1.00955 0
gene 2 4 6 -4.4726 0 4 -4.4726 1
gene 1 5 6 0.439161 0 5 0.439161 1
gene 3 1 7 0.895728 0 6 0.895728 1
gene 3 2 7 1.68691 0 7 1.68691 1
gene 2 3 7 -4.32449 0 8 -4.32449 1
gene 3 4 7 -1.73482 0 9 -1.73482 1
gene 1 5 7 0.940809 0 10 0.940809 1
gene 2 3 9 2.6257 0 15 2.6257 0
gene 2 9 6 -1.55072 0 16 -1.55072 1
gene 2 3 28 1 0 74 0 1
gene 2 28 9 2.6257 0 75 0 1
genomeend 96

/* Organism #97 Fitness: 9 Error: 0 */
genomestart 97
trait 1 0.118285 0 0 0 0 0.00263437 0 0.00428022 
trait 2 0.2 0 0 0 0 0 0 0 
trait 3 0.3 0 0 0.00236805 0 0 0.0156159 0 
node 1 2 1 3
node 2 2 1 1
node 3 1 1 1
node 4 3 1 1
node 5 2 1 1
node 6 1 0 2
node 7 1 0 2
node 9 1 0 0
node 28 1 0 0
gene 3 1 6 -2.23671 0 1 -2.23671 1
gene 1 2 6 -1.30932 0 2 -1.30932 1
gene 2 3 6 -1.00955 0 3 -1.00955 0
gene 2 4 6 -4.4726 0 4 -4.4726 1
gene 1 5 6 0.636845 0 5 0.636845 1
gene 3 1 7 0.895728 0 6 0.895728 1
gene 3 2 7 1.68691 0 7 1.68691 1
gene 2 3 7 -4.32449 0 8 -4.32449 1
gene 3 4 7 -1.73482 0 9 -1.73482 1
gene 1 5 7 2.14225 0 10 2.14225 1
gene 2 3 9 2.6257 0 15 2.6257 0
gene 2 9 6 -2.08251 0 16 -2.08251 1
gene 2 3 28 1 0 74 0 1
gene 2 28 9 2.6257 0 75 0 1
genomeend 97

/* Organism #98 Fitness: 8 Error: 0 */
genomestart 98
trait 1 0.118285 0 0 0 0 0.00263437 0 0.00428022 
trait 2 0.2 0 0 0 0 0 0 0 
trait 3 0.3 0 0 0.00236805 0 0 0.0156159 0 
node 1 2 1 3
node 2 2 1 1
node 3 1 1 1
node 4 3 1 1
node 5 2 1 1
node 6 1 0 2
node 7 1 0 2
node 9 1 0 0
gene 3 1 6 -2.23671 0 1 -2.23671 1
gene 1 2 6 -2.1569 0 2 -2.1569 1
gene 2 3 6 -1.00955 0 3 -1.00955 0
gene 2 4 6 -4.45032 0 4 -4.45032 1
gene 1 5 6 0.439161 0 5 0.439161 1
gene 3 1 7 0.895728 0 6 0.895728 1
gene 3 2 7 1.68691 0 7 1.68691 1
gene 2 3 7 -4.12001 0 8 -4.12001 1
gene 3 4 7 -1.73482 0 9 -1.73482 1
gene 1 5 7 2.14225 0 10 2.14225 1
gene 2 3 9 1.60188 0 15 1.60188 1
gene 2 9 6 -2.08251 0 16 -2.08251 1
genomeend 98

/* Organism #99 Fitness: 129 Error: 0 */
genomestart 99
trait 1 0.118285 0 0 0 0 0.00263437 0 0.00428022 
trait 2 0.2 0 0 0 0 0 0 0 
trait 3 0.3 0 0 0.00236805 0 0 0.0156159 0 
node 1 2 1 3
node 2 2 1 1
node 3 1 1 1
node 4 3 1 1
node 5 2 1 1
node 6 1 0 2
node 7 1 0 2
node 9 1 0 0
node 28 1 0 0
gene 3 1 6 -0.102393 0 1 -0.102393 1
gene 1 2 6 -2.1569 0 2 -2.1569 1
gene 2 3 6 -2.94038 0 3 -2.94038 0
gene 2 4 6 -4.4726 0 4 -4.4726 1
gene 1 5 6 0.439161 0 5 0.439161 1
gene 3 1 7 -0.621653 0 6 -0.621653 1
gene 3 2 7 1.68691 0 7 1.68691 1
gene 2 3 7 -4.32449 0 8 -4.32449 1
gene 3 4 7 0.764607 0 9 0.764607 1
gene 1 5 7 0.940809 0 10 0.940809 1
gene 2 3 9 1.60188 0 15 1.60188 0
gene 2 9 6 -1.55072 0 16 -1.55072 1
gene 2 3 28 1 0 74 0 1
gene 2 28 9 2.6257 0 75 0 1
genomeend 99

/* Organism #100 Fitness: 3 Error: 0 */
genomestart 100
trait 1 0.118285 0 0 0 0 0.00263437 0 0.00428022 
trait 2 0.2 0 0 0 0 0 0 0 
trait 3 0.3 0 0 0.00236805 0 0 0.0156159 0 
node 1 2 1 3
node 2 2 1 1
node 3 1 1 1
node 4 3 1 1
node 5 2 1 1
node 6 1 0 2
node 7 1 0 2
node 9 1 0 0
node 28 1 0 0
gene 3 1 6 -0.102393 0 1 -0.102393 1
gene 1 2 6 -1.30932 0 2 -1.30932 1
gene 2 3 6 -2.94038 0 3 -2.94038 0
gene 2 4 6 -4.4726 0 4 -4.4726 1
gene 1 5 6 0.636845 0 5 0.636845 1
gene 3 1 7 -0.621653 0 6 -0.621653 1
gene 3 2 7 -3.4257 0 7 -3.4257 1
gene 2 3 7 -4.32449 0 8 -4.32449 1
gene 3 4 7 0.764607 0 9 0.764607 1
gene 1 5 7 0.940809 0 10 0.940809 1
gene 2 3 9 2.6257 0 15 2.6257 0
gene 2 9 6 -1.55072 0 16 -1.55072 1
gene 2 3 28 1 0 74 0 1
gene 2 28 9 2.6257 0 75 0 1
genomeend 100

/* Organism #101 Fitness: 13 Error: 0 */
genomestart 101
trait 1 0.118285 0 0 0 0 0.00263437 0 0.00428022 
trait 2 0.2 0 0 0 0 0 0 0 
trait 3 0.3 0 0 0.00236805 0 0 0.0156159 0 
node 1 2 1 3
node 2 2 1 1
node 3 1 1 1
node 4 3 1 1
node 5 2 1 1
node 6 1 0 2
node 7 1 0 2
node 9 1 0 0
gene 3 1 6 -2.66503 0 1 -2.66503 1
gene 1 2 6 -0.684912 0 2 -0.684912 1
gene 2 3 6 1.31581 0 3 1.31581 1
gene 2 4 6 -1.97382 0 4 -1.97382 1
gene 1 5 6 1.32839 0 5 1.32839 1
gene 3 1 7 2.23519 0 6 2.23519 1
gene 3 2 7 0.806223 0 7 0.806223 1
gene 2 3 7 -2.28951 0 8 -2.28951 1
gene 3 4 7 -0.316477 0 9 -0.316477 1
gene 1 5 7 4.12671 0 10 4.12671 1
gene 2 3 9 0.462889 0 15 0.462889 1
gene 2 9 6 -1.32565 0 16 -1.32565 1
genomeend 101

/* Organism #102 Fitness: 8 Error: 0 */
genomestart 102
trait 1 0.118285 0 0 0 0 0.00263437 0 0.00428022 
trait 2 0.2 0 0 0 0 0 0 0 
trait 3 0.3 0 0 0.00236805 0 0 0.0156159 0 
node 1 2 1 3
node 2 2 1 1
node 3 1 1 1
node 4 3 1 1
node 5 2 1 1
node 6 1 0 2
node 7 1 0 2
node 9 1 0 0
gene 3 1 6 -4.15495 0 1 -4.15495 1
gene 1 2 6 -3.87753 0 2 -3.87753 1
gene 2 3 6 0.781426 0 3 0.781426 0
gene 2 4 6 -2.71862 0 4 -2.71862 1
gene 1 5 6 1.96783 0 5 1.96783 1
gene 3 1 7 1.02795 0 6 1.02795 1
gene 3 2 7 3.42479 0 7 3.42479 1
gene 2 3 7 -4.90243 0 8 -4.90243 1
gene 3 4 7 -1.31199 0 9 -1.31199 1
gene 1 5 7 2.6532 0 10 2.6532 1
gene 2 3 9 2.94073 0 15 2.94073 1
gene 2 9 6 -3.23878 0 16 -3.23878 1
genomeend 102

/* Organism #103 Fitness: 31 Error: 0 */
genomestart 103
trait 1 0.118285 0 0 0 0 0.00263437 0 0.00428022 
trait 2 0.2 0 0 0 0 0 0 0 
trait 3 0.3 0 0 0.00236805 0 0 0.0156159 0 
node 1 2 1 3
node 2 2 1 1
node 3 1 1 1
node 4 3 1 1
node 5 2 1 1
node 6 1 0 2
node 7 1 0 2
node 9 1 0 0
node 28 1 0 0
gene 3 1 6 -0.34349 0 1 -0.34349 1
gene 1 2 6 -3.13364 0 2 -3.13364 1
gene 2 3 6 -2.03009 0 3 -2.03009 0
gene 2 4 6 -6.22703 0 4 -6.22703 1
gene 1 5 6 -1.433 0 5 -1.433 1
gene 3 1 7 -1.95211 0 6 -1.95211 1
gene 3 2 7 -5.43351 0 7 -5.43351 1
gene 2 3 7 -5.33213 0 8 -5.33213 1
gene 3 4 7 3.08813 0 9 3.08813 1
gene 1 5 7 0.270547 0 10 0.270547 1
gene 2 3 9 4.74208 0 15 4.74208 0
gene 2 9 6 -0.0734733 0 16 -0.0734733 1
gene 2 3 28 -0.72338 0 74 -0.72338 1
gene 2 28 9 0.152097 0 75 0.152097 1
genomeend 103

/* Organism #104 Fitness: 8 Error: 0 */
genomestart 104
trait 1 0.118285 0 0 0 0 0.00263437 0 0.00428022 
trait 2 0.2 0 0 0 0 0 0 0 
trait 3 0.3 0 0 0.00236805 0 0 0.0156159 0 
node 1 2 1 3
node 2 2 1 1
node 3 1 1 1
node 4 3 1 1
node 5 2 1 1
node 6 1 0 2
node 7 1 0 2
node 9 1 0 0
node 28 1 0 0
gene 3 1 6 -0.431001 0 1 -0.431001 1
gene 1 2 6 0.709899 0 2 0.709899 1
gene 2 3 6 -1.44456 0 3 -1.44456 0
gene 2 4 6 -5.97655 0 4 -5.97655 1
gene 1 5 6 0.939932 0 5 0.939932 1
gene 3 1 7 0.137038 0 6 0.137038 1
gene 3 2 7 -1.26499 0 7 -1.26499 1
gene 2 3 7 -2.42074 0 8 -2.42074 1
gene 3 4 7 -1.51227 0 9 -1.51227 1
gene 1 5 7 -2.45659 0 10 -2.45659 1
gene 2 3 9 2.99623 0 15 2.99623 0
gene 2 9 6 0.420621 0 16 0.420621 1
gene 2 3 28 1.5932 0 74 1.5932 1
gene 2 28 9 2.71733 0 75 2.71733 1
genomeend 104

/* Organism #105 Fitness: 72 Error: 0 */
genomestart 105
trait 1 0.118285 0 0 0 0 0.00263437 0 0.00428022 
trait 2 0.2 0 0 0 0 0 0 0 
trait 3 0.3 0 0 0.00236805 0 0 0.0156159 0 
node 1 2 1 3
node 2 2 1 1
node 3 1 1 1
node 4 3 1 1
node 5 2 1 1
node 6 1 0 2
node 7 1 0 2
node 9 1 0 0
node 28 1 0 0
gene 3 1 6 -0.102393 0 1 -0.102393 1
gene 1 2 6 -1.30932 0 2 -1.30932 1
gene 2 3 6 -2.94038 0 3 -2.94038 0
gene 2 4 6 -4.4726 0 4 -4.4726 1
gene 1 5 6 0.636845 0 5 0.636845 1
gene 3 1 7 -0.621653 0 6 -0.621653 1
gene 3 2 7 -3.4257 0 7 -3.4257 1
gene 2 3 7 -4.32449 0 8 -4.32449 1
gene 3 4 7 0.764607 0 9 0.764607 1
gene 1 5 7 0.940809 0 10 0.940809 1
gene 2 3 9 2.6257 0 15 2.6257 0
gene 2 9 6 -1.55072 0 16 -1.55072 1
gene 2 3 28 1 0 74 0 1
gene 2 28 9 2.6257 0 75 0 1
genomeend 105

/* Organism #106 Fitness: 33 Error: 0 */
genomestart 106
trait 1 0.118285 0 0 0 0 0.00263437 0 0.00428022 
trait 2 0.2 0 0 0 0 0 0 0 
trait 3 0.3 0 0 0.00236805 0 0 0.0156159 0 
node 1 2 1 3
node 2 2 1 1
node 3 1 1 1
node 4 3 1 1
node 5 2 1 1
node 6 1 0 2
node 7 1 0 2
node 9 1 0 0
node 28 1 0 0
gene 3 1 6 -0.102393 0 1 -0.102393 1
gene 1 2 6 -1.30932 0 2 -1.30932 1
gene 2 3 6 -1.00955 0 3 -1.00955 0
gene 2 4 6 -4.4726 0 4 -4.4726 1
gene 1 5 6 0.636845 0 5 0.636845 1
gene 3 1 7 0.895728 0 6 0.895728 1
gene 3 2 7 -3.4257 0 7 -3.4257 1
gene 2 3 7 -4.12001 0 8 -4.12001 1
gene 3 4 7 -1.73482 0 9 -1.73482 1
gene 1 5 7 0.940809 0 10 0.940809 1
gene 2 3 9 2.6257 0 15 2.6257 0
gene 2 9 6 -1.55072 0 16 -1.55072 1
gene 2 3 28 1 0 74 0 1
gene 2 28 9 2.6257 0 75 0 1
genomeend 106

/* Organism #107 Fitness: 15 Error: 0 */
genomestart 107
trait 1 0.118285 0 0 0 0 0.00263437 0 0.00428022 
trait 2 0.2 0 0 0 0 0 0 0 
trait 3 0.3 0 0 0.00236805 0 0 0.0156159 0 
node 1 2 1 3
node 2 2 1 1
node 3 1 1 1
node 4 3 1 1
node 5 2 1 1
node 6 1 0 2
node 7 1 0 2
node 9 1 0 0
gene 3 1 6 -0.279702 0 1 -0.279702 1
gene 1 2 6 -2.66556 0 2 -2.66556 1
gene 2 3 6 -1.00955 0 3 -1.00955 0
gene 2 4 6 -6.80086 0 4 -6.80086 1
gene 1 5 6 -1.28384 0 5 -1.28384 1
gene 3 1 7 3.04553 0 6 3.04553 1
gene 3 2 7 1.68691 0 7 1.68691 1
gene 2 3 7 0.0769829 0 8 0.0769829 1
gene 3 4 7 -2.57889 0 9 -2.57889 1
gene 1 5 7 1.24302 0 10 1.24302 1
gene 2 3 9 2.0299 0 15 2.0299 1
gene 2 9 6 -3.48025 0 16 -3.48025 1
genomeend 107

/* Organism #108 Fitness: 1 Error: 0 */
genomestart 108
trait 1 0.118285 0 0 0 0 0.00263437 0 0.00428022 
trait 2 0.2 0 0 0 0 0 0 0 
trait 3 0.3 0 0 0.00236805 0 0 0.0156159 0 
node 1 2 1 3
node 2 2 1 1
node 3 1 1 1
node 4 3 1 1
node 5 2 1 1
node 6 1 0 2
node 7 1 0 2
node 9 1 0 0
node 28 1 0 0
gene 3 1 6 -0.102393 0 1 -0.102393 1
gene 1 2 6 -1.30932 0 2 -1.30932 1
gene 2 3 6 -2.94038 0 3 -2.94038 0
gene 2 4 6 -4.45032 0 4 -4.45032 1
gene 1 5 6 0.439161 0 5 0.439161 1
gene 3 1 7 0.895728 0 6 0.895728 1
gene 3 2 7 1.68691 0 7 1.68691 1
gene 2 3 7 -4.32449 0 8 -4.32449 1
gene 3 4 7 -1.73482 0 9 -1.73482 1
gene 1 5 7 0.940809 0 10 0.940809 1
gene 2 3 9 2.6257 0 15 2.6257 0
gene 2 9 6 -2.08251 0 16 -2.08251 1
gene 2 3 28 1 0 74 0 1
gene 2 28 9 2.6257 0 75 0 1
genomeend 108

/* Organism #109 Fitness: 34 Error: 0 */
genomestart 109
trait 1 0.118285 0 0 0 0 0.00263437 0 0.00428022 
trait 2 0.2 0 0 0 0 0 0 0 
trait 3 0.3 0 0 0.00236805 0 0 0.0156159 0 
node 1 2 1 3
node 2 2 1 1
node 3 1 1 1
node 4 3 1 1
node 5 2 1 1
node 6 1 0 2
node 7 1 0 2
node 9 1 0 0
node 28 1 0 0
gene 3 1 6 -1.56019 0 1 -1.56019 1
gene 1 2 6 -3.1254 0 2 -3.1254 1
gene 2 3 6 -2.87904 0 3 -2.87904 0
gene 2 4 6 -3.61381 0 4 -3.61381 1
gene 1 5 6 -0.927305 0 5 -0.927305 1
gene 3 1 7 0.774569 0 6 0.774569 1
gene 3 2 7 -3.15142 0 7 -3.15142 1
gene 2 3 7 -4.95576 0 8 -4.95576 1
gene 3 4 7 0.835028 0 9 0.835028 1
gene 1 5 7 0.255058 0 10 0.255058 1
gene 2 3 9 -0.480628 0 15 -0.480628 0
gene 2 9 6 -0.365383 0 16 -0.365383 1
gene 2 3 28 1 0 74 1 1
gene 2 28 9 -0.915708 0 75 -0.915708 1
genomeend 109

/* Organism #110 Fitness: 8 Error: 0 */
genomestart 110
trait 1 0.118285 0 0 0 0 0.00263437 0 0.00428022 
trait 2 0.2 0 0 0 0 0 0 0 
trait 3 0.3 0 0 0.00236805 0 0 0.0156159 0 
node 1 2 1 3
node 2 2 1 1
node 3 1 1 1
node 4 3 1 1
node 5 2 1 1
node 6 1 0 2
node 7 1 0 2
node 9 1 0 0
gene 3 1 6 -0.94005 0 1 -0.94005 1
gene 1 2 6 -4.50789 0 2 -4.50789 1
gene 2 3 6 1.20518 0 3 1.20518 1
gene 2 4 6 -4.95594 0 4 -4.95594 1
gene 1 5 6 -0.304498 0 5 -0.304498 1
gene 3 1 7 0.784412 0 6 0.784412 1
gene 3 2 7 3.81275 0 7 3.81275 1
gene 2 3 7 -1.70569 0 8 -1.70569 1
gene 3 4 7 0.437407 0 9 0.437407 1
gene 1 5 7 0.867794 0 10 0.867794 1
gene 2 3 9 -0.638409 0 15 -0.638409 1
gene 2 9 6 -4.02509 0 16 -4.02509 1
genomeend 110

/* Organism #111 Fitness: 16 Error: 0 */
genomestart 111
trait 1 0.118285 0 0 0 0 0.00263437 0 0.00428022 
trait 2 0.2 0 0 0 0 0 0 0 
trait 3 0.3 0 0 0.00236805 0 0 0.0156159 0 
node 1 2 1 3
node 2 2 1 1
node 3 1 1 1
node 4 3 1 1
node 5 2 1 1
node 6 1 0 2
node 7 1 0 2
node 9 1 0 0
node 28 1 0 0
gene 3 1 6 -0.102393 0 1 -0.102393 1
gene 1 2 6 -3.18957 0 2 -3.18957 1
gene 2 3 6 -1.26042 0 3 -1.26042 0
gene 2 4 6 -2.88655 0 4 -2.88655 1
gene 1 5 6 0.156865 0 5 0.156865 1
gene 3 1 7 -1.03236 0 6 -1.03236 1
gene 3 2 7 0.102008 0 7 0.102008 1
gene 2 3 7 -2.1241 0 8 -2.1241 1
gene 3 4 7 -1.62141 0 9 -1.62141 1
gene 1 5 7 0.59946 0 10 0.59946 1
gene 2 3 9 2.91005 0 15 2.91005 0
gene 2 9 6 -3.72105 0 16 -3.72105 1
gene 2 3 28 2.86644 0 74 2.86644 1
gene 2 28 9 4.16314 0 75 4.16314 1
genomeend 111

/* Organism #112 Fitness: 9 Error: 0 */
genomestart 112
trait 1 0.118285 0 0 0 0 0.00263437 0 0.00428022 
trait 2 0.2 0 0 0 0 0 0 0 
trait 3 0.3 0 0 0.00236805 0 0 0.0156159 0 
node 1 2 1 3
node 2 2 1 1
node 3 1 1 1
node 4 3 1 1
node 5 2 1 1
node 6 1 0 2
node 7 1 0 2
node 9 1 0 0
node 28 1 0 0
gene 3 1 6 -2.772 0 1 -2.772 1
gene 1 2 6 -3.00134 0 2 -3.00134 1
gene 2 3 6 -4.2111 0 3 -4.2111 0
gene 2 4 6 -2.3775 0 4 -2.3775 1
gene 1 5 6 2.09044 0 5 2.09044 1
gene 3 1 7 -2.74719 0 6 -2.74719 1
gene 3 2 7 -5.13771 0 7 -5.13771 1
gene 2 3 7 -6.55097 0 8 -6.55097 1
gene 3 4 7 -2.38136 0 9 -2.38136 1
gene 1 5 7 -1.44055 0 10 -1.44055 1
gene 2 3 9 0.745529 0 15 0.745529 0
gene 2 9 6 -2.2528 0 16 -2.2528 1
gene 2 3 28 1.12329 0 74 1.12329 1
gene 2 28 9 0.588626 0 75 0.588626 1
genomeend 112

/* Organism #113 Fitness: 7 Error: 0 */
genomestart 113
trait 1 0.118285 0 0 0 0 0.00263437 0 0.00428022 
trait 2 0.2 0 0 0 0 0 0 0 
trait 3 0.3 0 0 0.00236805 0 0 0.0156159 0 
node 1 2 1 3
node 2 2 1 1
node 3 1 1 1
node 4 3 1 1
node 5 2 1 1
node 6 1 0 2
node 7 3 0 2
node 9 1 0 0
gene 3 1 6 -2.23671 0 1 -2.23671 1
gene 1 2 6 -1.19114 0 2 -1.19114 1
gene 2 3 6 -2.33665 0 3 -2.33665 0
gene 3 4 6 -4.45032 0 4 -4.45032 1
gene 1 5 6 2.15316 0 5 2.15316 1
gene 3 1 7 1.41041 0 6 1.41041 1
gene 3 2 7 -1.3303 0 7 -1.3303 1
gene 2 3 7 -4.66797 0 8 -4.66797 1
gene 3 4 7 -1.10019 0 9 -1.10019 1
gene 1 5 7 -0.228736 0 10 -0.228736 1
gene 2 3 9 0.0449004 0 15 0.0449004 1
gene 2 9 6 0.164418 0 16 0.164418 1
genomeend 113

/* Species #3 : (Size 7) (AF 8.57143) (Age 7)  */


/* Organism #114 Fitness: 7 Error: 0 */
genomestart 114
trait 1 0.490072 0 0 0 0 0.0561998 0 0.0913114 
trait 2 0.2 0 0 0 0 0 0 0 
trait 3 0.568746 0 0.172994 0 0 0.254204 0 0 
node 1 1 1 3
node 2 1 1 1
node 3 2 1 1
node 4 1 1 1
node 5 3 1 1
node 6 1 0 2
node 7 1 0 2
node 13 1 0 0
node 20 1 0 0
gene 2 1 6 -2.06242 0 1 -2.06242 1
gene 3 2 6 1.30587 0 2 1.30587 1
gene 1 3 6 0.550813 0 3 0.550813 1
gene 3 4 6 1.4796 0 4 1.4796 1
gene 3 5 6 4.51035 0 5 4.51035 1
gene 2 1 7 4.02677 0 6 4.02677 1
gene 1 2 7 8 0 7 8 1
gene 1 3 7 -3.01462 0 8 -3.01462 0
gene 2 4 7 6.19161 0 9 6.19161 1
gene 3 5 7 1.82058 0 10 1.82058 1
gene 1 3 13 -1.90397 0 27 -1.90397 1
gene 1 13 7 0.0817133 0 28 0.0817133 1
gene 1 13 20 1 0 48 1 1
gene 1 20 7 2.43233 0 49 2.43233 1
genomeend 114

/* Organism #115 Fitness: 5 Error: 0 */
genomestart 115
trait 1 0.490072 0 0 0 0 0.0561998 0 0.0913114 
trait 2 0.290655 0 0 0 0 0 0.377651 0 
trait 3 0.501559 0 0.129746 0 0 0.190653 0 0 
node 1 1 1 3
node 2 1 1 1
node 3 2 1 1
node 4 1 1 1
node 5 3 1 1
node 6 1 0 2
node 7 1 0 2
node 13 1 0 0
node 20 1 0 0
node 31 1 0 0
gene 2 1 6 -5.27686 0 1 -5.27686 1
gene 3 2 6 -1.44681 0 2 -1.44681 1
gene 1 3 6 -0.458007 0 3 -0.458007 1
gene 3 4 6 3.07028 0 4 3.07028 1
gene 3 5 6 2.33529 0 5 2.33529 1
gene 2 1 7 1.3561 0 6 1.3561 1
gene 1 2 7 7.36534 0 7 7.36534 0
gene 1 3 7 -2.45918 0 8 -2.45918 0
gene 2 4 7 5.92749 0 9 5.92749 1
gene 3 5 7 1.23367 0 10 1.23367 1
gene 1 3 13 -2.34845 0 27 -2.34845 1
gene 1 13 7 2.49084 0 28 2.49084 1
gene 1 13 20 2.05022 0 48 2.05022 1
gene 1 20 7 2.42416 0 49 2.42416 1
gene 1 2 31 1 0 85 0 1
gene 1 31 7 7.36534 0 86 0 1
genomeend 115

/* Organism #116 Fitness: 10 Error: 0 */
genomestart 116
trait 1 0.490072 0 0 0 0 0.0561998 0 0.0913114 
trait 2 0.2 0 0 0 0 0 0 0 
trait 3 0.568746 0 0.172994 0 0 0.254204 0 0 
node 1 1 1 3
node 2 1 1 1
node 3 2 1 1
node 4 1 1 1
node 5 3 1 1
node 6 1 0 2
node 7 1 0 2
node 13 1 0 0
node 20 1 0 0
gene 2 1 6 -4.04734 0 1 -4.04734 1
gene 3 2 6 2.41881 0 2 2.41881 1
gene 1 3 6 -1.19793 0 3 -1.19793 1
gene 3 4 6 -0.402783 0 4 -0.402783 1
gene 3 5 6 -0.380032 0 5 -0.380032 1
gene 2 1 7 0.741684 0 6 0.741684 1
gene 1 2 7 5.16694 0 7 5.16694 1
gene 1 3 7 -0.749687 0 8 -0.749687 0
gene 2 4 7 7.74218 0 9 7.74218 1
gene 3 5 7 0.625019 0 10 0.625019 1
gene 1 3 13 -3.26632 0 27 -3.26632 1
gene 1 13 7 2.49084 0 28 2.49084 1
gene 1 13 20 2.47786 0 48 2.47786 1
gene 1 20 7 2.18261 0 49 2.18261 1
genomeend 116

/* Organism #117 Fitness: 6 Error: 0 */
genomestart 117
trait 1 0.490072 0 0 0 0 0.0561998 0 0.0913114 
trait 2 0.2 0 0 0 0 0 0 0 
trait 3 0.568746 0 0.172994 0 0 0.254204 0 0 
node 1 1 1 3
node 2 1 1 1
node 3 2 1 1
node 4 1 1 1
node 5 3 1 1
node 6 1 0 2
node 7 1 0 2
node 13 1 0 0
node 20 1 0 0
gene 2 1 6 -3.14697 0 1 -3.14697 1
gene 3 2 6 0.268624 0 2 0.268624 1
gene 1 3 6 0.639897 0 3 0.639897 1
gene 3 4 6 -2.20779 0 4 -2.20779 1
gene 3 5 6 4.34982 0 5 4.34982 1
gene 2 1 7 0.22821 0 6 0.22821 1
gene 1 2 7 0.707266 0 7 0.707266 1
gene 1 3 7 -2.4604 0 8 -2.4604 0
gene 2 4 7 4.57505 0 9 4.57505 1
gene 3 5 7 -0.35577 0 10 -0.35577 1
gene 1 3 13 -2.69959 0 27 -2.69959 1
gene 1 13 7 1.63793 0 28 1.63793 1
gene 1 13 20 2.45718 0 48 2.45718 1
gene 1 20 7 1.39584 0 49 1.39584 1
genomeend 117

/* Organism #118 Fitness: 9 Error: 0 */
genomestart 118
trait 1 0.490072 0 0 0 0 0.0561998 0 0.0913114 
trait 2 0.290655 0 0 0 0 0 0.377651 0 
trait 3 0.501559 0 0.129746 0 0 0.190653 0 0 
node 1 1 1 3
node 2 1 1 1
node 3 2 1 1
node 4 1 1 1
node 5 2 1 1
node 6 1 0 2
node 7 1 0 2
node 13 1 0 0
node 20 1 0 0
gene 2 1 6 -2.85582 0 1 -2.85582 1
gene 3 2 6 -1.44681 0 2 -1.44681 1
gene 1 3 6 -0.458007 0 3 -0.458007 1
gene 3 4 6 1.64875 0 4 1.64875 1
gene 3 5 6 2.87677 0 5 2.87677 1
gene 2 1 7 1.3561 0 6 1.3561 1
gene 1 2 7 7.36534 0 7 7.36534 1
gene 1 3 7 -2.45918 0 8 -2.45918 0
gene 2 4 7 6.44606 0 9 6.44606 1
gene 3 5 7 1.23367 0 10 1.23367 1
gene 1 3 13 -2.34845 0 27 -2.34845 1
gene 1 13 7 1.98596 0 28 1.98596 1
gene 1 13 20 2.05022 0 48 2.05022 1
gene 1 20 7 2.42416 0 49 2.42416 1
genomeend 118

/* Organism #119 Fitness: 14 Error: 0 */
genomestart 119
trait 1 0.490072 0 0 0 0 0.0561998 0 0.0913114 
trait 2 0.290655 0 0 0 0 0 0.377651 0 
trait 3 0.501559 0 0.129746 0 0 0.190653 0 0 
node 1 1 1 3
node 2 1 1 1
node 3 2 1 1
node 4 1 1 1
node 5 3 1 1
node 6 1 0 2
node 7 1 0 2
node 13 1 0 0
node 20 1 0 0
gene 2 1 6 -3.28171 0 1 -3.28171 1
gene 3 2 6 -2.96419 0 2 -2.96419 1
gene 1 3 6 0.42172 0 3 0.42172 1
gene 3 4 6 -0.0718101 0 4 -0.0718101 1
gene 3 5 6 2.50665 0 5 2.50665 1
gene 2 1 7 0.0567721 0 6 0.0567721 1
gene 1 2 7 7.29296 0 7 7.29296 1
gene 1 3 7 -3.51939 0 8 -3.51939 0
gene 2 4 7 7.53465 0 9 7.53465 1
gene 3 5 7 1.27159 0 10 1.27159 1
gene 1 3 13 -0.099002 0 27 -0.099002 1
gene 1 13 7 2.07022 0 28 2.07022 1
gene 1 13 20 1 0 48 1 1
gene 1 20 7 3.24473 0 49 3.24473 1
genomeend 119

/* Organism #120 Fitness: 9 Error: 0 */
genomestart 120
trait 1 0.490072 0 0 0 0 0.0561998 0 0.0913114 
trait 2 0.2 0 0 0 0 0 0 0 
trait 3 0.568746 0 0.172994 0 0 0.254204 0 0 
node 1 1 1 3
node 2 1 1 1
node 3 2 1 1
node 4 1 1 1
node 5 3 1 1
node 6 1 0 2
node 7 1 0 2
node 13 1 0 0
node 20 1 0 0
gene 2 1 6 -2.74763 0 1 -2.74763 1
gene 3 2 6 1.29839 0 2 1.29839 1
gene 1 3 6 -1.82261 0 3 -1.82261 1
gene 3 4 6 1.08835 0 4 1.08835 1
gene 3 5 6 2.49811 0 5 2.49811 1
gene 2 1 7 3.34224 0 6 3.34224 1
gene 1 2 7 5.6254 0 7 5.6254 1
gene 1 3 7 -3.28036 0 8 -3.28036 0
gene 2 4 7 4.54865 0 9 4.54865 1
gene 3 5 7 1.92808 0 10 1.92808 1
gene 1 3 13 -0.737403 0 27 -0.737403 1
gene 1 13 7 1.00146 0 28 1.00146 1
gene 1 13 20 1 0 48 1 1
gene 1 20 7 4.551 0 49 4.551 1
genomeend 120

/* Species #4 : (Size 14) (AF 24.8571) (Age 7)  */


/* Organism #121 Fitness: 3 Error: 0 */
genomestart 121
trait 1 0.176186 0 0 0 0.0982543 0.0109765 0 0.0178343 
trait 2 0.262753 0.233724 0.161573 0 0.248539 0.0783572 0 0 
trait 3 0.3 0 0 0.00118402 0 0.0672819 0.102511 0 
node 1 1 1 3
node 2 3 1 1
node 3 3 1 1
node 4 1 1 1
node 5 2 1 1
node 6 3 0 2
node 7 2 0 2
node 14 1 0 0
gene 2 1 6 1.69481 0 1 1.69481 1
gene 3 2 6 3.34269 0 2 3.34269 1
gene 2 3 6 3.19348 0 3 3.19348 0
gene 1 4 6 -0.965911 0 4 -0.965911 1
gene 1 5 6 -1.45756 0 5 -1.45756 1
gene 2 1 7 5.34662 0 6 5.34662 1
gene 1 2 7 -8 0 7 -8 1
gene 2 3 7 -2.2795 0 8 -2.2795 1
gene 2 4 7 4.63612 0 9 4.63612 1
gene 1 5 7 -1.55034 0 10 -1.55034 1
gene 2 6 7 3.38586 0 20 3.38586 1
gene 2 3 14 1.65359 0 29 1.65359 1
gene 2 14 6 1.19685 0 30 1.19685 1
genomeend 121

/* Organism #122 Fitness: 106 Error: 0 */
genomestart 122
trait 1 0.214279 0 0 0 0.0491272 0.0164648 0 0.0267514 
trait 2 0.238349 0.142831 0.0987388 0.0628529 0.151885 0.047885 0 0 
trait 3 0.3 0 0 0.00177603 0 0.100923 0.153766 0 
node 1 2 1 3
node 2 1 1 1
node 3 2 1 1
node 4 1 1 1
node 5 3 1 1
node 6 1 0 2
node 7 1 0 2
node 14 1 0 0
gene 2 1 6 0.440275 0 1 0.440275 1
gene 3 2 6 -0.0534055 0 2 -0.0534055 1
gene 3 3 6 -0.884072 0 3 -0.884072 0
gene 1 4 6 -3.34446 0 4 -3.34446 1
gene 3 5 6 -1.80525 0 5 -1.80525 1
gene 2 1 7 4.72275 0 6 4.72275 1
gene 1 2 7 -7.58865 0 7 -7.58865 1
gene 1 3 7 -3.33715 0 8 -3.33715 1
gene 2 4 7 4.4012 0 9 4.4012 1
gene 1 5 7 -3.17526 0 10 -3.17526 1
gene 2 6 7 2.30306 0 20 2.30306 1
gene 2 3 14 0.645642 0 29 0.645642 1
gene 2 14 6 0.154569 0 30 0.154569 1
genomeend 122

/* Organism #123 Fitness: 16 Error: 0 */
genomestart 123
trait 1 0.126186 0 0.401502 0.47148 0 0.0219531 0 0.0356685 
trait 2 0.213945 0.0519387 0.035905 0.0314264 0.0552309 0.0174127 0 0 
trait 3 0.3 0 0 0.00236805 0 0.134564 0.205021 0 
node 1 2 1 3
node 2 1 1 1
node 3 2 1 1
node 4 1 1 1
node 5 3 1 1
node 6 1 0 2
node 7 1 0 2
node 14 1 0 0
gene 2 1 6 1.18914 0 1 1.18914 1
gene 3 2 6 1.37148 0 2 1.37148 1
gene 2 3 6 -1.78063 0 3 -1.78063 1
gene 1 4 6 -1.96665 0 4 -1.96665 1
gene 2 5 6 -1.65241 0 5 -1.65241 1
gene 2 1 7 3.59427 0 6 3.59427 1
gene 1 2 7 -6.86731 0 7 -6.86731 1
gene 3 3 7 -4.30029 0 8 -4.30029 1
gene 2 4 7 4.67524 0 9 4.67524 1
gene 1 5 7 0.75797 0 10 0.75797 1
gene 2 6 7 2.82943 0 20 2.82943 1
gene 2 3 14 -0.394593 0 29 -0.394593 1
gene 2 14 6 2.76819 0 30 2.76819 1
genomeend 123

/* Organism #124 Fitness: 18 Error: 0 */
genomestart 124
trait 1 0.249325 0 0 0 0 0.021514 0 0.0349551 
trait 2 0.213945 0.0519387 0.470809 0.363262 0.0552309 0.121878 0 0 
trait 3 0.3 0 0 0.00118402 0 0.134564 0.197213 0 
node 1 2 1 3
node 2 1 1 1
node 3 2 1 1
node 4 1 1 1
node 5 3 1 1
node 6 1 0 2
node 7 1 0 2
node 14 1 0 0
gene 2 1 6 -1.30355 0 1 -1.30355 1
gene 3 2 6 -0.245748 0 2 -0.245748 1
gene 3 3 6 0.0937414 0 3 0.0937414 0
gene 2 4 6 -1.18207 0 4 -1.18207 1
gene 3 5 6 1.66472 0 5 1.66472 1
gene 2 1 7 -3.94246 0 6 -3.94246 1
gene 1 2 7 -0.938292 0 7 -0.938292 1
gene 3 3 7 -4.07855 0 8 -4.07855 1
gene 2 4 7 3.35266 0 9 3.35266 1
gene 3 5 7 0.793481 0 10 0.793481 1
gene 2 6 7 0.394742 0 20 0.394742 1
gene 2 3 14 3.58766 0 29 3.58766 1
gene 2 14 6 1.3171 0 30 1.3171 1
genomeend 124

/* Organism #125 Fitness: 20 Error: 0 */
genomestart 125
trait 1 0.249325 0 0 0 0 0.021514 0 0.0349551 
trait 2 1 0.0519387 0.470809 0 0.603404 0.568608 0.629444 0 
trait 3 0.3 0 0 0.00118402 0 0.134564 0.197213 0 
node 1 2 1 3
node 2 1 1 1
node 3 2 1 1
node 4 1 1 1
node 5 3 1 1
node 6 1 0 2
node 7 1 0 2
node 14 1 0 0
gene 2 1 6 1.52609 0 1 1.52609 1
gene 1 2 6 3.90054 0 2 3.90054 1
gene 2 3 6 -2.49989 0 3 -2.49989 1
gene 2 4 6 -2.33589 0 4 -2.33589 1
gene 3 5 6 0.443478 0 5 0.443478 1
gene 2 1 7 -2.24361 0 6 -2.24361 1
gene 1 2 7 0.0159841 0 7 0.0159841 1
gene 2 3 7 -1.18999 0 8 -1.18999 1
gene 2 4 7 4.43765 0 9 4.43765 1
gene 1 5 7 1.45882 0 10 1.45882 1
gene 2 6 7 1.85276 0 20 1.85276 1
gene 2 3 14 0.312895 0 29 0.312895 1
gene 2 14 6 2.14343 0 30 2.14343 1
genomeend 125

/* Organism #126 Fitness: 98 Error: 0 */
genomestart 126
trait 1 0.176186 0 0 0 0.0982543 0.0109765 0 0.0178343 
trait 2 0.262753 0.233724 0.161573 0.0314264 0.248539 0.0783572 0 0 
trait 3 0.3 0 0 0.00118402 0 0.0672819 0.102511 0 
node 1 1 1 3
node 2 3 1 1
node 3 3 1 1
node 4 1 1 1
node 5 2 1 1
node 6 3 0 2
node 7 2 0 2
node 14 1 0 0
gene 2 1 6 -0.955382 0 1 -0.955382 1
gene 3 2 6 0.240491 0 2 0.240491 1
gene 2 3 6 0.896653 0 3 0.896653 0
gene 2 4 6 -2.32798 0 4 -2.32798 1
gene 1 5 6 0.644704 0 5 0.644704 1
gene 3 1 7 -1.17351 0 6 -1.17351 1
gene 1 2 7 -5.73461 0 7 -5.73461 1
gene 2 3 7 -1.38202 0 8 -1.38202 1
gene 2 4 7 5.16935 0 9 5.16935 1
gene 3 5 7 2.32811 0 10 2.32811 1
gene 2 6 7 2.72163 0 20 2.72163 1
gene 2 3 14 -1.30093 0 29 -1.30093 1
gene 2 14 6 2.97971 0 30 2.97971 1
genomeend 126

/* Organism #127 Fitness: 10 Error: 0 */
genomestart 127
trait 1 0.176186 0 0 0 0.0982543 0.0109765 0 0.0178343 
trait 2 0.262753 0.233724 0.161573 0 0.248539 0.0783572 0 0 
trait 3 0.3 0 0 0.00118402 0 0.0672819 0.102511 0 
node 1 1 1 3
node 2 3 1 1
node 3 3 1 1
node 4 1 1 1
node 5 2 1 1
node 6 1 0 2
node 7 2 0 2
node 14 1 0 0
gene 2 1 6 -2.29375 0 1 -2.29375 1
gene 3 2 6 0.533998 0 2 0.533998 1
gene 2 3 6 0.233543 0 3 0.233543 0
gene 1 4 6 2.10906 0 4 2.10906 1
gene 2 5 6 -1.7806 0 5 -1.7806 1
gene 3 1 7 -2.36335 0 6 -2.36335 1
gene 1 2 7 -3.47509 0 7 -3.47509 1
gene 2 3 7 -1.34407 0 8 -1.34407 1
gene 2 4 7 2.50085 0 9 2.50085 1
gene 1 5 7 -1.77553 0 10 -1.77553 1
gene 2 6 7 0.078341 0 20 0.078341 1
gene 2 3 14 -0.593867 0 29 -0.593867 1
gene 2 14 6 1.8076 0 30 1.8076 1
genomeend 127

/* Organism #128 Fitness: 13 Error: 0 */
genomestart 128
trait 1 0.252372 0 0 0 0 0.0219531 0 0.0356685 
trait 2 0.213945 0.0519387 0.035905 0.0628529 0.0552309 0.0174127 0 0 
trait 3 0.3 0 0 0.00236805 0 0.134564 0.205021 0 
node 1 2 1 3
node 2 1 1 1
node 3 2 1 1
node 4 1 1 1
node 5 3 1 1
node 6 1 0 2
node 7 1 0 2
node 14 1 0 0
gene 2 1 6 -2.16681 0 1 -2.16681 1
gene 3 2 6 0.155646 0 2 0.155646 1
gene 3 3 6 -1.86071 0 3 -1.86071 0
gene 1 4 6 0.347861 0 4 0.347861 1
gene 3 5 6 -0.922617 0 5 -0.922617 1
gene 2 1 7 3.44452 0 6 3.44452 1
gene 1 2 7 -1.85041 0 7 -1.85041 1
gene 3 3 7 -2.28979 0 8 -2.28979 1
gene 2 4 7 2.7944 0 9 2.7944 1
gene 1 5 7 -0.722831 0 10 -0.722831 1
gene 2 6 7 4.50597 0 20 4.50597 1
gene 2 3 14 -1.47343 0 29 -1.47343 1
gene 2 14 6 3.81793 0 30 3.81793 1
genomeend 128

/* Organism #129 Fitness: 27 Error: 0 */
genomestart 129
trait 1 0.214279 0 0 0 0.0491272 0.0164648 0 0.0267514 
trait 2 0.238349 0.142831 0.0987388 0.0314264 0.151885 0.047885 0 0 
trait 3 0.3 0 0 0.00177603 0 0.100923 0.153766 0 
node 1 2 1 3
node 2 1 1 1
node 3 2 1 1
node 4 1 1 1
node 5 3 1 1
node 6 1 0 2
node 7 1 0 2
node 14 1 0 0
gene 2 1 6 -0.955382 0 1 -0.955382 1
gene 3 2 6 3.34269 0 2 3.34269 1
gene 3 3 6 -3.51334 0 3 -3.51334 0
gene 1 4 6 -0.965911 0 4 -0.965911 1
gene 1 5 6 -1.45756 0 5 -1.45756 1
gene 2 1 7 2.38156 0 6 2.38156 1
gene 1 2 7 -8 0 7 -8 1
gene 3 3 7 -4.55438 0 8 -4.55438 1
gene 2 4 7 4.63612 0 9 4.63612 1
gene 3 5 7 2.32811 0 10 2.32811 1
gene 2 6 7 2.9673 0 20 2.9673 1
gene 2 3 14 -1.30093 0 29 -1.30093 1
gene 2 14 6 2.97971 0 30 2.97971 1
genomeend 129

/* Organism #130 Fitness: 7 Error: 0 */
genomestart 130
trait 1 0.249325 0 0 0 0 0.021514 0 0.0349551 
trait 2 1 0.0519387 0.470809 0.331835 0.0552309 0.121878 0 0.680868 
trait 3 0.3 0 0 0.00118402 0 0.134564 0.197213 0 
node 1 2 1 3
node 2 1 1 1
node 3 2 1 1
node 4 1 1 1
node 5 3 1 1
node 6 1 0 2
node 7 3 0 2
node 14 1 0 0
gene 2 1 6 -2.12348 0 1 -2.12348 1
gene 1 2 6 4.23224 0 2 4.23224 1
gene 3 3 6 -5.60981 0 3 -5.60981 0
gene 1 4 6 -0.312204 0 4 -0.312204 1
gene 3 5 6 0.611759 0 5 0.611759 1
gene 2 1 7 -4.14327 0 6 -4.14327 1
gene 1 2 7 -1.75291 0 7 -1.75291 1
gene 3 3 7 -2.63705 0 8 -2.63705 1
gene 2 4 7 2.61591 0 9 2.61591 1
gene 3 5 7 1.35777 0 10 1.35777 1
gene 2 6 7 4.72387 0 20 4.72387 1
gene 2 3 14 -1.30093 0 29 -1.30093 1
gene 2 14 6 2.97971 0 30 2.97971 1
genomeend 130

/* Organism #131 Fitness: 6 Error: 0 */
genomestart 131
trait 1 0.176186 0 0 0 0.0982543 0.0109765 0 0.0178343 
trait 2 0.262753 0.233724 0.161573 0 0.248539 0.0783572 0 0 
trait 3 0.3 0 0 0.00118402 0 0.0672819 0.102511 0 
node 1 1 1 3
node 2 3 1 1
node 3 3 1 1
node 4 1 1 1
node 5 2 1 1
node 6 3 0 2
node 7 2 0 2
node 14 1 0 0
gene 3 1 6 0.0779214 0 1 0.0779214 1
gene 3 2 6 0.745035 0 2 0.745035 1
gene 2 3 6 1.08002 0 3 1.08002 0
gene 1 4 6 -1.14507 0 4 -1.14507 1
gene 1 5 6 -1.7806 0 5 -1.7806 1
gene 2 1 7 -0.8858 0 6 -0.8858 1
gene 1 2 7 -3.95049 0 7 -3.95049 1
gene 3 3 7 -0.160788 0 8 -0.160788 1
gene 2 4 7 4.83224 0 9 4.83224 1
gene 1 5 7 -1.31478 0 10 -1.31478 1
gene 2 6 7 2.34602 0 20 2.34602 1
gene 2 3 14 -0.593867 0 29 -0.593867 1
gene 2 14 6 3.54701 0 30 3.54701 1
gene 3 14 7 0.438307 0 87 0.438307 1
genomeend 131

/* Organism #132 Fitness: 3 Error: 0 */
genomestart 132
trait 1 0.176186 0 0 0 0.0982543 0.0109765 0 0.0178343 
trait 2 0.262753 0.233724 0.161573 0 0.248539 0.0783572 0 0 
trait 3 0.3 0 0 0.00118402 0 0.0672819 0.102511 0 
node 1 2 1 3
node 2 1 1 1
node 3 2 1 1
node 4 1 1 1
node 5 3 1 1
node 6 1 0 2
node 7 1 0 2
node 14 1 0 0
gene 3 1 6 -3.27509 0 1 -3.27509 1
gene 3 2 6 -1.7265 0 2 -1.7265 1
gene 2 3 6 3.12588 0 3 3.12588 0
gene 1 4 6 1.79075 0 4 1.79075 1
gene 1 5 6 1.87597 0 5 1.87597 1
gene 2 1 7 -1.01672 0 6 -1.01672 1
gene 1 2 7 -6.8059 0 7 -6.8059 1
gene 3 3 7 -0.658818 0 8 -0.658818 1
gene 2 4 7 3.12049 0 9 3.12049 1
gene 1 5 7 -0.393078 0 10 -0.393078 1
gene 2 6 7 0.778436 0 20 0.778436 1
gene 2 3 14 -2.4266 0 29 -2.4266 1
gene 2 14 6 2.34618 0 30 2.34618 1
genomeend 132

/* Organism #133 Fitness: 17 Error: 0 */
genomestart 133
trait 1 0.214279 0 0 0 0.0491272 0.0164648 0 0.0267514 
trait 2 0.238349 0.142831 0.0987388 0 0.151885 0.047885 0 0 
trait 3 0.3 0 0 0.00177603 0 0.100923 0.153766 0 
node 1 1 1 3
node 2 3 1 1
node 3 3 1 1
node 4 1 1 1
node 5 2 1 1
node 6 3 0 2
node 7 2 0 2
node 14 1 0 0
gene 2 1 6 -0.162847 0 1 -0.162847 1
gene 3 2 6 0.08141 0 2 0.08141 1
gene 2 3 6 1.23785 0 3 1.23785 0
gene 1 4 6 -1.28636 0 4 -1.28636 1
gene 1 5 6 -0.523698 0 5 -0.523698 1
gene 2 1 7 3.19285 0 6 3.19285 1
gene 1 2 7 -7.62699 0 7 -7.62699 1
gene 2 3 7 -0.000915555 0 8 -0.000915555 1
gene 2 4 7 6.18379 0 9 6.18379 1
gene 1 5 7 -1.61252 0 10 -1.61252 1
gene 2 6 7 0.695349 0 20 0.695349 1
gene 2 3 14 1.72012 0 29 1.72012 1
gene 2 14 6 0.779817 0 30 0.779817 1
genomeend 133

/* Organism #134 Fitness: 4 Error: 0 */
genomestart 134
trait 1 0.214279 0 0 0 0.0491272 0.0164648 0 0.0267514 
trait 2 0.453199 0.142831 0 0.0628529 0.151885 0 0 0 
trait 3 0.3 0 0 0.00177603 0 0.100923 0.153766 0 
node 1 2 1 3
node 2 1 1 1
node 3 2 1 1
node 4 1 1 1
node 5 3 1 1
node 6 1 0 2
node 7 1 0 2
node 14 1 0 0
gene 3 1 6 0.971541 0 1 0.971541 1
gene 3 2 6 -0.0534055 0 2 -0.0534055 1
gene 2 3 6 -2.01436 0 3 -2.01436 0
gene 1 4 6 -3.34446 0 4 -3.34446 1
gene 2 5 6 0.722333 0 5 0.722333 1
gene 2 1 7 4.72275 0 6 4.72275 1
gene 1 2 7 -5.95434 0 7 -5.95434 1
gene 1 3 7 -3.33715 0 8 -3.33715 1
gene 2 4 7 4.4012 0 9 4.4012 1
gene 1 5 7 -3.17526 0 10 -3.17526 1
gene 2 6 7 2.31699 0 20 2.31699 1
gene 2 3 14 -1.18114 0 29 -1.18114 1
