
/* Species #1 : (Size 150) (AF 53.2533) (Age 5)  */


/* Organism #0 Fitness: 562 Error: 0 */
genomestart 0
trait 1 0.1 0 0 0 0 0 0 0 
trait 2 0.2 0 0 0 0 0 0 0 
trait 3 0.3 0 0 0 0 0 0 0 
node 1 2 1 3
node 2 2 1 1
node 3 3 1 1
node 4 2 1 1
node 5 2 1 1
node 6 2 0 2
node 7 2 0 2
gene 1 1 6 1.0062 0 1 1.0062 1
gene 1 2 6 -0.23986 0 2 -0.23986 1
gene 1 3 6 -1.96895 0 3 -1.96895 1
gene 1 4 6 -1.94972 0 4 -1.94972 1
gene 2 5 6 -0.809351 0 5 -0.809351 1
gene 1 1 7 -0.984466 0 6 -0.984466 1
gene 1 2 7 -0.445494 0 7 -0.445494 1
gene 3 3 7 -1.48392 0 8 -1.48392 1
gene 2 4 7 -0.0879086 0 9 -0.0879086 1
gene 1 5 7 1.01392 0 10 1.01392 1
genomeend 0

/* Organism #1 Fitness: 239 Error: 0 */
genomestart 1
trait 1 0.1 0 0 0 0 0 0 0 
trait 2 0.2 0 0 0 0 0 0 0 
trait 3 0.3 0 0 0 0 0 0 0 
node 1 3 1 3
node 2 2 1 1
node 3 3 1 1
node 4 3 1 1
node 5 2 1 1
node 6 3 0 2
node 7 2 0 2
gene 2 1 6 -1.27084 0 1 -1.27084 1
gene 3 2 6 -0.534444 0 2 -0.534444 1
gene 2 3 6 0.678327 0 3 0.678327 1
gene 1 4 6 -1.14968 0 4 -1.14968 1
gene 3 5 6 -1.42344 0 5 -1.42344 1
gene 1 1 7 -3.70441 0 6 -3.70441 1
gene 3 2 7 -0.539735 0 7 -0.539735 1
gene 3 3 7 -2.27691 0 8 -2.27691 1
gene 1 4 7 4.59492 0 9 4.59492 1
gene 2 5 7 0.704157 0 10 0.704157 1
gene 3 7 6 0.0112308 0 33 0.0112308 1
genomeend 1

/* Organism #2 Fitness: 23 Error: 0 */
genomestart 2
trait 1 0.1 0 0 0 0 0 0 0 
trait 2 0.2 0 0 0 0 0 0 0 
trait 3 0.3 0 0 0 0 0 0 0 
node 1 1 1 3
node 2 2 1 1
node 3 2 1 1
node 4 3 1 1
node 5 2 1 1
node 6 2 0 2
node 7 3 0 2
gene 2 1 6 0.505493 0 1 0.505493 1
gene 2 2 6 -1.44761 0 2 -1.44761 1
gene 2 3 6 2.06058 0 3 2.06058 1
gene 1 4 6 -2.52393 0 4 -2.52393 1
gene 3 5 6 0.654607 0 5 0.654607 1
gene 2 1 7 -0.668828 0 6 -0.668828 1
gene 3 2 7 -3.58309 0 7 -3.58309 1
gene 1 3 7 -1.11625 0 8 -1.11625 1
gene 2 4 7 3.06061 0 9 3.06061 1
gene 2 5 7 5.45228 0 10 5.45228 1
gene 3 7 6 0.0112308 0 33 0 1
genomeend 2

/* Organism #3 Fitness: 12 Error: 0 */
genomestart 3
trait 1 0.1 0 0 0 0 0 0 0 
trait 2 0.2 0 0 0 0 0 0 0 
trait 3 0.3 0 0 0 0 0 0 0 
node 1 3 1 3
node 2 2 1 1
node 3 3 1 1
node 4 3 1 1
node 5 2 1 1
node 6 3 0 2
node 7 2 0 2
node 16 1 0 0
gene 2 1 6 -0.796503 0 1 -0.796503 1
gene 3 2 6 0.492248 0 2 0.492248 1
gene 2 3 6 2.78278 0 3 2.78278 1
gene 1 4 6 -1.33165 0 4 -1.33165 1
gene 3 5 6 -2.44618 0 5 -2.44618 1
gene 2 1 7 -2.33206 0 6 -2.33206 1
gene 3 2 7 1.07674 0 7 1.07674 1
gene 3 3 7 0.383602 0 8 0.383602 1
gene 1 4 7 4.7385 0 9 4.7385 1
gene 2 5 7 -2.09143 0 10 -2.09143 0
gene 2 5 16 1 0 34 0 1
gene 2 16 7 -2.09143 0 35 0 1
genomeend 3

/* Organism #4 Fitness: 15 Error: 0 */
genomestart 4
trait 1 0.1 0 0 0 0 0 0 0 
trait 2 0.2 0 0 0 0 0 0 0 
trait 3 0.2625 0 0 0 0 0 0 0 
node 1 3 1 3
node 2 2 1 1
node 3 2 1 1
node 4 2 1 1
node 5 3 1 1
node 6 1 0 2
node 7 2 0 2
gene 2 1 6 0.746178 0 1 0.746178 1
gene 1 2 6 1.2051 0 2 1.2051 1
gene 2 3 6 1.70522 0 3 1.70522 1
gene 2 4 6 2.21374 0 4 2.21374 1
gene 1 5 6 1.59513 0 5 1.59513 1
gene 2 1 7 -0.0608997 0 6 -0.0608997 1
gene 3 2 7 0.787801 0 7 0.787801 1
gene 1 3 7 -2.21072 0 8 -2.21072 1
gene 1 4 7 -0.307627 0 9 -0.307627 1
gene 2 5 7 3.64216 0 10 3.64216 1
genomeend 4

/* Organism #5 Fitness: 14 Error: 0 */
genomestart 5
trait 1 0.1 0 0 0 0 0 0 0 
trait 2 0.2 0 0 0 0 0 0 0 
trait 3 0.3 0 0 0 0 0 0 0 
node 1 1 1 3
node 2 3 1 1
node 3 2 1 1
node 4 2 1 1
node 5 2 1 1
node 6 3 0 2
node 7 2 0 2
gene 1 1 6 1.94007 0 1 1.94007 1
gene 3 2 6 -0.793718 0 2 -0.793718 1
gene 1 3 6 -1.05973 0 3 -1.05973 1
gene 1 4 6 -3.09354 0 4 -3.09354 1
gene 2 5 6 -1.35897 0 5 -1.35897 1
gene 2 1 7 -1.65076 0 6 -1.65076 1
gene 3 2 7 -0.302004 0 7 -0.302004 1
gene 3 3 7 -3.73763 0 8 -3.73763 1
gene 2 4 7 2.59606 0 9 2.59606 1
gene 2 5 7 0.65392 0 10 0.65392 1
genomeend 5

/* Organism #6 Fitness: 2 Error: 0 */
genomestart 6
trait 1 0.1 0 0 0 0 0 0 0 
trait 2 0.2 0 0 0 0 0 0 0 
trait 3 0.3 0 0 0 0 0 0 0 
node 1 2 1 3
node 2 2 1 1
node 3 1 1 1
node 4 2 1 1
node 5 3 1 1
node 6 2 0 2
node 7 3 0 2
node 17 1 0 0
gene 2 1 6 2.963 0 1 2.963 1
gene 2 2 6 -1.94589 0 2 -1.94589 1
gene 1 3 6 2.90017 0 3 2.90017 1
gene 1 4 6 -2.3065 0 4 -2.3065 1
gene 2 5 6 -2.20229 0 5 -2.20229 0
gene 2 1 7 -0.183119 0 6 -0.183119 1
gene 1 2 7 -2.15621 0 7 -2.15621 1
gene 1 3 7 -0.591937 0 8 -0.591937 1
gene 1 4 7 3.10465 0 9 3.10465 1
gene 2 5 7 2.38289 0 10 2.38289 1
gene 2 5 17 1 0 36 0 1
gene 2 17 6 -2.20229 0 37 0 1
genomeend 6

/* Organism #7 Fitness: 13 Error: 0 */
genomestart 7
trait 1 0.1 0 0 0 0 0 0 0 
trait 2 0.2 0 0 0 0 0 0 0 
trait 3 0.3 0 0 0 0 0 0 0 
node 1 2 1 3
node 2 2 1 1
node 3 1 1 1
node 4 2 1 1
node 5 3 1 1
node 6 2 0 2
node 7 3 0 2
gene 2 1 6 2.17806 0 1 2.17806 1
gene 2 2 6 -1.94589 0 2 -1.94589 1
gene 1 3 6 1.46817 0 3 1.46817 1
gene 1 4 6 -0.484329 0 4 -0.484329 1
gene 2 5 6 -1.58116 0 5 -1.58116 1
gene 2 1 7 -0.183119 0 6 -0.183119 1
gene 1 2 7 2.21363 0 7 2.21363 1
gene 1 3 7 1.2233 0 8 1.2233 1
gene 1 4 7 3.14638 0 9 3.14638 1
gene 2 5 7 2.49237 0 10 2.49237 1
gene 3 7 6 -2.17278 0 27 -2.17278 1
genomeend 7

/* Organism #8 Fitness: 16 Error: 0 */
genomestart 8
trait 1 0.1 0.0547655 0 0 0 0.0472198 0.061758 0 
trait 2 0.380105 0 0 0 0 0 0 0 
trait 3 0.3 0 0 0 0 0 0 0 
node 1 1 1 3
node 2 3 1 1
node 3 2 1 1
node 4 2 1 1
node 5 2 1 1
node 6 3 0 2
node 7 2 0 2
gene 1 1 6 -1.46496 0 1 -1.46496 1
gene 3 2 6 1.80631 0 2 1.80631 1
gene 2 3 6 1.71415 0 3 1.71415 1
gene 2 4 6 1.87918 0 4 1.87918 1
gene 1 5 6 -1.0036 0 5 -1.0036 1
gene 3 1 7 1.62992 0 6 1.62992 1
gene 3 2 7 -2.36084 0 7 -2.36084 1
gene 3 3 7 -3.1657 0 8 -3.1657 1
gene 2 4 7 2.66669 0 9 2.66669 1
gene 2 5 7 -1.89848 0 10 -1.89848 1
genomeend 8

/* Organism #9 Fitness: 35 Error: 0 */
genomestart 9
trait 1 0.1 0 0 0 0 0 0 0 
trait 2 0.2 0 0 0 0 0 0 0 
trait 3 0.3 0 0 0 0 0 0 0 
node 1 3 1 3
node 2 2 1 1
node 3 1 1 1
node 4 2 1 1
node 5 3 1 1
node 6 1 0 2
node 7 2 0 2
gene 1 1 6 1.83341 0 1 1.83341 1
gene 1 2 6 -2.92885 0 2 -2.92885 1
gene 1 3 6 3.2809 0 3 3.2809 1
gene 1 4 6 -1.49469 0 4 -1.49469 1
gene 2 5 6 -0.94917 0 5 -0.94917 1
gene 2 1 7 -0.745481 0 6 -0.745481 1
gene 3 2 7 -0.506424 0 7 -0.506424 0
gene 1 3 7 1.1974 0 8 1.1974 1
gene 1 4 7 0.931791 0 9 0.931791 1
gene 2 5 7 2.49926 0 10 2.49926 1
genomeend 9

/* Organism #10 Fitness: 9 Error: 0 */
genomestart 10
trait 1 0.1 0.0547655 0 0 0 0.0472198 0.061758 0 
trait 2 0.2 0 0 0 0 0 0 0 
trait 3 0.3 0 0 0 0 0 0 0 
node 1 1 1 3
node 2 3 1 1
node 3 2 1 1
node 4 2 1 1
node 5 2 1 1
node 6 3 0 2
node 7 2 0 2
gene 2 1 6 0.357601 0 1 0.357601 1
gene 3 2 6 1.71752 0 2 1.71752 1
gene 2 3 6 -1.01408 0 3 -1.01408 1
gene 2 4 6 -0.990707 0 4 -0.990707 1
gene 3 5 6 -1.83067 0 5 -1.83067 1
gene 3 1 7 -2.35641 0 6 -2.35641 1
gene 3 2 7 -3.95389 0 7 -3.95389 1
gene 3 3 7 1.04443 0 8 1.04443 1
gene 3 4 7 -0.383709 0 9 -0.383709 1
gene 2 5 7 0.183485 0 10 0.183485 1
genomeend 10

/* Organism #11 Fitness: 2 Error: 0 */
genomestart 11
trait 1 0.1 0 0 0 0 0 0 0 
trait 2 0.2 0 0 0 0 0 0 0 
trait 3 0.2625 0 0 0 0 0 0 0 
node 1 2 1 3
node 2 1 1 1
node 3 2 1 1
node 4 1 1 1
node 5 2 1 1
node 6 3 0 2
node 7 1 0 2
gene 1 1 6 2.25966 0 1 2.25966 1
gene 2 2 6 0.544221 0 2 0.544221 1
gene 3 3 6 -0.514222 0 3 -0.514222 1
gene 3 4 6 -3.71281 0 4 -3.71281 1
gene 3 5 6 -1.83464 0 5 -1.83464 1
gene 2 1 7 -1.23939 0 6 -1.23939 1
gene 3 2 7 -2.54696 0 7 -2.54696 1
gene 3 3 7 0.692618 0 8 0.692618 1
gene 3 4 7 3.27754 0 9 3.27754 1
gene 2 5 7 1.03384 0 10 1.03384 1
genomeend 11

/* Organism #12 Fitness: 4 Error: 0 */
genomestart 12
trait 1 0.1 0 0 0 0 0 0 0 
trait 2 0.2 0 0 0 0 0 0 0 
trait 3 0.225 0 0 0 0 0 0 0 
node 1 2 1 3
node 2 3 1 1
node 3 1 1 1
node 4 2 1 1
node 5 1 1 1
node 6 2 0 2
node 7 1 0 2
gene 2 1 6 0.51165 0 1 0.51165 1
gene 2 2 6 0.0538347 0 2 0.0538347 1
gene 3 3 6 -1.15365 0 3 -1.15365 1
gene 1 4 6 -0.970183 0 4 -0.970183 1
gene 3 5 6 -4.98415 0 5 -4.98415 1
gene 3 1 7 -0.835849 0 6 -0.835849 1
gene 3 2 7 -1.63093 0 7 -1.63093 1
gene 1 3 7 -4.02928 0 8 -4.02928 1
gene 1 4 7 -2.58187 0 9 -2.58187 1
gene 2 5 7 0.940886 0 10 0.940886 1
genomeend 12

/* Organism #13 Fitness: 8 Error: 0 */
genomestart 13
trait 1 0.1 0 0 0 0 0 0 0 
trait 2 0.2 0 0 0 0 0 0 0 
trait 3 0.3 0 0 0 0 0 0 0 
node 1 1 1 3
node 2 3 1 1
node 3 2 1 1
node 4 2 1 1
node 5 3 1 1
node 6 2 0 2
node 7 3 0 2
gene 1 1 6 -1.27527 0 1 -1.27527 1
gene 2 2 6 1.80972 0 2 1.80972 1
gene 1 3 6 2.49611 0 3 2.49611 1
gene 1 4 6 -1.42359 0 4 -1.42359 1
gene 2 5 6 -0.441462 0 5 -0.441462 1
gene 1 1 7 -3.89684 0 6 -3.89684 1
gene 3 2 7 -1.45161 0 7 -1.45161 1
gene 3 3 7 0.895951 0 8 0.895951 1
gene 1 4 7 4.89563 0 9 4.89563 1
gene 1 5 7 -1.7616 0 10 -1.7616 1
genomeend 13

/* Organism #14 Fitness: 57 Error: 0 */
genomestart 14
trait 1 0.1 0 0 0 0 0 0 0 
trait 2 0.2 0 0 0 0 0 0 0 
trait 3 0.3 0 0 0 0 0 0 0 
node 1 3 1 3
node 2 3 1 1
node 3 1 1 1
node 4 2 1 1
node 5 1 1 1
node 6 2 0 2
node 7 1 0 2
node 18 1 0 0
gene 2 1 6 -0.84695 0 1 -0.84695 1
gene 2 2 6 0.340014 0 2 0.340014 1
gene 2 3 6 0.862941 0 3 0.862941 1
gene 1 4 6 -0.967711 0 4 -0.967711 1
gene 3 5 6 -0.4007 0 5 -0.4007 1
gene 1 1 7 -2.61667 0 6 -2.61667 1
gene 1 2 7 -0.928457 0 7 -0.928457 1
gene 2 3 7 -2.47236 0 8 -2.47236 1
gene 3 4 7 2.87834 0 9 2.87834 0
gene 2 5 7 1.60051 0 10 1.60051 1
gene 3 4 18 1 0 38 0 1
gene 3 18 7 2.87834 0 39 0 1
genomeend 14

/* Organism #15 Fitness: 17 Error: 0 */
genomestart 15
trait 1 0.1 0 0 0 0 0 0 0 
trait 2 0.2 0 0 0 0 0 0 0 
trait 3 0.2625 0 0 0 0 0 0 0 
node 1 3 1 3
node 2 3 1 1
node 3 1 1 1
node 4 2 1 1
node 5 1 1 1
node 6 2 0 2
node 7 1 0 2
gene 1 1 6 0.217662 0 1 0.217662 1
gene 1 2 6 3.39131 0 2 3.39131 1
gene 2 3 6 0.727142 0 3 0.727142 1
gene 2 4 6 -0.788926 0 4 -0.788926 1
gene 3 5 6 -2.43624 0 5 -2.43624 1
gene 2 1 7 -1.66873 0 6 -1.66873 1
gene 3 2 7 -0.77575 0 7 -0.77575 1
gene 3 3 7 -1.1362 0 8 -1.1362 1
gene 2 4 7 1.40314 0 9 1.40314 1
gene 1 5 7 0.908708 0 10 0.908708 1
genomeend 15

/* Organism #16 Fitness: 20 Error: 0 */
genomestart 16
trait 1 0.1 0.0547655 0 0 0 0.0472198 0.061758 0 
trait 2 0.2 0 0 0 0 0 0 0 
trait 3 0.3 0 0 0 0 0 0 0 
node 1 3 1 3
node 2 1 1 1
node 3 1 1 1
node 4 2 1 1
node 5 1 1 1
node 6 3 0 2
node 7 1 0 2
gene 2 1 6 -0.84695 0 1 -0.84695 1
gene 2 2 6 0.340014 0 2 0.340014 1
gene 2 3 6 0.862941 0 3 0.862941 1
gene 1 4 6 -0.967711 0 4 -0.967711 1
gene 3 5 6 -0.4007 0 5 -0.4007 1
gene 3 1 7 0.586291 0 6 0.586291 1
gene 1 2 7 -0.928457 0 7 -0.928457 1
gene 2 3 7 -0.989746 0 8 -0.989746 1
gene 2 4 7 2.10787 0 9 2.10787 1
gene 2 5 7 1.94471 0 10 1.94471 1
gene 3 7 6 0.0112308 0 33 0 1
genomeend 16

/* Organism #17 Fitness: 20 Error: 0 */
genomestart 17
trait 1 0.1 0 0 0 0 0 0 0 
trait 2 0.2 0 0 0 0 0 0 0 
trait 3 0.3 0 0 0 0 0 0 0 
node 1 3 1 3
node 2 3 1 1
node 3 1 1 1
node 4 2 1 1
node 5 1 1 1
node 6 2 0 2
node 7 1 0 2
gene 2 1 6 -0.47618 0 1 -0.47618 1
gene 2 2 6 -0.300569 0 2 -0.300569 1
gene 3 3 6 -1.03469 0 3 -1.03469 1
gene 2 4 6 0.0231712 0 4 0.0231712 1
gene 3 5 6 -2.11664 0 5 -2.11664 1
gene 1 1 7 1.02904 0 6 1.02904 1
gene 3 2 7 -0.678961 0 7 -0.678961 1
gene 3 3 7 -2.63684 0 8 -2.63684 1
gene 2 4 7 -1.47961 0 9 -1.47961 1
gene 2 5 7 0.117718 0 10 0.117718 1
genomeend 17

/* Organism #18 Fitness: 6 Error: 0 */
genomestart 18
trait 1 0.1 0 0 0 0 0 0 0 
trait 2 0.2 0 0 0 0 0 0 0 
trait 3 0.2625 0 0 0 0 0 0 0 
node 1 1 1 3
node 2 2 1 1
node 3 2 1 1
node 4 3 1 1
node 5 2 1 1
node 6 2 0 2
node 7 3 0 2
gene 1 1 6 0.217662 0 1 0.217662 1
gene 2 2 6 -1.44761 0 2 -1.44761 1
gene 3 3 6 0.182745 0 3 0.182745 1
gene 1 4 6 -2.52393 0 4 -2.52393 1
gene 3 5 6 0.654607 0 5 0.654607 1
gene 2 1 7 0.382427 0 6 0.382427 1
gene 3 2 7 -0.354278 0 7 -0.354278 1
gene 3 3 7 -0.00726341 0 8 -0.00726341 1
gene 2 4 7 3.06061 0 9 3.06061 1
gene 1 5 7 0.908708 0 10 0.908708 1
genomeend 18

/* Organism #19 Fitness: 9 Error: 0 */
genomestart 19
trait 1 0.1 0 0 0 0 0 0 0 
trait 2 0.2 0 0 0 0 0 0 0 
trait 3 0.15 0 0.391949 0.473251 0 0.312662 0 0 
node 1 3 1 3
node 2 3 1 1
node 3 1 1 1
node 4 2 1 1
node 5 1 1 1
node 6 2 0 2
node 7 1 0 2
gene 1 1 6 1.29585 0 1 1.29585 1
gene 2 2 6 -1.29456 0 2 -1.29456 1
gene 1 3 6 -0.483184 0 3 -0.483184 1
gene 2 4 6 -0.788926 0 4 -0.788926 1
gene 3 5 6 0.106777 0 5 0.106777 1
gene 1 1 7 2.89822 0 6 2.89822 1
gene 3 2 7 -0.77575 0 7 -0.77575 1
gene 3 3 7 0.822092 0 8 0.822092 1
gene 2 4 7 0.950804 0 9 0.950804 1
gene 3 5 7 -2.66279 0 10 -2.66279 1
genomeend 19

/* Organism #20 Fitness: 12 Error: 0 */
genomestart 20
trait 1 0.1 0 0 0 0 0 0 0 
trait 2 0.2 0.529527 0 0 0 0 0 0 
trait 3 0 0 0 0.456465 0.854335 0 0 0 
node 1 2 1 3
node 2 2 1 1
node 3 3 1 1
node 4 2 1 1
node 5 2 1 1
node 6 2 0 2
node 7 2 0 2
gene 2 1 6 3.78127 0 1 3.78127 1
gene 1 2 6 1.31354 0 2 1.31354 1
gene 2 3 6 0.370102 0 3 0.370102 1
gene 2 4 6 -2.18949 0 4 -2.18949 1
gene 2 5 6 1.54439 0 5 1.54439 1
gene 1 1 7 -5.24133 0 6 -5.24133 1
gene 3 2 7 -1.44803 0 7 -1.44803 1
gene 3 3 7 -3.24093 0 8 -3.24093 1
gene 1 4 7 0.497551 0 9 0.497551 1
gene 2 5 7 0.670339 0 10 0.670339 1
gene 3 7 6 -2.47127 0 22 -2.47127 1
genomeend 20

/* Organism #21 Fitness: 37 Error: 0 */
genomestart 21
trait 1 0.1 0 0 0 0 0 0 0 
trait 2 0.2 0 0 0 0 0 0 0 
trait 3 0.3 0 0 0 0 0 0 0 
node 1 3 1 3
node 2 2 1 1
node 3 2 1 1
node 4 2 1 1
node 5 3 1 1
node 6 1 0 2
node 7 2 0 2
gene 2 1 6 0.405622 0 1 0.405622 1
gene 3 2 6 2.31528 0 2 2.31528 1
gene 1 3 6 4.80698 0 3 4.80698 1
gene 1 4 6 -3.68166 0 4 -3.68166 1
gene 2 5 6 -2.32447 0 5 -2.32447 1
gene 2 1 7 -1.23738 0 6 -1.23738 1
gene 3 2 7 -2.42407 0 7 -2.42407 1
gene 3 3 7 -0.925626 0 8 -0.925626 1
gene 1 4 7 5.29445 0 9 5.29445 1
gene 2 5 7 -1.85095 0 10 -1.85095 1
genomeend 21

/* Organism #22 Fitness: 16 Error: 0 */
genomestart 22
trait 1 0.1 0 0 0 0 0 0 0 
trait 2 0.2 0 0 0 0 0 0 0 
trait 3 0.15 0 0.391949 0.473251 0 0.312662 0 0 
node 1 1 1 3
node 2 3 1 1
node 3 2 1 1
node 4 2 1 1
node 5 2 1 1
node 6 3 0 2
node 7 2 0 2
gene 1 1 6 1.11019 0 1 1.11019 1
gene 2 2 6 -1.05808 0 2 -1.05808 1
gene 1 3 6 -0.492996 0 3 -0.492996 1
gene 1 4 6 -0.715102 0 4 -0.715102 1
gene 3 5 6 -2.26579 0 5 -2.26579 1
gene 2 1 7 -2.21671 0 6 -2.21671 1
gene 1 2 7 -2.44209 0 7 -2.44209 1
gene 2 3 7 -1.6429 0 8 -1.6429 1
gene 1 4 7 1.91336 0 9 1.91336 1
gene 3 5 7 -2.5681 0 10 -2.5681 1
genomeend 22

/* Organism #23 Fitness: 6 Error: 0 */
genomestart 23
trait 1 0.1 0 0 0 0 0 0 0 
trait 2 0.2 0 0 0 0 0 0 0 
trait 3 0.3 0 0 0 0 0 0 0 
node 1 2 1 3
node 2 2 1 1
node 3 1 1 1
node 4 2 1 1
node 5 3 1 1
node 6 2 0 2
node 7 3 0 2
gene 2 1 6 4.2466 0 1 4.2466 1
gene 2 2 6 -2.8336 0 2 -2.8336 1
gene 1 3 6 2.90017 0 3 2.90017 1
gene 1 4 6 -0.797128 0 4 -0.797128 1
gene 2 5 6 0.0202948 0 5 0.0202948 1
gene 2 1 7 -0.141919 0 6 -0.141919 1
gene 1 2 7 -0.43347 0 7 -0.43347 1
gene 1 3 7 -0.911924 0 8 -0.911924 1
gene 1 4 7 3.10465 0 9 3.10465 1
gene 2 5 7 0.87054 0 10 0.87054 1
gene 3 7 6 0.471343 0 27 0.471343 1
genomeend 23

/* Organism #24 Fitness: 28 Error: 0 */
genomestart 24
trait 1 0.1 0 0 0 0 0 0 0 
trait 2 1 0.663656 0 0 0 0 0 0 
trait 3 0.15 0 0 0.228233 0.427168 0 0 0 
node 1 2 1 3
node 2 2 1 1
node 3 3 1 1
node 4 2 1 1
node 5 2 1 1
node 6 2 0 2
node 7 2 0 2
gene 2 1 6 3.59198 0 1 3.59198 1
gene 1 2 6 -0.327433 0 2 -0.327433 1
gene 2 3 6 1.02182 0 3 1.02182 1
gene 2 4 6 -3.93728 0 4 -3.93728 1
gene 2 5 6 -1.61715 0 5 -1.61715 1
gene 1 1 7 -2.74347 0 6 -2.74347 1
gene 3 2 7 -1.23933 0 7 -1.23933 1
gene 3 3 7 -3.12008 0 8 -3.12008 1
gene 1 4 7 1.73103 0 9 1.73103 1
gene 2 5 7 2.50287 0 10 2.50287 1
genomeend 24

/* Organism #25 Fitness: 2 Error: 0 */
genomestart 25
trait 1 0.1 0 0 0 0 0 0 0 
trait 2 0.2 0 0 0 0 0 0 0 
trait 3 0.425919 0 0 0 0.410962 0 0 0 
node 1 3 1 3
node 2 2 1 1
node 3 2 1 1
node 4 2 1 1
node 5 3 1 1
node 6 1 0 2
node 7 2 0 2
gene 2 1 6 4.06807 0 1 4.06807 1
gene 2 2 6 -1.91487 0 2 -1.91487 1
gene 1 3 6 3.02652 0 3 3.02652 1
gene 1 4 6 -0.344417 0 4 -0.344417 1
gene 2 5 6 -2.51065 0 5 -2.51065 1
gene 2 1 7 0.119861 0 6 0.119861 1
gene 3 2 7 1.18831 0 7 1.18831 1
gene 3 3 7 2.45321 0 8 2.45321 1
gene 1 4 7 2.35641 0 9 2.35641 1
gene 1 5 7 4.72613 0 10 4.72613 1
genomeend 25

/* Organism #26 Fitness: 7 Error: 0 */
genomestart 26
trait 1 0.1 0 0 0 0 0 0 0 
trait 2 0.380105 0 0 0 0 0 0 0 
trait 3 0.3 0 0 0 0 0 0 0 
node 1 3 1 3
node 2 3 1 1
node 3 1 1 1
node 4 3 1 1
node 5 1 1 1
node 6 2 0 2
node 7 1 0 2
gene 2 1 6 0.733146 0 1 0.733146 1
gene 3 2 6 -0.850978 0 2 -0.850978 1
gene 2 3 6 0.681738 0 3 0.681738 1
gene 1 4 6 2.30163 0 4 2.30163 1
gene 3 5 6 -0.754357 0 5 -0.754357 1
gene 3 1 7 -5.02905 0 6 -5.02905 1
gene 3 2 7 0.162511 0 7 0.162511 1
gene 2 3 7 -1.32517 0 8 -1.32517 1
gene 3 4 7 4.57776 0 9 4.57776 1
gene 2 5 7 3.36577 0 10 3.36577 1
genomeend 26

/* Organism #27 Fitness: 9 Error: 0 */
genomestart 27
trait 1 0.1 0 0 0 0 0 0 0 
trait 2 0.2 0 0 0 0 0 0 0 
trait 3 0.3 0 0 0 0 0 0 0 
node 1 1 1 3
node 2 3 1 1
node 3 2 1 1
node 4 2 1 1
node 5 2 1 1
node 6 3 0 2
node 7 2 0 2
gene 2 1 6 -0.796503 0 1 -0.796503 1
gene 3 2 6 0.492248 0 2 0.492248 1
gene 3 3 6 -0.634312 0 3 -0.634312 1
gene 3 4 6 -2.09266 0 4 -2.09266 1
gene 3 5 6 -2.44618 0 5 -2.44618 1
gene 2 1 7 -2.33206 0 6 -2.33206 1
gene 3 2 7 1.07674 0 7 1.07674 1
gene 3 3 7 0.383602 0 8 0.383602 1
gene 1 4 7 4.7385 0 9 4.7385 1
gene 2 5 7 1.41456 0 10 1.41456 1
genomeend 27

/* Organism #28 Fitness: 26 Error: 0 */
genomestart 28
trait 1 0.1 0 0 0 0 0 0 0 
trait 2 0.2 0 0 0 0 0 0 0 
trait 3 0.2625 0 0 0 0 0 0 0 
node 1 3 1 3
node 2 2 1 1
node 3 2 1 1
node 4 2 1 1
node 5 3 1 1
node 6 1 0 2
node 7 2 0 2
gene 2 1 6 0.938612 0 1 0.938612 1
gene 3 2 6 2.3026 0 2 2.3026 1
gene 2 3 6 0.390774 0 3 0.390774 1
gene 1 4 6 -0.0461211 0 4 -0.0461211 1
gene 2 5 6 -2.70317 0 5 -2.70317 1
gene 2 1 7 -1.33065 0 6 -1.33065 1
gene 3 2 7 0.019509 0 7 0.019509 1
gene 3 3 7 -0.481254 0 8 -0.481254 1
gene 1 4 7 1.84379 0 9 1.84379 1
gene 2 5 7 3.9384 0 10 3.9384 1
gene 3 7 6 -2.7756 0 27 -2.7756 1
genomeend 28

/* Organism #29 Fitness: 39 Error: 0 */
genomestart 29
trait 1 0.1 0 0 0 0 0 0 0 
trait 2 0.2 0 0 0 0 0 0 0 
trait 3 0.225 0 0 0 0 0 0 0 
node 1 1 1 3
node 2 3 1 1
node 3 2 1 1
node 4 2 1 1
node 5 3 1 1
node 6 2 0 2
node 7 3 0 2
gene 1 1 6 0.874874 0 1 0.874874 1
gene 2 2 6 0.342889 0 2 0.342889 1
gene 1 3 6 0.583073 0 3 0.583073 1
gene 1 4 6 -1.56136 0 4 -1.56136 1
gene 3 5 6 -1.35953 0 5 -1.35953 1
gene 1 1 7 -0.36503 0 6 -0.36503 1
gene 2 2 7 -0.768723 0 7 -0.768723 0
gene 2 3 7 -0.791461 0 8 -0.791461 1
gene 3 4 7 3.01521 0 9 3.01521 1
gene 3 5 7 -0.476871 0 10 -0.476871 1
genomeend 29

/* Organism #30 Fitness: 8 Error: 0 */
genomestart 30
trait 1 0.1 0 0 0 0 0 0 0 
trait 2 0.2 0 0 0 0 0 0 0 
trait 3 0.3 0 0 0 0 0 0 0 
node 1 3 1 3
node 2 3 1 1
node 3 1 1 1
node 4 2 1 1
node 5 1 1 1
node 6 2 0 2
node 7 1 0 2
gene 2 1 6 3.10865 0 1 3.10865 1
gene 2 2 6 -2.83131 0 2 -2.83131 1
gene 2 3 6 -0.42143 0 3 -0.42143 1
gene 1 4 6 -0.234581 0 4 -0.234581 1
gene 2 5 6 -1.61908 0 5 -1.61908 1
gene 1 1 7 -4.31587 0 6 -4.31587 1
gene 1 2 7 -2.0932 0 7 -2.0932 1
gene 2 3 7 -0.694273 0 8 -0.694273 1
gene 3 4 7 0.487365 0 9 0.487365 1
gene 2 5 7 -0.302705 0 10 -0.302705 1
genomeend 30

/* Organism #31 Fitness: 27 Error: 0 */
genomestart 31
trait 1 0.1 0 0 0 0 0 0 0 
trait 2 0.2 0 0 0 0 0 0 0 
trait 3 0.3 0 0 0 0 0 0 0 
node 1 1 1 3
node 2 3 1 1
node 3 2 1 1
node 4 2 1 1
node 5 2 1 1
node 6 3 0 2
node 7 2 0 2
gene 2 1 6 -1.75524 0 1 -1.75524 1
gene 3 2 6 1.90858 0 2 1.90858 1
gene 1 3 6 -0.849757 0 3 -0.849757 1
gene 1 4 6 -0.731956 0 4 -0.731956 1
gene 3 5 6 -0.410932 0 5 -0.410932 1
gene 3 1 7 -0.799646 0 6 -0.799646 1
gene 3 2 7 1.72903 0 7 1.72903 1
gene 3 3 7 -2.05223 0 8 -2.05223 1
gene 2 4 7 -2.4279 0 9 -2.4279 1
gene 2 5 7 0.151753 0 10 0.151753 1
genomeend 31

/* Organism #32 Fitness: 10 Error: 0 */
genomestart 32
trait 1 0.1 0 0 0 0 0 0 0 
trait 2 0.2 0 0 0 0 0 0 0 
trait 3 0.225 0 0 0 0 0 0 0 
node 1 3 1 3
node 2 2 1 1
node 3 2 1 1
node 4 2 1 1
node 5 3 1 1
node 6 1 0 2
node 7 2 0 2
gene 2 1 6 -1.76031 0 1 -1.76031 1
gene 1 2 6 3.94027 0 2 3.94027 1
gene 2 3 6 0.150281 0 3 0.150281 1
gene 1 4 6 -0.970183 0 4 -0.970183 1
gene 2 5 6 -0.809351 0 5 -0.809351 1
gene 2 1 7 -1.81364 0 6 -1.81364 1
gene 3 2 7 -1.63093 0 7 -1.63093 1
gene 3 3 7 -1.48392 0 8 -1.48392 1
gene 1 4 7 0.637959 0 9 0.637959 1
gene 1 5 7 1.01392 0 10 1.01392 1
genomeend 32

/* Organism #33 Fitness: 19 Error: 0 */
genomestart 33
trait 1 0.1 0 0 0 0 0 0 0 
trait 2 0.380105 0 0 0 0 0 0 0 
trait 3 0.3 0 0 0 0 0 0 0 
node 1 3 1 3
node 2 3 1 1
node 3 1 1 1
node 4 2 1 1
node 5 1 1 1
node 6 2 0 2
node 7 1 0 2
gene 2 1 6 -1.75085 0 1 -1.75085 1
gene 3 2 6 -1.73025 0 2 -1.73025 1
gene 1 3 6 -1.06639 0 3 -1.06639 1
gene 1 4 6 -2.49196 0 4 -2.49196 1
gene 3 5 6 -0.111621 0 5 -0.111621 1
gene 3 1 7 -4.30767 0 6 -4.30767 1
gene 1 2 7 -1.4916 0 7 -1.4916 1
gene 2 3 7 -4.18094 0 8 -4.18094 1
gene 2 4 7 -1.06885 0 9 -1.06885 1
gene 2 5 7 2.82033 0 10 2.82033 1
genomeend 33

/* Organism #34 Fitness: 4 Error: 0 */
genomestart 34
trait 1 0.1 0 0 0 0 0 0 0 
trait 2 0.2 0 0 0 0 0 0 0 
trait 3 0.3 0 0 0 0 0 0 0 
node 1 3 1 3
node 2 3 1 1
node 3 1 1 1
node 4 2 1 1
node 5 1 1 1
node 6 2 0 2
node 7 1 0 2
gene 2 1 6 -2.02864 0 1 -2.02864 1
gene 2 2 6 -2.13107 0 2 -2.13107 1
gene 2 3 6 0.36668 0 3 0.36668 1
gene 1 4 6 0.171316 0 4 0.171316 1
gene 3 5 6 -2.79442 0 5 -2.79442 1
gene 1 1 7 -1.56935 0 6 -1.56935 1
gene 1 2 7 0.116863 0 7 0.116863 1
gene 1 3 7 -0.0953246 0 8 -0.0953246 1
gene 1 4 7 0.790963 0 9 0.790963 1
gene 2 5 7 2.80217 0 10 2.80217 1
genomeend 34

/* Organism #35 Fitness: 17 Error: 0 */
genomestart 35
trait 1 0.1 0.0547655 0 0 0 0.0472198 0.061758 0 
trait 2 0.2 0 0 0 0 0 0 0 
trait 3 0.2625 0 0 0 0 0 0 0 
node 1 1 1 3
node 2 3 1 1
node 3 2 1 1
node 4 2 1 1
node 5 2 1 1
node 6 1 0 2
node 7 2 0 2
gene 1 1 6 1.88681 0 1 1.88681 1
gene 3 2 6 -1.89192 0 2 -1.89192 1
gene 1 3 6 -1.489 0 3 -1.489 1
gene 1 4 6 -0.627461 0 4 -0.627461 1
gene 3 5 6 -4.89953 0 5 -4.89953 1
gene 3 1 7 -2.10311 0 6 -2.10311 1
gene 3 2 7 -3.58547 0 7 -3.58547 1
gene 3 3 7 -1.15818 0 8 -1.15818 1
gene 1 4 7 -0.10567 0 9 -0.10567 1
gene 2 5 7 1.53758 0 10 1.53758 1
gene 3 7 6 0.432737 0 27 0.432737 1
genomeend 35

/* Organism #36 Fitness: 914 Error: 0 */
genomestart 36
trait 1 0.1 0 0 0 0 0 0 0 
trait 2 0.2 0 0 0 0 0 0 0 
trait 3 0.2625 0 0 0 0 0 0 0 
node 1 1 1 3
node 2 3 1 1
node 3 2 1 1
node 4 2 1 1
node 5 2 1 1
node 6 3 0 2
node 7 2 0 2
gene 2 1 6 1.78411 0 1 1.78411 1
gene 3 2 6 -1.28712 0 2 -1.28712 1
gene 1 3 6 -3.05496 0 3 -3.05496 1
gene 1 4 6 -3.27105 0 4 -3.27105 1
gene 3 5 6 -3.84909 0 5 -3.84909 1
gene 3 1 7 -2.23432 0 6 -2.23432 1
gene 3 2 7 -1.58302 0 7 -1.58302 1
gene 3 3 7 -1.50345 0 8 -1.50345 1
gene 1 4 7 -2.1514 0 9 -2.1514 1
gene 2 5 7 1.88098 0 10 1.88098 1
gene 3 7 6 -1.45552 0 27 -1.45552 1
genomeend 36

/* Organism #37 Fitness: 8 Error: 0 */
genomestart 37
trait 1 0.1 0 0 0 0 0 0 0 
trait 2 0.2 0 0 0 0 0 0 0 
trait 3 0.3 0 0 0 0 0 0 0 
node 1 3 1 3
node 2 2 1 1
node 3 3 1 1
node 4 3 1 1
node 5 2 1 1
node 6 3 0 2
node 7 2 0 2
gene 2 1 6 2.14812 0 1 2.14812 1
gene 2 2 6 2.944 0 2 2.944 1
gene 1 3 6 0.272443 0 3 0.272443 1
gene 1 4 6 0.124153 0 4 0.124153 1
gene 2 5 6 -1.47387 0 5 -1.47387 1
gene 2 1 7 0.605564 0 6 0.605564 1
gene 1 2 7 -1.38913 0 7 -1.38913 1
gene 1 3 7 -0.16657 0 8 -0.16657 1
gene 1 4 7 2.14452 0 9 2.14452 1
gene 2 5 7 -2.25707 0 10 -2.25707 1
genomeend 37

/* Organism #38 Fitness: 38 Error: 0 */
genomestart 38
trait 1 0.1 0 0 0 0 0 0 0 
trait 2 0.2 0 0 0 0 0 0 0 
trait 3 0.3 0 0 0 0 0 0 0 
node 1 1 1 3
node 2 3 1 1
node 3 2 1 1
node 4 2 1 1
node 5 2 1 1
node 6 3 0 2
node 7 2 0 2
gene 2 1 6 2.41748 0 1 2.41748 1
gene 2 2 6 -0.989181 0 2 -0.989181 1
gene 1 3 6 -1.83627 0 3 -1.83627 1
gene 1 4 6 0.597087 0 4 0.597087 1
gene 3 5 6 -3.79156 0 5 -3.79156 1
gene 3 1 7 0.779839 0 6 0.779839 1
gene 3 2 7 -1.82591 0 7 -1.82591 1
gene 2 3 7 -2.67869 0 8 -2.67869 1
gene 2 4 7 -0.0651723 0 9 -0.0651723 1
gene 2 5 7 1.2946 0 10 1.2946 1
genomeend 38

/* Organism #39 Fitness: 13 Error: 0 */
genomestart 39
trait 1 0.1 0 0 0 0 0 0 0 
trait 2 0.2 0 0 0 0 0 0 0 
trait 3 0.15 0 0 0 0 0 0 0 
node 1 1 1 3
node 2 3 1 1
node 3 2 1 1
node 4 2 1 1
node 5 3 1 1
node 6 2 0 2
node 7 3 0 2
gene 1 1 6 2.61571 0 1 2.61571 1
gene 2 2 6 2.13393 0 2 2.13393 1
gene 1 3 6 -1.77007 0 3 -1.77007 1
gene 1 4 6 0.191305 0 4 0.191305 1
gene 3 5 6 -0.318079 0 5 -0.318079 1
gene 2 1 7 3.00856 0 6 3.00856 1
gene 2 2 7 -2.03978 0 7 -2.03978 1
gene 3 3 7 0.28927 0 8 0.28927 1
gene 3 4 7 2.35511 0 9 2.35511 1
gene 3 5 7 1.50264 0 10 1.50264 1
gene 3 7 6 0.700064 0 22 0.700064 1
genomeend 39

/* Organism #40 Fitness: 184 Error: 0 */
genomestart 40
trait 1 0.1 0 0 0 0 0 0 0 
trait 2 0.2 0 0 0 0 0 0 0 
trait 3 0.417008 0.351787 0 0 0 0 0 0 
node 1 3 1 3
node 2 3 1 1
node 3 1 1 1
node 4 2 1 1
node 5 1 1 1
node 6 2 0 2
node 7 1 0 2
gene 2 1 6 2.29362 0 1 2.29362 1
gene 3 2 6 -0.881195 0 2 -0.881195 1
gene 1 3 6 -0.294626 0 3 -0.294626 1
gene 2 4 6 -2.41396 0 4 -2.41396 1
gene 2 5 6 -1.64084 0 5 -1.64084 1
gene 2 1 7 -0.82461 0 6 -0.82461 1
gene 1 2 7 0.230567 0 7 0.230567 1
gene 2 3 7 -0.0491691 0 8 -0.0491691 1
gene 1 4 7 3.35426 0 9 3.35426 1
gene 2 5 7 0.305666 0 10 0.305666 1
genomeend 40

/* Organism #41 Fitness: 5 Error: 0 */
genomestart 41
trait 1 0.1 0 0 0 0 0 0 0 
trait 2 0.2 0 0 0 0 0 0 0 
trait 3 0.3 0 0 0 0 0 0 0 
node 1 3 1 3
node 2 2 1 1
node 3 1 1 1
node 4 2 1 1
node 5 3 1 1
node 6 2 0 2
node 7 3 0 2
gene 2 1 6 4.19098 0 1 4.19098 1
gene 2 2 6 -3.28794 0 2 -3.28794 1
gene 1 3 6 5.24827 0 3 5.24827 1
gene 1 4 6 -2.67333 0 4 -2.67333 1
gene 2 5 6 -3.31004 0 5 -3.31004 1
gene 2 1 7 0.917684 0 6 0.917684 1
gene 1 2 7 -0.56241 0 7 -0.56241 1
gene 1 3 7 1.79965 0 8 1.79965 1
gene 1 4 7 1.48648 0 9 1.48648 1
gene 2 5 7 -0.738472 0 10 -0.738472 1
gene 3 7 6 -0.958678 0 27 -0.958678 1
genomeend 41

/* Organism #42 Fitness: 71 Error: 0 */
genomestart 42
trait 1 0.1 0 0 0 0 0 0 0 
trait 2 0.2 0 0 0 0 0 0 0 
trait 3 0.3 0 0 0 0 0 0 0 
node 1 1 1 3
node 2 3 1 1
node 3 2 1 1
node 4 2 1 1
node 5 2 1 1
node 6 3 0 2
node 7 2 0 2
gene 1 1 6 -1.56575 0 1 -1.56575 1
gene 3 2 6 2.12103 0 2 2.12103 1
gene 1 3 6 -1.02611 0 3 -1.02611 1
gene 1 4 6 -1.78816 0 4 -1.78816 1
gene 2 5 6 -1.50668 0 5 -1.50668 1
gene 2 1 7 -1.61055 0 6 -1.61055 1
gene 3 2 7 -0.995209 0 7 -0.995209 1
gene 3 3 7 -1.50345 0 8 -1.50345 1
gene 2 4 7 1.76627 0 9 1.76627 1
gene 2 5 7 2.46237 0 10 2.46237 1
genomeend 42

/* Organism #43 Fitness: 38 Error: 0 */
genomestart 43
trait 1 0.648479 0.147221 0 0.203131 0.414777 0 0 0 
trait 2 0.380105 0 0 0 0 0 0 0 
trait 3 0.3 0 0 0 0 0 0 0 
node 1 1 1 3
node 2 3 1 1
node 3 2 1 1
node 4 2 1 1
node 5 3 1 1
node 6 2 0 2
node 7 3 0 2
gene 2 1 6 2.85893 0 1 2.85893 1
gene 1 2 6 1.22222 0 2 1.22222 1
gene 3 3 6 1.1321 0 3 1.1321 1
gene 2 4 6 -4.4046 0 4 -4.4046 1
gene 3 5 6 -0.566362 0 5 -0.566362 1
gene 3 1 7 -3.38372 0 6 -3.38372 1
gene 3 2 7 3.14686 0 7 3.14686 1
gene 3 3 7 -0.98236 0 8 -0.98236 1
gene 2 4 7 0.415998 0 9 0.415998 1
gene 2 5 7 1.65021 0 10 1.65021 1
genomeend 43

/* Organism #44 Fitness: 125 Error: 0 */
genomestart 44
trait 1 0.1 0 0 0 0 0 0 0 
trait 2 0.56021 0 0 0 0 0 0 0 
trait 3 0.3 0 0 0 0 0 0 0 
node 1 1 1 3
node 2 3 1 1
node 3 2 1 1
node 4 2 1 1
node 5 2 1 1
node 6 3 0 2
node 7 2 0 2
gene 2 1 6 -0.333003 0 1 -0.333003 1
gene 3 2 6 0.633137 0 2 0.633137 1
gene 1 3 6 -1.24248 0 3 -1.24248 1
gene 1 4 6 -1.93739 0 4 -1.93739 1
gene 3 5 6 -3.47195 0 5 -3.47195 1
gene 3 1 7 -4.34284 0 6 -4.34284 1
gene 3 2 7 2.98061 0 7 2.98061 1
gene 3 3 7 -0.0634938 0 8 -0.0634938 1
gene 2 4 7 3.06069 0 9 3.06069 1
gene 2 5 7 -0.310175 0 10 -0.310175 1
genomeend 44

/* Organism #45 Fitness: 25 Error: 0 */
genomestart 45
trait 1 0.1 0 0 0 0 0 0 0 
trait 2 0.2 0 0 0 0 0 0 0 
trait 3 0.3 0 0 0 0 0 0 0 
node 1 2 1 3
node 2 3 1 1
node 3 1 1 1
node 4 2 1 1
node 5 1 1 1
node 6 2 0 2
node 7 1 0 2
gene 1 1 6 -1.34251 0 1 -1.34251 1
gene 2 2 6 0.46601 0 2 0.46601 1
gene 3 3 6 -0.654134 0 3 -0.654134 1
gene 1 4 6 0.824511 0 4 0.824511 1
gene 3 5 6 -1.96066 0 5 -1.96066 1
gene 1 1 7 -2.21612 0 6 -2.21612 1
gene 1 2 7 -0.905904 0 7 -0.905904 1
gene 3 3 7 -2.11232 0 8 -2.11232 1
gene 2 4 7 -0.365917 0 9 -0.365917 1
gene 2 5 7 2.8924 0 10 2.8924 1
genomeend 45

/* Organism #46 Fitness: 4 Error: 0 */
genomestart 46
trait 1 0.1 0 0 0 0 0 0 0.347209 
trait 2 0.2 0 0 0 0 0 0 0 
trait 3 0.225 0 0 0 0 0 0 0 
node 1 3 1 3
node 2 3 1 1
node 3 1 1 1
node 4 2 1 1
node 5 1 1 1
node 6 2 0 2
node 7 1 0 2
gene 1 1 6 3.41934 0 1 3.41934 1
gene 2 2 6 -0.06386 0 2 -0.06386 1
gene 1 3 6 -1.10942 0 3 -1.10942 1
gene 1 4 6 -1.74113 0 4 -1.74113 1
gene 2 5 6 1.4562 0 5 1.4562 1
gene 1 1 7 -6.84303 0 6 -6.84303 1
gene 1 2 7 1.98828 0 7 1.98828 1
gene 2 3 7 -4.64016 0 8 -4.64016 1
gene 1 4 7 2.79464 0 9 2.79464 1
gene 2 5 7 -0.539567 0 10 -0.539567 1
genomeend 46

/* Organism #47 Fitness: 6 Error: 0 */
genomestart 47
trait 1 0.1 0 0 0 0 0 0 0 
trait 2 0.2 0 0 0 0 0 0 0 
trait 3 0 0 0.783898 0.946501 0 0.625324 0 0 
node 1 3 1 3
node 2 2 1 1
node 3 3 1 1
node 4 3 1 1
node 5 2 1 1
node 6 3 0 2
node 7 2 0 2
gene 1 1 6 4.05686 0 1 4.05686 1
gene 2 2 6 2.57973 0 2 2.57973 1
gene 1 3 6 -0.695441 0 3 -0.695441 1
gene 1 4 6 -0.771027 0 4 -0.771027 1
gene 3 5 6 -2.08575 0 5 -2.08575 1
gene 2 1 7 0.448103 0 6 0.448103 1
gene 1 2 7 0.43659 0 7 0.43659 1
gene 3 3 7 -3.04003 0 8 -3.04003 1
gene 1 4 7 0.334407 0 9 0.334407 1
gene 3 5 7 -0.525193 0 10 -0.525193 1
genomeend 47

/* Organism #48 Fitness: 64 Error: 0 */
genomestart 48
trait 1 0.1 0 0 0 0 0 0 0 
trait 2 0.2 0 0 0 0 0 0 0 
trait 3 0.3 0 0 0 0 0 0 0 
node 1 3 1 3
node 2 2 1 1
node 3 3 1 1
node 4 3 1 1
node 5 2 1 1
node 6 3 0 2
node 7 2 0 2
gene 2 1 6 0.147206 0 1 0.147206 1
gene 3 2 6 -0.0606708 0 2 -0.0606708 1
gene 2 3 6 1.71838 0 3 1.71838 1
gene 1 4 6 -0.616298 0 4 -0.616298 1
gene 3 5 6 -1.98566 0 5 -1.98566 1
gene 2 1 7 -2.53516 0 6 -2.53516 1
gene 3 2 7 3.31397 0 7 3.31397 1
gene 3 3 7 -0.97203 0 8 -0.97203 1
gene 1 4 7 7.06439 0 9 7.06439 1
gene 2 5 7 -3.61835 0 10 -3.61835 1
genomeend 48

/* Organism #49 Fitness: 81 Error: 0 */
genomestart 49
trait 1 0.1 0 0 0 0 0 0 0 
trait 2 0.2 0 0 0 0 0 0 0 
trait 3 0.3 0 0 0 0 0 0 0 
node 1 3 1 3
node 2 2 1 1
node 3 2 1 1
node 4 2 1 1
node 5 3 1 1
node 6 1 0 2
node 7 2 0 2
gene 2 1 6 1.49566 0 1 1.49566 1
gene 2 2 6 2.13266 0 2 2.13266 1
gene 1 3 6 -0.660306 0 3 -0.660306 1
gene 1 4 6 -0.762034 0 4 -0.762034 1
gene 2 5 6 -1.98882 0 5 -1.98882 1
gene 1 1 7 -0.458977 0 6 -0.458977 1
gene 1 2 7 -0.561304 0 7 -0.561304 1
gene 2 3 7 -0.845704 0 8 -0.845704 1
gene 1 4 7 2.61338 0 9 2.61338 1
gene 2 5 7 0.971322 0 10 0.971322 1
genomeend 49

/* Organism #50 Fitness: 38 Error: 0 */
genomestart 50
trait 1 0.398959 0 0 0 0 0.312632 0 0 
trait 2 0.2 0 0 0 0 0 0 0 
trait 3 0.3 0 0 0 0 0 0 0 
node 1 2 1 3
node 2 2 1 1
node 3 3 1 1
node 4 2 1 1
node 5 2 1 1
node 6 2 0 2
node 7 2 0 2
gene 1 1 6 1.83737 0 1 1.83737 1
gene 1 2 6 -0.232765 0 2 -0.232765 1
gene 1 3 6 -1.58898 0 3 -1.58898 1
gene 1 4 6 -2.71882 0 4 -2.71882 1
gene 2 5 6 1.14589 0 5 1.14589 1
gene 1 1 7 0.456847 0 6 0.456847 1
gene 1 2 7 1.91061 0 7 1.91061 1
gene 3 3 7 -3.7307 0 8 -3.7307 1
gene 2 4 7 -0.590022 0 9 -0.590022 1
gene 1 5 7 -0.722739 0 10 -0.722739 1
genomeend 50

/* Organism #51 Fitness: 73 Error: 0 */
genomestart 51
trait 1 0.1 0 0 0 0 0 0 0 
trait 2 0.2 0 0 0 0 0 0 0 
trait 3 0.3 0 0 0 0 0 0 0 
node 1 1 1 3
node 2 3 1 1
node 3 2 1 1
node 4 2 1 1
node 5 2 1 1
node 6 3 0 2
node 7 2 0 2
gene 2 1 6 3.84025 0 1 3.84025 1
gene 1 2 6 0.792489 0 2 0.792489 1
gene 1 3 6 -0.93585 0 3 -0.93585 1
gene 1 4 6 -2.9221 0 4 -2.9221 1
gene 2 5 6 -3.84219 0 5 -3.84219 1
gene 1 1 7 0.814966 0 6 0.814966 1
gene 1 2 7 -1.01244 0 7 -1.01244 1
gene 2 3 7 -1.30665 0 8 -1.30665 1
gene 2 4 7 0.560701 0 9 0.560701 1
gene 2 5 7 -0.319987 0 10 -0.319987 1
genomeend 51

/* Organism #52 Fitness: 20 Error: 0 */
genomestart 52
trait 1 0.1 0 0 0 0 0 0 0 
trait 2 0.2 0 0 0 0 0 0 0 
trait 3 0.225 0 0 0 0 0 0 0 
node 1 2 1 3
node 2 3 1 1
node 3 1 1 1
node 4 2 1 1
node 5 1 1 1
node 6 2 0 2
node 7 1 0 2
gene 2 1 6 1.56042 0 1 1.56042 1
gene 2 2 6 -0.0714438 0 2 -0.0714438 1
gene 2 3 6 -0.992767 0 3 -0.992767 1
gene 1 4 6 -2.25036 0 4 -2.25036 1
gene 3 5 6 -7.31194 0 5 -7.31194 1
gene 2 1 7 0.644017 0 6 0.644017 1
gene 3 2 7 -3.94271 0 7 -3.94271 1
gene 2 3 7 -0.961791 0 8 -0.961791 1
gene 3 4 7 -0.114353 0 9 -0.114353 1
gene 2 5 7 0.940886 0 10 0.940886 1
genomeend 52

/* Organism #53 Fitness: 3 Error: 0 */
genomestart 53
trait 1 0.1 0 0 0 0 0 0 0 
trait 2 0.2 0 0 0 0 0 0 0 
trait 3 0.3 0 0 0 0 0 0 0 
node 1 1 1 3
node 2 3 1 1
node 3 2 1 1
node 4 2 1 1
node 5 2 1 1
node 6 3 0 2
node 7 2 0 2
gene 2 1 6 2.29362 0 1 2.29362 1
gene 2 2 6 -0.81988 0 2 -0.81988 1
gene 1 3 6 -0.294626 0 3 -0.294626 1
gene 1 4 6 -0.720397 0 4 -0.720397 1
gene 3 5 6 -3.12442 0 5 -3.12442 1
gene 2 1 7 -0.82461 0 6 -0.82461 1
gene 1 2 7 0.230567 0 7 0.230567 1
gene 2 3 7 -0.505165 0 8 -0.505165 1
gene 1 4 7 2.48062 0 9 2.48062 1
gene 2 5 7 0.305666 0 10 0.305666 1
genomeend 53

/* Organism #54 Fitness: 38 Error: 0 */
genomestart 54
trait 1 0.1 0 0 0 0 0 0 0 
trait 2 0.2 0 0 0 0 0 0 0 
trait 3 0.3 0 0 0 0 0 0 0 
node 1 3 1 3
node 2 3 1 1
node 3 1 1 1
node 4 2 1 1
node 5 1 1 1
node 6 2 0 2
node 7 1 0 2
gene 2 1 6 3.90602 0 1 3.90602 1
gene 3 2 6 1.42028 0 2 1.42028 1
gene 1 3 6 4.32995 0 3 4.32995 1
gene 1 4 6 -4.67931 0 4 -4.67931 1
gene 2 5 6 -3.75561 0 5 -3.75561 1
gene 2 1 7 2.65899 0 6 2.65899 1
gene 1 2 7 -4.10424 0 7 -4.10424 0
gene 1 3 7 0.235496 0 8 0.235496 1
gene 1 4 7 3.0332 0 9 3.0332 1
gene 2 5 7 4.26206 0 10 4.26206 1
genomeend 54

/* Organism #55 Fitness: 62 Error: 0 */
genomestart 55
trait 1 0.1 0 0 0 0 0 0 0 
trait 2 0.2 0 0 0 0 0 0 0 
trait 3 0.3 0 0 0 0 0 0 0 
node 1 3 1 3
node 2 2 1 1
node 3 3 1 1
node 4 3 1 1
node 5 2 1 1
node 6 3 0 2
node 7 2 0 2
gene 1 1 6 1.0062 0 1 1.0062 1
gene 3 2 6 0.492248 0 2 0.492248 1
gene 2 3 6 2.78278 0 3 2.78278 1
gene 1 4 6 -1.94972 0 4 -1.94972 1
gene 2 5 6 -0.809351 0 5 -0.809351 1
gene 1 1 7 -0.984466 0 6 -0.984466 1
gene 3 2 7 1.07674 0 7 1.07674 1
gene 3 3 7 0.383602 0 8 0.383602 1
gene 1 4 7 4.7385 0 9 4.7385 1
gene 1 5 7 1.01392 0 10 1.01392 1
genomeend 55

/* Organism #56 Fitness: 10 Error: 0 */
genomestart 56
trait 1 0 0 0 0 0 0 0 0 
trait 2 0.2 0 0 0 0 0 0 0 
trait 3 0.3 0 0 0 0 0 0 0 
node 1 3 1 3
node 2 2 1 1
node 3 2 1 1
node 4 2 1 1
node 5 3 1 1
node 6 1 0 2
node 7 2 0 2
gene 2 1 6 -1.67699 0 1 -1.67699 1
gene 2 2 6 -1.68989 0 2 -1.68989 1
gene 3 3 6 -2.99919 0 3 -2.99919 1
gene 2 4 6 -1.65621 0 4 -1.65621 1
gene 3 5 6 -0.0550096 0 5 -0.0550096 1
gene 1 1 7 -0.991852 0 6 -0.991852 1
gene 3 2 7 -1.49939 0 7 -1.49939 1
gene 3 3 7 -1.36977 0 8 -1.36977 1
gene 1 4 7 3.079 0 9 3.079 1
gene 2 5 7 3.98014 0 10 3.98014 1
genomeend 56

/* Organism #57 Fitness: 10 Error: 0 */
genomestart 57
trait 1 0.1 0 0 0 0 0 0 0 
trait 2 0.2 0 0 0 0 0 0 0 
trait 3 0.3 0 0 0 0 0 0 0 
node 1 1 1 3
node 2 3 1 1
node 3 2 1 1
node 4 2 1 1
node 5 2 1 1
node 6 3 0 2
node 7 2 0 2
gene 1 1 6 2.12828 0 1 2.12828 1
gene 3 2 6 -1.49525 0 2 -1.49525 1
gene 1 3 6 0.339396 0 3 0.339396 1
gene 1 4 6 -1.88311 0 4 -1.88311 1
gene 3 5 6 -2.18871 0 5 -2.18871 1
gene 1 1 7 0.114429 0 6 0.114429 1
gene 1 2 7 -0.445494 0 7 -0.445494 1
gene 3 3 7 0.994789 0 8 0.994789 1
gene 2 4 7 2.21677 0 9 2.21677 1
gene 2 5 7 4.64492 0 10 4.64492 1
genomeend 57

/* Organism #58 Fitness: 9 Error: 0 */
genomestart 58
trait 1 0.1 0 0 0 0 0 0 0 
trait 2 0.2 0 0 0 0 0 0 0 
trait 3 0.3 0 0 0 0 0 0 0 
node 1 3 1 3
node 2 2 1 1
node 3 2 1 1
node 4 2 1 1
node 5 3 1 1
node 6 1 0 2
node 7 2 0 2
gene 2 1 6 -0.489204 0 1 -0.489204 1
gene 1 2 6 2.04886 0 2 2.04886 1
gene 3 3 6 -3.02551 0 3 -3.02551 1
gene 3 4 6 -3.35262 0 4 -3.35262 1
gene 3 5 6 -1.0716 0 5 -1.0716 1
gene 2 1 7 0.63393 0 6 0.63393 1
gene 1 2 7 -2.09596 0 7 -2.09596 1
gene 2 3 7 1.76611 0 8 1.76611 1
gene 1 4 7 2.28922 0 9 2.28922 1
gene 2 5 7 3.50072 0 10 3.50072 1
genomeend 58

/* Organism #59 Fitness: 12 Error: 0 */
genomestart 59
trait 1 0.1 0 0 0 0 0 0 0 
trait 2 0.2 0 0 0 0 0 0 0 
trait 3 0.3 0 0 0 0 0 0 0 
node 1 3 1 3
node 2 2 1 1
node 3 2 1 1
node 4 2 1 1
node 5 3 1 1
node 6 1 0 2
node 7 2 0 2
gene 2 1 6 1.01576 0 1 1.01576 1
gene 1 2 6 2.29881 0 2 2.29881 1
gene 1 3 6 0.582705 0 3 0.582705 1
gene 3 4 6 -2.46193 0 4 -2.46193 1
gene 2 5 6 0.938749 0 5 0.938749 1
gene 2 1 7 0.0923948 0 6 0.0923948 1
gene 1 2 7 0.802408 0 7 0.802408 1
gene 2 3 7 1.62434 0 8 1.62434 1
gene 1 4 7 0.131611 0 9 0.131611 1
gene 2 5 7 0.305666 0 10 0.305666 1
genomeend 59

/* Organism #60 Fitness: 5 Error: 0 */
genomestart 60
trait 1 0.1 0 0 0 0 0 0 0 
trait 2 0.2 0 0 0 0 0 0 0 
trait 3 0.3 0 0 0 0 0 0 0 
node 1 1 1 3
node 2 3 1 1
node 3 2 1 1
node 4 2 1 1
node 5 2 1 1
node 6 3 0 2
node 7 2 0 2
gene 2 1 6 0.172971 0 1 0.172971 1
gene 2 2 6 0.463805 0 2 0.463805 1
gene 3 3 6 0.235771 0 3 0.235771 1
gene 3 4 6 -1.57621 0 4 -1.57621 1
gene 3 5 6 -2.13982 0 5 -2.13982 1
gene 2 1 7 0.442328 0 6 0.442328 1
gene 3 2 7 -0.456908 0 7 -0.456908 1
gene 2 3 7 2.19855 0 8 2.19855 1
gene 3 4 7 0.863376 0 9 0.863376 1
gene 2 5 7 1.41456 0 10 1.41456 1
genomeend 60

/* Organism #61 Fitness: 7 Error: 0 */
genomestart 61
trait 1 0.1 0 0 0 0 0 0 0 
trait 2 0.2 0 0 0 0 0 0 0 
trait 3 0.3 0 0 0 0 0 0 0 
node 1 1 1 3
node 2 3 1 1
node 3 2 1 1
node 4 2 1 1
node 5 3 1 1
node 6 2 0 2
node 7 3 0 2
gene 2 1 6 -1.73795 0 1 -1.73795 1
gene 2 2 6 1.31601 0 2 1.31601 1
gene 1 3 6 1.12056 0 3 1.12056 1
gene 1 4 6 -2.46558 0 4 -2.46558 1
gene 2 5 6 -2.3819 0 5 -2.3819 1
gene 1 1 7 1.19755 0 6 1.19755 1
gene 3 2 7 -0.113224 0 7 -0.113224 1
gene 1 3 7 -0.0621357 0 8 -0.0621357 1
gene 1 4 7 1.76489 0 9 1.76489 1
gene 2 5 7 1.84759 0 10 1.84759 1
genomeend 61

/* Organism #62 Fitness: 53 Error: 0 */
genomestart 62
trait 1 0.1 0 0 0 0 0 0 0 
trait 2 0.2 0 0 0 0 0 0 0 
trait 3 0.3 0 0 0 0 0 0 0 
node 1 3 1 3
node 2 3 1 1
node 3 1 1 1
node 4 2 1 1
node 5 1 1 1
node 6 2 0 2
node 7 1 0 2
gene 2 1 6 -0.84695 0 1 -0.84695 1
gene 3 2 6 -0.881195 0 2 -0.881195 1
gene 1 3 6 1.9124 0 3 1.9124 1
gene 2 4 6 -2.41396 0 4 -2.41396 1
gene 3 5 6 -0.4007 0 5 -0.4007 1
gene 1 1 7 -2.61667 0 6 -2.61667 1
gene 1 2 7 -0.928457 0 7 -0.928457 0
gene 2 3 7 -0.0491691 0 8 -0.0491691 1
gene 1 4 7 3.35426 0 9 3.35426 1
gene 2 5 7 1.60051 0 10 1.60051 1
gene 1 6 7 -0.679312 0 40 -0.679312 1
genomeend 62

/* Organism #63 Fitness: 9 Error: 0 */
genomestart 63
trait 1 0.1 0 0 0 0 0 0 0 
trait 2 0.2 0 0 0 0 0 0 0 
trait 3 0.3 0 0 0 0 0 0 0 
node 1 1 1 3
node 2 2 1 1
node 3 2 1 1
node 4 3 1 1
node 5 2 1 1
node 6 2 0 2
node 7 3 0 2
gene 2 1 6 -0.0118717 0 1 -0.0118717 1
gene 2 2 6 -0.96469 0 2 -0.96469 1
gene 3 3 6 -0.502319 0 3 -0.502319 1
gene 1 4 6 -0.724746 0 4 -0.724746 1
gene 3 5 6 1.90777 0 5 1.90777 1
gene 2 1 7 1.47504 0 6 1.47504 1
gene 3 2 7 -3.47543 0 7 -3.47543 1
gene 3 3 7 -1.5914 0 8 -1.5914 1
gene 3 4 7 -1.87082 0 9 -1.87082 1
gene 2 5 7 0.305666 0 10 0.305666 1
genomeend 63

/* Organism #64 Fitness: 54 Error: 0 */
genomestart 64
trait 1 0.1 0 0 0 0 0 0 0 
trait 2 0.2 0 0 0 0 0 0 0 
trait 3 0.15 0 0 0.228233 0.427168 0 0 0 
node 1 3 1 3
node 2 2 1 1
node 3 3 1 1
node 4 3 1 1
node 5 2 1 1
node 6 3 0 2
node 7 2 0 2
gene 2 1 6 0.0657025 0 1 0.0657025 1
gene 2 2 6 1.70933 0 2 1.70933 1
gene 1 3 6 -0.281125 0 3 -0.281125 1
gene 1 4 6 -1.30852 0 4 -1.30852 1
gene 2 5 6 -1.67907 0 5 -1.67907 1
gene 1 1 7 -3.20819 0 6 -3.20819 1
gene 1 2 7 1.75155 0 7 1.75155 1
gene 1 3 7 -1.72115 0 8 -1.72115 1
gene 1 4 7 0.692543 0 9 0.692543 1
gene 2 5 7 2.33285 0 10 2.33285 1
genomeend 64

/* Organism #65 Fitness: 40 Error: 0 */
genomestart 65
trait 1 0.1 0 0 0 0 0 0 0 
trait 2 0.2 0 0 0 0 0 0 0 
trait 3 0.3 0 0 0 0 0 0 0 
node 1 1 1 3
node 2 3 1 1
node 3 2 1 1
node 4 2 1 1
node 5 2 1 1
node 6 3 0 2
node 7 2 0 2
gene 1 1 6 2.98037 0 1 2.98037 1
gene 3 2 6 -0.96485 0 2 -0.96485 1
gene 2 3 6 1.55467 0 3 1.55467 1
gene 1 4 6 -1.30157 0 4 -1.30157 1
gene 2 5 6 -1.71345 0 5 -1.71345 1
gene 1 1 7 0.471572 0 6 0.471572 1
gene 3 2 7 -0.0123066 0 7 -0.0123066 1
gene 3 3 7 -1.62384 0 8 -1.62384 1
gene 1 4 7 -0.183828 0 9 -0.183828 1
gene 2 5 7 0.65392 0 10 0.65392 1
genomeend 65

/* Organism #66 Fitness: 11 Error: 0 */
genomestart 66
trait 1 0.1 0 0 0 0 0 0 0 
trait 2 0.2 0 0 0 0 0 0 0 
trait 3 0.3 0 0 0 0 0 0 0 
node 1 1 1 3
node 2 3 1 1
node 3 2 1 1
node 4 2 1 1
node 5 2 1 1
node 6 3 0 2
node 7 2 0 2
gene 2 1 6 2.90243 0 1 2.90243 1
gene 2 2 6 0.752987 0 2 0.752987 1
gene 1 3 6 1.97473 0 3 1.97473 1
gene 1 4 6 -0.571524 0 4 -0.571524 1
gene 3 5 6 0.542577 0 5 0.542577 1
gene 1 1 7 -0.526376 0 6 -0.526376 1
gene 1 2 7 -2.36347 0 7 -2.36347 1
gene 2 3 7 -1.7838 0 8 -1.7838 1
gene 3 4 7 1.96724 0 9 1.96724 1
gene 2 5 7 -2.13858 0 10 -2.13858 1
genomeend 66

/* Organism #67 Fitness: 13 Error: 0 */
genomestart 67
trait 1 0.1 0 0 0 0 0 0 0 
trait 2 0.2 0 0 0 0 0 0 0 
trait 3 0.3 0 0 0 0 0 0 0 
node 1 3 1 3
node 2 3 1 1
node 3 1 1 1
node 4 2 1 1
node 5 1 1 1
node 6 2 0 2
node 7 1 0 2
gene 2 1 6 1.05377 0 1 1.05377 1
gene 2 2 6 0.0594615 0 2 0.0594615 1
gene 2 3 6 0.506611 0 3 0.506611 1
gene 2 4 6 -1.19484 0 4 -1.19484 1
gene 3 5 6 -0.333869 0 5 -0.333869 1
gene 1 1 7 -3.75574 0 6 -3.75574 1
gene 1 2 7 2.27454 0 7 2.27454 1
gene 2 3 7 -1.78175 0 8 -1.78175 1
gene 3 4 7 3.19923 0 9 3.19923 1
gene 1 5 7 1.47071 0 10 1.47071 1
genomeend 67

/* Organism #68 Fitness: 12 Error: 0 */
genomestart 68
trait 1 0.1 0 0 0 0 0 0 0 
trait 2 0.2 0 0 0 0 0 0 0 
trait 3 0.15 0 0.391949 0.473251 0 0.312662 0 0 
node 1 2 1 3
node 2 2 1 1
node 3 1 1 1
node 4 2 1 1
node 5 3 1 1
node 6 2 0 2
node 7 3 0 2
gene 1 1 6 1.18308 0 1 1.18308 1
gene 2 2 6 -1.0135 0 2 -1.0135 1
gene 1 3 6 2.22723 0 3 2.22723 1
gene 1 4 6 -4.36798 0 4 -4.36798 1
gene 2 5 6 0.283956 0 5 0.283956 1
gene 2 1 7 1.33934 0 6 1.33934 1
gene 1 2 7 -1.69901 0 7 -1.69901 1
gene 3 3 7 -0.539506 0 8 -0.539506 1
gene 1 4 7 1.24668 0 9 1.24668 1
gene 3 5 7 1.95173 0 10 1.95173 1
genomeend 68

/* Organism #69 Fitness: 91 Error: 0 */
genomestart 69
trait 1 0.1 0 0 0 0 0 0 0 
trait 2 0.380105 0 0 0 0 0 0 0 
trait 3 0.3 0 0 0 0 0 0 0 
node 1 1 1 3
node 2 3 1 1
node 3 2 1 1
node 4 2 1 1
node 5 2 1 1
node 6 3 0 2
node 7 2 0 2
gene 2 1 6 1.18476 0 1 1.18476 1
gene 3 2 6 1.25648 0 2 1.25648 1
gene 1 3 6 -1.24248 0 3 -1.24248 1
gene 1 4 6 -2.18563 0 4 -2.18563 1
gene 3 5 6 -1.05107 0 5 -1.05107 1
gene 2 1 7 0.382427 0 6 0.382427 1
gene 3 2 7 -3.58309 0 7 -3.58309 1
gene 3 3 7 -0.00726341 0 8 -0.00726341 1
gene 2 4 7 3.06061 0 9 3.06061 1
gene 2 5 7 0.900266 0 10 0.900266 1
genomeend 69

/* Organism #70 Fitness: 23 Error: 0 */
genomestart 70
trait 1 0.1 0.0547655 0 0 0 0.0472198 0.061758 0 
trait 2 0.2 0 0 0 0 0 0 0 
trait 3 0.3 0 0 0 0 0 0 0 
node 1 3 1 3
node 2 2 1 1
node 3 2 1 1
node 4 2 1 1
node 5 3 1 1
node 6 1 0 2
node 7 2 0 2
gene 2 1 6 4.01917 0 1 4.01917 1
gene 1 2 6 -0.210425 0 2 -0.210425 1
gene 2 3 6 2.63419 0 3 2.63419 1
gene 1 4 6 -0.809229 0 4 -0.809229 1
gene 2 5 6 -2.21664 0 5 -2.21664 1
gene 2 1 7 -0.142705 0 6 -0.142705 1
gene 2 2 7 -0.338633 0 7 -0.338633 1
gene 1 3 7 2.44397 0 8 2.44397 1
gene 1 4 7 1.02756 0 9 1.02756 1
gene 2 5 7 1.94471 0 10 1.94471 1
genomeend 70

/* Organism #71 Fitness: 2 Error: 0 */
genomestart 71
trait 1 0.1 0 0 0 0 0 0 0 
trait 2 0.2 0 0 0 0 0 0 0 
trait 3 0.15 0 0.391949 0.473251 0 0.312662 0 0 
node 1 1 1 3
node 2 3 1 1
node 3 2 1 1
node 4 2 1 1
node 5 2 1 1
node 6 3 0 2
node 7 2 0 2
gene 1 1 6 -0.321223 0 1 -0.321223 1
gene 3 2 6 -1.27926 0 2 -1.27926 1
gene 1 3 6 -0.171083 0 3 -0.171083 1
gene 1 4 6 -4.75845 0 4 -4.75845 1
gene 3 5 6 -1.90822 0 5 -1.90822 1
gene 2 1 7 -1.54908 0 6 -1.54908 1
gene 3 2 7 -1.73437 0 7 -1.73437 1
gene 3 3 7 1.25233 0 8 1.25233 1
gene 2 4 7 0.103076 0 9 0.103076 1
gene 2 5 7 1.52033 0 10 1.52033 1
genomeend 71

/* Organism #72 Fitness: 4 Error: 0 */
genomestart 72
trait 1 0.1 0 0 0 0 0 0 0 
trait 2 0.2 0 0 0 0 0 0 0 
trait 3 0.3 0 0 0 0 0 0.767388 0 
node 1 1 1 3
node 2 3 1 1
node 3 3 1 1
node 4 2 1 1
node 5 2 1 1
node 6 3 0 2
node 7 2 0 2
gene 1 1 6 1.53478 0 1 1.53478 1
gene 2 2 6 -1.5479 0 2 -1.5479 1
gene 1 3 6 -2.1001 0 3 -2.1001 1
gene 1 4 6 -3.02382 0 4 -3.02382 1
gene 3 5 6 -2.79154 0 5 -2.79154 1
gene 2 1 7 0.583857 0 6 0.583857 1
gene 1 2 7 1.15894 0 7 1.15894 1
gene 3 3 7 -0.30118 0 8 -0.30118 1
gene 2 4 7 1.45572 0 9 1.45572 1
gene 1 5 7 1.01392 0 10 1.01392 1
genomeend 72

/* Organism #73 Fitness: 3 Error: 0 */
genomestart 73
trait 1 0.1 0 0 0 0 0 0 0 
trait 2 0.2 0 0 0 0 0 0 0 
trait 3 0.2625 0 0 0 0 0 0 0 
node 1 1 1 3
node 2 3 1 1
node 3 2 1 1
node 4 2 1 1
node 5 2 1 1
node 6 3 0 2
node 7 2 0 2
gene 2 1 6 3.2363 0 1 3.2363 1
gene 3 2 6 -0.820643 0 2 -0.820643 1
gene 3 3 6 -3.5668 0 3 -3.5668 1
gene 1 4 6 -2.31212 0 4 -2.31212 1
gene 3 5 6 -4.48817 0 5 -4.48817 1
gene 3 1 7 -0.756481 0 6 -0.756481 1
gene 3 2 7 2.81463 0 7 2.81463 1
gene 3 3 7 1.53703 0 8 1.53703 1
gene 1 4 7 2.75999 0 9 2.75999 1
gene 2 5 7 0.826312 0 10 0.826312 1
gene 3 7 6 -0.958678 0 27 -0.958678 1
genomeend 73

/* Organism #74 Fitness: 9 Error: 0 */
genomestart 74
trait 1 0.1 0 0 0 0 0 0 0 
trait 2 0.2 0 0 0 0 0 0 0 
trait 3 0.3 0 0 0 0 0 0 0 
node 1 2 1 3
node 2 2 1 1
node 3 1 1 1
node 4 2 1 1
node 5 3 1 1
node 6 2 0 2
node 7 3 0 2
gene 2 1 6 -0.533158 0 1 -0.533158 1
gene 2 2 6 -0.930158 0 2 -0.930158 1
gene 1 3 6 5.23719 0 3 5.23719 1
gene 1 4 6 -2.58567 0 4 -2.58567 1
gene 2 5 6 -1.44688 0 5 -1.44688 1
gene 2 1 7 4.26395 0 6 4.26395 1
gene 1 2 7 0.240837 0 7 0.240837 1
gene 1 3 7 0.235496 0 8 0.235496 1
gene 1 4 7 -2.04054 0 9 -2.04054 1
gene 2 5 7 -0.314493 0 10 -0.314493 1
genomeend 74

/* Organism #75 Fitness: 165 Error: 0 */
genomestart 75
trait 1 0.1 0 0 0 0 0 0 0 
trait 2 0.2 0 0 0 0 0 0 0 
trait 3 0.3 0 0 0 0 0 0 0 
node 1 2 1 3
node 2 2 1 1
node 3 1 1 1
node 4 2 1 1
node 5 3 1 1
node 6 2 0 2
node 7 3 0 2
gene 2 1 6 2.12786 0 1 2.12786 1
gene 2 2 6 -3.63746 0 2 -3.63746 1
gene 1 3 6 -0.937834 0 3 -0.937834 1
gene 1 4 6 -4.4022 0 4 -4.4022 1
gene 2 5 6 -2.27096 0 5 -2.27096 1
gene 1 1 7 -1.73292 0 6 -1.73292 1
gene 1 2 7 -0.135533 0 7 -0.135533 1
gene 1 3 7 -0.591937 0 8 -0.591937 1
gene 1 4 7 2.19924 0 9 2.19924 1
gene 2 5 7 -1.09226 0 10 -1.09226 1
genomeend 75

/* Organism #76 Fitness: 1 Error: 0 */
genomestart 76
trait 1 0.1 0 0 0 0 0 0 0 
trait 2 0.2 0 0 0 0 0 0 0 
trait 3 0.3 0 0 0 0 0 0 0 
node 1 3 1 3
node 2 3 1 1
node 3 1 1 1
node 4 2 1 1
node 5 1 1 1
node 6 2 0 2
node 7 1 0 2
gene 2 1 6 0.0842311 0 1 0.0842311 1
gene 2 2 6 -1.44761 0 2 -1.44761 1
gene 1 3 6 1.9124 0 3 1.9124 1
gene 1 4 6 -2.52393 0 4 -2.52393 1
gene 3 5 6 0.654607 0 5 0.654607 1
gene 2 1 7 0.382427 0 6 0.382427 1
gene 3 2 7 -3.58309 0 7 -3.58309 0
gene 2 3 7 -0.0491691 0 8 -0.0491691 1
gene 2 4 7 3.06061 0 9 3.06061 1
gene 1 5 7 -2.45638 0 10 -2.45638 1
genomeend 76

/* Organism #77 Fitness: 10 Error: 0 */
genomestart 77
trait 1 0.1 0 0 0 0 0 0 0 
trait 2 0.2 0 0 0 0 0 0 0 
trait 3 0.15 0 0 0 0 0 0 0 
node 1 1 1 3
node 2 3 1 1
node 3 2 1 1
node 4 2 1 1
node 5 3 1 1
node 6 2 0 2
node 7 3 0 2
gene 1 1 6 -0.365032 0 1 -0.365032 1
gene 2 2 6 0.39491 0 2 0.39491 1
gene 1 3 6 -1.49113 0 3 -1.49113 1
gene 1 4 6 -0.596759 0 4 -0.596759 1
gene 3 5 6 -1.60131 0 5 -1.60131 1
gene 2 1 7 1.10268 0 6 1.10268 1
gene 2 2 7 -3.05727 0 7 -3.05727 1
gene 3 3 7 0.132023 0 8 0.132023 1
gene 3 4 7 1.26614 0 9 1.26614 1
gene 3 5 7 1.50264 0 10 1.50264 1
gene 3 7 6 0.700064 0 22 0.700064 1
genomeend 77

/* Organism #78 Fitness: 94 Error: 0 */
genomestart 78
trait 1 0.1 0 0 0 0 0 0 0 
trait 2 0.380105 0 0 0 0 0 0 0 
trait 3 0.3 0 0 0 0 0 0 0 
node 1 1 1 3
node 2 3 1 1
node 3 2 1 1
node 4 2 1 1
node 5 2 1 1
node 6 3 0 2
node 7 2 0 2
gene 2 1 6 1.9983 0 1 1.9983 1
gene 3 2 6 -0.166292 0 2 -0.166292 1
gene 1 3 6 -2.0444 0 3 -2.0444 1
gene 1 4 6 -4.01746 0 4 -4.01746 1
gene 2 5 6 0.886635 0 5 0.886635 1
gene 3 1 7 -1.95788 0 6 -1.95788 1
gene 3 2 7 2.39846 0 7 2.39846 1
gene 2 3 7 -3.06993 0 8 -3.06993 1
gene 1 4 7 2.13605 0 9 2.13605 1
gene 2 5 7 1.96249 0 10 1.96249 1
genomeend 78

/* Organism #79 Fitness: 2 Error: 0 */
genomestart 79
trait 1 0.1 0 0 0 0 0 0 0 
trait 2 0.2 0 0 0 0 0 0 0 
trait 3 0.3 0 0 0 0 0 0 0 
node 1 1 1 3
node 2 2 1 1
node 3 2 1 1
node 4 2 1 1
node 5 3 1 1
node 6 1 0 2
node 7 2 0 2
gene 2 1 6 1.59204 0 1 1.59204 1
gene 1 2 6 0.666849 0 2 0.666849 1
gene 3 3 6 3.91145 0 3 3.91145 1
gene 2 4 6 -1.18916 0 4 -1.18916 1
gene 3 5 6 -0.225433 0 5 -0.225433 1
gene 2 1 7 1.93186 0 6 1.93186 1
gene 3 2 7 -1.43627 0 7 -1.43627 1
gene 3 3 7 2.21134 0 8 2.21134 1
gene 2 4 7 3.29404 0 9 3.29404 1
gene 2 5 7 3.01931 0 10 3.01931 1
genomeend 79

/* Organism #80 Fitness: 21 Error: 0 */
genomestart 80
trait 1 0.1 0 0 0 0 0 0 0 
trait 2 0.2 0 0 0 0 0 0 0 
trait 3 0.15 0 0 0.228233 0.427168 0 0 0 
node 1 2 1 3
node 2 2 1 1
node 3 3 1 1
node 4 2 1 1
node 5 2 1 1
node 6 2 0 2
node 7 2 0 2
gene 2 1 6 3.59198 0 1 3.59198 1
gene 1 2 6 -0.327433 0 2 -0.327433 1
gene 2 3 6 1.02182 0 3 1.02182 1
gene 2 4 6 -3.01334 0 4 -3.01334 1
gene 2 5 6 -2.16028 0 5 -2.16028 1
gene 1 1 7 -2.74347 0 6 -2.74347 1
gene 3 2 7 -1.23933 0 7 -1.23933 1
gene 3 3 7 -2.4912 0 8 -2.4912 1
gene 1 4 7 1.73103 0 9 1.73103 1
gene 1 5 7 0.966063 0 10 0.966063 1
genomeend 80

/* Organism #81 Fitness: 4 Error: 0 */
genomestart 81
trait 1 0.1 0 0 0 0 0 0 0 
trait 2 0.2 0 0 0 0 0 0 0 
trait 3 0 0 0.783898 0.946501 0 0.625324 0 0 
node 1 3 1 3
node 2 2 1 1
node 3 3 1 1
node 4 3 1 1
node 5 2 1 1
node 6 3 0 2
node 7 2 0 2
gene 1 1 6 0.402882 0 1 0.402882 1
gene 2 2 6 2.10524 0 2 2.10524 1
gene 1 3 6 1.75184 0 3 1.75184 1
gene 1 4 6 -4.93299 0 4 -4.93299 1
gene 3 5 6 -2.08346 0 5 -2.08346 1
gene 2 1 7 -1.82072 0 6 -1.82072 1
gene 1 2 7 0.873997 0 7 0.873997 1
gene 3 3 7 -2.84959 0 8 -2.84959 1
gene 1 4 7 1.10858 0 9 1.10858 1
gene 3 5 7 -0.525193 0 10 -0.525193 1
genomeend 81

/* Organism #82 Fitness: 1059 Error: 0 */
genomestart 82
trait 1 0.1 0 0 0 0 0 0 0 
trait 2 0.2 0 0 0 0 0 0 0 
trait 3 0.3 0 0 0 0 0 0 0 
node 1 1 1 3
node 2 3 1 1
node 3 2 1 1
node 4 2 1 1
node 5 3 1 1
node 6 2 0 2
node 7 3 0 2
gene 1 1 6 -0.260643 0 1 -0.260643 1
gene 1 2 6 -0.307443 0 2 -0.307443 1
gene 3 3 6 -1.16106 0 3 -1.16106 1
gene 2 4 6 -0.666082 0 4 -0.666082 1
gene 2 5 6 -1.40815 0 5 -1.40815 1
gene 3 1 7 -4.05071 0 6 -4.05071 1
gene 3 2 7 -0.640507 0 7 -0.640507 1
gene 3 3 7 -0.753853 0 8 -0.753853 1
gene 2 4 7 5.00522 0 9 5.00522 1
gene 1 5 7 0.485549 0 10 0.485549 1
genomeend 82

/* Organism #83 Fitness: 211 Error: 0 */
genomestart 83
trait 1 0.1 0 0 0 0 0 0 0 
trait 2 0.2 0 0 0 0 0 0 0 
trait 3 0.225 0 0 0 0 0 0 0 
node 1 3 1 3
node 2 2 1 1
node 3 2 1 1
node 4 2 1 1
node 5 3 1 1
node 6 1 0 2
node 7 2 0 2
gene 2 1 6 2.11222 0 1 2.11222 1
gene 1 2 6 3.26159 0 2 3.26159 1
gene 1 3 6 -0.746254 0 3 -0.746254 1
gene 3 4 6 -1.35342 0 4 -1.35342 1
gene 2 5 6 -1.42407 0 5 -1.42407 1
gene 2 1 7 1.5806 0 6 1.5806 1
gene 2 2 7 -1.59017 0 7 -1.59017 1
gene 2 3 7 -1.28903 0 8 -1.28903 1
gene 3 4 7 2.67617 0 9 2.67617 1
gene 3 5 7 1.50264 0 10 1.50264 1
genomeend 83

/* Organism #84 Fitness: 2 Error: 0 */
genomestart 84
trait 1 0.1 0 0 0 0 0 0 0 
trait 2 0.2 0 0 0 0 0 0 0 
trait 3 0.3 0 0 0 0 0 0 0 
node 1 1 1 3
node 2 2 1 1
node 3 2 1 1
node 4 3 1 1
node 5 2 1 1
node 6 2 0 2
node 7 3 0 2
gene 2 1 6 2.30445 0 1 2.30445 1
gene 2 2 6 -2.08281 0 2 -2.08281 1
gene 1 3 6 3.02679 0 3 3.02679 1
gene 1 4 6 -2.5548 0 4 -2.5548 1
gene 3 5 6 -0.773843 0 5 -0.773843 1
gene 2 1 7 1.14495 0 6 1.14495 1
gene 3 2 7 -2.64409 0 7 -2.64409 1
gene 3 3 7 0.114116 0 8 0.114116 1
gene 1 4 7 3.2205 0 9 3.2205 1
gene 2 5 7 1.71419 0 10 1.71419 1
genomeend 84

/* Organism #85 Fitness: 30 Error: 0 */
genomestart 85
trait 1 0.1 0 0 0 0 0 0 0 
trait 2 0.2 0 0 0 0 0 0 0 
trait 3 0.3 0 0 0 0 0 0 0 
node 1 3 1 3
node 2 2 1 1
node 3 3 1 1
node 4 3 1 1
node 5 2 1 1
node 6 3 0 2
node 7 2 0 2
gene 2 1 6 0.369762 0 1 0.369762 1
gene 3 2 6 0.498505 0 2 0.498505 1
gene 2 3 6 -0.757469 0 3 -0.757469 1
gene 1 4 6 0.588038 0 4 0.588038 1
gene 3 5 6 -3.573 0 5 -3.573 1
gene 2 1 7 1.63053 0 6 1.63053 1
gene 3 2 7 -4.36177 0 7 -4.36177 1
gene 3 3 7 -1.01109 0 8 -1.01109 1
gene 1 4 7 -2.27615 0 9 -2.27615 1
gene 1 5 7 -0.277795 0 10 -0.277795 1
genomeend 85

/* Organism #86 Fitness: 36 Error: 0 */
genomestart 86
trait 1 0.1 0 0 0 0 0 0 0 
trait 2 0.2 0 0 0 0 0 0 0 
trait 3 0.3 0 0 0 0 0 0 0 
node 1 3 1 3
node 2 2 1 1
node 3 2 1 1
node 4 2 1 1
node 5 3 1 1
node 6 1 0 2
node 7 2 0 2
gene 2 1 6 1.35682 0 1 1.35682 1
gene 1 2 6 0.983516 0 2 0.983516 1
gene 1 3 6 -1.39407 0 3 -1.39407 1
gene 2 4 6 -1.07117 0 4 -1.07117 1
gene 3 5 6 -0.942007 0 5 -0.942007 1
gene 1 1 7 0.922002 0 6 0.922002 1
gene 1 2 7 -1.19672 0 7 -1.19672 1
gene 3 3 7 -2.12342 0 8 -2.12342 1
gene 2 4 7 1.94188 0 9 1.94188 1
gene 2 5 7 1.71956 0 10 1.71956 1
gene 3 7 6 0.0112308 0 33 0 1
genomeend 86

/* Organism #87 Fitness: 6 Error: 0 */
genomestart 87
trait 1 0.1 0.0547655 0 0 0 0.0472198 0.061758 0 
trait 2 0.2 0 0 0 0 0 0 0 
trait 3 0.3 0 0 0 0 0 0 0 
node 1 3 1 3
node 2 1 1 1
node 3 1 1 1
node 4 2 1 1
node 5 1 1 1
node 6 3 0 2
node 7 1 0 2
gene 3 1 6 1.69738 0 1 1.69738 1
gene 2 2 6 -2.41422 0 2 -2.41422 1
gene 1 3 6 3.30483 0 3 3.30483 1
gene 1 4 6 -3.33438 0 4 -3.33438 1
gene 2 5 6 -0.82316 0 5 -0.82316 1
gene 2 1 7 2.73115 0 6 2.73115 1
gene 1 2 7 -0.449187 0 7 -0.449187 1
gene 1 3 7 1.71225 0 8 1.71225 1
gene 1 4 7 1.12054 0 9 1.12054 1
gene 2 5 7 1.89615 0 10 1.89615 1
genomeend 87

/* Organism #88 Fitness: 4 Error: 0 */
genomestart 88
trait 1 0.1 0 0 0 0 0 0 0 
trait 2 0.2 0 0 0 0 0 0 0 
trait 3 0.225 0 0 0 0 0 0 0 
node 1 3 1 3
node 2 2 1 1
node 3 2 1 1
node 4 2 1 1
node 5 3 1 1
node 6 1 0 2
node 7 2 0 2
gene 2 1 6 0.695593 0 1 0.695593 1
gene 1 2 6 6.22748 0 2 6.22748 1
gene 2 3 6 0.222709 0 3 0.222709 1
gene 1 4 6 -0.970183 0 4 -0.970183 1
gene 3 5 6 -3.47839 0 5 -3.47839 1
gene 2 1 7 0.352184 0 6 0.352184 1
gene 3 2 7 2.34916 0 7 2.34916 1
gene 1 3 7 -3.18682 0 8 -3.18682 1
gene 1 4 7 -1.25759 0 9 -1.25759 1
gene 2 5 7 -0.0183874 0 10 -0.0183874 1
genomeend 88

/* Organism #89 Fitness: 147 Error: 0 */
genomestart 89
trait 1 0.1 0 0 0 0 0 0 0 
trait 2 0.2 0 0 0 0 0 0 0 
trait 3 0 0 0.783898 0.946501 0 0.625324 0 0 
node 1 3 1 3
node 2 2 1 1
node 3 3 1 1
node 4 3 1 1
node 5 2 1 1
node 6 3 0 2
node 7 2 0 2
gene 1 1 6 2.90792 0 1 2.90792 1
gene 2 2 6 2.17414 0 2 2.17414 1
gene 1 3 6 0.907926 0 3 0.907926 1
gene 1 4 6 -3.56538 0 4 -3.56538 1
gene 3 5 6 -0.383503 0 5 -0.383503 1
gene 2 1 7 -1.92318 0 6 -1.92318 1
gene 1 2 7 2.71594 0 7 2.71594 1
gene 3 3 7 -0.504089 0 8 -0.504089 1
gene 1 4 7 4.1847 0 9 4.1847 1
gene 3 5 7 -0.734855 0 10 -0.734855 1
genomeend 89

/* Organism #90 Fitness: 68 Error: 0 */
genomestart 90
trait 1 0.1 0 0 0 0 0 0 0 
trait 2 0.2 0 0 0 0 0 0 0 
trait 3 0.3 0 0 0 0 0 0 0 
node 1 3 1 3
node 2 3 1 1
node 3 3 1 1
node 4 2 1 1
node 5 1 1 1
node 6 2 0 2
node 7 1 0 2
gene 2 1 6 2.25372 0 1 2.25372 1
gene 2 2 6 -4.23421 0 2 -4.23421 1
gene 1 3 6 1.61314 0 3 1.61314 1
gene 1 4 6 -1.41042 0 4 -1.41042 1
gene 2 5 6 1.16497 0 5 1.16497 1
gene 2 1 7 -0.425428 0 6 -0.425428 1
gene 3 2 7 -0.749001 0 7 -0.749001 1
gene 3 3 7 -1.36116 0 8 -1.36116 1
gene 1 4 7 0.674409 0 9 0.674409 1
gene 2 5 7 1.89615 0 10 1.89615 1
genomeend 90

/* Organism #91 Fitness: 51 Error: 0 */
genomestart 91
trait 1 0.1 0 0 0 0 0 0 0 
trait 2 0.2 0 0 0 0 0 0 0 
trait 3 0.3 0 0 0 0 0 0 0 
node 1 1 1 3
node 2 3 1 1
node 3 2 1 1
node 4 2 1 1
node 5 2 1 1
node 6 3 0 2
node 7 2 0 2
gene 2 1 6 -0.00500504 0 1 -0.00500504 1
gene 3 2 6 0.494583 0 2 0.494583 1
gene 1 3 6 -0.4682 0 3 -0.4682 1
gene 1 4 6 -4.28988 0 4 -4.28988 1
gene 3 5 6 -0.00747703 0 5 -0.00747703 1
gene 3 1 7 -0.71305 0 6 -0.71305 1
gene 3 2 7 -1.92616 0 7 -1.92616 1
gene 3 3 7 -3.30548 0 8 -3.30548 1
gene 2 4 7 2.99011 0 9 2.99011 1
gene 2 5 7 -1.0136 0 10 -1.0136 1
genomeend 91

/* Organism #92 Fitness: 11 Error: 0 */
genomestart 92
trait 1 0.1 0 0 0 0 0 0 0 
trait 2 0.2 0 0 0 0 0 0 0 
trait 3 0.1125 0 0.391949 0.473251 0 0.312662 0 0 
node 1 3 1 3
node 2 2 1 1
node 3 3 1 1
node 4 3 1 1
node 5 2 1 1
node 6 3 0 2
node 7 2 0 2
gene 1 1 6 1.90025 0 1 1.90025 1
gene 2 2 6 3.54821 0 2 3.54821 1
gene 1 3 6 -1.6007 0 3 -1.6007 1
gene 1 4 6 -1.71803 0 4 -1.71803 1
gene 3 5 6 -1.16354 0 5 -1.16354 1
gene 2 1 7 -0.449866 0 6 -0.449866 1
gene 3 2 7 -0.462012 0 7 -0.462012 1
gene 3 3 7 2.05489 0 8 2.05489 1
gene 1 4 7 -1.59555 0 9 -1.59555 1
gene 2 5 7 -1.50502 0 10 -1.50502 1
gene 3 7 6 -1.14026 0 27 -1.14026 1
genomeend 92

/* Organism #93 Fitness: 27 Error: 0 */
genomestart 93
trait 1 0.1 0 0 0 0 0 0 0 
trait 2 0.2 0 0 0 0 0 0 0 
trait 3 0.15 0 0 0.228233 0.427168 0 0 0 
node 1 2 1 3
node 2 2 1 1
node 3 3 1 1
node 4 2 1 1
node 5 2 1 1
node 6 2 0 2
node 7 2 0 2
gene 1 1 6 1.0062 0 1 1.0062 1
gene 1 2 6 1.31354 0 2 1.31354 1
gene 2 3 6 1.02182 0 3 1.02182 1
gene 2 4 6 -3.93728 0 4 -3.93728 1
gene 2 5 6 -1.61715 0 5 -1.61715 1
gene 1 1 7 -2.74347 0 6 -2.74347 1
gene 1 2 7 -0.445494 0 7 -0.445494 1
gene 3 3 7 -1.48392 0 8 -1.48392 1
gene 1 4 7 0.637959 0 9 0.637959 1
gene 1 5 7 1.01392 0 10 1.01392 1
gene 3 7 6 -1.62972 0 22 -1.62972 1
genomeend 93

/* Organism #94 Fitness: 10 Error: 0 */
genomestart 94
trait 1 0.1 0 0 0 0 0 0 0 
trait 2 0.2 0 0 0 0 0 0 0 
trait 3 0.3 0 0 0 0 0 0 0 
node 1 1 1 3
node 2 3 1 1
node 3 2 1 1
node 4 2 1 1
node 5 2 1 1
node 6 3 0 2
node 7 2 0 2
gene 2 1 6 1.69068 0 1 1.69068 1
gene 3 2 6 -1.15944 0 2 -1.15944 1
gene 1 3 6 -2.00827 0 3 -2.00827 1
gene 1 4 6 -4.59484 0 4 -4.59484 1
gene 3 5 6 -0.0277718 0 5 -0.0277718 1
gene 3 1 7 -0.265114 0 6 -0.265114 1
gene 3 2 7 -0.0881832 0 7 -0.0881832 1
gene 3 3 7 0.0758232 0 8 0.0758232 1
gene 2 4 7 1.61159 0 9 1.61159 1
gene 2 5 7 2.26554 0 10 2.26554 1
genomeend 94

/* Organism #95 Fitness: 5 Error: 0 */
genomestart 95
trait 1 0.1 0 0 0 0 0 0 0 
trait 2 0.2 0 0 0 0 0 0 0 
trait 3 0.3 0 0 0 0 0 0 0 
node 1 1 1 3
node 2 3 1 1
node 3 2 1 1
node 4 2 1 1
node 5 2 1 1
node 6 3 0 2
node 7 2 0 2
gene 2 1 6 1.89925 0 1 1.89925 1
gene 2 2 6 -1.43273 0 2 -1.43273 1
gene 1 3 6 1.10483 0 3 1.10483 1
gene 1 4 6 0.979816 0 4 0.979816 1
gene 2 5 6 0.0571841 0 5 0.0571841 1
gene 2 1 7 0.543794 0 6 0.543794 1
gene 1 2 7 -0.0916814 0 7 -0.0916814 1
gene 2 3 7 -0.547597 0 8 -0.547597 1
gene 2 4 7 -1.35652 0 9 -1.35652 1
gene 2 5 7 -1.33824 0 10 -1.33824 1
genomeend 95

/* Organism #96 Fitness: 22 Error: 0 */
genomestart 96
trait 1 0.1 0 0 0 0 0 0 0 
trait 2 0.2 0 0 0 0 0 0 0 
trait 3 0.15 0 0 0 0 0 0 0 
node 1 3 1 3
node 2 2 1 1
node 3 2 1 1
node 4 2 1 1
node 5 3 1 1
node 6 1 0 2
node 7 2 0 2
gene 2 1 6 0.330515 0 1 0.330515 1
gene 1 2 6 5.90162 0 2 5.90162 1
gene 2 3 6 -0.459151 0 3 -0.459151 1
gene 1 4 6 -1.05495 0 4 -1.05495 1
gene 3 5 6 -4.6885 0 5 -4.6885 1
gene 2 1 7 -1.1903 0 6 -1.1903 1
gene 3 2 7 -0.78885 0 7 -0.78885 1
gene 1 3 7 -6.17412 0 8 -6.17412 1
gene 1 4 7 -1.99622 0 9 -1.99622 1
gene 2 5 7 1.98363 0 10 1.98363 1
genomeend 96

/* Organism #97 Fitness: 18 Error: 0 */
genomestart 97
trait 1 0.1 0.0547655 0 0 0 0.0472198 0.061758 0 
trait 2 0.2 0 0 0 0 0 0 0 
trait 3 0.3 0 0 0 0 0 0 0 
node 1 2 1 3
node 2 1 1 1
node 3 2 1 1
node 4 1 1 1
node 5 3 1 1
node 6 3 0 2
node 7 1 0 2
gene 1 1 6 0.824076 0 1 0.824076 1
gene 3 2 6 -0.847041 0 2 -0.847041 1
gene 3 3 6 -2.2195 0 3 -2.2195 1
gene 2 4 6 -2.49926 0 4 -2.49926 1
gene 1 5 6 -2.65224 0 5 -2.65224 1
gene 1 1 7 -0.311487 0 6 -0.311487 1
gene 3 2 7 -1.02039 0 7 -1.02039 1
gene 3 3 7 -1.24931 0 8 -1.24931 1
gene 3 4 7 0.875866 0 9 0.875866 1
gene 2 5 7 1.63305 0 10 1.63305 1
genomeend 97

/* Organism #98 Fitness: 88 Error: 0 */
genomestart 98
trait 1 0.1 0 0 0 0 0 0 0 
trait 2 0.2 0 0 0 0 0 0 0 
trait 3 0.225 0 0 0 0 0 0 0 
node 1 1 1 3
node 2 3 1 1
node 3 2 1 1
node 4 2 1 1
node 5 3 1 1
node 6 2 0 2
node 7 3 0 2
gene 2 1 6 1.97957 0 1 1.97957 1
gene 2 2 6 0.373547 0 2 0.373547 1
gene 1 3 6 -0.52044 0 3 -0.52044 1
gene 1 4 6 -0.714579 0 4 -0.714579 1
gene 3 5 6 -2.10132 0 5 -2.10132 1
gene 2 1 7 0.377995 0 6 0.377995 1
gene 2 2 7 -0.6798 0 7 -0.6798 1
gene 3 3 7 -1.01946 0 8 -1.01946 1
gene 3 4 7 0.88979 0 9 0.88979 1
gene 2 5 7 0.904153 0 10 0.904153 1
genomeend 98

/* Organism #99 Fitness: 22 Error: 0 */
genomestart 99
trait 1 0.1 0 0 0 0 0 0 0 
trait 2 0.2 0 0 0 0 0 0 0 
trait 3 0.3 0 0 0 0 0 0 0 
node 1 3 1 3
node 2 2 1 1
node 3 2 1 1
node 4 2 1 1
node 5 3 1 1
node 6 1 0 2
node 7 2 0 2
gene 2 1 6 2.36102 0 1 2.36102 1
gene 1 2 6 -0.82902 0 2 -0.82902 1
gene 3 3 6 2.41607 0 3 2.41607 1
gene 1 4 6 -1.98624 0 4 -1.98624 1
gene 2 5 6 -0.781014 0 5 -0.781014 1
gene 2 1 7 0.119861 0 6 0.119861 1
gene 3 2 7 -3.82393 0 7 -3.82393 1
gene 1 3 7 1.21835 0 8 1.21835 1
gene 2 4 7 2.04408 0 9 2.04408 1
gene 2 5 7 2.83734 0 10 2.83734 1
genomeend 99

/* Organism #100 Fitness: 20 Error: 0 */
genomestart 100
trait 1 0.1 0 0 0 0 0 0 0 
trait 2 0.2 0 0 0 0 0 0 0 
trait 3 0.3 0 0 0 0 0 0 0 
node 1 2 1 3
node 2 3 1 1
node 3 1 1 1
node 4 2 1 1
node 5 1 1 1
node 6 2 0 2
node 7 1 0 2
gene 2 1 6 2.32498 0 1 2.32498 1
gene 3 2 6 2.01849 0 2 2.01849 1
gene 3 3 6 1.59142 0 3 1.59142 1
gene 3 4 6 -1.31548 0 4 -1.31548 1
gene 3 5 6 -3.50307 0 5 -3.50307 1
gene 1 1 7 -3.3167 0 6 -3.3167 1
gene 1 2 7 0.321093 0 7 0.321093 0
gene 2 3 7 0.128847 0 8 0.128847 1
gene 1 4 7 0.980247 0 9 0.980247 1
gene 1 5 7 0.487609 0 10 0.487609 1
genomeend 100

/* Organism #101 Fitness: 175 Error: 0 */
genomestart 101
trait 1 0.1 0 0 0 0 0 0 0 
trait 2 0.2 0 0 0 0 0 0 0 
trait 3 0.15 0 0.391949 0.473251 0 0.312662 0 0 
node 1 1 1 3
node 2 3 1 1
node 3 2 1 1
node 4 2 1 1
node 5 2 1 1
node 6 3 0 2
node 7 2 0 2
gene 2 1 6 1.64983 0 1 1.64983 1
gene 3 2 6 1.88923 0 2 1.88923 1
gene 1 3 6 -1.29183 0 3 -1.29183 1
gene 1 4 6 -2.36836 0 4 -2.36836 1
gene 3 5 6 -1.25444 0 5 -1.25444 1
gene 2 1 7 -3.61288 0 6 -3.61288 1
gene 3 2 7 2.06463 0 7 2.06463 1
gene 3 3 7 -0.876652 0 8 -0.876652 1
gene 2 4 7 1.99514 0 9 1.99514 1
gene 2 5 7 2.9819 0 10 2.9819 1
genomeend 101

/* Organism #102 Fitness: 29 Error: 0 */
genomestart 102
trait 1 0.1 0 0 0 0 0 0 0 
trait 2 0.2 0 0 0 0 0 0 0 
trait 3 0.225 0 0 0 0 0 0 0 
node 1 2 1 3
node 2 1 1 1
node 3 3 1 1
node 4 2 1 1
node 5 2 1 1
node 6 2 0 2
node 7 2 0 2
gene 2 1 6 -1.76031 0 1 -1.76031 1
gene 1 2 6 0.416211 0 2 0.416211 1
gene 2 3 6 -1.40599 0 3 -1.40599 1
gene 1 4 6 -0.122684 0 4 -0.122684 1
gene 3 5 6 -4.98415 0 5 -4.98415 1
gene 1 1 7 -1.88415 0 6 -1.88415 1
gene 3 2 7 -1.15065 0 7 -1.15065 1
gene 3 3 7 1.57193 0 8 1.57193 1
gene 1 4 7 -3.5184 0 9 -3.5184 1
gene 2 5 7 1.86369 0 10 1.86369 1
genomeend 102

/* Organism #103 Fitness: 11 Error: 0 */
genomestart 103
trait 1 0.1 0 0 0 0 0 0 0 
trait 2 0.2 0 0 0 0 0 0 0 
trait 3 0.3 0 0 0 0 0 0 0 
node 1 2 1 3
node 2 3 1 1
node 3 1 1 1
node 4 2 1 1
node 5 1 1 1
node 6 2 0 2
node 7 1 0 2
gene 2 1 6 -0.927068 0 1 -0.927068 1
gene 2 2 6 -1.6536 0 2 -1.6536 1
gene 3 3 6 -0.692434 0 3 -0.692434 1
gene 3 4 6 -1.29482 0 4 -1.29482 1
gene 3 5 6 -0.657598 0 5 -0.657598 1
gene 3 1 7 0.268387 0 6 0.268387 1
gene 1 2 7 2.1952 0 7 2.1952 1
gene 2 3 7 -3.88646 0 8 -3.88646 1
gene 3 4 7 -0.136021 0 9 -0.136021 1
gene 2 5 7 0.332499 0 10 0.332499 1
genomeend 103

/* Organism #104 Fitness: 80 Error: 0 */
genomestart 104
trait 1 0.1 0 0 0 0 0 0 0 
trait 2 0.2 0 0 0 0 0 0 0 
trait 3 0.3 0 0 0 0 0 0 0 
node 1 3 1 3
node 2 2 1 1
node 3 3 1 1
node 4 3 1 1
node 5 2 1 1
node 6 3 0 2
node 7 2 0 2
gene 2 1 6 0.810415 0 1 0.810415 1
gene 3 2 6 0.304678 0 2 0.304678 1
gene 1 3 6 1.75111 0 3 1.75111 1
gene 2 4 6 -3.65149 0 4 -3.65149 1
gene 2 5 6 -3.73136 0 5 -3.73136 1
gene 1 1 7 -3.09773 0 6 -3.09773 1
gene 1 2 7 0.524308 0 7 0.524308 0
gene 2 3 7 1.04721 0 8 1.04721 1
gene 1 4 7 3.27538 0 9 3.27538 1
gene 1 5 7 -2.73486 0 10 -2.73486 1
genomeend 104

/* Organism #105 Fitness: 123 Error: 0 */
genomestart 105
trait 1 0.1 0 0 0 0 0 0 0 
trait 2 0.2 0 0 0 0 0 0 0 
trait 3 0.3 0 0 0 0 0 0 0 
node 1 3 1 3
node 2 2 1 1
node 3 2 1 1
node 4 2 1 1
node 5 3 1 1
node 6 1 0 2
node 7 2 0 2
gene 2 1 6 1.37672 0 1 1.37672 1
gene 1 2 6 1.74528 0 2 1.74528 1
gene 2 3 6 0.709754 0 3 0.709754 1
gene 2 4 6 -3.57978 0 4 -3.57978 1
gene 2 5 6 -1.92579 0 5 -1.92579 1
gene 1 1 7 -0.418424 0 6 -0.418424 1
gene 1 2 7 -1.80664 0 7 -1.80664 1
gene 1 3 7 -1.76881 0 8 -1.76881 1
gene 1 4 7 0.305994 0 9 0.305994 1
gene 1 5 7 3.12725 0 10 3.12725 1
genomeend 105

/* Organism #106 Fitness: 16 Error: 0 */
genomestart 106
trait 1 0.1 0.861751 0.574969 0.983154 0.409955 0 0 0.428694 
trait 2 0.2 0 0 0 0 0 0 0 
trait 3 0.3 0 0 0 0 0 0 0 
node 1 2 1 3
node 2 2 1 1
node 3 3 1 1
node 4 2 1 1
node 5 2 1 1
node 6 2 0 2
node 7 2 0 2
gene 1 1 6 1.0062 0 1 1.0062 1
gene 1 2 6 -0.210425 0 2 -0.210425 1
gene 1 3 6 4.6494 0 3 4.6494 1
gene 1 4 6 -1.44855 0 4 -1.44855 1
gene 2 5 6 -2.21664 0 5 -2.21664 1
gene 2 1 7 -0.142705 0 6 -0.142705 1
gene 1 2 7 -0.445494 0 7 -0.445494 1
gene 1 3 7 2.44397 0 8 2.44397 1
gene 1 4 7 1.02756 0 9 1.02756 1
gene 1 5 7 1.01392 0 10 1.01392 1
genomeend 106

/* Organism #107 Fitness: 166 Error: 0 */
genomestart 107
trait 1 0.1 0 0 0 0 0 0 0 
trait 2 0.2 0 0 0 0 0 0 0 
trait 3 0.3 0 0 0 0 0 0 0 
node 1 3 1 3
node 2 2 1 1
node 3 2 1 1
node 4 2 1 1
node 5 3 1 1
node 6 1 0 2
node 7 2 0 2
gene 2 1 6 4.47771 0 1 4.47771 1
gene 1 2 6 5.52034 0 2 5.52034 1
gene 2 3 6 -0.466422 0 3 -0.466422 1
gene 2 4 6 -2.29945 0 4 -2.29945 1
gene 2 5 6 -2.25402 0 5 -2.25402 1
gene 1 1 7 3.26507 0 6 3.26507 1
gene 1 2 7 1.6393 0 7 1.6393 1
gene 3 3 7 -1.37566 0 8 -1.37566 1
gene 1 4 7 1.13559 0 9 1.13559 1
gene 1 5 7 1.01392 0 10 1.01392 1
genomeend 107

/* Organism #108 Fitness: 22 Error: 0 */
genomestart 108
trait 1 0.1 0 0 0 0 0 0 0 
trait 2 0.2 0 0 0 0 0 0 0 
trait 3 0.3 0 0 0 0 0 0 0 
node 1 1 1 3
node 2 3 1 1
node 3 2 1 1
node 4 2 1 1
node 5 2 1 1
node 6 3 0 2
node 7 2 0 2
gene 2 1 6 3.08323 0 1 3.08323 1
gene 3 2 6 -0.272725 0 2 -0.272725 1
gene 1 3 6 0.60427 0 3 0.60427 1
gene 1 4 6 -1.00757 0 4 -1.00757 1
gene 2 5 6 -1.86166 0 5 -1.86166 1
gene 2 1 7 -2.57163 0 6 -2.57163 1
gene 3 2 7 -0.222537 0 7 -0.222537 1
gene 1 3 7 -0.330546 0 8 -0.330546 1
gene 2 4 7 0.557653 0 9 0.557653 1
gene 2 5 7 2.37391 0 10 2.37391 1
genomeend 108

/* Organism #109 Fitness: 20 Error: 0 */
genomestart 109
trait 1 0.1 0 0 0 0 0 0 0 
trait 2 0.2 0 0 0 0 0 0 0 
trait 3 0.1875 0 0 0 0 0 0 0 
node 1 2 1 3
node 2 1 1 1
node 3 2 1 1
node 4 1 1 1
node 5 2 1 1
node 6 3 0 2
node 7 1 0 2
gene 1 1 6 -0.615131 0 1 -0.615131 1
gene 1 2 6 4.37614 0 2 4.37614 1
gene 2 3 6 -1.31539 0 3 -1.31539 1
gene 1 4 6 -1.15601 0 4 -1.15601 1
gene 3 5 6 -4.0982 0 5 -4.0982 1
gene 2 1 7 1.40832 0 6 1.40832 1
gene 2 2 7 -0.497375 0 7 -0.497375 1
gene 3 3 7 -2.99788 0 8 -2.99788 1
gene 3 4 7 1.04175 0 9 1.04175 1
gene 1 5 7 -0.0784326 0 10 -0.0784326 1
genomeend 109

/* Organism #110 Fitness: 104 Error: 0 */
genomestart 110
trait 1 0.1 0 0 0 0 0 0 0 
trait 2 0.2 0 0 0 0 0 0 0 
trait 3 0.3 0.181005 0 0 0.458785 0.979308 0 0.346385 
node 1 3 1 3
node 2 2 1 1
node 3 2 1 1
node 4 2 1 1
node 5 3 1 1
node 6 1 0 2
node 7 2 0 2
gene 2 1 6 0.125462 0 1 0.125462 1
gene 1 2 6 -0.210425 0 2 -0.210425 1
gene 1 3 6 4.6494 0 3 4.6494 1
gene 1 4 6 -2.3695 0 4 -2.3695 1
gene 3 5 6 -0.0277718 0 5 -0.0277718 1
gene 2 1 7 -0.142705 0 6 -0.142705 1
gene 3 2 7 -4.06478 0 7 -4.06478 1
gene 1 3 7 2.44397 0 8 2.44397 1
gene 1 4 7 1.02756 0 9 1.02756 1
gene 2 5 7 4.09391 0 10 4.09391 1
genomeend 110

/* Organism #111 Fitness: 46 Error: 0 */
genomestart 111
trait 1 0.1 0 0 0 0 0 0 0 
trait 2 0.380105 0 0 0 0 0 0 0 
trait 3 0.3 0 0 0 0 0 0 0 
node 1 1 1 3
node 2 3 1 1
node 3 2 1 1
node 4 2 1 1
node 5 2 1 1
node 6 3 0 2
node 7 2 0 2
gene 2 1 6 0.634495 0 1 0.634495 1
gene 3 2 6 0.187641 0 2 0.187641 1
gene 1 3 6 0.334958 0 3 0.334958 1
gene 1 4 6 -2.2998 0 4 -2.2998 1
gene 2 5 6 -1.34596 0 5 -1.34596 1
gene 3 1 7 -2.71425 0 6 -2.71425 1
gene 1 2 7 1.12576 0 7 1.12576 0
gene 3 3 7 -1.14432 0 8 -1.14432 1
gene 1 4 7 1.99196 0 9 1.99196 1
gene 1 5 7 -0.778058 0 10 -0.778058 1
genomeend 111

/* Organism #112 Fitness: 18 Error: 0 */
genomestart 112
trait 1 0.1 0 0 0 0 0 0 0 
trait 2 0.2 0 0 0 0 0 0 0 
trait 3 0.3 0 0 0 0 0 0 0 
node 1 2 1 3
node 2 3 1 1
node 3 1 1 1
node 4 2 1 1
node 5 1 1 1
node 6 2 0 2
node 7 1 0 2
gene 2 1 6 0.743439 0 1 0.743439 1
gene 1 2 6 1.2006 0 2 1.2006 1
gene 2 3 6 2.81103 0 3 2.81103 1
gene 3 4 6 2.36503 0 4 2.36503 1
gene 2 5 6 2.62463 0 5 2.62463 1
gene 3 1 7 -0.153455 0 6 -0.153455 1
gene 1 2 7 -0.676313 0 7 -0.676313 1
gene 2 3 7 -3.03034 0 8 -3.03034 1
gene 3 4 7 3.16715 0 9 3.16715 1
gene 2 5 7 1.78228 0 10 1.78228 1
genomeend 112

/* Organism #113 Fitness: 4 Error: 0 */
genomestart 113
trait 1 0.1 0 0 0 0 0 0 0 
trait 2 0.380105 0 0 0 0 0 0 0 
trait 3 0.3 0 0 0 0 0 0 0 
node 1 3 1 3
node 2 3 1 1
node 3 1 1 1
node 4 2 1 1
node 5 1 1 1
node 6 2 0 2
node 7 1 0 2
gene 2 1 6 1.33474 0 1 1.33474 1
gene 3 2 6 3.33547 0 2 3.33547 1
gene 1 3 6 -2.38227 0 3 -2.38227 1
gene 1 4 6 0.481994 0 4 0.481994 1
gene 3 5 6 -1.25799 0 5 -1.25799 1
gene 3 1 7 0.12566 0 6 0.12566 1
gene 1 2 7 -2.85135 0 7 -2.85135 1
gene 2 3 7 -1.4287 0 8 -1.4287 1
gene 2 4 7 0.65247 0 9 0.65247 1
gene 2 5 7 1.60051 0 10 1.60051 1
genomeend 113

/* Organism #114 Fitness: 1 Error: 0 */
genomestart 114
trait 1 0.1 0 0 0 0 0 0 0 
trait 2 0.380105 0 0 0 0 0 0 0 
trait 3 0.225 0 0 0 0 0 0 0 
node 1 1 1 3
node 2 3 1 1
node 3 1 1 1
node 4 2 1 1
node 5 3 1 1
node 6 2 0 2
node 7 3 0 2
gene 1 1 6 3.73109 0 1 3.73109 1
gene 3 2 6 2.02928 0 2 2.02928 1
gene 1 3 6 -1.88353 0 3 -1.88353 1
gene 1 4 6 -1.4832 0 4 -1.4832 1
gene 3 5 6 -1.05107 0 5 -1.05107 1
gene 2 1 7 2.0291 0 6 2.0291 1
gene 2 2 7 -1.31832 0 7 -1.31832 1
gene 3 3 7 1.75695 0 8 1.75695 1
gene 3 4 7 3.62568 0 9 3.62568 1
gene 3 5 7 2.68279 0 10 2.68279 1
genomeend 114

/* Organism #115 Fitness: 311 Error: 0 */
genomestart 115
trait 1 0.1 0 0 0 0 0 0 0 
trait 2 0.2 0 0 0 0 0 0 0 
trait 3 0.15 0 0.391949 0.473251 0 0.312662 0 0 
node 1 3 1 3
node 2 2 1 1
node 3 3 1 1
node 4 3 1 1
node 5 2 1 1
node 6 3 0 2
node 7 2 0 2
gene 1 1 6 0.384377 0 1 0.384377 1
gene 2 2 6 1.09084 0 2 1.09084 1
gene 1 3 6 1.71298 0 3 1.71298 1
gene 1 4 6 -2.26937 0 4 -2.26937 1
gene 3 5 6 -2.15259 0 5 -2.15259 1
gene 2 1 7 -1.92547 0 6 -1.92547 1
gene 1 2 7 0.773412 0 7 0.773412 1
gene 3 3 7 -0.176595 0 8 -0.176595 1
gene 1 4 7 3.32593 0 9 3.32593 1
gene 2 5 7 -1.30831 0 10 -1.30831 1
genomeend 115

/* Organism #116 Fitness: 10 Error: 0 */
genomestart 116
trait 1 0.1 0 0 0 0 0 0 0 
trait 2 0.2 0 0 0 0 0 0 0 
trait 3 0.15 0 0 0 0 0 0 0 
node 1 3 1 3
node 2 2 1 1
node 3 2 1 1
node 4 2 1 1
node 5 3 1 1
node 6 1 0 2
node 7 2 0 2
gene 2 1 6 -1.50906 0 1 -1.50906 1
gene 1 2 6 3.37583 0 2 3.37583 1
gene 2 3 6 1.17405 0 3 1.17405 1
gene 1 4 6 0.37904 0 4 0.37904 1
gene 3 5 6 -3.65903 0 5 -3.65903 1
gene 2 1 7 -0.327311 0 6 -0.327311 1
gene 1 2 7 -2.45211 0 7 -2.45211 1
gene 1 3 7 -5.89541 0 8 -5.89541 1
gene 1 4 7 -2.32749 0 9 -2.32749 1
gene 2 5 7 1.55774 0 10 1.55774 1
genomeend 116

/* Organism #117 Fitness: 11 Error: 0 */
genomestart 117
trait 1 0.1 0 0 0 0 0 0 0 
trait 2 0.2 0 0 0 0 0 0 0 
trait 3 0.3 0 0 0 0 0 0 0 
node 1 1 1 3
node 2 3 1 1
node 3 2 1 1
node 4 2 1 1
node 5 2 1 1
node 6 3 0 2
node 7 2 0 2
gene 1 1 6 1.74048 0 1 1.74048 1
gene 3 2 6 -1.37029 0 2 -1.37029 1
gene 1 3 6 -3.18214 0 3 -3.18214 1
gene 1 4 6 -1.82496 0 4 -1.82496 1
gene 2 5 6 -0.790414 0 5 -0.790414 1
gene 2 1 7 -0.635334 0 6 -0.635334 1
gene 3 2 7 -3.22751 0 7 -3.22751 1
gene 3 3 7 -1.00096 0 8 -1.00096 1
gene 2 4 7 2.18292 0 9 2.18292 1
gene 2 5 7 -0.103397 0 10 -0.103397 1
genomeend 117

/* Organism #118 Fitness: 15 Error: 0 */
genomestart 118
trait 1 0.1 0 0 0 0 0 0 0 
trait 2 0.2 0 0 0 0 0 0 0 
trait 3 0.15 0 0.391949 0.473251 0 0.312662 0 0 
node 1 1 1 3
node 2 3 1 1
node 3 1 1 1
node 4 2 1 1
node 5 2 1 1
node 6 3 0 2
node 7 2 0 2
gene 1 1 6 0.412877 0 1 0.412877 1
gene 2 2 6 1.85743 0 2 1.85743 1
gene 1 3 6 2.89979 0 3 2.89979 1
gene 1 4 6 -2.66279 0 4 -2.66279 1
gene 3 5 6 0.0571459 0 5 0.0571459 1
gene 2 1 7 0.519959 0 6 0.519959 1
gene 1 2 7 0.207015 0 7 0.207015 1
gene 3 3 7 -0.0999634 0 8 -0.0999634 1
gene 1 4 7 0.222709 0 9 0.222709 1
gene 2 5 7 2.26554 0 10 2.26554 1
genomeend 118

/* Organism #119 Fitness: 204 Error: 0 */
genomestart 119
trait 1 0.1 0.0547655 0 0 0 0.0472198 0.061758 0 
trait 2 0.2 0 0 0 0 0 0 0 
trait 3 0.3 0 0 0 0 0 0 0 
node 1 2 1 3
node 2 1 1 1
node 3 2 1 1
node 4 1 1 1
node 5 2 1 1
node 6 3 0 2
node 7 1 0 2
gene 1 1 6 0.73352 0 1 0.73352 1
gene 3 2 6 -2.0098 0 2 -2.0098 1
gene 1 3 6 -0.985343 0 3 -0.985343 1
gene 2 4 6 -0.127796 0 4 -0.127796 1
gene 1 5 6 -2.26115 0 5 -2.26115 1
gene 3 1 7 -1.26818 0 6 -1.26818 1
gene 3 2 7 -2.19001 0 7 -2.19001 1
gene 2 3 7 -0.989746 0 8 -0.989746 1
gene 2 4 7 1.76627 0 9 1.76627 1
gene 2 5 7 0.65392 0 10 0.65392 1
genomeend 119

/* Organism #120 Fitness: 37 Error: 0 */
genomestart 120
trait 1 0.1 0.0547655 0 0 0 0.0472198 0.061758 0 
trait 2 0.2 0 0 0 0 0 0 0 
trait 3 0.225 0 0 0 0 0 0 0 
node 1 1 1 3
node 2 3 1 1
node 3 2 1 1
node 4 2 1 1
node 5 3 1 1
node 6 2 0 2
node 7 3 0 2
gene 1 1 6 0.738624 0 1 0.738624 1
gene 3 2 6 -2.0098 0 2 -2.0098 1
gene 2 3 6 1.273 0 3 1.273 1
gene 1 4 6 -0.708762 0 4 -0.708762 1
gene 3 5 6 -1.07822 0 5 -1.07822 1
gene 3 1 7 -1.26818 0 6 -1.26818 1
gene 3 2 7 -2.19001 0 7 -2.19001 1
gene 3 3 7 -1.53375 0 8 -1.53375 1
gene 3 4 7 2.55393 0 9 2.55393 1
gene 2 5 7 0.753792 0 10 0.753792 1
genomeend 120

/* Organism #121 Fitness: 53 Error: 0 */
genomestart 121
trait 1 0.1 0 0 0 0 0 0 0 
trait 2 0.2 0 0 0 0 0 0 0 
trait 3 0.15 0 0 0 0 0 0 0 
node 1 1 1 3
node 2 3 1 1
node 3 2 1 1
node 4 2 1 1
node 5 3 1 1
node 6 2 0 2
node 7 3 0 2
gene 1 1 6 3.98447 0 1 3.98447 1
gene 2 2 6 -0.73809 0 2 -0.73809 1
gene 1 3 6 1.45627 0 3 1.45627 1
gene 1 4 6 -2.34555 0 4 -2.34555 1
gene 3 5 6 -2.12905 0 5 -2.12905 1
gene 2 1 7 1.57793 0 6 1.57793 1
gene 2 2 7 -1.08356 0 7 -1.08356 1
gene 3 3 7 -2.9682 0 8 -2.9682 1
gene 3 4 7 3.91736 0 9 3.91736 1
gene 3 5 7 1.50264 0 10 1.50264 1
gene 3 7 6 -1.19903 0 22 -1.19903 1
genomeend 121

/* Organism #122 Fitness: 11 Error: 0 */
genomestart 122
trait 1 0.1 0 0 0 0 0 0 0 
trait 2 0.2 0 0 0 0 0 0 0 
trait 3 0.225 0 0 0 0 0 0 0 
node 1 3 1 3
node 2 2 1 1
node 3 2 1 1
node 4 2 1 1
node 5 3 1 1
node 6 1 0 2
node 7 2 0 2
gene 2 1 6 2.09552 0 1 2.09552 1
gene 1 2 6 2.54178 0 2 2.54178 1
gene 3 3 6 -0.108715 0 3 -0.108715 1
gene 3 4 6 0.939661 0 4 0.939661 1
gene 3 5 6 -3.06018 0 5 -3.06018 1
gene 2 1 7 -2.28463 0 6 -2.28463 1
gene 3 2 7 0.285657 0 7 0.285657 1
gene 1 3 7 -3.97519 0 8 -3.97519 1
gene 3 4 7 0.119407 0 9 0.119407 1
gene 2 5 7 -1.04242 0 10 -1.04242 1
genomeend 122

/* Organism #123 Fitness: 53 Error: 0 */
genomestart 123
trait 1 0.1 0 0 0 0 0 0 0 
trait 2 0.2 0 0 0 0 0 0 0 
trait 3 0.3 0 0 0 0 0 0 0 
node 1 3 1 3
node 2 3 1 1
node 3 1 1 1
node 4 2 1 1
node 5 1 1 1
node 6 1 0 2
node 7 1 0 2
gene 1 1 6 0.879105 0 1 0.879105 1
gene 2 2 6 1.18165 0 2 1.18165 1
gene 1 3 6 0.63097 0 3 0.63097 1
gene 1 4 6 -1.19073 0 4 -1.19073 1
gene 2 5 6 -0.474803 0 5 -0.474803 1
gene 1 1 7 0.712832 0 6 0.712832 1
gene 3 2 7 -0.477279 0 7 -0.477279 1
gene 3 3 7 0.390641 0 8 0.390641 1
gene 1 4 7 2.09731 0 9 2.09731 1
gene 2 5 7 0.612812 0 10 0.612812 1
genomeend 123

/* Organism #124 Fitness: 111 Error: 0 */
genomestart 124
trait 1 0.1 0 0 0 0 0 0 0 
trait 2 0.2 0 0 0 0 0 0 0 
trait 3 0.3 0 0 0 0 0 0 0 
node 1 1 1 3
node 2 3 1 1
node 3 2 1 1
node 4 2 1 1
node 5 2 1 1
node 6 3 0 2
node 7 2 0 2
gene 2 1 6 2.37634 0 1 2.37634 1
gene 1 2 6 0.168268 0 2 0.168268 1
gene 1 3 6 1.83203 0 3 1.83203 1
gene 1 4 6 -1.63591 0 4 -1.63591 1
gene 2 5 6 -1.86166 0 5 -1.86166 1
gene 2 1 7 -0.239937 0 6 -0.239937 1
gene 3 2 7 -2.40812 0 7 -2.40812 1
gene 3 3 7 0.47026 0 8 0.47026 1
gene 2 4 7 1.39691 0 9 1.39691 1
gene 2 5 7 2.37391 0 10 2.37391 1
genomeend 124

/* Organism #125 Fitness: 14 Error: 0 */
genomestart 125
trait 1 0.1 0 0 0 0 0 0 0 
trait 2 0.2 0 0 0 0 0 0 0 
trait 3 0.3 0 0 0 0 0 0 0 
node 1 1 1 3
node 2 3 1 1
node 3 2 1 1
node 4 2 1 1
node 5 2 1 1
node 6 3 0 2
node 7 2 0 2
gene 2 1 6 -1.19515 0 1 -1.19515 1
gene 3 2 6 3.03616 0 2 3.03616 1
gene 1 3 6 -1.99901 0 3 -1.99901 1
gene 1 4 6 -4.73507 0 4 -4.73507 1
gene 3 5 6 0.13123 0 5 0.13123 1
gene 3 1 7 -2.78091 0 6 -2.78091 1
gene 3 2 7 0.135975 0 7 0.135975 1
gene 3 3 7 -2.63948 0 8 -2.63948 1
gene 2 4 7 0.505219 0 9 0.505219 1
gene 2 5 7 -1.22478 0 10 -1.22478 1
genomeend 125

/* Organism #126 Fitness: 2 Error: 0 */
genomestart 126
trait 1 0.1 0.0547655 0 0 0 0.0472198 0.061758 0 
trait 2 0.2 0 0 0 0 0 0 0 
trait 3 0.3 0 0 0 0 0 0 0 
node 1 3 1 3
node 2 3 1 1
node 3 1 1 1
node 4 2 1 1
node 5 1 1 1
node 6 2 0 2
node 7 1 0 2
gene 1 1 6 0.411428 0 1 0.411428 1
gene 3 2 6 -1.4455 0 2 -1.4455 1
gene 2 3 6 1.5927 0 3 1.5927 1
gene 2 4 6 -1.27088 0 4 -1.27088 1
gene 1 5 6 -1.95099 0 5 -1.95099 1
gene 1 1 7 -1.78942 0 6 -1.78942 1
gene 3 2 7 -1.06864 0 7 -1.06864 0
gene 2 3 7 -0.519457 0 8 -0.519457 1
gene 1 4 7 2.95409 0 9 2.95409 1
gene 2 5 7 -0.851295 0 10 -0.851295 1
genomeend 126

/* Organism #127 Fitness: 7 Error: 0 */
genomestart 127
trait 1 0.1 0 0 0 0 0 0 0 
trait 2 0.2 0 0 0 0 0 0 0 
trait 3 0.3 0 0 0 0 0 0 0 
node 1 2 1 3
node 2 2 1 1
node 3 3 1 1
node 4 2 1 1
node 5 3 1 1
node 6 2 0 2
node 7 3 0 2
gene 2 1 6 3.0396 0 1 3.0396 1
gene 2 2 6 -1.93342 0 2 -1.93342 1
gene 1 3 6 2.98203 0 3 2.98203 1
gene 1 4 6 -1.11006 0 4 -1.11006 1
gene 2 5 6 1.9969 0 5 1.9969 1
gene 2 1 7 -1.12804 0 6 -1.12804 1
gene 1 2 7 1.78545 0 7 1.78545 1
gene 1 3 7 -0.446249 0 8 -0.446249 1
gene 1 4 7 1.41392 0 9 1.41392 1
gene 2 5 7 2.11524 0 10 2.11524 1
genomeend 127

/* Organism #128 Fitness: 17 Error: 0 */
genomestart 128
trait 1 0.1 0 0 0 0 0 0 0 
trait 2 0.2 0 0 0 0 0 0 0 
trait 3 0.3 0 0 0 0 0 0 0 
node 1 3 1 3
node 2 2 1 1
node 3 2 1 1
node 4 2 1 1
node 5 3 1 1
node 6 1 0 2
node 7 2 0 2
gene 2 1 6 -3.03589 0 1 -3.03589 1
gene 2 2 6 1.87235 0 2 1.87235 1
gene 2 3 6 -0.864101 0 3 -0.864101 1
gene 3 4 6 -3.64536 0 4 -3.64536 1
gene 3 5 6 -1.6203 0 5 -1.6203 1
gene 1 1 7 2.81393 0 6 2.81393 1
gene 1 2 7 -2.84713 0 7 -2.84713 1
gene 2 3 7 0.302057 0 8 0.302057 1
gene 1 4 7 1.29376 0 9 1.29376 1
gene 2 5 7 3.55987 0 10 3.55987 1
genomeend 128

/* Organism #129 Fitness: 8 Error: 0 */
genomestart 129
trait 1 0.1 0 0 0 0 0 0 0 
trait 2 0.2 0 0 0 0 0 0 0 
trait 3 0.15 0 0 0 0 0 0 0 
node 1 1 1 3
node 2 3 1 1
node 3 2 1 1
node 4 2 1 1
node 5 3 1 1
node 6 2 0 2
node 7 3 0 2
gene 1 1 6 1.66552 0 1 1.66552 1
gene 2 2 6 -1.38043 0 2 -1.38043 1
gene 1 3 6 -0.550707 0 3 -0.550707 1
gene 1 4 6 1.91618 0 4 1.91618 1
gene 3 5 6 -1.23173 0 5 -1.23173 1
gene 2 1 7 1.5806 0 6 1.5806 1
gene 2 2 7 -3.68519 0 7 -3.68519 1
gene 3 3 7 0.434538 0 8 0.434538 1
gene 3 4 7 0.564745 0 9 0.564745 1
gene 3 5 7 2.10179 0 10 2.10179 1
gene 3 7 6 -0.73751 0 22 -0.73751 1
genomeend 129

/* Organism #130 Fitness: 55 Error: 0 */
genomestart 130
trait 1 0.1 0 0 0 0 0 0 0 
trait 2 0.2 0 0 0 0 0 0 0 
trait 3 0.2625 0 0 0 0 0 0 0 
node 1 1 1 3
node 2 3 1 1
node 3 2 1 1
node 4 2 1 1
node 5 3 1 1
node 6 2 0 2
node 7 3 0 2
gene 1 1 6 0.548383 0 1 0.548383 1
gene 1 2 6 2.19752 0 2 2.19752 1
gene 1 3 6 0.579985 0 3 0.579985 1
gene 2 4 6 -0.422531 0 4 -0.422531 1
gene 2 5 6 -2.49491 0 5 -2.49491 1
gene 1 1 7 -1.70083 0 6 -1.70083 1
gene 3 2 7 0.0704043 0 7 0.0704043 1
gene 3 3 7 -0.769293 0 8 -0.769293 1
gene 1 4 7 2.64261 0 9 2.64261 1
gene 1 5 7 0.678468 0 10 0.678468 1
genomeend 130

/* Organism #131 Fitness: 139 Error: 0 */
genomestart 131
trait 1 0.1 0 0 0 0 0 0 0 
trait 2 0.56021 0 0 0 0 0 0 0 
trait 3 0.3 0 0 0 0 0 0 0 
node 1 1 1 3
node 2 2 1 1
node 3 2 1 1
node 4 2 1 1
node 5 2 1 1
node 6 3 0 2
node 7 2 0 2
gene 2 1 6 0.118748 0 1 0.118748 1
gene 3 2 6 0.145222 0 2 0.145222 1
gene 1 3 6 -2.90025 0 3 -2.90025 1
gene 1 4 6 -2.5633 0 4 -2.5633 1
gene 3 5 6 -0.394391 0 5 -0.394391 1
gene 3 1 7 -4.36535 0 6 -4.36535 1
gene 3 2 7 4.16236 0 7 4.16236 1
gene 3 3 7 -3.35522 0 8 -3.35522 1
gene 2 4 7 2.2756 0 9 2.2756 1
gene 2 5 7 1.90928 0 10 1.90928 1
genomeend 131

/* Organism #132 Fitness: 9 Error: 0 */
genomestart 132
trait 1 0.1 0 0 0 0 0 0 0 
trait 2 0.2 0 0 0 0 0 0 0 
trait 3 0.225 0 0 0 0 0 0 0 
node 1 3 1 3
node 2 3 1 1
node 3 1 1 1
node 4 2 1 1
node 5 1 1 1
node 6 2 0 2
node 7 1 0 2
gene 2 1 6 -0.995651 0 1 -0.995651 1
gene 2 2 6 1.05207 0 2 1.05207 1
gene 1 3 6 -0.85324 0 3 -0.85324 1
gene 2 4 6 -2.31902 0 4 -2.31902 1
gene 3 5 6 -2.40419 0 5 -2.40419 1
gene 2 1 7 1.82936 0 6 1.82936 1
gene 3 2 7 -3.04291 0 7 -3.04291 1
gene 3 3 7 -1.70355 0 8 -1.70355 1
gene 2 4 7 1.52725 0 9 1.52725 1
gene 3 5 7 3.04558 0 10 3.04558 1
genomeend 132

/* Organism #133 Fitness: 35 Error: 0 */
genomestart 133
trait 1 0.1 0.0547655 0 0 0 0.0472198 0.061758 0 
trait 2 0.2 0 0 0 0 0 0 0 
trait 3 0.3 0 0 0 0 0 0 0 
node 1 3 1 3
node 2 2 1 1
node 3 3 1 1
node 4 3 1 1
node 5 2 1 1
node 6 3 0 2
node 7 2 0 2
gene 3 1 6 -1.76252 0 1 -1.76252 1
gene 2 2 6 2.79781 0 2 2.79781 1
gene 2 3 6 3.54875 0 3 3.54875 1
gene 1 4 6 1.60753 0 4 1.60753 1
gene 1 5 6 0.856273 0 5 0.856273 1
gene 3 1 7 2.23574 0 6 2.23574 1
gene 1 2 7 -4.01951 0 7 -4.01951 1
gene 2 3 7 -2.92332 0 8 -2.92332 1
gene 1 4 7 2.37653 0 9 2.37653 1
gene 2 5 7 1.78388 0 10 1.78388 1
genomeend 133

/* Organism #134 Fitness: 5 Error: 0 */
genomestart 134
trait 1 0.1 0 0 0 0 0 0 0 
trait 2 0.2 0 0 0 0 0 0 0 
trait 3 0.3 0 0 0 0 0 0 0 
node 1 3 1 3
node 2 2 1 1
node 3 2 1 1
node 4 2 1 1
node 5 3 1 1
node 6 1 0 2
node 7 2 0 2
gene 2 1 6 0.712561 0 1 0.712561 1
gene 1 2 6 1.82936 0 2 1.82936 1
gene 2 3 6 0.48178 0 3 0.48178 1
gene 1 4 6 -4.538 0 4 -4.538 1
gene 2 5 6 2.0537 0 5 2.0537 1
gene 2 1 7 0.517426 0 6 0.517426 1
gene 3 2 7 -4.7653 0 7 -4.7653 1
gene 1 3 7 -2.84649 0 8 -2.84649 1
gene 1 4 7 0.299028 0 9 0.299028 1
gene 1 5 7 0.132603 0 10 0.132603 1
genomeend 134

/* Organism #135 Fitness: 18 Error: 0 */
genomestart 135
trait 1 0.1 0 0 0 0 0 0 0 
trait 2 0.2 0 0 0 0 0 0 0 
trait 3 0.225 0 0 0 0 0 0 0 
node 1 1 1 3
node 2 3 1 1
node 3 2 1 1
node 4 2 1 1
node 5 2 1 1
node 6 3 0 2
node 7 2 0 2
gene 2 1 6 3.23153 0 1 3.23153 1
gene 3 2 6 2.75051 0 2 2.75051 1
gene 1 3 6 0.428556 0 3 0.428556 1
gene 1 4 6 -2.34176 0 4 -2.34176 1
gene 3 5 6 -5.33473 0 5 -5.33473 1
gene 3 1 7 -0.967956 0 6 -0.967956 1
gene 3 2 7 -0.501137 0 7 -0.501137 1
gene 3 3 7 0.613346 0 8 0.613346 1
gene 1 4 7 -2.06587 0 9 -2.06587 1
gene 2 5 7 0.085345 0 10 0.085345 1
gene 3 7 6 0.000534074 0 27 0.000534074 1
genomeend 135

/* Organism #136 Fitness: 2 Error: 0 */
genomestart 136
trait 1 0.1 0 0 0 0 0 0 0 
trait 2 0.2 0 0 0 0 0 0 0 
trait 3 0.3 0 0 0 0 0 0 0 
node 1 1 1 3
node 2 3 1 1
node 3 2 1 1
node 4 2 1 1
node 5 2 1 1
node 6 3 0 2
node 7 2 0 2
gene 1 1 6 0.73352 0 1 0.73352 1
gene 3 2 6 0.54696 0 2 0.54696 1
gene 1 3 6 -0.809626 0 3 -0.809626 1
gene 1 4 6 -2.3695 0 4 -2.3695 1
gene 2 5 6 -1.50668 0 5 -1.50668 1
gene 3 1 7 -1.01892 0 6 -1.01892 1
gene 3 2 7 -0.751465 0 7 -0.751465 1
gene 3 3 7 -1.50345 0 8 -1.50345 1
gene 2 4 7 1.76627 0 9 1.76627 1
gene 2 5 7 0.65392 0 10 0.65392 1
genomeend 136

/* Organism #137 Fitness: 10 Error: 0 */
genomestart 137
trait 1 0.1 0 0 0 0 0 0 0 
trait 2 0.2 0 0 0 0 0 0 0 
trait 3 0.15 0 0.391949 0.473251 0 0.312662 0 0 
node 1 3 1 3
node 2 2 1 1
node 3 3 1 1
node 4 3 1 1
node 5 2 1 1
node 6 3 0 2
node 7 2 0 2
gene 2 1 6 2.558 0 1 2.558 1
gene 2 2 6 0.755314 0 2 0.755314 1
gene 1 3 6 0.242794 0 3 0.242794 1
gene 2 4 6 -1.3501 0 4 -1.3501 1
gene 3 5 6 -0.281377 0 5 -0.281377 1
gene 1 1 7 -1.98524 0 6 -1.98524 1
gene 1 2 7 2.28964 0 7 2.28964 1
gene 3 3 7 -3.24795 0 8 -3.24795 1
gene 1 4 7 -0.393433 0 9 -0.393433 1
gene 3 5 7 1.03402 0 10 1.03402 1
genomeend 137

/* Organism #138 Fitness: 12 Error: 0 */
genomestart 138
trait 1 0.1 0 0 0 0 0 0 0 
trait 2 0.2 0 0 0 0 0 0 0 
trait 3 0.3 0 0 0 0 0 0 0 
node 1 1 1 3
node 2 3 1 1
node 3 2 1 1
node 4 2 1 1
node 5 3 1 1
node 6 2 0 2
node 7 3 0 2
gene 1 1 6 0.517121 0 1 0.517121 1
gene 2 2 6 -0.81988 0 2 -0.81988 1
gene 1 3 6 -0.294626 0 3 -0.294626 1
gene 2 4 6 -3.01334 0 4 -3.01334 1
gene 2 5 6 -2.16028 0 5 -2.16028 1
gene 2 1 7 -0.82461 0 6 -0.82461 1
gene 3 2 7 -1.23933 0 7 -1.23933 1
gene 3 3 7 -2.4912 0 8 -2.4912 1
gene 3 4 7 -0.896588 0 9 -0.896588 1
gene 2 5 7 0.305666 0 10 0.305666 1
genomeend 138

/* Organism #139 Fitness: 17 Error: 0 */
genomestart 139
trait 1 0.1 0 0 0 0 0 0 0 
trait 2 0.380105 0 0 0 0 0 0 0 
trait 3 0.2625 0 0 0 0 0 0 0 
node 1 1 1 3
node 2 3 1 1
node 3 2 1 1
node 4 2 1 1
node 5 2 1 1
node 6 3 0 2
node 7 2 0 2
gene 1 1 6 0.217662 0 1 0.217662 1
gene 3 2 6 1.25648 0 2 1.25648 1
gene 1 3 6 -1.24248 0 3 -1.24248 1
gene 2 4 6 -0.674413 0 4 -0.674413 1
gene 3 5 6 -2.43624 0 5 -2.43624 1
gene 3 1 7 -3.11783 0 6 -3.11783 1
gene 3 2 7 -0.354278 0 7 -0.354278 1
gene 3 3 7 -1.1362 0 8 -1.1362 1
gene 2 4 7 0.629658 0 9 0.629658 1
gene 1 5 7 0.908708 0 10 0.908708 1
genomeend 139

/* Organism #140 Fitness: 24 Error: 0 */
genomestart 140
trait 1 0.1 0 0 0 0 0 0 0 
trait 2 0.2 0 0 0 0 0 0 0 
trait 3 0.3 0 0 0 0 0 0 0 
node 1 3 1 3
node 2 2 1 1
node 3 3 1 1
node 4 3 1 1
node 5 2 1 1
node 6 3 0 2
node 7 2 0 2
gene 2 1 6 -0.0975372 0 1 -0.0975372 1
gene 2 2 6 -0.401154 0 2 -0.401154 1
gene 3 3 6 0.874046 0 3 0.874046 1
gene 1 4 6 -1.06029 0 4 -1.06029 1
gene 3 5 6 -1.45306 0 5 -1.45306 1
gene 1 1 7 -0.651509 0 6 -0.651509 1
gene 3 2 7 0.150494 0 7 0.150494 1
gene 3 3 7 -1.28711 0 8 -1.28711 1
gene 1 4 7 3.07082 0 9 3.07082 1
gene 2 5 7 -0.0733627 0 10 -0.0733627 1
genomeend 140

/* Organism #141 Fitness: 10 Error: 0 */
genomestart 141
trait 1 0.1 0 0 0 0 0 0 0 
trait 2 0.2 0 0 0 0 0 0 0 
trait 3 0.3 0 0 0 0 0 0 0 
node 1 3 1 3
node 2 2 1 1
node 3 3 1 1
node 4 3 1 1
node 5 2 1 1
node 6 3 0 2
node 7 2 0 2
gene 2 1 6 -1.32096 0 1 -1.32096 1
gene 3 2 6 -0.889706 0 2 -0.889706 1
gene 2 3 6 2.78278 0 3 2.78278 1
gene 1 4 6 -3.51731 0 4 -3.51731 1
gene 3 5 6 -2.44618 0 5 -2.44618 1
gene 2 1 7 -2.33206 0 6 -2.33206 1
gene 3 2 7 -0.99826 0 7 -0.99826 1
gene 3 3 7 -2.05086 0 8 -2.05086 1
gene 1 4 7 3.1127 0 9 3.1127 1
gene 2 5 7 -0.12833 0 10 -0.12833 1
genomeend 141

/* Organism #142 Fitness: 10 Error: 0 */
genomestart 142
trait 1 0.1 0 0 0 0 0 0 0 
trait 2 0.2 0 0 0 0 0 0 0 
trait 3 0.15 0 0.391949 0.473251 0 0.312662 0 0 
node 1 3 1 3
node 2 3 1 1
node 3 1 1 1
node 4 2 1 1
node 5 1 1 1
node 6 2 0 2
node 7 1 0 2
gene 1 1 6 1.3431 0 1 1.3431 1
gene 3 2 6 -0.17604 0 2 -0.17604 1
gene 1 3 6 -0.953801 0 3 -0.953801 1
gene 2 4 6 -1.3519 0 4 -1.3519 1
gene 2 5 6 -1.92738 0 5 -1.92738 1
gene 1 1 7 -0.89889 0 6 -0.89889 1
gene 1 2 7 1.15041 0 7 1.15041 1
gene 2 3 7 -2.2778 0 8 -2.2778 1
gene 1 4 7 4.35818 0 9 4.35818 1
gene 1 5 7 -3.47449 0 10 -3.47449 1
genomeend 142

/* Organism #143 Fitness: 10 Error: 0 */
genomestart 143
trait 1 0.1 0 0 0 0 0 0 0 
trait 2 0.2 0 0 0 0 0 0 0 
trait 3 0.15 0 0.391949 0.473251 0 0.312662 0 0 
node 1 3 1 3
node 2 2 1 1
node 3 3 1 1
node 4 3 1 1
node 5 2 1 1
node 6 3 0 2
node 7 2 0 2
gene 1 1 6 2.59953 0 1 2.59953 1
gene 2 2 6 1.58887 0 2 1.58887 1
gene 1 3 6 -1.05777 0 3 -1.05777 1
gene 1 4 6 -1.43062 0 4 -1.43062 1
gene 3 5 6 -0.705245 0 5 -0.705245 1
gene 2 1 7 -0.597812 0 6 -0.597812 1
gene 3 2 7 -0.300836 0 7 -0.300836 1
gene 1 3 7 0.966262 0 8 0.966262 1
gene 1 4 7 1.02756 0 9 1.02756 1
gene 3 5 7 0.024369 0 10 0.024369 1
genomeend 143

/* Organism #144 Fitness: 16 Error: 0 */
genomestart 144
trait 1 0.1 0.0547655 0 0 0 0.0472198 0.061758 0 
trait 2 0.2 0 0 0 0 0 0 0 
trait 3 0.3 0 0 0 0 0 0 0 
node 1 2 1 3
node 2 1 1 1
node 3 2 1 1
node 4 1 1 1
node 5 1 1 1
node 6 3 0 2
node 7 1 0 2
gene 1 1 6 2.64595 0 1 2.64595 1
gene 3 2 6 -0.500427 0 2 -0.500427 1
gene 3 3 6 -1.18876 0 3 -1.18876 1
gene 2 4 6 -2.08693 0 4 -2.08693 1
gene 3 5 6 0.654607 0 5 0.654607 1
gene 2 1 7 2.77844 0 6 2.77844 1
gene 3 2 7 -3.21015 0 7 -3.21015 1
gene 2 3 7 -2.72373 0 8 -2.72373 1
gene 3 4 7 0.559618 0 9 0.559618 1
gene 2 5 7 0.753792 0 10 0.753792 1
genomeend 144

/* Organism #145 Fitness: 6 Error: 0 */
genomestart 145
trait 1 0.1 0 0 0 0 0 0 0 
trait 2 0.2 0 0 0 0 0 0 0 
trait 3 0.3 0 0 0 0 0 0 0 
node 1 3 1 3
node 2 2 1 1
node 3 3 1 1
node 4 3 1 1
node 5 2 1 1
node 6 3 0 2
node 7 2 0 2
gene 2 1 6 -0.796503 0 1 -0.796503 1
gene 2 2 6 0.544069 0 2 0.544069 1
gene 3 3 6 -0.634312 0 3 -0.634312 1
gene 3 4 6 -2.09266 0 4 -2.09266 1
gene 3 5 6 -2.44618 0 5 -2.44618 1
gene 2 1 7 -1.11984 0 6 -1.11984 1
gene 3 2 7 0.205725 0 7 0.205725 1
gene 3 3 7 0.383602 0 8 0.383602 1
gene 1 4 7 4.7385 0 9 4.7385 1
gene 2 5 7 -2.09143 0 10 -2.09143 1
genomeend 145

/* Organism #146 Fitness: 28 Error: 0 */
genomestart 146
trait 1 0.1 0 0 0 0 0 0 0 
trait 2 0.380105 0 0 0 0 0 0 0 
trait 3 0.3 0 0 0 0 0 0 0 
node 1 1 1 3
node 2 3 1 1
node 3 2 1 1
node 4 2 1 1
node 5 2 1 1
node 6 3 0 2
node 7 2 0 2
gene 2 1 6 0.700323 0 1 0.700323 1
gene 3 2 6 -0.798204 0 2 -0.798204 1
gene 2 3 6 0.77015 0 3 0.77015 1
gene 1 4 6 -0.915109 0 4 -0.915109 1
gene 3 5 6 -0.712676 0 5 -0.712676 1
gene 2 1 7 -2.14624 0 6 -2.14624 1
gene 3 2 7 3.61895 0 7 3.61895 1
gene 3 3 7 -2.79421 0 8 -2.79421 1
gene 2 4 7 5.119 0 9 5.119 1
gene 2 5 7 -0.595584 0 10 -0.595584 1
genomeend 146

/* Organism #147 Fitness: 132 Error: 0 */
genomestart 147
trait 1 0.1 0 0 0 0 0 0 0 
trait 2 0.2 0.544786 0 0.568163 0 0.444868 0 0.265572 
trait 3 0.3 0 0 0 0 0 0 0 
node 1 2 1 3
node 2 2 1 1
node 3 1 1 1
node 4 2 1 1
node 5 3 1 1
node 6 2 0 2
node 7 3 0 2
gene 2 1 6 1.57486 0 1 1.57486 1
gene 2 2 6 -0.898495 0 2 -0.898495 1
gene 1 3 6 3.50801 0 3 3.50801 1
gene 1 4 6 -1.74595 0 4 -1.74595 1
gene 2 5 6 -4.63462 0 5 -4.63462 1
gene 2 1 7 0.087878 0 6 0.087878 1
gene 1 2 7 -2.85916 0 7 -2.85916 1
gene 1 3 7 -2.16326 0 8 -2.16326 1
gene 1 4 7 3.0285 0 9 3.0285 1
gene 2 5 7 4.0521 0 10 4.0521 1
genomeend 147

/* Organism #148 Fitness: 95 Error: 0 */
genomestart 148
trait 1 0.1 0 0 0 0 0 0 0 
trait 2 0.2 0 0 0 0 0 0 0 
trait 3 0.3 0 0 0 0 0 0 0 
node 1 3 1 3
node 2 2 1 1
node 3 2 1 1
node 4 2 1 1
node 5 3 1 1
node 6 1 0 2
node 7 3 0 2
gene 2 1 6 0.505493 0 1 0.505493 1
gene 1 2 6 0.0714896 0 2 0.0714896 1
gene 2 3 6 2.06058 0 3 2.06058 1
gene 1 4 6 -1.12629 0 4 -1.12629 1
gene 2 5 6 0.247009 0 5 0.247009 1
gene 2 1 7 -0.668828 0 6 -0.668828 1
gene 1 2 7 -0.497017 0 7 -0.497017 1
gene 1 3 7 -1.11625 0 8 -1.11625 1
gene 1 4 7 2.38833 0 9 2.38833 1
gene 2 5 7 5.45228 0 10 5.45228 1
genomeend 148

/* Organism #149 Fitness: 5 Error: 0 */
genomestart 149
trait 1 0.1 0 0 0 0 0 0 0 
trait 2 0.2 0 0 0 0 0 0 0 
trait 3 0.3 0 0 0 0 0 0 0 
node 1 1 1 3
node 2 3 1 1
node 3 2 1 1
node 4 2 1 1
node 5 2 1 1
node 6 3 0 2
node 7 2 0 2
gene 2 1 6 0.601428 0 1 0.601428 1
gene 2 2 6 -1.29456 0 2 -1.29456 1
gene 1 3 6 -0.985343 0 3 -0.985343 1
gene 2 4 6 -0.788926 0 4 -0.788926 1
gene 2 5 6 -1.50668 0 5 -1.50668 1
gene 1 1 7 1.02904 0 6 1.02904 1
gene 3 2 7 -0.751465 0 7 -0.751465 1
gene 3 3 7 -1.50345 0 8 -1.50345 1
gene 2 4 7 1.76627 0 9 1.76627 1
gene 2 5 7 0.65392 0 10 0.65392 1
genomeend 149
