
/* Species #1 : (Size 136) (AF 2248.49) (Age 7)  */


/* Organism #0 Fitness: 28 Error: 0 */
genomestart 0
trait 1 0.1 0 0 0 0 0 0 0 
trait 2 0.2 0 0 0 0 0 0 0 
trait 3 0.2625 0 0 0 0 0 0 0 
node 1 1 1 3
node 2 3 1 1
node 3 2 1 1
node 4 2 1 1
node 5 2 1 1
node 6 3 0 2
node 7 2 0 2
gene 2 1 6 1.78411 0 1 1.78411 1
gene 3 2 6 -1.28712 0 2 -1.28712 1
gene 1 3 6 -3.05496 0 3 -3.05496 1
gene 1 4 6 -3.27105 0 4 -3.27105 1
gene 3 5 6 -3.84909 0 5 -3.84909 1
gene 3 1 7 -2.23432 0 6 -2.23432 1
gene 3 2 7 -1.58302 0 7 -1.58302 1
gene 3 3 7 -1.50345 0 8 -1.50345 1
gene 1 4 7 -2.1514 0 9 -2.1514 1
gene 2 5 7 1.88098 0 10 1.88098 1
gene 3 7 6 -1.45552 0 27 -1.45552 1
genomeend 0

/* Organism #1 Fitness: 100001 Error: 0 */
/* ##------$ WINNER 1 SPECIES #1 $------## */
genomestart 1
trait 1 0.1 0 0 0 0 0 0 0 
trait 2 0.2 0 0 0 0 0 0 0 
trait 3 0.1875 0 0.293962 0.354938 0 0.234497 0 0 
node 1 1 1 3
node 2 3 1 1
node 3 2 1 1
node 4 2 1 1
node 5 3 1 1
node 6 2 0 2
node 7 3 0 2
gene 1 1 6 3.07649 0 1 3.07649 1
gene 2 2 6 -0.897076 0 2 -0.897076 1
gene 3 3 6 1.27667 0 3 1.27667 1
gene 1 4 6 -1.40045 0 4 -1.40045 1
gene 2 5 6 -2.2684 0 5 -2.2684 1
gene 3 1 7 -3.08468 0 6 -3.08468 1
gene 3 2 7 1.66754 0 7 1.66754 1
gene 3 3 7 -1.98003 0 8 -1.98003 1
gene 2 4 7 5.34556 0 9 5.34556 1
gene 1 5 7 1.73373 0 10 1.73373 1
genomeend 1

/* Organism #2 Fitness: 4 Error: 0 */
genomestart 2
trait 1 0.1 0 0 0 0 0 0 0 
trait 2 0.56021 0 0 0 0 0 0 0 
trait 3 0.3 0 0 0 0 0 0 0 
node 1 1 1 3
node 2 2 1 1
node 3 2 1 1
node 4 2 1 1
node 5 2 1 1
node 6 3 0 2
node 7 2 0 2
gene 2 1 6 1.66738 0 1 1.66738 1
gene 3 2 6 -0.34463 0 2 -0.34463 1
gene 1 3 6 -2.56401 0 3 -2.56401 1
gene 1 4 6 -5.58997 0 4 -5.58997 1
gene 3 5 6 2.21351 0 5 2.21351 1
gene 3 1 7 -6.10338 0 6 -6.10338 1
gene 3 2 7 1.10088 0 7 1.10088 1
gene 3 3 7 -4.80157 0 8 -4.80157 1
gene 2 4 7 0.719077 0 9 0.719077 1
gene 2 5 7 2.50046 0 10 2.50046 1
genomeend 2

/* Organism #3 Fitness: 128 Error: 0 */
genomestart 3
trait 1 0.1 0.0136914 0 0 0 0.0118049 0.0154395 0 
trait 2 0.2 0 0 0 0 0 0 0 
trait 3 0.329252 0.0879467 0 0 0 0 0 0 
node 1 3 1 3
node 2 2 1 1
node 3 3 1 1
node 4 3 1 1
node 5 2 1 1
node 6 3 0 2
node 7 2 0 2
gene 2 1 6 2.67405 0 1 2.67405 1
gene 1 2 6 -0.427183 0 2 -0.427183 1
gene 1 3 6 -0.380524 0 3 -0.380524 1
gene 2 4 6 -3.07137 0 4 -3.07137 1
gene 2 5 6 -1.82089 0 5 -1.82089 1
gene 1 1 7 -1.1008 0 6 -1.1008 1
gene 3 2 7 -2.55989 0 7 -2.55989 0
gene 2 3 7 1.79583 0 8 1.79583 1
gene 1 4 7 1.9463 0 9 1.9463 1
gene 1 5 7 2.3838 0 10 2.3838 1
genomeend 3

/* Organism #4 Fitness: 42 Error: 0 */
genomestart 4
trait 1 0.1 0 0 0 0 0 0 0 
trait 2 0.2 0 0 0 0 0 0 0 
trait 3 0.3 0 0 0 0 0 0 0 
node 1 3 1 3
node 2 2 1 1
node 3 2 1 1
node 4 2 1 1
node 5 3 1 1
node 6 1 0 2
node 7 3 0 2
gene 2 1 6 2.35507 0 1 2.35507 1
gene 1 2 6 1.51212 0 2 1.51212 1
gene 2 3 6 0.217872 0 3 0.217872 1
gene 1 4 6 -2.48894 0 4 -2.48894 1
gene 2 5 6 -0.700819 0 5 -0.700819 1
gene 2 1 7 -0.472747 0 6 -0.472747 1
gene 1 2 7 -0.0954695 0 7 -0.0954695 1
gene 1 3 7 -1.08885 0 8 -1.08885 1
gene 1 4 7 4.13437 0 9 4.13437 1
gene 2 5 7 3.64605 0 10 3.64605 1
gene 1 6 7 0.758812 0 47 0.758812 1
genomeend 4

/* Organism #5 Fitness: 15 Error: 0 */
genomestart 5
trait 1 0.1 0 0 0 0 0 0 0 
trait 2 0.2 0 0 0 0 0 0 0 
trait 3 0.387756 0.26384 0 0 0 0 0 0 
node 1 3 1 3
node 2 2 1 1
node 3 2 1 1
node 4 2 1 1
node 5 3 1 1
node 6 1 0 2
node 7 2 0 2
gene 2 1 6 2.2092 0 1 2.2092 1
gene 1 2 6 -0.315007 0 2 -0.315007 1
gene 1 3 6 -2.60037 0 3 -2.60037 1
gene 2 4 6 -3.31539 0 4 -3.31539 1
gene 2 5 6 -4.1246 0 5 -4.1246 1
gene 1 1 7 2.00611 0 6 2.00611 1
gene 1 2 7 2.55554 0 7 2.55554 1
gene 3 3 7 0.454729 0 8 0.454729 1
gene 1 4 7 0.600734 0 9 0.600734 1
gene 2 5 7 1.88086 0 10 1.88086 1
genomeend 5

/* Organism #6 Fitness: 8 Error: 0 */
genomestart 6
trait 1 0.1 0 0 0 0 0 0 0 
trait 2 0.2 0 0 0 0 0 0 0 
trait 3 0.283504 0.175893 0.195975 0.236625 0 0.156331 0 0 
node 1 3 1 3
node 2 2 1 1
node 3 3 1 1
node 4 3 1 1
node 5 2 1 1
node 6 3 0 2
node 7 2 0 2
gene 2 1 6 -1.11908 0 1 -1.11908 1
gene 3 2 6 -2.27971 0 2 -2.27971 1
gene 1 3 6 0.685625 0 3 0.685625 1
gene 1 4 6 -0.216504 0 4 -0.216504 1
gene 2 5 6 -4.07728 0 5 -4.07728 1
gene 2 1 7 -1.58712 0 6 -1.58712 1
gene 1 2 7 2.27233 0 7 2.27233 1
gene 2 3 7 -1.27769 0 8 -1.27769 1
gene 1 4 7 5.55068 0 9 5.55068 1
gene 1 5 7 0.658078 0 10 0.658078 1
gene 3 7 6 2.39265 0 33 2.39265 1
genomeend 6

/* Organism #7 Fitness: 106 Error: 0 */
genomestart 7
trait 1 0.1 0 0 0 0 0 0 0 
trait 2 0.290052 0 0 0 0 0 0 0 
trait 3 0.319877 0.0879467 0 0 0 0 0 0 
node 1 3 1 3
node 2 3 1 1
node 3 1 1 1
node 4 2 1 1
node 5 1 1 1
node 6 2 0 2
node 7 1 0 2
gene 2 1 6 1.61987 0 1 1.61987 1
gene 3 2 6 -1.54014 0 2 -1.54014 1
gene 1 3 6 -1.04783 0 3 -1.04783 1
gene 1 4 6 -3.40261 0 4 -3.40261 1
gene 3 5 6 -2.4405 0 5 -2.4405 1
gene 3 1 7 -1.50291 0 6 -1.50291 1
gene 1 2 7 -2.66868 0 7 -2.66868 1
gene 3 3 7 -1.63042 0 8 -1.63042 1
gene 2 4 7 2.17998 0 9 2.17998 1
gene 2 5 7 1.43801 0 10 1.43801 1
genomeend 7

/* Organism #8 Fitness: 23 Error: 0 */
genomestart 8
trait 1 0.1 0 0 0 0 0 0 0 
trait 2 0.245026 0 0 0 0 0 0 0 
trait 3 0.271875 0 0 0 0 0 0 0 
node 1 1 1 3
node 2 3 1 1
node 3 2 1 1
node 4 2 1 1
node 5 2 1 1
node 6 3 0 2
node 7 2 0 2
gene 2 1 6 2.99725 0 1 2.99725 1
gene 3 2 6 -1.92053 0 2 -1.92053 1
gene 1 3 6 -1.24248 0 3 -1.24248 1
gene 1 4 6 -3.27105 0 4 -3.27105 1
gene 3 5 6 -0.353267 0 5 -0.353267 1
gene 3 1 7 -0.807581 0 6 -0.807581 1
gene 3 2 7 -1.49986 0 7 -1.49986 1
gene 3 3 7 -1.50345 0 8 -1.50345 1
gene 1 4 7 -2.13584 0 9 -2.13584 1
gene 2 5 7 3.9686 0 10 3.9686 1
gene 3 7 6 -1.42376 0 27 -1.42376 1
genomeend 8

/* Organism #9 Fitness: 4 Error: 0 */
genomestart 9
trait 1 0.1 0 0 0 0 0 0 0 
trait 2 0.2 0 0 0 0 0 0 0 
trait 3 0 0 0 0 0 0 0 0 
node 1 1 1 3
node 2 3 1 1
node 3 2 1 1
node 4 2 1 1
node 5 2 1 1
node 6 3 0 2
node 7 2 0 2
gene 1 1 6 -0.119633 0 1 -0.119633 1
gene 3 2 6 0.578616 0 2 0.578616 1
gene 2 3 6 0.805719 0 3 0.805719 1
gene 1 4 6 -0.989917 0 4 -0.989917 1
gene 2 5 6 1.25126 0 5 1.25126 1
gene 2 1 7 -2.33141 0 6 -2.33141 1
gene 3 2 7 2.78425 0 7 2.78425 1
gene 3 3 7 -0.337855 0 8 -0.337855 1
gene 1 4 7 5.3726 0 9 5.3726 1
gene 1 5 7 1.16353 0 10 1.16353 1
genomeend 9

/* Organism #10 Fitness: 22 Error: 0 */
genomestart 10
trait 1 0.1 0 0 0 0 0 0 0 
trait 2 0.2 0 0 0 0 0 0 0 
trait 3 0.28125 0 0 0 0 0 0 0 
node 1 1 1 3
node 2 3 1 1
node 3 2 1 1
node 4 2 1 1
node 5 2 1 1
node 6 3 0 2
node 7 2 0 2
gene 2 1 6 5.99497 0 1 5.99497 1
gene 1 2 6 1.45024 0 2 1.45024 1
gene 1 3 6 1.48724 0 3 1.48724 1
gene 1 4 6 -2.04061 0 4 -2.04061 1
gene 2 5 6 -0.0569933 0 5 -0.0569933 1
gene 1 1 7 -0.671605 0 6 -0.671605 1
gene 3 2 7 1.62793 0 7 1.62793 1
gene 3 3 7 -0.157757 0 8 -0.157757 1
gene 1 4 7 0.401395 0 9 0.401395 1
gene 2 5 7 3.67897 0 10 3.67897 1
genomeend 10

/* Organism #11 Fitness: 15 Error: 0 */
genomestart 11
trait 1 0.1 0 0 0 0 0 0 0 
trait 2 0.2 0 0 0 0 0 0 0 
trait 3 0.1875 0 0.195975 0.236625 0 0.156331 0 0 
node 1 3 1 3
node 2 2 1 1
node 3 3 1 1
node 4 3 1 1
node 5 2 1 1
node 6 3 0 2
node 7 2 0 2
gene 1 1 6 1.59486 0 1 1.59486 1
gene 1 2 6 -1.49638 0 2 -1.49638 1
gene 1 3 6 -3.32954 0 3 -3.32954 1
gene 1 4 6 -3.94314 0 4 -3.94314 1
gene 3 5 6 -2.53475 0 5 -2.53475 1
gene 2 1 7 0.0323534 0 6 0.0323534 1
gene 2 2 7 1.79622 0 7 1.79622 1
gene 3 3 7 0.970702 0 8 0.970702 1
gene 1 4 7 1.18427 0 9 1.18427 1
gene 2 5 7 1.17237 0 10 1.17237 1
gene 3 7 6 -1.45552 0 27 -1.45552 1
genomeend 11

/* Organism #12 Fitness: 6 Error: 0 */
genomestart 12
trait 1 0.1 0 0 0 0 0 0 0 
trait 2 0.2 0 0 0 0 0 0 0 
trait 3 0.329252 0.0879467 0 0 0 0 0 0 
node 1 3 1 3
node 2 2 1 1
node 3 2 1 1
node 4 2 1 1
node 5 3 1 1
node 6 1 0 2
node 7 2 0 2
gene 3 1 6 5.11821 0 1 5.11821 1
gene 1 2 6 4.44557 0 2 4.44557 1
gene 1 3 6 1.25881 0 3 1.25881 1
gene 2 4 6 -0.710385 0 4 -0.710385 1
gene 2 5 6 -4.39457 0 5 -4.39457 1
gene 1 1 7 -0.30697 0 6 -0.30697 1
gene 1 2 7 -1.30551 0 7 -1.30551 1
gene 2 3 7 0.108798 0 8 0.108798 1
gene 1 4 7 0.0570544 0 9 0.0570544 1
gene 2 5 7 1.04877 0 10 1.04877 1
genomeend 12

/* Organism #13 Fitness: 17 Error: 0 */
genomestart 13
trait 1 0.1 0.0136914 0 0 0 0.0118049 0.0154395 0 
trait 2 0.380105 0 0 0 0 0 0 0 
trait 3 0.3 0 0 0 0 0 0 0 
node 1 1 1 3
node 2 2 1 1
node 3 2 1 1
node 4 2 1 1
node 5 2 1 1
node 6 3 0 2
node 7 2 0 2
gene 2 1 6 2.14477 0 1 2.14477 1
gene 3 2 6 2.88255 0 2 2.88255 1
gene 1 3 6 -6.16741 0 3 -6.16741 1
gene 1 4 6 -4.79267 0 4 -4.79267 1
gene 3 5 6 -4.75068 0 5 -4.75068 1
gene 1 1 7 -3.0609 0 6 -3.0609 1
gene 3 2 7 0.0146489 0 7 0.0146489 0
gene 2 3 7 -2.36865 0 8 -2.36865 1
gene 1 4 7 2.38982 0 9 2.38982 1
gene 2 5 7 4.6115 0 10 4.6115 1
genomeend 13

/* Organism #14 Fitness: 80 Error: 0 */
genomestart 14
trait 1 0.1 0 0 0 0 0 0 0 
trait 2 0.2 0 0 0 0 0 0 0 
trait 3 0.329252 0.0879467 0 0 0 0 0 0 
node 1 1 1 3
node 2 3 1 1
node 3 2 1 1
node 4 2 1 1
node 5 3 1 1
node 6 2 0 2
node 7 3 0 2
gene 2 1 6 3.38566 0 1 3.38566 1
gene 1 2 6 0.0940275 0 2 0.0940275 1
gene 3 3 6 -2.10906 0 3 -2.10906 1
gene 2 4 6 -1.30834 0 4 -1.30834 1
gene 2 5 6 -1.94743 0 5 -1.94743 1
gene 1 1 7 1.22023 0 6 1.22023 1
gene 3 2 7 -2.26318 0 7 -2.26318 1
gene 3 3 7 -1.55573 0 8 -1.55573 1
gene 1 4 7 2.24493 0 9 2.24493 1
gene 2 5 7 0.659791 0 10 0.659791 1
genomeend 14

/* Organism #15 Fitness: 36 Error: 0 */
genomestart 15
trait 1 0.1 0 0 0 0 0 0 0 
trait 2 0.380105 0 0 0 0 0 0 0 
trait 3 0.3 0 0 0 0 0 0 0 
node 1 1 1 3
node 2 2 1 1
node 3 2 1 1
node 4 2 1 1
node 5 2 1 1
node 6 3 0 2
node 7 2 0 2
gene 2 1 6 -0.248573 0 1 -0.248573 1
gene 1 2 6 -4.12336 0 2 -4.12336 1
gene 1 3 6 -0.40315 0 3 -0.40315 1
gene 1 4 6 -1.79835 0 4 -1.79835 1
gene 3 5 6 -0.170064 0 5 -0.170064 1
gene 1 1 7 -1.71334 0 6 -1.71334 1
gene 1 2 7 -1.59047 0 7 -1.59047 1
gene 3 3 7 -3.95437 0 8 -3.95437 1
gene 2 4 7 1.7889 0 9 1.7889 1
gene 2 5 7 0.373165 0 10 0.373165 1
genomeend 15

/* Organism #16 Fitness: 27 Error: 0 */
genomestart 16
trait 1 0.1 0 0 0 0 0 0 0 
trait 2 0.290052 0 0 0 0 0 0 0 
trait 3 0.329252 0.0879467 0 0 0 0 0 0 
node 1 3 1 3
node 2 3 1 1
node 3 1 1 1
node 4 2 1 1
node 5 1 1 1
node 6 2 0 2
node 7 1 0 2
gene 2 1 6 1.03994 0 1 1.03994 1
gene 3 2 6 -3.901 0 2 -3.901 1
gene 1 3 6 0.622097 0 3 0.622097 1
gene 1 4 6 -0.868814 0 4 -0.868814 1
gene 3 5 6 -3.49064 0 5 -3.49064 1
gene 3 1 7 -0.931444 0 6 -0.931444 1
gene 1 2 7 -4.8498 0 7 -4.8498 1
gene 2 3 7 -3.66123 0 8 -3.66123 1
gene 1 4 7 5.38398 0 9 5.38398 1
gene 2 5 7 0.779439 0 10 0.779439 1
genomeend 16

/* Organism #17 Fitness: 1 Error: 0 */
genomestart 17
trait 1 0.1 0.0616779 0.798181 0.0462661 0 0 0.616962 0 
trait 2 0.2 0 0 0 0 0 0 0 
trait 3 0.140625 0 0 0 0 0 0 0 
node 1 1 1 3
node 2 3 1 1
node 3 3 1 1
node 4 2 1 1
node 5 2 1 1
node 6 3 0 2
node 7 2 0 2
gene 2 1 6 1.52241 0 1 1.52241 1
gene 3 2 6 2.91328 0 2 2.91328 1
gene 1 3 6 5.40253 0 3 5.40253 1
gene 1 4 6 -1.15434 0 4 -1.15434 1
gene 2 5 6 -4.37737 0 5 -4.37737 1
gene 2 1 7 -5.54249 0 6 -5.54249 1
gene 3 2 7 -1.24931 0 7 -1.24931 1
gene 3 3 7 3.73618 0 8 3.73618 1
gene 1 4 7 1.89894 0 9 1.89894 1
gene 1 5 7 1.01392 0 10 1.01392 1
genomeend 17

/* Organism #18 Fitness: 1 Error: 0 */
genomestart 18
trait 1 0.1 0 0 0 0 0 0 0 
trait 2 0.290052 0 0 0 0 0 0 0 
trait 3 0.358504 0.175893 0 0 0 0 0 0 
node 1 1 1 3
node 2 2 1 1
node 3 2 1 1
node 4 2 1 1
node 5 2 1 1
node 6 3 0 2
node 7 2 0 2
gene 2 1 6 2.29362 0 1 2.29362 1
gene 3 2 6 -0.881195 0 2 -0.881195 1
gene 2 3 6 -0.0587329 0 3 -0.0587329 1
gene 1 4 6 -2.25651 0 4 -2.25651 1
gene 2 5 6 -1.64084 0 5 -1.64084 1
gene 2 1 7 -0.82461 0 6 -0.82461 1
gene 1 2 7 0.230567 0 7 0.230567 1
gene 3 3 7 -1.48581 0 8 -1.48581 1
gene 1 4 7 3.50705 0 9 3.50705 1
gene 2 5 7 1.4616 0 10 1.4616 1
genomeend 18

/* Organism #19 Fitness: 3 Error: 0 */
genomestart 19
trait 1 0.1 0 0 0 0 0 0 0 
trait 2 0.380105 0 0 0 0 0 0 0 
trait 3 0.28125 0 0 0 0 0 0 0 
node 1 1 1 3
node 2 3 1 1
node 3 2 1 1
node 4 2 1 1
node 5 2 1 1
node 6 3 0 2
node 7 2 0 2
gene 2 1 6 1.78411 0 1 1.78411 1
gene 3 2 6 -1.28712 0 2 -1.28712 1
gene 1 3 6 -4.2851 0 3 -4.2851 1
gene 1 4 6 -3.27105 0 4 -3.27105 1
gene 3 5 6 -2.57471 0 5 -2.57471 1
gene 3 1 7 -6.10338 0 6 -6.10338 1
gene 3 2 7 5.65723 0 7 5.65723 1
gene 3 3 7 -4.13398 0 8 -4.13398 1
gene 1 4 7 -2.1514 0 9 -2.1514 1
gene 2 5 7 1.88098 0 10 1.88098 1
gene 3 7 6 -1.45552 0 27 -1.45552 1
genomeend 19

/* Organism #20 Fitness: 6 Error: 0 */
genomestart 20
trait 1 0.1 0 0 0 0 0 0 0 
trait 2 0.245026 0 0 0 0 0 0 0 
trait 3 0.225 0 0.195975 0.236625 0 0.156331 0 0 
node 1 3 1 3
node 2 2 1 1
node 3 3 1 1
node 4 3 1 1
node 5 2 1 1
node 6 3 0 2
node 7 2 0 2
gene 2 1 6 1.85735 0 1 1.85735 1
gene 3 2 6 0.00371467 0 2 0.00371467 1
gene 1 3 6 1.72433 0 3 1.72433 1
gene 1 4 6 -1.94937 0 4 -1.94937 1
gene 3 5 6 1.90115 0 5 1.90115 1
gene 1 1 7 -2.82247 0 6 -2.82247 1
gene 3 2 7 1.00873 0 7 1.00873 1
gene 3 3 7 1.19877 0 8 1.19877 1
gene 1 4 7 1.66185 0 9 1.66185 1
gene 2 5 7 0.658988 0 10 0.658988 1
gene 3 7 6 -0.976501 0 33 -0.976501 1
genomeend 20

/* Organism #21 Fitness: 4 Error: 0 */
genomestart 21
trait 1 0.1 0 0 0 0 0 0 0 
trait 2 0.2 0 0 0 0 0 0 0 
trait 3 0.15 0 0.293962 0.354938 0 0.234497 0 0 
node 1 1 1 3
node 2 3 1 1
node 3 2 1 1
node 4 2 1 1
node 5 2 1 1
node 6 3 0 2
node 7 2 0 2
gene 2 1 6 0.18891 0 1 0.18891 1
gene 1 2 6 3.21512 0 2 3.21512 1
gene 1 3 6 -2.481 0 3 -2.481 1
gene 1 4 6 -4.12036 0 4 -4.12036 1
gene 2 5 6 -1.42407 0 5 -1.42407 1
gene 2 1 7 -0.779595 0 6 -0.779595 1
gene 1 2 7 -0.568941 0 7 -0.568941 1
gene 2 3 7 0.913419 0 8 0.913419 1
gene 2 4 7 -2.24105 0 9 -2.24105 1
gene 2 5 7 4.40605 0 10 4.40605 1
genomeend 21

/* Organism #22 Fitness: 13 Error: 0 */
genomestart 22
trait 1 0.1 0 0 0 0 0 0 0 
trait 2 0.2 0 0 0 0 0 0 0 
trait 3 0.358504 0.175893 0 0 0 0 0 0 
node 1 3 1 3
node 2 2 1 1
node 3 2 1 1
node 4 2 1 1
node 5 3 1 1
node 6 1 0 2
node 7 2 0 2
gene 2 1 6 1.92711 0 1 1.92711 1
gene 1 2 6 0.525084 0 2 0.525084 1
gene 1 3 6 -0.0835788 0 3 -0.0835788 1
gene 2 4 6 -4.13494 0 4 -4.13494 1
gene 2 5 6 -2.69033 0 5 -2.69033 1
gene 1 1 7 1.55349 0 6 1.55349 1
gene 1 2 7 1.50983 0 7 1.50983 1
gene 3 3 7 -0.777572 0 8 -0.777572 1
gene 1 4 7 0.749672 0 9 0.749672 1
gene 2 5 7 0.659791 0 10 0.659791 1
genomeend 22

/* Organism #23 Fitness: 10 Error: 0 */
genomestart 23
trait 1 0.1 0 0 0 0 0 0 0 
trait 2 0.380105 0 0 0 0 0 0 0 
trait 3 0.290625 0 0 0 0 0 0 0 
node 1 1 1 3
node 2 3 1 1
node 3 2 1 1
node 4 2 1 1
node 5 2 1 1
node 6 3 0 2
node 7 2 0 2
gene 2 1 6 3.00423 0 1 3.00423 1
gene 1 2 6 -1.53409 0 2 -1.53409 1
gene 1 3 6 -4.10085 0 3 -4.10085 1
gene 1 4 6 -4.08022 0 4 -4.08022 1
gene 3 5 6 0.714972 0 5 0.714972 1
gene 1 1 7 -3.16741 0 6 -3.16741 1
gene 3 2 7 5.57445 0 7 5.57445 1
gene 3 3 7 4.34594 0 8 4.34594 1
gene 1 4 7 -1.95944 0 9 -1.95944 1
gene 2 5 7 2.49149 0 10 2.49149 1
genomeend 23

/* Organism #24 Fitness: 13 Error: 0 */
genomestart 24
trait 1 0.1 0 0 0 0 0 0 0 
trait 2 0.2 0 0 0 0 0 0 0 
trait 3 0.3 0 0 0 0 0 0 0 
node 1 1 1 3
node 2 3 1 1
node 3 2 1 1
node 4 2 1 1
node 5 3 1 1
node 6 2 0 2
node 7 3 0 2
gene 1 1 6 -2.11647 0 1 -2.11647 1
gene 1 2 6 -2.77776 0 2 -2.77776 1
gene 3 3 6 1.67997 0 3 1.67997 1
gene 2 4 6 1.56133 0 4 1.56133 1
gene 2 5 6 -2.7808 0 5 -2.7808 1
gene 3 1 7 0.727103 0 6 0.727103 1
gene 3 2 7 -2.12989 0 7 -2.12989 1
gene 3 3 7 -1.71885 0 8 -1.71885 1
gene 2 4 7 5.00522 0 9 5.00522 1
gene 1 5 7 2.08205 0 10 2.08205 1
genomeend 24

/* Organism #25 Fitness: 21 Error: 0 */
genomestart 25
trait 1 0.1 0 0 0 0 0 0 0 
trait 2 0.290052 0 0 0 0 0 0 0 
trait 3 0.3 0 0 0 0 0 0 0 
node 1 3 1 3
node 2 2 1 1
node 3 2 1 1
node 4 2 1 1
node 5 3 1 1
node 6 1 0 2
node 7 3 0 2
gene 2 1 6 2.35507 0 1 2.35507 1
gene 1 2 6 1.51212 0 2 1.51212 1
gene 2 3 6 0.217872 0 3 0.217872 1
gene 1 4 6 -2.25651 0 4 -2.25651 1
gene 2 5 6 -0.700819 0 5 -0.700819 1
gene 3 1 7 -2.67491 0 6 -2.67491 1
gene 1 2 7 -0.0954695 0 7 -0.0954695 1
gene 3 3 7 -1.48581 0 8 -1.48581 1
gene 1 4 7 4.13437 0 9 4.13437 1
gene 2 5 7 1.4616 0 10 1.4616 1
gene 1 7 6 -0.3361 0 48 -0.3361 1
genomeend 25

/* Organism #26 Fitness: 4 Error: 0 */
genomestart 26
trait 1 0.1 0.0547655 0 0 0 0.0472198 0.061758 0 
trait 2 0.2 0 0 0 0 0 0 0 
trait 3 0.3 0 0 0 0 0 0 0 
node 1 2 1 3
node 2 1 1 1
node 3 2 1 1
node 4 1 1 1
node 5 2 1 1
node 6 3 0 2
node 7 1 0 2
gene 1 1 6 -0.66316 0 1 -0.66316 1
gene 3 2 6 -1.09233 0 2 -1.09233 1
gene 1 3 6 0.398671 0 3 0.398671 1
gene 2 4 6 0.446028 0 4 0.446028 1
gene 1 5 6 -1.18033 0 5 -1.18033 1
gene 3 1 7 -1.66553 0 6 -1.66553 1
gene 3 2 7 -3.50398 0 7 -3.50398 1
gene 2 3 7 -1.51627 0 8 -1.51627 1
gene 2 4 7 -0.326464 0 9 -0.326464 1
gene 2 5 7 -1.75565 0 10 -1.75565 1
genomeend 26

/* Organism #27 Fitness: 5 Error: 0 */
genomestart 27
trait 1 0.1 0 0 0 0 0 0 0 
trait 2 0.2 0 0 0 0 0 0 0 
trait 3 0.09375 0 0.489937 0.591563 0 0.390828 0 0 
node 1 1 1 3
node 2 3 1 1
node 3 2 1 1
node 4 2 1 1
node 5 2 1 1
node 6 3 0 2
node 7 2 0 2
gene 1 1 6 4.97932 0 1 4.97932 1
gene 1 2 6 4.20907 0 2 4.20907 1
gene 1 3 6 1.3118 0 3 1.3118 1
gene 1 4 6 -3.61756 0 4 -3.61756 1
gene 3 5 6 1.40107 0 5 1.40107 1
gene 2 1 7 -0.429708 0 6 -0.429708 1
gene 2 2 7 0.971225 0 7 0.971225 1
gene 3 3 7 0.436338 0 8 0.436338 1
gene 2 4 7 1.5411 0 9 1.5411 1
gene 3 5 7 0.319422 0 10 0.319422 1
genomeend 27

/* Organism #28 Fitness: 7 Error: 0 */
genomestart 28
trait 1 0.1 0 0 0 0 0 0 0 
trait 2 0 0 0 0 0 0 0.347942 0 
trait 3 0.20625 0 0.195975 0.236625 0 0.156331 0 0 
node 1 1 1 3
node 2 3 1 1
node 3 2 1 1
node 4 2 1 1
node 5 2 1 1
node 6 3 0 2
node 7 2 0 2
gene 2 1 6 -0.0928983 0 1 -0.0928983 1
gene 3 2 6 -2.08322 0 2 -2.08322 1
gene 2 3 6 1.29656 0 3 1.29656 1
gene 3 4 6 -0.983066 0 4 -0.983066 1
gene 3 5 6 -5.13229 0 5 -5.13229 1
gene 3 1 7 -4.30985 0 6 -4.30985 1
gene 3 2 7 5.12313 0 7 5.12313 1
gene 3 3 7 -2.52466 0 8 -2.52466 1
gene 2 4 7 0.0847652 0 9 0.0847652 1
gene 3 5 7 1.91504 0 10 1.91504 1
genomeend 28

/* Organism #29 Fitness: 5 Error: 0 */
genomestart 29
trait 1 0.1 0 0 0 0 0 0 0 
trait 2 0.56021 0 0 0 0 0 0 0 
trait 3 0.3 0 0 0 0 0 0 0 
node 1 1 1 3
node 2 2 1 1
node 3 2 1 1
node 4 2 1 1
node 5 2 1 1
node 6 3 0 2
node 7 2 0 2
gene 2 1 6 1.90809 0 1 1.90809 1
gene 3 2 6 0.564669 0 2 0.564669 1
gene 1 3 6 -4.2851 0 3 -4.2851 1
gene 1 4 6 -3.14772 0 4 -3.14772 1
gene 3 5 6 -2.57471 0 5 -2.57471 1
gene 3 1 7 -6.10338 0 6 -6.10338 1
gene 3 2 7 5.65723 0 7 5.65723 1
gene 3 3 7 -4.13398 0 8 -4.13398 1
gene 2 4 7 0.719077 0 9 0.719077 1
gene 2 5 7 2.285 0 10 2.285 1
gene 1 6 7 0.758812 0 47 0 1
genomeend 29

/* Organism #30 Fitness: 69 Error: 0 */
genomestart 30
trait 1 0.1 0 0 0 0 0 0 0 
trait 2 0.2 0 0 0 0 0 0 0 
trait 3 0.3 0 0 0 0 0 0 0 
node 1 3 1 3
node 2 2 1 1
node 3 2 1 1
node 4 2 1 1
node 5 3 1 1
node 6 1 0 2
node 7 3 0 2
gene 2 1 6 1.66581 0 1 1.66581 1
gene 1 2 6 2.01727 0 2 2.01727 1
gene 2 3 6 0.217872 0 3 0.217872 1
gene 2 4 6 0.820093 0 4 0.820093 1
gene 2 5 6 -1.97123 0 5 -1.97123 1
gene 2 1 7 0.214087 0 6 0.214087 1
gene 1 2 7 0.77179 0 7 0.77179 1
gene 1 3 7 -0.358928 0 8 -0.358928 1
gene 1 4 7 3.42946 0 9 3.42946 1
gene 1 5 7 -0.189596 0 10 -0.189596 1
genomeend 30

/* Organism #31 Fitness: 3 Error: 0 */
genomestart 31
trait 1 0.1 0 0 0 0 0 0 0 
trait 2 0.290052 0 0 0 0 0 0 0 
trait 3 0.20625 0 0.195975 0.236625 0 0.156331 0 0 
node 1 1 1 3
node 2 3 1 1
node 3 2 1 1
node 4 2 1 1
node 5 2 1 1
node 6 3 0 2
node 7 2 0 2
gene 2 1 6 -0.0928983 0 1 -0.0928983 1
gene 1 2 6 2.71786 0 2 2.71786 1
gene 1 3 6 0.0808359 0 3 0.0808359 1
gene 1 4 6 -1.27684 0 4 -1.27684 1
gene 3 5 6 -2.7288 0 5 -2.7288 1
gene 2 1 7 -0.171293 0 6 -0.171293 1
gene 3 2 7 3.14729 0 7 3.14729 1
gene 3 3 7 -0.896558 0 8 -0.896558 1
gene 1 4 7 3.43043 0 9 3.43043 1
gene 2 5 7 -1.96426 0 10 -1.96426 1
genomeend 31

/* Organism #32 Fitness: 5 Error: 0 */
genomestart 32
trait 1 0.1 0 0 0 0 0 0 0 
trait 2 0.380105 0 0 0 0 0 0 0 
trait 3 0.290625 0 0 0 0 0 0 0 
node 1 1 1 3
node 2 3 1 1
node 3 2 1 1
node 4 2 1 1
node 5 2 1 1
node 6 3 0 2
node 7 2 0 2
gene 2 1 6 1.90809 0 1 1.90809 1
gene 1 2 6 -1.6657 0 2 -1.6657 1
gene 1 3 6 -4.2851 0 3 -4.2851 1
gene 1 4 6 0.436949 0 4 0.436949 1
gene 3 5 6 -2.09984 0 5 -2.09984 1
gene 1 1 7 -1.39581 0 6 -1.39581 1
gene 3 2 7 4.79752 0 7 4.79752 1
gene 3 3 7 -4.86154 0 8 -4.86154 1
gene 1 4 7 1.82829 0 9 1.82829 1
gene 2 5 7 2.60761 0 10 2.60761 1
genomeend 32

/* Organism #33 Fitness: 69 Error: 0 */
genomestart 33
trait 1 0.1 0 0 0 0 0 0 0 
trait 2 0.290052 0 0 0 0 0 0 0 
trait 3 0.291752 0.0879467 0.0979873 0.118313 0 0.382649 0 0 
node 1 1 1 3
node 2 2 1 1
node 3 2 1 1
node 4 2 1 1
node 5 2 1 1
node 6 2 0 2
node 7 2 0 2
gene 2 1 6 1.71848 0 1 1.71848 1
gene 3 2 6 2.92503 0 2 2.92503 1
gene 1 3 6 0.104127 0 3 0.104127 1
gene 2 4 6 -2.99156 0 4 -2.99156 1
gene 2 5 6 -4.52094 0 5 -4.52094 1
gene 2 1 7 -0.907411 0 6 -0.907411 1
gene 1 2 7 2.69207 0 7 2.69207 1
gene 3 3 7 -0.533311 0 8 -0.533311 1
gene 1 4 7 -0.383747 0 9 -0.383747 1
gene 2 5 7 -1.98477 0 10 -1.98477 1
genomeend 33

/* Organism #34 Fitness: 25 Error: 0 */
genomestart 34
trait 1 0.1 0 0 0 0 0 0 0 
trait 2 0.2 0 0 0 0 0 0 0 
trait 3 0.1875 0 0.293962 0.354938 0 0.234497 0 0 
node 1 1 1 3
node 2 3 1 1
node 3 2 1 1
node 4 2 1 1
node 5 2 1 1
node 6 3 0 2
node 7 2 0 2
gene 2 1 6 2.00245 0 1 2.00245 1
gene 1 2 6 -0.978423 0 2 -0.978423 1
gene 1 3 6 0.562899 0 3 0.562899 1
gene 1 4 6 -0.920999 0 4 -0.920999 1
gene 3 5 6 -1.37684 0 5 -1.37684 1
gene 2 1 7 -0.678846 0 6 -0.678846 1
gene 1 2 7 -0.0886563 0 7 -0.0886563 1
gene 1 3 7 -3.20286 0 8 -3.20286 1
gene 1 4 7 1.39904 0 9 1.39904 1
gene 2 5 7 3.31397 0 10 3.31397 1
genomeend 34

/* Organism #35 Fitness: 100001 Error: 0 */
/* ##------$ WINNER 35 SPECIES #1 $------## */
genomestart 35
trait 1 0.1 0 0 0 0 0 0 0 
trait 2 0.2 0 0 0 0 0 0 0 
trait 3 0.3 0 0 0 0 0 0 0 
node 1 3 1 3
node 2 2 1 1
node 3 3 1 1
node 4 3 1 1
node 5 2 1 1
node 6 3 0 2
node 7 2 0 2
gene 1 1 6 4.78195 0 1 4.78195 1
gene 3 2 6 0.153569 0 2 0.153569 1
gene 2 3 6 1.26464 0 3 1.26464 1
gene 1 4 6 -2.40201 0 4 -2.40201 1
gene 2 5 6 -0.106662 0 5 -0.106662 1
gene 1 1 7 -0.8511 0 6 -0.8511 1
gene 3 2 7 0.840449 0 7 0.840449 1
gene 3 3 7 2.6831 0 8 2.6831 1
gene 1 4 7 3.75893 0 9 3.75893 1
gene 1 5 7 2.3262 0 10 2.3262 1
genomeend 35

/* Organism #36 Fitness: 22 Error: 0 */
genomestart 36
trait 1 0.1 0 0 0 0 0 0 0 
trait 2 0.2 0 0 0 0 0 0 0 
trait 3 0.3 0 0 0 0 0 0 0 
node 1 3 1 3
node 2 2 1 1
node 3 2 1 1
node 4 2 1 1
node 5 3 1 1
node 6 1 0 2
node 7 3 0 2
gene 3 1 6 3.54483 0 1 3.54483 1
gene 1 2 6 -2.28065 0 2 -2.28065 1
gene 2 3 6 0.217872 0 3 0.217872 1
gene 1 4 6 1.09127 0 4 1.09127 1
gene 2 5 6 -0.700819 0 5 -0.700819 1
gene 2 1 7 -0.472747 0 6 -0.472747 1
gene 1 2 7 -0.0954695 0 7 -0.0954695 1
gene 1 3 7 -1.08885 0 8 -1.08885 1
gene 1 4 7 4.13437 0 9 4.13437 1
gene 2 5 7 3.64605 0 10 3.64605 1
genomeend 36

/* Organism #37 Fitness: 2 Error: 0 */
genomestart 37
trait 1 0.1 0 0 0 0 0 0 0 
trait 2 0.2 0.136196 0 0.142041 0 0.111217 0 0.066393 
trait 3 0.2625 0 0 0 0 0 0 0 
node 1 1 1 3
node 2 3 1 1
node 3 2 1 1
node 4 2 1 1
node 5 2 1 1
node 6 3 0 2
node 7 2 0 2
gene 2 1 6 2.98207 0 1 2.98207 1
gene 1 2 6 2.05209 0 2 2.05209 1
gene 1 3 6 -2.51358 0 3 -2.51358 1
gene 1 4 6 -0.475677 0 4 -0.475677 1
gene 2 5 6 -0.239952 0 5 -0.239952 1
gene 1 1 7 2.30695 0 6 2.30695 1
gene 1 2 7 -2.27097 0 7 -2.27097 1
gene 2 3 7 -0.785676 0 8 -0.785676 1
gene 3 4 7 4.30776 0 9 4.30776 1
gene 2 5 7 1.86605 0 10 1.86605 1
genomeend 37

/* Organism #38 Fitness: 9 Error: 0 */
genomestart 38
trait 1 0.1 0.0273827 0 0 0 0.0236099 0.030879 0 
trait 2 0.2 0.136196 0 0.142041 0 0.111217 0 0.066393 
trait 3 0.3 0 0 0 0 0 0 0 
node 1 2 1 3
node 2 3 1 1
node 3 2 1 1
node 4 1 1 1
node 5 2 1 1
node 6 3 0 2
node 7 1 0 2
gene 1 1 6 0.649335 0 1 0.649335 1
gene 2 2 6 -1.42485 0 2 -1.42485 1
gene 1 3 6 -0.609737 0 3 -0.609737 1
gene 1 4 6 0.704031 0 4 0.704031 1
gene 1 5 6 -4.25835 0 5 -4.25835 0
gene 1 1 7 -2.19571 0 6 -2.19571 1
gene 3 2 7 -1.82974 0 7 -1.82974 1
gene 2 3 7 -0.19306 0 8 -0.19306 1
gene 1 4 7 0.832244 0 9 0.832244 1
gene 2 5 7 -1.12691 0 10 -1.12691 1
genomeend 38

/* Organism #39 Fitness: 451 Error: 0 */
genomestart 39
trait 1 0.1 0 0 0 0 0 0 0 
trait 2 0.380105 0 0 0 0 0 0 0 
trait 3 0.329252 0.0879467 0 0 0 0 0 0 
node 1 3 1 3
node 2 2 1 1
node 3 2 1 1
node 4 2 1 1
node 5 3 1 1
node 6 1 0 2
node 7 2 0 2
gene 2 1 6 3.8265 0 1 3.8265 1
gene 1 2 6 2.37023 0 2 2.37023 1
gene 1 3 6 -1.90435 0 3 -1.90435 1
gene 2 4 6 -3.57401 0 4 -3.57401 1
gene 3 5 6 -5.5743 0 5 -5.5743 1
gene 3 1 7 -3.7443 0 6 -3.7443 1
gene 1 2 7 2.37655 0 7 2.37655 1
gene 3 3 7 0.619434 0 8 0.619434 1
gene 1 4 7 4.55663 0 9 4.55663 1
gene 2 5 7 -0.284814 0 10 -0.284814 1
genomeend 39

/* Organism #40 Fitness: 132 Error: 0 */
genomestart 40
trait 1 0.1 0.0136914 0.793176 0 0 0.0118049 0.339302 0 
trait 2 0.2 0 0 0 0 0 0 0 
trait 3 0.2625 0 0 0 0 0 0 0 
node 1 3 1 3
node 2 2 1 1
node 3 2 1 1
node 4 2 1 1
node 5 3 1 1
node 6 1 0 2
node 7 2 0 2
gene 2 1 6 2.63169 0 1 2.63169 1
gene 1 2 6 4.44281 0 2 4.44281 1
gene 1 3 6 -2.37716 0 3 -2.37716 1
gene 2 4 6 -0.0679933 0 4 -0.0679933 1
gene 1 5 6 -3.83063 0 5 -3.83063 1
gene 1 1 7 -1.24016 0 6 -1.24016 1
gene 2 2 7 -0.775246 0 7 -0.775246 0
gene 2 3 7 -1.79513 0 8 -1.79513 1
gene 3 4 7 4.85137 0 9 4.85137 1
gene 3 5 7 0.187979 0 10 0.187979 1
genomeend 40

/* Organism #41 Fitness: 26 Error: 0 */
genomestart 41
trait 1 0.1 0 0 0 0 0 0 0 
trait 2 0.2 0 0 0 0 0 0 0 
trait 3 0.0375 0 0.293962 0.354938 0 0.234497 0 0 
node 1 1 1 3
node 2 3 1 1
node 3 2 1 1
node 4 2 1 1
node 5 2 1 1
node 6 3 0 2
node 7 2 0 2
gene 1 1 6 1.0062 0 1 1.0062 1
gene 2 2 6 2.17414 0 2 2.17414 1
gene 1 3 6 0.907926 0 3 0.907926 1
gene 1 4 6 -3.56538 0 4 -3.56538 1
gene 3 5 6 -0.383503 0 5 -0.383503 1
gene 2 1 7 -3.61288 0 6 -3.61288 1
gene 1 2 7 2.71594 0 7 2.71594 1
gene 3 3 7 -0.504089 0 8 -0.504089 1
gene 2 4 7 1.99514 0 9 1.99514 1
gene 2 5 7 2.9819 0 10 2.9819 1
genomeend 41

/* Organism #42 Fitness: 7 Error: 0 */
genomestart 42
trait 1 0.1 0 0 0 0 0 0 0 
trait 2 0.2 0 0 0 0 0 0 0 
trait 3 0.349129 0.175893 0 0 0 0 0 0 
node 1 3 1 3
node 2 3 1 1
node 3 1 1 1
node 4 2 1 1
node 5 1 1 1
node 6 2 0 2
node 7 1 0 2
gene 2 1 6 0.516373 0 1 0.516373 1
gene 3 2 6 2.90793 0 2 2.90793 1
gene 2 3 6 3.34285 0 3 3.34285 1
gene 2 4 6 -0.680666 0 4 -0.680666 1
gene 2 5 6 0.0973426 0 5 0.0973426 1
gene 2 1 7 -3.30699 0 6 -3.30699 1
gene 3 2 7 -0.717094 0 7 -0.717094 1
gene 2 3 7 2.21546 0 8 2.21546 1
gene 1 4 7 1.84224 0 9 1.84224 1
gene 2 5 7 0.165012 0 10 0.165012 1
genomeend 42

/* Organism #43 Fitness: 39 Error: 0 */
genomestart 43
trait 1 0.1 0 0 0 0 0 0 0 
trait 2 0.2 0 0 0 0 0 0 0 
trait 3 0.225 0 0.195975 0.236625 0 0.156331 0 0 
node 1 3 1 3
node 2 2 1 1
node 3 3 1 1
node 4 3 1 1
node 5 2 1 1
node 6 1 0 2
node 7 2 0 2
gene 3 1 6 3.37502 0 1 3.37502 1
gene 2 2 6 -0.714843 0 2 -0.714843 1
gene 1 3 6 1.34303 0 3 1.34303 1
gene 1 4 6 1.63254 0 4 1.63254 1
gene 2 5 6 -3.14926 0 5 -3.14926 1
gene 1 1 7 -2.26097 0 6 -2.26097 1
gene 1 2 7 -1.15299 0 7 -1.15299 1
gene 3 3 7 -0.741623 0 8 -0.741623 1
gene 2 4 7 5.44615 0 9 5.44615 1
gene 2 5 7 1.68455 0 10 1.68455 1
gene 2 6 7 0.236091 0 46 0.236091 1
genomeend 43

/* Organism #44 Fitness: 90 Error: 0 */
genomestart 44
trait 1 0.1 0 0 0 0 0 0 0 
trait 2 0.2 0 0 0 0 0 0 0 
trait 3 0.225 0 0 0 0 0 0 0 
node 1 3 1 3
node 2 2 1 1
node 3 2 1 1
node 4 2 1 1
node 5 3 1 1
node 6 1 0 2
node 7 2 0 2
gene 2 1 6 2.11222 0 1 2.11222 1
gene 1 2 6 3.26159 0 2 3.26159 1
gene 1 3 6 -0.746254 0 3 -0.746254 1
gene 3 4 6 -1.35342 0 4 -1.35342 1
gene 2 5 6 -1.42407 0 5 -1.42407 1
gene 2 1 7 1.5806 0 6 1.5806 1
gene 2 2 7 -1.59017 0 7 -1.59017 1
gene 2 3 7 -1.28903 0 8 -1.28903 1
gene 3 4 7 2.67617 0 9 2.67617 1
gene 3 5 7 1.50264 0 10 1.50264 1
gene 1 6 7 0.758812 0 47 0 1
genomeend 44

/* Organism #45 Fitness: 59 Error: 0 */
genomestart 45
trait 1 0.1 0 0 0 0 0 0 0 
trait 2 0.245026 0 0 0 0 0 0 0 
trait 3 0.329252 0.0879467 0 0 0 0 0 0 
node 1 3 1 3
node 2 3 1 1
node 3 1 1 1
node 4 2 1 1
node 5 1 1 1
node 6 2 0 2
node 7 1 0 2
gene 1 1 6 3.81875 0 1 3.81875 1
gene 3 2 6 -0.633672 0 2 -0.633672 1
gene 2 3 6 2.04585 0 3 2.04585 1
gene 1 4 6 -1.84437 0 4 -1.84437 1
gene 3 5 6 -2.94649 0 5 -2.94649 1
gene 1 1 7 -1.04198 0 6 -1.04198 1
gene 1 2 7 -2.02955 0 7 -2.02955 1
gene 3 3 7 -2.86226 0 8 -2.86226 1
gene 2 4 7 4.18274 0 9 4.18274 1
gene 2 5 7 1.66062 0 10 1.66062 1
genomeend 45

/* Organism #46 Fitness: 26 Error: 0 */
genomestart 46
trait 1 0.1 0 0 0 0 0 0 0 
trait 2 0.2 0 0 0 0 0 0 0 
trait 3 0.225 0 0.195975 0.236625 0 0.156331 0 0 
node 1 3 1 3
node 2 2 1 1
node 3 3 1 1
node 4 3 1 1
node 5 2 1 1
node 6 3 0 2
node 7 2 0 2
gene 2 1 6 0.818537 0 1 0.818537 1
gene 3 2 6 0.819847 0 2 0.819847 1
gene 1 3 6 0.793126 0 3 0.793126 1
gene 1 4 6 -2.35753 0 4 -2.35753 1
gene 3 5 6 -0.903472 0 5 -0.903472 1
gene 1 1 7 -2.8138 0 6 -2.8138 1
gene 3 2 7 -1.02438 0 7 -1.02438 1
gene 3 3 7 -1.3905 0 8 -1.3905 1
gene 1 4 7 4.38981 0 9 4.38981 1
gene 1 5 7 2.3262 0 10 2.3262 1
gene 3 7 6 0.0112308 0 33 0.0112308 1
genomeend 46

/* Organism #47 Fitness: 16 Error: 0 */
genomestart 47
trait 1 0.1 0 0 0 0 0 0 0 
trait 2 0.2 0 0 0 0 0 0 0 
trait 3 0.28125 0 0 0 0 0 0 0 
node 1 1 1 3
node 2 3 1 1
node 3 2 1 1
node 4 2 1 1
node 5 2 1 1
node 6 3 0 2
node 7 2 0 2
gene 2 1 6 3.68899 0 1 3.68899 1
gene 1 2 6 -2.43904 0 2 -2.43904 1
gene 1 3 6 5.42313 0 3 5.42313 1
gene 1 4 6 -4.33148 0 4 -4.33148 1
gene 2 5 6 -1.72575 0 5 -1.72575 1
gene 1 1 7 -0.953398 0 6 -0.953398 1
gene 3 2 7 2.6941 0 7 2.6941 1
gene 3 3 7 2.57891 0 8 2.57891 1
gene 1 4 7 -2.28271 0 9 -2.28271 1
gene 2 5 7 2.27157 0 10 2.27157 1
genomeend 47

/* Organism #48 Fitness: 113 Error: 0 */
genomestart 48
trait 1 0.1 0 0 0 0 0 0 0 
trait 2 0.2 0 0 0 0 0 0 0 
trait 3 0.13125 0 0.391949 0.473251 0 0.312662 0 0 
node 1 3 1 3
node 2 2 1 1
node 3 3 1 1
node 4 3 1 1
node 5 2 1 1
node 6 3 0 2
node 7 2 0 2
gene 2 1 6 0.818537 0 1 0.818537 1
gene 3 2 6 0.819847 0 2 0.819847 1
gene 1 3 6 0.793126 0 3 0.793126 1
gene 3 4 6 -2.4594 0 4 -2.4594 1
gene 2 5 6 -0.903472 0 5 -0.903472 1
gene 2 1 7 -0.171293 0 6 -0.171293 1
gene 1 2 7 1.0881 0 7 1.0881 1
gene 3 3 7 -0.896558 0 8 -0.896558 1
gene 1 4 7 4.38981 0 9 4.38981 1
gene 3 5 7 0.383892 0 10 0.383892 1
gene 3 7 6 0.0112308 0 33 0.0112308 1
genomeend 48

/* Organism #49 Fitness: 110 Error: 0 */
genomestart 49
trait 1 0.1 0 0 0 0 0 0 0 
trait 2 0.290052 0 0 0 0 0 0 0 
trait 3 0.28125 0 0 0 0 0 0 0 
node 1 1 1 3
node 2 3 1 1
node 3 2 1 1
node 4 2 1 1
node 5 2 1 1
node 6 3 0 2
node 7 2 0 2
gene 2 1 6 2.99191 0 1 2.99191 1
gene 3 2 6 -2.67869 0 2 -2.67869 1
gene 1 3 6 1.07578 0 3 1.07578 1
gene 1 4 6 -1.93118 0 4 -1.93118 1
gene 3 5 6 -2.36657 0 5 -2.36657 1
gene 3 1 7 0.10622 0 6 0.10622 1
gene 3 2 7 -3.59655 0 7 -3.59655 1
gene 3 3 7 -1.91057 0 8 -1.91057 1
gene 2 4 7 3.83822 0 9 3.83822 1
gene 2 5 7 1.16115 0 10 1.16115 1
gene 3 7 6 -0.338984 0 27 -0.338984 1
genomeend 49

/* Organism #50 Fitness: 7 Error: 0 */
genomestart 50
trait 1 0.1 0 0 0 0 0 0 0 
trait 2 0.335079 0 0 0 0 0 0 0 
trait 3 0.290625 0 0 0 0 0 0 0 
node 1 1 1 3
node 2 3 1 1
node 3 2 1 1
node 4 2 1 1
node 5 2 1 1
node 6 3 0 2
node 7 2 0 2
gene 2 1 6 1.18476 0 1 1.18476 1
gene 3 2 6 -1.28712 0 2 -1.28712 1
gene 2 3 6 -0.0587329 0 3 -0.0587329 1
gene 1 4 6 -2.25651 0 4 -2.25651 1
gene 3 5 6 -1.05107 0 5 -1.05107 1
gene 3 1 7 -2.23432 0 6 -2.23432 1
gene 3 2 7 2.61955 0 7 2.61955 1
gene 3 3 7 -1.48581 0 8 -1.48581 1
gene 2 4 7 3.06061 0 9 3.06061 1
gene 2 5 7 1.4616 0 10 1.4616 1
genomeend 50

/* Organism #51 Fitness: 3 Error: 0 */
genomestart 51
trait 1 0.1 0 0 0 0 0 0 0 
trait 2 0.56021 0 0 0 0 0 0 0 
trait 3 0.3 0 0 0 0 0 0 0 
node 1 1 1 3
node 2 2 1 1
node 3 2 1 1
node 4 2 1 1
node 5 2 1 1
node 6 3 0 2
node 7 2 0 2
gene 2 1 6 4.04347 0 1 4.04347 1
gene 3 2 6 1.0783 0 2 1.0783 1
gene 1 3 6 -2.07785 0 3 -2.07785 1
gene 1 4 6 -1.98817 0 4 -1.98817 1
gene 3 5 6 -1.55249 0 5 -1.55249 1
gene 3 1 7 -8 0 6 -8 1
gene 3 2 7 3.38398 0 7 3.38398 1
gene 3 3 7 -5.31222 0 8 -5.31222 1
gene 2 4 7 0.41641 0 9 0.41641 1
gene 2 5 7 2.34146 0 10 2.34146 1
genomeend 51

/* Organism #52 Fitness: 199 Error: 0 */
genomestart 52
trait 1 0.1 0 0 0 0 0 0 0 
trait 2 0.290052 0 0 0 0 0 0 0 
trait 3 0.28125 0 0 0 0 0 0 0 
node 1 1 1 3
node 2 2 1 1
node 3 2 1 1
node 4 2 1 1
node 5 2 1 1
node 6 3 0 2
node 7 2 0 2
gene 2 1 6 1.17329 0 1 1.17329 1
gene 3 2 6 -0.484191 0 2 -0.484191 1
gene 1 3 6 -1.55684 0 3 -1.55684 1
gene 1 4 6 -2.76378 0 4 -2.76378 1
gene 3 5 6 -2.22548 0 5 -2.22548 1
gene 3 1 7 -2.45462 0 6 -2.45462 1
gene 3 2 7 0.518265 0 7 0.518265 1
gene 3 3 7 -1.49463 0 8 -1.49463 1
gene 1 4 7 0.677824 0 9 0.677824 1
gene 2 5 7 1.67129 0 10 1.67129 1
gene 3 7 6 -1.45552 0 27 -1.45552 1
genomeend 52

/* Organism #53 Fitness: 15 Error: 0 */
genomestart 53
trait 1 0.1 0 0 0 0 0 0 0 
trait 2 0.2 0 0 0 0 0 0 0 
trait 3 0 0 0 0 0 0 0 0 
node 1 1 1 3
node 2 3 1 1
node 3 2 1 1
node 4 2 1 1
node 5 2 1 1
node 6 3 0 2
node 7 2 0 2
gene 1 1 6 2.35351 0 1 2.35351 1
gene 3 2 6 0.135563 0 2 0.135563 1
gene 2 3 6 2.2951 0 3 2.2951 1
gene 1 4 6 -4.18574 0 4 -4.18574 1
gene 2 5 6 1.4893 0 5 1.4893 1
gene 2 1 7 -5.24989 0 6 -5.24989 1
gene 3 2 7 2.6756 0 7 2.6756 1
gene 3 3 7 2.58689 0 8 2.58689 1
gene 1 4 7 2.73824 0 9 2.73824 1
gene 1 5 7 1.77329 0 10 1.77329 1
genomeend 53

/* Organism #54 Fitness: 10 Error: 0 */
genomestart 54
trait 1 0.1 0 0 0 0 0 0 0 
trait 2 0.290052 0 0 0 0 0 0 0 
trait 3 0.2625 0 0 0 0 0 0 0 
node 1 3 1 3
node 2 2 1 1
node 3 2 1 1
node 4 2 1 1
node 5 3 1 1
node 6 1 0 2
node 7 2 0 2
gene 2 1 6 -0.766671 0 1 -0.766671 1
gene 1 2 6 2.34794 0 2 2.34794 1
gene 1 3 6 2.03351 0 3 2.03351 1
gene 3 4 6 -2.21848 0 4 -2.21848 1
gene 2 5 6 -2.07644 0 5 -2.07644 1
gene 2 1 7 -1.09812 0 6 -1.09812 1
gene 2 2 7 0.0817476 0 7 0.0817476 1
gene 3 3 7 1.55052 0 8 1.55052 1
gene 3 4 7 4.25541 0 9 4.25541 1
gene 2 5 7 -1.45314 0 10 -1.45314 1
genomeend 54

/* Organism #55 Fitness: 5 Error: 0 */
genomestart 55
trait 1 0.636973 0 0 0.411542 0 0 0.520646 0.757286 
trait 2 0.2 0 0 0 0 0 0 0 
trait 3 0.15 0 0 0 0 0 0 0 
node 1 1 1 3
node 2 3 1 1
node 3 2 1 1
node 4 2 1 1
node 5 2 1 1
node 6 3 0 2
node 7 2 0 2
gene 2 1 6 2.35507 0 1 2.35507 1
gene 3 2 6 0.492248 0 2 0.492248 1
gene 2 3 6 2.78278 0 3 2.78278 1
gene 1 4 6 -2.48894 0 4 -2.48894 1
gene 2 5 6 -0.700819 0 5 -0.700819 1
gene 2 1 7 -0.472747 0 6 -0.472747 1
gene 3 2 7 1.07674 0 7 1.07674 1
gene 1 3 7 -1.08885 0 8 -1.08885 1
gene 1 4 7 4.13437 0 9 4.13437 1
gene 1 5 7 1.01392 0 10 1.01392 1
genomeend 55

/* Organism #56 Fitness: 33 Error: 0 */
genomestart 56
trait 1 0.1 0 0 0 0 0 0 0 
trait 2 0.2 0 0 0 0 0 0 0 
trait 3 0.290625 0 0 0 0 0 0 0 
node 1 3 1 3
node 2 2 1 1
node 3 2 1 1
node 4 2 1 1
node 5 3 1 1
node 6 1 0 2
node 7 3 0 2
gene 2 1 6 3.76037 0 1 3.76037 1
gene 1 2 6 0.552614 0 2 0.552614 1
gene 2 3 6 3.46927 0 3 3.46927 1
gene 1 4 6 -2.53402 0 4 -2.53402 1
gene 2 5 6 -2.37029 0 5 -2.37029 1
gene 2 1 7 -1.97326 0 6 -1.97326 1
gene 3 2 7 2.57707 0 7 2.57707 1
gene 3 3 7 -0.420392 0 8 -0.420392 1
gene 1 4 7 1.87966 0 9 1.87966 1
gene 2 5 7 -0.929153 0 10 -0.929153 1
genomeend 56

/* Organism #57 Fitness: 11 Error: 0 */
genomestart 57
trait 1 0.1 0 0 0 0 0 0 0 
trait 2 0.2 0 0 0 0 0 0 0 
trait 3 0.15 0 0 0 0 0 0 0 
node 1 1 1 3
node 2 3 1 1
node 3 2 1 1
node 4 2 1 1
node 5 2 1 1
node 6 3 0 2
node 7 2 0 2
gene 1 1 6 2.42576 0 1 2.42576 1
gene 3 2 6 0.448912 0 2 0.448912 1
gene 2 3 6 1.48277 0 3 1.48277 1
gene 1 4 6 -2.50135 0 4 -2.50135 1
gene 2 5 6 -3.1923 0 5 -3.1923 1
gene 1 1 7 1.32913 0 6 1.32913 1
gene 3 2 7 2.87466 0 7 2.87466 1
gene 3 3 7 1.56894 0 8 1.56894 1
gene 1 4 7 6.32714 0 9 6.32714 1
gene 1 5 7 2.23962 0 10 2.23962 1
genomeend 57

/* Organism #58 Fitness: 112 Error: 0 */
genomestart 58
trait 1 0.1 0 0 0 0 0 0 0 
trait 2 0.380105 0 0 0 0 0 0 0 
trait 3 0.2625 0 0.0979873 0.118313 0 0.0781655 0 0 
node 1 1 1 3
node 2 3 1 1
node 3 2 1 1
node 4 2 1 1
node 5 2 1 1
node 6 3 0 2
node 7 2 0 2
gene 2 1 6 0.59949 0 1 0.59949 1
gene 3 2 6 0.349475 0 2 0.349475 1
gene 2 3 6 -0.116058 0 3 -0.116058 1
gene 1 4 6 -3.04628 0 4 -3.04628 1
gene 3 5 6 -2.67996 0 5 -2.67996 1
gene 3 1 7 -3.65872 0 6 -3.65872 1
gene 3 2 7 1.66836 0 7 1.66836 1
gene 3 3 7 -2.01248 0 8 -2.01248 1
gene 2 4 7 3.14854 0 9 3.14854 1
gene 2 5 7 -1.52436 0 10 -1.52436 1
genomeend 58

/* Organism #59 Fitness: 8 Error: 0 */
genomestart 59
trait 1 0.1 0 0 0 0 0 0 0 
trait 2 0.290052 0 0 0 0 0 0 0 
trait 3 0.1125 0 0.0979873 0.118313 0 0.0781655 0 0 
node 1 1 1 3
node 2 2 1 1
node 3 2 1 1
node 4 2 1 1
node 5 2 1 1
node 6 2 0 2
node 7 2 0 2
gene 2 1 6 1.29188 0 1 1.29188 1
gene 3 2 6 1.24957 0 2 1.24957 1
gene 2 3 6 -1.13948 0 3 -1.13948 1
gene 1 4 6 -2.46895 0 4 -2.46895 1
gene 2 5 6 -2.57157 0 5 -2.57157 1
gene 2 1 7 -3.61288 0 6 -3.61288 1
gene 3 2 7 -0.101886 0 7 -0.101886 1
gene 3 3 7 -4.41139 0 8 -4.41139 1
gene 2 4 7 -2.27645 0 9 -2.27645 1
gene 2 5 7 -1.30908 0 10 -1.30908 1
genomeend 59

/* Organism #60 Fitness: 67 Error: 0 */
genomestart 60
trait 1 0.1 0 0 0 0 0 0 0 
trait 2 0.2 0 0 0 0 0 0 0 
trait 3 0.178125 0 0.293962 0.354938 0 0.234497 0 0 
node 1 1 1 3
node 2 3 1 1
node 3 2 1 1
node 4 2 1 1
node 5 2 1 1
node 6 3 0 2
node 7 2 0 2
gene 2 1 6 2.66941 0 1 2.66941 1
gene 1 2 6 0.678044 0 2 0.678044 1
gene 1 3 6 2.13694 0 3 2.13694 1
gene 1 4 6 -2.80299 0 4 -2.80299 1
gene 2 5 6 -2.19305 0 5 -2.19305 1
gene 2 1 7 -1.44678 0 6 -1.44678 1
gene 3 2 7 1.91955 0 7 1.91955 1
gene 3 3 7 0.796049 0 8 0.796049 1
gene 2 4 7 1.08371 0 9 1.08371 1
gene 2 5 7 2.79476 0 10 2.79476 1
genomeend 60

/* Organism #61 Fitness: 11 Error: 0 */
genomestart 61
trait 1 0.1 0 0 0 0 0 0 0 
trait 2 0.380105 0 0 0 0 0 0 0 
trait 3 0.20625 0 0.195975 0.236625 0 0.156331 0 0 
node 1 1 1 3
node 2 3 1 1
node 3 2 1 1
node 4 2 1 1
node 5 2 1 1
node 6 3 0 2
node 7 2 0 2
gene 1 1 6 -2.05573 0 1 -2.05573 1
gene 1 2 6 0.964496 0 2 0.964496 1
gene 1 3 6 -1.84851 0 3 -1.84851 1
gene 1 4 6 -3.17316 0 4 -3.17316 1
gene 2 5 6 0.148091 0 5 0.148091 1
gene 3 1 7 -1.78579 0 6 -1.78579 1
gene 2 2 7 2.22358 0 7 2.22358 1
gene 3 3 7 1.08687 0 8 1.08687 1
gene 2 4 7 3.58416 0 9 3.58416 1
gene 3 5 7 -2.28621 0 10 -2.28621 1
genomeend 61

/* Organism #62 Fitness: 11 Error: 0 */
genomestart 62
trait 1 0.1 0 0 0 0 0 0 0 
trait 2 0.335079 0 0 0 0 0 0 0 
trait 3 0.329252 0 0 0 0.0721458 0 0 0 
node 1 3 1 3
node 2 3 1 1
node 3 1 1 1
node 4 2 1 1
node 5 1 1 1
node 6 2 0 2
node 7 1 0 2
gene 2 1 6 0.16657 0 1 0.16657 1
gene 3 2 6 -1.20553 0 2 -1.20553 1
gene 2 3 6 0.223525 0 3 0.223525 1
gene 1 4 6 -5.97758 0 4 -5.97758 1
gene 3 5 6 -3.52015 0 5 -3.52015 1
gene 2 1 7 0.298181 0 6 0.298181 1
gene 1 2 7 -1.5197 0 7 -1.5197 1
gene 3 3 7 0.684086 0 8 0.684086 1
gene 2 4 7 0.126057 0 9 0.126057 1
gene 2 5 7 -1.54599 0 10 -1.54599 1
genomeend 62

/* Organism #63 Fitness: 13 Error: 0 */
genomestart 63
trait 1 0.1 0 0 0 0 0 0 0 
trait 2 0.2 0 0 0 0 0 0 0 
trait 3 0.3 0 0 0 0 0 0 0 
node 1 1 1 3
node 2 3 1 1
node 3 2 1 1
node 4 2 1 1
node 5 3 1 1
node 6 2 0 2
node 7 3 0 2
gene 1 1 6 1.71459 0 1 1.71459 1
gene 1 2 6 0.29667 0 2 0.29667 1
gene 3 3 6 0.895886 0 3 0.895886 1
gene 2 4 6 0.130222 0 4 0.130222 1
gene 2 5 6 -2.46486 0 5 -2.46486 1
gene 3 1 7 -5.84428 0 6 -5.84428 1
gene 3 2 7 0.664388 0 7 0.664388 1
gene 3 3 7 -1.10825 0 8 -1.10825 1
gene 2 4 7 6.37863 0 9 6.37863 1
gene 1 5 7 0.485549 0 10 0.485549 1
genomeend 63

/* Organism #64 Fitness: 7 Error: 0 */
genomestart 64
trait 1 0.1 0 0 0 0 0 0 0 
trait 2 0.290052 0 0 0 0 0 0 0 
trait 3 0.3 0 0 0 0 0 0 0 
node 1 1 1 3
node 2 3 1 1
node 3 2 1 1
node 4 2 1 1
node 5 3 1 1
node 6 2 0 2
node 7 3 0 2
gene 1 1 6 -0.742134 0 1 -0.742134 1
gene 3 2 6 0.37492 0 2 0.37492 1
gene 2 3 6 -1.36352 0 3 -1.36352 1
gene 2 4 6 -4.01379 0 4 -4.01379 1
gene 3 5 6 -3.05326 0 5 -3.05326 1
gene 3 1 7 -0.909814 0 6 -0.909814 1
gene 3 2 7 -1.81658 0 7 -1.81658 1
gene 3 3 7 -2.27717 0 8 -2.27717 1
gene 1 4 7 -1.26179 0 9 -1.26179 1
gene 1 5 7 2.49137 0 10 2.49137 1
genomeend 64

/* Organism #65 Fitness: 27 Error: 0 */
genomestart 65
trait 1 0.1 0 0 0 0 0 0 0 
trait 2 0.2 0 0 0 0 0 0 0 
trait 3 0.28125 0 0 0 0 0 0 0 
node 1 1 1 3
node 2 3 1 1
node 3 2 1 1
node 4 2 1 1
node 5 2 1 1
node 6 3 0 2
node 7 2 0 2
gene 2 1 6 3.32002 0 1 3.32002 1
gene 1 2 6 0.927149 0 2 0.927149 1
gene 1 3 6 1.75351 0 3 1.75351 1
gene 1 4 6 -3.09365 0 4 -3.09365 1
gene 2 5 6 -3.34439 0 5 -3.34439 1
gene 1 1 7 -2.90251 0 6 -2.90251 1
gene 3 2 7 3.39801 0 7 3.39801 1
gene 3 3 7 -0.276932 0 8 -0.276932 1
gene 1 4 7 1.24805 0 9 1.24805 1
gene 2 5 7 2.83643 0 10 2.83643 1
genomeend 65

/* Organism #66 Fitness: 20 Error: 0 */
genomestart 66
trait 1 0.1 0 0 0 0 0 0 0 
trait 2 0.380105 0 0 0 0 0 0 0 
trait 3 0.15 0 0 0 0 0 0 0 
node 1 1 1 3
node 2 3 1 1
node 3 2 1 1
node 4 2 1 1
node 5 2 1 1
node 6 3 0 2
node 7 2 0 2
gene 2 1 6 -2.42184 0 1 -2.42184 1
gene 3 2 6 2.22272 0 2 2.22272 1
gene 1 3 6 -1.57575 0 3 -1.57575 1
gene 1 4 6 0.08858 0 4 0.08858 1
gene 2 5 6 -1.44833 0 5 -1.44833 1
gene 3 1 7 -6.7918 0 6 -6.7918 1
gene 3 2 7 5.3332 0 7 5.3332 1
gene 3 3 7 0.216208 0 8 0.216208 1
gene 1 4 7 1.8749 0 9 1.8749 1
gene 1 5 7 3.01334 0 10 3.01334 1
genomeend 66

/* Organism #67 Fitness: 17 Error: 0 */
genomestart 67
trait 1 0.1 0 0 0 0 0 0 0 
trait 2 0.245026 0 0 0 0 0 0 0 
trait 3 0.179252 0.0879467 0 0 0 0 0 0 
node 1 1 1 3
node 2 3 1 1
node 3 2 1 1
node 4 2 1 1
node 5 2 1 1
node 6 3 0 2
node 7 2 0 2
gene 2 1 6 2.05498 0 1 2.05498 1
gene 3 2 6 0.492248 0 2 0.492248 1
gene 1 3 6 -0.853168 0 3 -0.853168 1
gene 1 4 6 -2.36836 0 4 -2.36836 1
gene 2 5 6 -0.809351 0 5 -0.809351 1
gene 2 1 7 -0.771493 0 6 -0.771493 1
gene 3 2 7 1.07674 0 7 1.07674 1
gene 3 3 7 0.383602 0 8 0.383602 1
gene 2 4 7 1.29934 0 9 1.29934 1
gene 2 5 7 0.995052 0 10 0.995052 1
genomeend 67

/* Organism #68 Fitness: 46 Error: 0 */
genomestart 68
trait 1 0.1 0.0273827 0 0 0 0.0236099 0.030879 0 
trait 2 0.380105 0 0 0 0 0 0 0 
trait 3 0.3 0 0 0 0 0 0 0 
node 1 2 1 3
node 2 1 1 1
node 3 2 1 1
node 4 1 1 1
node 5 2 1 1
node 6 3 0 2
node 7 1 0 2
gene 2 1 6 0.200259 0 1 0.200259 1
gene 3 2 6 -0.68833 0 2 -0.68833 1
gene 1 3 6 -1.11391 0 3 -1.11391 1
gene 1 4 6 -1.03259 0 4 -1.03259 1
gene 3 5 6 -2.86655 0 5 -2.86655 1
gene 3 1 7 -2.80551 0 6 -2.80551 1
gene 3 2 7 0.395299 0 7 0.395299 1
gene 2 3 7 -0.52662 0 8 -0.52662 1
gene 2 4 7 2.41348 0 9 2.41348 1
gene 2 5 7 0.171873 0 10 0.171873 1
genomeend 68

/* Organism #69 Fitness: 16 Error: 0 */
genomestart 69
trait 1 0.1 0.0136914 0 0 0 0.0118049 0.0154395 0 
trait 2 0.2 0 0 0 0 0 0 0 
trait 3 0.15 0 0 0 0 0 0 0 
node 1 3 1 3
node 2 2 1 1
node 3 3 1 1
node 4 3 1 1
node 5 2 1 1
node 6 2 0 2
node 7 2 0 2
gene 2 1 6 -1.09058 0 1 -1.09058 1
gene 3 2 6 0.862514 0 2 0.862514 1
gene 1 3 6 0.431255 0 3 0.431255 1
gene 1 4 6 -0.444246 0 4 -0.444246 1
gene 1 5 6 -3.07034 0 5 -3.07034 1
gene 2 1 7 -1.40098 0 6 -1.40098 1
gene 3 2 7 0.189291 0 7 0.189291 0
gene 3 3 7 1.39186 0 8 1.39186 1
gene 1 4 7 0.65309 0 9 0.65309 1
gene 1 5 7 -1.04047 0 10 -1.04047 1
genomeend 69

/* Organism #70 Fitness: 12 Error: 0 */
genomestart 70
trait 1 0.1 0 0 0 0 0 0 0 
trait 2 0.2 0 0 0 0 0 0 0 
trait 3 0.13125 0 0.350963 0 0 0 0 0 
node 1 1 1 3
node 2 3 1 1
node 3 2 1 1
node 4 2 1 1
node 5 2 1 1
node 6 3 0 2
node 7 2 0 2
gene 1 1 6 1.67501 0 1 1.67501 1
gene 3 2 6 -0.0337992 0 2 -0.0337992 1
gene 1 3 6 -3.05496 0 3 -3.05496 1
gene 1 4 6 -2.41864 0 4 -2.41864 1
gene 2 5 6 1.68859 0 5 1.68859 1
gene 3 1 7 -0.945448 0 6 -0.945448 1
gene 3 2 7 1.19721 0 7 1.19721 1
gene 3 3 7 2.36082 0 8 2.36082 1
gene 1 4 7 -2.48924 0 9 -2.48924 1
gene 2 5 7 1.88098 0 10 1.88098 1
gene 3 7 6 0.34753 0 27 0.34753 1
genomeend 70

/* Organism #71 Fitness: 10 Error: 0 */
genomestart 71
trait 1 0.1 0 0 0 0 0 0 0 
trait 2 0.380105 0 0 0 0 0 0 0 
trait 3 0.225 0 0.195975 0.236625 0 0.156331 0 0 
node 1 1 1 3
node 2 2 1 1
node 3 2 1 1
node 4 2 1 1
node 5 2 1 1
node 6 2 0 2
node 7 2 0 2
gene 2 1 6 1.29188 0 1 1.29188 1
gene 3 2 6 0.412717 0 2 0.412717 1
gene 1 3 6 -0.470061 0 3 -0.470061 1
gene 1 4 6 -4.81571 0 4 -4.81571 1
gene 3 5 6 -2.63112 0 5 -2.63112 1
gene 2 1 7 -3.87843 0 6 -3.87843 1
gene 1 2 7 0.18944 0 7 0.18944 1
gene 3 3 7 -3.5072 0 8 -3.5072 1
gene 2 4 7 1.23453 0 9 1.23453 1
gene 2 5 7 -1.08446 0 10 -1.08446 1
gene 1 6 7 0.758812 0 47 0 1
genomeend 71

/* Organism #72 Fitness: 7 Error: 0 */
genomestart 72
trait 1 0.1 0 0 0 0 0 0 0 
trait 2 0.2 0 0 0 0 0 0 0 
trait 3 0.140625 0 0 0 0 0 0 0 
node 1 1 1 3
node 2 3 1 1
node 3 2 1 1
node 4 2 1 1
node 5 2 1 1
node 6 3 0 2
node 7 2 0 2
gene 1 1 6 2.25936 0 1 2.25936 1
gene 1 2 6 0.963848 0 2 0.963848 1
gene 1 3 6 4.32302 0 3 4.32302 1
gene 2 4 6 -2.13353 0 4 -2.13353 1
gene 2 5 6 1.68584 0 5 1.68584 1
gene 1 1 7 -0.95329 0 6 -0.95329 1
gene 3 2 7 1.47943 0 7 1.47943 1
gene 3 3 7 1.1899 0 8 1.1899 1
gene 1 4 7 1.80174 0 9 1.80174 1
gene 1 5 7 -2.17833 0 10 -2.17833 1
genomeend 72

/* Organism #73 Fitness: 23 Error: 0 */
genomestart 73
trait 1 0.1 0.0136914 0 0 0 0.0118049 0.0154395 0 
trait 2 0.2 0 0 0 0 0 0 0 
trait 3 0.1875 0 0.293962 0.354938 0 0.234497 0 0 
node 1 1 1 3
node 2 3 1 1
node 3 2 1 1
node 4 2 1 1
node 5 2 1 1
node 6 3 0 2
node 7 2 0 2
gene 2 1 6 1.04265 0 1 1.04265 1
gene 3 2 6 -2.28309 0 2 -2.28309 1
gene 2 3 6 -2.4442 0 3 -2.4442 1
gene 1 4 6 -0.993515 0 4 -0.993515 1
gene 2 5 6 -1.95109 0 5 -1.95109 1
gene 2 1 7 -3.66887 0 6 -3.66887 1
gene 1 2 7 -2.09395 0 7 -2.09395 1
gene 3 3 7 -2.18072 0 8 -2.18072 1
gene 2 4 7 -0.295877 0 9 -0.295877 1
gene 2 5 7 2.89325 0 10 2.89325 1
genomeend 73

/* Organism #74 Fitness: 16 Error: 0 */
genomestart 74
trait 1 0.1 0 0 0 0 0 0 0 
trait 2 0.2 0 0 0 0 0 0 0 
trait 3 0.2625 0 0 0 0 0 0 0 
node 1 1 1 3
node 2 3 1 1
node 3 2 1 1
node 4 2 1 1
node 5 2 1 1
node 6 3 0 2
node 7 2 0 2
node 22 1 0 0
gene 2 1 6 1.78411 0 1 1.78411 1
gene 3 2 6 -1.28712 0 2 -1.28712 1
gene 1 3 6 -3.05496 0 3 -3.05496 1
gene 1 4 6 -3.27105 0 4 -3.27105 1
gene 3 5 6 -3.84909 0 5 -3.84909 1
gene 3 1 7 -2.23432 0 6 -2.23432 1
gene 3 2 7 -1.58302 0 7 -1.58302 1
gene 3 3 7 -1.50345 0 8 -1.50345 0
gene 1 4 7 -2.1514 0 9 -2.1514 1
gene 2 5 7 1.88098 0 10 1.88098 1
gene 3 7 6 -1.45552 0 27 -1.45552 1
gene 3 3 22 1 0 52 0 1
gene 3 22 7 -1.50345 0 53 0 1
genomeend 74

/* Organism #75 Fitness: 7 Error: 0 */
genomestart 75
trait 1 0.1 0 0 0 0 0 0 0 
trait 2 0.290052 0 0 0 0 0 0 0 
trait 3 0.3 0 0 0 0 0 0 0 
node 1 1 1 3
node 2 2 1 1
node 3 2 1 1
node 4 2 1 1
node 5 2 1 1
node 6 2 0 2
node 7 2 0 2
gene 2 1 6 -1.10515 0 1 -1.10515 1
gene 1 2 6 -1.16626 0 2 -1.16626 1
gene 1 3 6 0.590533 0 3 0.590533 1
gene 1 4 6 -0.884121 0 4 -0.884121 1
gene 3 5 6 -1.45616 0 5 -1.45616 1
gene 3 1 7 -1.2434 0 6 -1.2434 1
gene 3 2 7 1.97797 0 7 1.97797 1
gene 2 3 7 0.316401 0 8 0.316401 1
gene 1 4 7 1.93962 0 9 1.93962 1
gene 2 5 7 0.263527 0 10 0.263527 1
genomeend 75

/* Organism #76 Fitness: 14 Error: 0 */
genomestart 76
trait 1 0.1 0 0 0 0 0 0 0 
trait 2 0.245026 0 0 0 0 0 0 0 
trait 3 0.2625 0 0 0 0 0 0 0 
node 1 1 1 3
node 2 3 1 1
node 3 2 1 1
node 4 2 1 1
node 5 2 1 1
node 6 3 0 2
node 7 2 0 2
gene 2 1 6 0.0490585 0 1 0.0490585 1
gene 3 2 6 -2.81108 0 2 -2.81108 1
gene 2 3 6 0.162404 0 3 0.162404 1
gene 1 4 6 -2.2309 0 4 -2.2309 1
gene 2 5 6 -0.152974 0 5 -0.152974 1
gene 2 1 7 1.5024 0 6 1.5024 1
gene 2 2 7 -2.2689 0 7 -2.2689 1
gene 2 3 7 -1.81638 0 8 -1.81638 1
gene 1 4 7 5.09245 0 9 5.09245 1
gene 3 5 7 3.48886 0 10 3.48886 1
gene 3 7 6 2.45828 0 33 2.45828 1
genomeend 76

/* Organism #77 Fitness: 209 Error: 0 */
genomestart 77
trait 1 0.1 0 0 0 0 0 0 0 
trait 2 0.2 0 0 0 0 0 0 0 
trait 3 0.225 0 0.195975 0.236625 0 0.156331 0 0 
node 1 3 1 3
node 2 2 1 1
node 3 3 1 1
node 4 3 1 1
node 5 2 1 1
node 6 3 0 2
node 7 2 0 2
gene 2 1 6 0.971435 0 1 0.971435 1
gene 3 2 6 0.701436 0 2 0.701436 1
gene 2 3 6 -0.634373 0 3 -0.634373 1
gene 1 4 6 -0.278756 0 4 -0.278756 1
gene 2 5 6 -2.82022 0 5 -2.82022 1
gene 1 1 7 -4.41686 0 6 -4.41686 1
gene 3 2 7 -0.600864 0 7 -0.600864 1
gene 3 3 7 0.286266 0 8 0.286266 1
gene 1 4 7 4.4716 0 9 4.4716 1
gene 2 5 7 0.262675 0 10 0.262675 1
gene 3 7 6 0.0112308 0 33 0.0112308 1
genomeend 77

/* Organism #78 Fitness: 212 Error: 0 */
genomestart 78
trait 1 0.1 0 0 0 0 0 0 0 
trait 2 0.32994 0 0 0.202216 0 0 0 0 
trait 3 0.3 0 0 0 0 0 0 0 
node 1 1 1 3
node 2 3 1 1
node 3 2 1 1
node 4 2 1 1
node 5 2 1 1
node 6 3 0 2
node 7 2 0 2
gene 2 1 6 1.76377 0 1 1.76377 1
gene 3 2 6 2.49295 0 2 2.49295 1
gene 3 3 6 -0.0361644 0 3 -0.0361644 1
gene 1 4 6 -2.49362 0 4 -2.49362 1
gene 2 5 6 -4.01001 0 5 -4.01001 1
gene 3 1 7 -4.40873 0 6 -4.40873 1
gene 3 2 7 5.60655 0 7 5.60655 1
gene 3 3 7 -0.310266 0 8 -0.310266 1
gene 2 4 7 0.967208 0 9 0.967208 1
gene 1 5 7 1.79197 0 10 1.79197 1
genomeend 78

/* Organism #79 Fitness: 74 Error: 0 */
genomestart 79
trait 1 0.1 0 0 0 0 0 0 0 
trait 2 0.2 0.272393 0 0.284082 0 0.222434 0 0.132786 
trait 3 0.3 0 0 0 0 0 0 0 
node 1 1 1 3
node 2 2 1 1
node 3 2 1 1
node 4 2 1 1
node 5 2 1 1
node 6 3 0 2
node 7 2 0 2
gene 2 1 6 4.03275 0 1 4.03275 1
gene 1 2 6 -1.25459 0 2 -1.25459 1
gene 1 3 6 0.422254 0 3 0.422254 1
gene 1 4 6 -2.7963 0 4 -2.7963 1
gene 2 5 6 -3.07046 0 5 -3.07046 1
gene 1 1 7 -0.503426 0 6 -0.503426 1
gene 1 2 7 -0.180219 0 7 -0.180219 1
gene 2 3 7 -1.48196 0 8 -1.48196 1
gene 1 4 7 2.6215 0 9 2.6215 1
gene 2 5 7 1.86605 0 10 1.86605 1
genomeend 79

/* Organism #80 Fitness: 15 Error: 0 */
genomestart 80
trait 1 0.1 0 0 0 0 0 0 0 
trait 2 0.290052 0 0 0 0 0 0 0 
trait 3 0.3 0 0 0 0 0 0 0 
node 1 3 1 3
node 2 2 1 1
node 3 3 1 1
node 4 3 1 1
node 5 2 1 1
node 6 3 0 2
node 7 2 0 2
gene 1 1 6 2.57385 0 1 2.57385 1
gene 3 2 6 0.437071 0 2 0.437071 1
gene 2 3 6 0.412793 0 3 0.412793 1
gene 1 4 6 -2.4606 0 4 -2.4606 1
gene 2 5 6 -1.31748 0 5 -1.31748 1
gene 1 1 7 -0.191366 0 6 -0.191366 1
gene 3 2 7 3.18803 0 7 3.18803 1
gene 3 3 7 1.72268 0 8 1.72268 1
gene 1 4 7 4.60056 0 9 4.60056 1
gene 1 5 7 2.37877 0 10 2.37877 1
genomeend 80

/* Organism #81 Fitness: 7 Error: 0 */
genomestart 81
trait 1 0.1 0 0 0 0 0 0 0 
trait 2 0.380105 0 0 0 0 0 0 0 
trait 3 0.28125 0 0 0 0 0 0 0 
node 1 1 1 3
node 2 3 1 1
node 3 2 1 1
node 4 2 1 1
node 5 2 1 1
node 6 3 0 2
node 7 2 0 2
gene 2 1 6 -0.670537 0 1 -0.670537 1
gene 3 2 6 1.28613 0 2 1.28613 1
gene 1 3 6 -2.92032 0 3 -2.92032 1
gene 1 4 6 -0.968276 0 4 -0.968276 1
gene 3 5 6 -0.0161748 0 5 -0.0161748 1
gene 3 1 7 1.14322 0 6 1.14322 1
gene 3 2 7 1.51076 0 7 1.51076 1
gene 3 3 7 -0.138127 0 8 -0.138127 1
gene 2 4 7 3.7926 0 9 3.7926 1
gene 2 5 7 0.304621 0 10 0.304621 1
gene 3 7 6 -0.030076 0 27 -0.030076 1
genomeend 81

/* Organism #82 Fitness: 8 Error: 0 */
genomestart 82
trait 1 0.1 0 0 0 0 0 0 0 
trait 2 0.2 0 0 0 0 0 0 0 
trait 3 0.3 0 0 0 0 0 0 0 
node 1 1 1 3
node 2 3 1 1
node 3 2 1 1
node 4 2 1 1
node 5 3 1 1
node 6 2 0 2
node 7 3 0 2
gene 1 1 6 1.68728 0 1 1.68728 1
gene 1 2 6 0.380902 0 2 0.380902 1
gene 3 3 6 -0.0875118 0 3 -0.0875118 1
gene 2 4 6 1.82354 0 4 1.82354 1
gene 2 5 6 -0.51999 0 5 -0.51999 1
gene 3 1 7 -3.39868 0 6 -3.39868 1
gene 3 2 7 -1.53058 0 7 -1.53058 1
gene 3 3 7 -0.342692 0 8 -0.342692 1
gene 2 4 7 5.66968 0 9 5.66968 1
gene 1 5 7 1.63862 0 10 1.63862 1
genomeend 82

/* Organism #83 Fitness: 7 Error: 0 */
genomestart 83
trait 1 0.1 0 0 0 0 0 0 0 
trait 2 0.380105 0 0 0 0 0 0 0 
trait 3 0.225 0 0.195975 0.236625 0 0.156331 0 0 
node 1 1 1 3
node 2 2 1 1
node 3 2 1 1
node 4 2 1 1
node 5 2 1 1
node 6 2 0 2
node 7 2 0 2
gene 2 1 6 3.06966 0 1 3.06966 1
gene 3 2 6 1.68954 0 2 1.68954 1
gene 1 3 6 1.44597 0 3 1.44597 1
gene 1 4 6 -5.29493 0 4 -5.29493 1
gene 3 5 6 -1.49148 0 5 -1.49148 1
gene 2 1 7 -3.45766 0 6 -3.45766 1
gene 1 2 7 -0.117805 0 7 -0.117805 1
gene 3 3 7 -2.04933 0 8 -2.04933 1
gene 2 4 7 3.45918 0 9 3.45918 1
gene 2 5 7 -1.08446 0 10 -1.08446 1
genomeend 83

/* Organism #84 Fitness: 6 Error: 0 */
genomestart 84
trait 1 0.1 0 0 0 0 0 0 0 
trait 2 0.2 0 0 0 0 0 0 0 
trait 3 0.16875 0 0.195975 0.236625 0 0.156331 0 0 
node 1 3 1 3
node 2 2 1 1
node 3 2 1 1
node 4 2 1 1
node 5 3 1 1
node 6 1 0 2
node 7 2 0 2
gene 2 1 6 0.677944 0 1 0.677944 1
gene 1 2 6 4.8348 0 2 4.8348 1
gene 1 3 6 -0.434259 0 3 -0.434259 1
gene 3 4 6 0.494787 0 4 0.494787 1
gene 2 5 6 1.26908 0 5 1.26908 1
gene 2 1 7 -1.52327 0 6 -1.52327 1
gene 2 2 7 -1.64832 0 7 -1.64832 1
gene 2 3 7 0.543916 0 8 0.543916 1
gene 1 4 7 1.27758 0 9 1.27758 1
gene 3 5 7 0.943266 0 10 0.943266 1
genomeend 84

/* Organism #85 Fitness: 11 Error: 0 */
genomestart 85
trait 1 0.1 0 0 0 0 0 0 0 
trait 2 0.2 0.136196 0 0.142041 0 0.111217 0 0.066393 
trait 3 0.358504 0.175893 0 0 0 0 0 0 
node 1 2 1 3
node 2 2 1 1
node 3 1 1 1
node 4 2 1 1
node 5 3 1 1
node 6 2 0 2
node 7 3 0 2
gene 1 1 6 1.89525 0 1 1.89525 1
gene 2 2 6 2.58414 0 2 2.58414 1
gene 1 3 6 3.24594 0 3 3.24594 1
gene 2 4 6 -3.82552 0 4 -3.82552 1
gene 2 5 6 -0.26682 0 5 -0.26682 0
gene 2 1 7 0.944342 0 6 0.944342 1
gene 1 2 7 -0.425214 0 7 -0.425214 1
gene 1 3 7 -2.35064 0 8 -2.35064 1
gene 1 4 7 1.38093 0 9 1.38093 1
gene 2 5 7 -0.634304 0 10 -0.634304 1
genomeend 85

/* Organism #86 Fitness: 12 Error: 0 */
genomestart 86
trait 1 0.1 0 0 0 0 0 0 0 
trait 2 0.290052 0 0 0 0 0 0 0 
trait 3 0.3 0 0 0 0 0 0 0 
node 1 3 1 3
node 2 2 1 1
node 3 2 1 1
node 4 2 1 1
node 5 3 1 1
node 6 1 0 2
node 7 3 0 2
gene 2 1 6 2.24158 0 1 2.24158 1
gene 1 2 6 -0.445929 0 2 -0.445929 1
gene 2 3 6 -1.18815 0 3 -1.18815 1
gene 1 4 6 -4.20169 0 4 -4.20169 1
gene 2 5 6 -1.31326 0 5 -1.31326 1
gene 2 1 7 -3.34485 0 6 -3.34485 1
gene 3 2 7 2.3477 0 7 2.3477 1
gene 3 3 7 0.872692 0 8 0.872692 1
gene 2 4 7 6.6689 0 9 6.6689 1
gene 2 5 7 1.76283 0 10 1.76283 1
genomeend 86

/* Organism #87 Fitness: 15 Error: 0 */
genomestart 87
trait 1 0.1 0 0 0 0 0 0 0 
trait 2 0.245026 0 0 0 0 0 0 0 
trait 3 0.361272 0 0 0.572047 0.210242 0.234497 0.920499 0.868831 
node 1 1 1 3
node 2 3 1 1
node 3 2 1 1
node 4 2 1 1
node 5 2 1 1
node 6 3 0 2
node 7 2 0 2
gene 2 1 6 3.8644 0 1 3.8644 1
gene 2 2 6 1.22372 0 2 1.22372 1
gene 2 3 6 -1.75309 0 3 -1.75309 1
gene 1 4 6 -1.84007 0 4 -1.84007 1
gene 3 5 6 0.39182 0 5 0.39182 1
gene 3 1 7 -2.70526 0 6 -2.70526 1
gene 3 2 7 -0.977741 0 7 -0.977741 1
gene 2 3 7 -2.4324 0 8 -2.4324 1
gene 2 4 7 4.1203 0 9 4.1203 1
gene 2 5 7 3.00784 0 10 3.00784 1
genomeend 87

/* Organism #88 Fitness: 25 Error: 0 */
genomestart 88
trait 1 0.1 0 0 0 0 0 0 0 
trait 2 0.56021 0 0 0 0 0 0 0 
trait 3 0.3 0 0 0 0 0 0 0 
node 1 1 1 3
node 2 3 1 1
node 3 2 1 1
node 4 2 1 1
node 5 2 1 1
node 6 3 0 2
node 7 2 0 2
gene 2 1 6 -1.53093 0 1 -1.53093 1
gene 3 2 6 3.1326 0 2 3.1326 1
gene 1 3 6 -1.24248 0 3 -1.24248 1
gene 1 4 6 1.10691 0 4 1.10691 1
gene 3 5 6 -3.47195 0 5 -3.47195 1
gene 3 1 7 -4.51115 0 6 -4.51115 1
gene 3 2 7 1.56607 0 7 1.56607 1
gene 3 3 7 -1.73772 0 8 -1.73772 1
gene 2 4 7 -1.45825 0 9 -1.45825 1
gene 2 5 7 1.91089 0 10 1.91089 1
genomeend 88

/* Organism #89 Fitness: 43 Error: 0 */
genomestart 89
trait 1 0.1 0 0 0 0 0 0 0 
trait 2 0.2 0.136196 0 0.142041 0 0.111217 0 0.066393 
trait 3 0.15 0 0 0 0 0 0 0 
node 1 1 1 3
node 2 3 1 1
node 3 2 1 1
node 4 2 1 1
node 5 2 1 1
node 6 3 0 2
node 7 2 0 2
gene 2 1 6 2.70756 0 1 2.70756 1
gene 3 2 6 0.492248 0 2 0.492248 1
gene 2 3 6 2.78278 0 3 2.78278 1
gene 1 4 6 -2.36836 0 4 -2.36836 1
gene 2 5 6 -4.2384 0 5 -4.2384 1
gene 1 1 7 0.451422 0 6 0.451422 1
gene 3 2 7 1.07674 0 7 1.07674 1
gene 2 3 7 -1.73495 0 8 -1.73495 1
gene 1 4 7 4.7385 0 9 4.7385 1
gene 2 5 7 1.86605 0 10 1.86605 1
genomeend 89

/* Organism #90 Fitness: 241 Error: 0 */
genomestart 90
trait 1 0.1 0 0 0 0 0 0 0 
trait 2 0.290052 0 0 0 0 0 0 0 
trait 3 0.3 0 0 0 0 0 0 0 
node 1 1 1 3
node 2 2 1 1
node 3 2 1 1
node 4 2 1 1
node 5 2 1 1
node 6 3 0 2
node 7 2 0 2
gene 1 1 6 0.682913 0 1 0.682913 1
gene 1 2 6 -1.92775 0 2 -1.92775 1
gene 3 3 6 -0.457839 0 3 -0.457839 1
gene 2 4 6 0.521393 0 4 0.521393 1
gene 3 5 6 -2.49669 0 5 -2.49669 1
gene 3 1 7 -3.54102 0 6 -3.54102 1
gene 3 2 7 -2.05588 0 7 -2.05588 1
gene 3 3 7 -0.250725 0 8 -0.250725 1
gene 1 4 7 4.70116 0 9 4.70116 1
gene 1 5 7 0.317087 0 10 0.317087 1
genomeend 90

/* Organism #91 Fitness: 21 Error: 0 */
genomestart 91
trait 1 0.1 0 0 0 0 0 0 0 
trait 2 0.2 0 0 0 0 0 0 0 
trait 3 0.1125 0 0.391949 0.473251 0 0.312662 0 0 
node 1 3 1 3
node 2 2 1 1
node 3 3 1 1
node 4 3 1 1
node 5 2 1 1
node 6 3 0 2
node 7 2 0 2
gene 1 1 6 3.7421 0 1 3.7421 1
gene 1 2 6 0.2818 0 2 0.2818 1
gene 1 3 6 0.192534 0 3 0.192534 1
gene 3 4 6 -3.81991 0 4 -3.81991 1
gene 2 5 6 -1.45342 0 5 -1.45342 1
gene 2 1 7 0.157773 0 6 0.157773 1
gene 2 2 7 0.276166 0 7 0.276166 1
gene 3 3 7 1.49854 0 8 1.49854 1
gene 1 4 7 5.81767 0 9 5.81767 1
gene 3 5 7 -1.29241 0 10 -1.29241 1
genomeend 91

/* Organism #92 Fitness: 58 Error: 0 */
genomestart 92
trait 1 0.1 0.0273827 0 0 0 0.0236099 0.030879 0 
trait 2 0.380105 0 0 0 0 0 0 0 
trait 3 0.3 0 0 0 0 0 0 0 
node 1 2 1 3
node 2 1 1 1
node 3 2 1 1
node 4 1 1 1
node 5 2 1 1
node 6 3 0 2
node 7 1 0 2
gene 1 1 6 0.73352 0 1 0.73352 1
gene 3 2 6 0.633137 0 2 0.633137 1
gene 1 3 6 -0.985343 0 3 -0.985343 1
gene 2 4 6 -0.127796 0 4 -0.127796 1
gene 1 5 6 -2.26115 0 5 -2.26115 1
gene 3 1 7 -1.26818 0 6 -1.26818 1
gene 3 2 7 -2.19001 0 7 -2.19001 1
gene 2 3 7 -0.989746 0 8 -0.989746 1
gene 2 4 7 3.06069 0 9 3.06069 1
gene 2 5 7 -0.310175 0 10 -0.310175 1
genomeend 92

/* Organism #93 Fitness: 141 Error: 0 */
genomestart 93
trait 1 0.1 0 0 0 0 0 0 0 
trait 2 0.2 0 0 0 0 0 0 0 
trait 3 0.1875 0 0.293962 0.354938 0 0.234497 0 0 
node 1 1 1 3
node 2 3 1 1
node 3 2 1 1
node 4 2 1 1
node 5 2 1 1
node 6 3 0 2
node 7 2 0 2
gene 1 1 6 0.694592 0 1 0.694592 1
gene 1 2 6 0.933348 0 2 0.933348 1
gene 3 3 6 -0.126568 0 3 -0.126568 1
gene 2 4 6 -2.11573 0 4 -2.11573 1
gene 2 5 6 -0.895829 0 5 -0.895829 1
gene 2 1 7 -2.98695 0 6 -2.98695 1
gene 3 2 7 1.03772 0 7 1.03772 1
gene 3 3 7 -0.628971 0 8 -0.628971 1
gene 2 4 7 3.50018 0 9 3.50018 1
gene 2 5 7 1.73373 0 10 1.73373 1
genomeend 93

/* Organism #94 Fitness: 216 Error: 0 */
genomestart 94
trait 1 0.1 0 0 0 0 0 0 0 
trait 2 0.290052 0 0 0 0 0 0 0 
trait 3 0.358504 0.175893 0 0 0 0 0 0 
node 1 3 1 3
node 2 3 1 1
node 3 1 1 1
node 4 2 1 1
node 5 1 1 1
node 6 2 0 2
node 7 1 0 2
gene 2 1 6 4.13947 0 1 4.13947 1
gene 3 2 6 -2.20394 0 2 -2.20394 1
gene 1 3 6 -2.58174 0 3 -2.58174 1
gene 1 4 6 -5.73198 0 4 -5.73198 1
gene 3 5 6 -5.15314 0 5 -5.15314 1
gene 2 1 7 -1.38919 0 6 -1.38919 1
gene 1 2 7 -2.21552 0 7 -2.21552 1
gene 3 3 7 -0.0543096 0 8 -0.0543096 1
gene 2 4 7 -0.0522477 0 9 -0.0522477 1
gene 2 5 7 1.41461 0 10 1.41461 1
genomeend 94

/* Organism #95 Fitness: 12 Error: 0 */
genomestart 95
trait 1 0.1 0 0 0 0 0 0 0 
trait 2 0.425131 0 0 0 0 0 0 0 
trait 3 0.3 0 0 0 0 0 0 0 
node 1 1 1 3
node 2 3 1 1
node 3 2 1 1
node 4 2 1 1
node 5 1 1 1
node 6 3 0 2
node 7 2 0 2
gene 2 1 6 -1.09735 0 1 -1.09735 1
gene 3 2 6 -1.55325 0 2 -1.55325 1
gene 1 3 6 -2.05557 0 3 -2.05557 1
gene 1 4 6 -2.63416 0 4 -2.63416 1
gene 3 5 6 -3.0775 0 5 -3.0775 1
gene 3 1 7 -2.83114 0 6 -2.83114 1
gene 3 2 7 0.929361 0 7 0.929361 1
gene 3 3 7 -2.55731 0 8 -2.55731 1
gene 1 4 7 3.36549 0 9 3.36549 1
gene 2 5 7 -0.310175 0 10 -0.310175 1
gene 3 7 6 0.140706 0 33 0.140706 1
genomeend 95

/* Organism #96 Fitness: 82 Error: 0 */
genomestart 96
trait 1 0.1 0 0 0 0 0 0 0 
trait 2 0.290052 0 0 0 0 0 0 0 
trait 3 0.1875 0 0.293962 0.354938 0 0.234497 0 0 
node 1 1 1 3
node 2 2 1 1
node 3 2 1 1
node 4 2 1 1
node 5 2 1 1
node 6 2 0 2
node 7 2 0 2
gene 1 1 6 1.81875 0 1 1.81875 1
gene 3 2 6 -2.22938 0 2 -2.22938 1
gene 1 3 6 0.279527 0 3 0.279527 1
gene 1 4 6 -4.02147 0 4 -4.02147 1
gene 3 5 6 -0.791692 0 5 -0.791692 1
gene 2 1 7 -6.374 0 6 -6.374 1
gene 1 2 7 0.401925 0 7 0.401925 1
gene 3 3 7 -1.80865 0 8 -1.80865 1
gene 1 4 7 4.5614 0 9 4.5614 1
gene 2 5 7 0.264061 0 10 0.264061 1
gene 2 6 7 -2.58573 0 46 -2.58573 1
genomeend 96

/* Organism #97 Fitness: 106 Error: 0 */
genomestart 97
trait 1 0.1 0.0273827 0 0 0 0.0236099 0.030879 0 
trait 2 0.2 0 0 0 0 0 0 0 
trait 3 0.358504 0.175893 0 0 0 0 0 0 
node 1 3 1 3
node 2 3 1 1
node 3 1 1 1
node 4 2 1 1
node 5 1 1 1
node 6 2 0 2
node 7 1 0 2
gene 1 1 6 2.9207 0 1 2.9207 1
gene 3 2 6 -2.75657 0 2 -2.75657 1
gene 1 3 6 -0.00283441 0 3 -0.00283441 1
gene 2 4 6 -2.32209 0 4 -2.32209 1
gene 1 5 6 -2.15005 0 5 -2.15005 1
gene 3 1 7 -1.24469 0 6 -1.24469 1
gene 1 2 7 -2.6809 0 7 -2.6809 1
gene 2 3 7 1.21193 0 8 1.21193 1
gene 2 4 7 4.8094 0 9 4.8094 1
gene 2 5 7 0.479793 0 10 0.479793 1
genomeend 97

/* Organism #98 Fitness: 108 Error: 0 */
genomestart 98
trait 1 0.1 0 0 0 0 0 0 0 
trait 2 0.2 0 0 0 0 0 0 0 
trait 3 0.3 0 0 0 0 0 0 0 
node 1 1 1 3
node 2 3 1 1
node 3 2 1 1
node 4 2 1 1
node 5 3 1 1
node 6 2 0 2
node 7 3 0 2
gene 1 1 6 0.465087 0 1 0.465087 1
gene 1 2 6 -0.106708 0 2 -0.106708 1
gene 3 3 6 -1.63506 0 3 -1.63506 1
gene 2 4 6 -0.987213 0 4 -0.987213 1
gene 2 5 6 -1.83724 0 5 -1.83724 1
gene 3 1 7 -1.80821 0 6 -1.80821 1
gene 3 2 7 -1.45184 0 7 -1.45184 1
gene 3 3 7 -1.15479 0 8 -1.15479 1
gene 2 4 7 2.73501 0 9 2.73501 1
gene 1 5 7 1.13876 0 10 1.13876 1
genomeend 98

/* Organism #99 Fitness: 1 Error: 0 */
genomestart 99
trait 1 0.1 0.0136914 0 0 0 0.0118049 0.0154395 0 
trait 2 0.380105 0 0 0 0 0 0 0 
trait 3 0.3 0 0 0 0 0 0 0 
node 1 1 1 3
node 2 2 1 1
node 3 2 1 1
node 4 2 1 1
node 5 2 1 1
node 6 3 0 2
node 7 2 0 2
gene 2 1 6 -0.361529 0 1 -0.361529 1
gene 3 2 6 -0.487431 0 2 -0.487431 1
gene 1 3 6 -2.14528 0 3 -2.14528 1
gene 2 4 6 -4.30951 0 4 -4.30951 1
gene 1 5 6 -2.63716 0 5 -2.63716 1
gene 1 1 7 -6.24773 0 6 -6.24773 1
gene 3 2 7 2.44942 0 7 2.44942 0
gene 2 3 7 -0.332904 0 8 -0.332904 1
gene 1 4 7 3.94859 0 9 3.94859 1
gene 2 5 7 -1.62748 0 10 -1.62748 1
genomeend 99

/* Organism #100 Fitness: 116 Error: 0 */
genomestart 100
trait 1 0.1 0 0 0 0 0 0 0 
trait 2 0.2 0 0 0 0 0 0 0 
trait 3 0.20625 0 0.195975 0.236625 0 0.156331 0 0 
node 1 3 1 3
node 2 2 1 1
node 3 3 1 1
node 4 3 1 1
node 5 2 1 1
node 6 3 0 2
node 7 2 0 2
gene 1 1 6 3.38046 0 1 3.38046 1
gene 3 2 6 1.20931 0 2 1.20931 1
gene 1 3 6 2.99367 0 3 2.99367 1
gene 3 4 6 -3.23048 0 4 -3.23048 1
gene 2 5 6 -0.9717 0 5 -0.9717 1
gene 1 1 7 0.886055 0 6 0.886055 1
gene 2 2 7 0.832287 0 7 0.832287 1
gene 3 3 7 2.35621 0 8 2.35621 1
gene 1 4 7 3.22758 0 9 3.22758 1
gene 1 5 7 1.35504 0 10 1.35504 1
genomeend 100

/* Organism #101 Fitness: 1 Error: 0 */
genomestart 101
trait 1 0.1 0 0 0 0 0 0 0 
trait 2 0.56021 0 0 0 0 0 0 0 
trait 3 0.3 0 0 0 0 0 0 0 
node 1 1 1 3
node 2 2 1 1
node 3 2 1 1
node 4 2 1 1
node 5 2 1 1
node 6 3 0 2
node 7 2 0 2
gene 2 1 6 3.75065 0 1 3.75065 1
gene 3 2 6 2.05176 0 2 2.05176 1
gene 1 3 6 -2.18802 0 3 -2.18802 1
gene 1 4 6 -3.14772 0 4 -3.14772 1
gene 3 5 6 -1.17383 0 5 -1.17383 1
gene 3 1 7 -6.10338 0 6 -6.10338 1
gene 3 2 7 2.47551 0 7 2.47551 1
gene 3 3 7 -1.80931 0 8 -1.80931 1
gene 2 4 7 0.719077 0 9 0.719077 1
gene 2 5 7 2.285 0 10 2.285 1
genomeend 101

/* Organism #102 Fitness: 13 Error: 0 */
genomestart 102
trait 1 0.1 0 0 0 0 0 0 0 
trait 2 0.2 0 0 0 0 0 0 0 
trait 3 0.28125 0 0 0 0 0 0 0 
node 1 1 1 3
node 2 3 1 1
node 3 2 1 1
node 4 2 1 1
node 5 2 1 1
node 6 3 0 2
node 7 2 0 2
gene 1 1 6 3.25289 0 1 3.25289 1
gene 3 2 6 -0.776254 0 2 -0.776254 1
gene 1 3 6 -3.05496 0 3 -3.05496 1
gene 1 4 6 -1.87396 0 4 -1.87396 1
gene 3 5 6 -3.84909 0 5 -3.84909 1
gene 1 1 7 -1.42309 0 6 -1.42309 1
gene 3 2 7 -1.02438 0 7 -1.02438 1
gene 3 3 7 0.633091 0 8 0.633091 1
gene 1 4 7 2.43649 0 9 2.43649 1
gene 1 5 7 2.3262 0 10 2.3262 1
gene 3 7 6 -1.45552 0 27 -1.45552 1
genomeend 102

/* Organism #103 Fitness: 80 Error: 0 */
genomestart 103
trait 1 0.1 0 0 0 0 0 0 0 
trait 2 0.2 0 0 0 0 0 0 0 
trait 3 0.196875 0 0.195975 0.236625 0 0.156331 0 0 
node 1 3 1 3
node 2 2 1 1
node 3 3 1 1
node 4 3 1 1
node 5 2 1 1
node 6 3 0 2
node 7 2 0 2
gene 2 1 6 0.104257 0 1 0.104257 1
gene 1 2 6 2.71786 0 2 2.71786 1
gene 1 3 6 0.0808359 0 3 0.0808359 1
gene 3 4 6 -0.544897 0 4 -0.544897 1
gene 2 5 6 -2.97355 0 5 -2.97355 1
gene 2 1 7 -2.07511 0 6 -2.07511 1
gene 3 2 7 2.11518 0 7 2.11518 1
gene 3 3 7 1.59467 0 8 1.59467 1
gene 1 4 7 1.36914 0 9 1.36914 1
gene 2 5 7 -0.256067 0 10 -0.256067 1
genomeend 103

/* Organism #104 Fitness: 7 Error: 0 */
genomestart 104
trait 1 0.1 0.0273827 0 0 0 0.0236099 0.030879 0 
trait 2 0.2 0.715201 0 0 0 0 0 0.879452 
trait 3 0.3 0 0 0 0 0 0 0 
node 1 2 1 3
node 2 1 1 1
node 3 2 1 1
node 4 1 1 1
node 5 2 1 1
node 6 3 0 2
node 7 1 0 2
gene 2 1 6 2.93708 0 1 2.93708 1
gene 3 2 6 -0.782014 0 2 -0.782014 1
gene 1 3 6 -1.951 0 3 -1.951 1
gene 2 4 6 -2.13934 0 4 -2.13934 1
gene 2 5 6 -2.1288 0 5 -2.1288 1
gene 3 1 7 -3.86184 0 6 -3.86184 1
gene 1 2 7 -0.302683 0 7 -0.302683 1
gene 1 3 7 -2.57801 0 8 -2.57801 1
gene 2 4 7 1.23703 0 9 1.23703 1
gene 2 5 7 -0.219169 0 10 -0.219169 1
genomeend 104

/* Organism #105 Fitness: 8 Error: 0 */
genomestart 105
trait 1 0.1 0 0 0 0 0 0 0 
trait 2 0.2 0 0 0 0 0 0 0 
trait 3 0.075 0 0.587924 0.709876 0 0.468993 0 0 
node 1 1 1 3
node 2 3 1 1
node 3 2 1 1
node 4 2 1 1
node 5 2 1 1
node 6 3 0 2
node 7 2 0 2
gene 2 1 6 2.59048 0 1 2.59048 1
gene 2 2 6 1.50548 0 2 1.50548 1
gene 1 3 6 0.0128941 0 3 0.0128941 1
gene 1 4 6 -2.81508 0 4 -2.81508 1
gene 3 5 6 -0.382511 0 5 -0.382511 1
gene 2 1 7 -3.78794 0 6 -3.78794 1
gene 1 2 7 0.421102 0 7 0.421102 1
gene 3 3 7 -1.31764 0 8 -1.31764 1
gene 2 4 7 0.274125 0 9 0.274125 1
gene 2 5 7 1.87361 0 10 1.87361 1
genomeend 105

/* Organism #106 Fitness: 90 Error: 0 */
genomestart 106
trait 1 0.1 0 0 0 0 0 0 0 
trait 2 0.2 0 0 0 0 0 0 0 
trait 3 0.225 0 0 0 0 0 0 0 
node 1 3 1 3
node 2 2 1 1
node 3 2 1 1
node 4 2 1 1
node 5 3 1 1
node 6 1 0 2
node 7 2 0 2
gene 2 1 6 2.11222 0 1 2.11222 1
gene 1 2 6 3.26159 0 2 3.26159 1
gene 1 3 6 -0.746254 0 3 -0.746254 1
gene 3 4 6 -1.35342 0 4 -1.35342 1
gene 2 5 6 -1.42407 0 5 -1.42407 1
gene 2 1 7 1.5806 0 6 1.5806 1
gene 2 2 7 -1.59017 0 7 -1.59017 1
gene 2 3 7 -1.28903 0 8 -1.28903 1
gene 3 4 7 2.67617 0 9 2.67617 1
gene 3 5 7 1.50264 0 10 1.50264 1
genomeend 106

/* Organism #107 Fitness: 13 Error: 0 */
genomestart 107
trait 1 0.1 0 0 0 0 0 0 0 
trait 2 0.2 0 0 0 0 0 0 0 
trait 3 0.208504 0.175893 0 0 0 0 0 0 
node 1 1 1 3
node 2 3 1 1
node 3 2 1 1
node 4 3 1 1
node 5 2 1 1
node 6 3 0 2
node 7 2 0 2
gene 2 1 6 4.05187 0 1 4.05187 1
gene 3 2 6 -1.94046 0 2 -1.94046 1
gene 2 3 6 1.40495 0 3 1.40495 1
gene 1 4 6 -1.67941 0 4 -1.67941 1
gene 2 5 6 -2.7537 0 5 -2.7537 1
gene 2 1 7 -6.01087 0 6 -6.01087 1
gene 1 2 7 -0.116504 0 7 -0.116504 1
gene 3 3 7 -1.52045 0 8 -1.52045 1
gene 1 4 7 4.20298 0 9 4.20298 1
gene 2 5 7 0.305666 0 10 0.305666 1
genomeend 107

/* Organism #108 Fitness: 115 Error: 0 */
genomestart 108
trait 1 0.1 0.0410741 0 0 0 0.0354148 0.0463185 0 
trait 2 0.2 0 0 0 0 0 0 0 
trait 3 0.3 0 0 0 0 0 0 0 
node 1 2 1 3
node 2 1 1 1
node 3 2 1 1
node 4 1 1 1
node 5 2 1 1
node 6 3 0 2
node 7 1 0 2
gene 2 1 6 0.752744 0 1 0.752744 1
gene 3 2 6 -1.43118 0 2 -1.43118 1
gene 1 3 6 -0.30123 0 3 -0.30123 1
gene 2 4 6 -1.00872 0 4 -1.00872 1
gene 1 5 6 -2.6287 0 5 -2.6287 1
gene 1 1 7 -1.72557 0 6 -1.72557 1
gene 3 2 7 -1.51143 0 7 -1.51143 0
gene 2 3 7 -0.480507 0 8 -0.480507 1
gene 2 4 7 2.14354 0 9 2.14354 1
gene 1 5 7 -0.193276 0 10 -0.193276 1
genomeend 108

/* Organism #109 Fitness: 42 Error: 0 */
genomestart 109
trait 1 0.1 0 0 0 0 0 0 0 
trait 2 0.380105 0 0 0 0 0 0 0 
trait 3 0.3 0 0 0 0 0 0 0 
node 1 1 1 3
node 2 2 1 1
node 3 2 1 1
node 4 2 1 1
node 5 2 1 1
node 6 3 0 2
node 7 2 0 2
gene 2 1 6 0.234787 0 1 0.234787 1
gene 3 2 6 0.302484 0 2 0.302484 1
gene 2 3 6 0.0896062 0 3 0.0896062 1
gene 1 4 6 -1.76668 0 4 -1.76668 1
gene 3 5 6 -1.66534 0 5 -1.66534 1
gene 3 1 7 -3.05696 0 6 -3.05696 1
gene 3 2 7 2.88342 0 7 2.88342 1
gene 3 3 7 -1.00179 0 8 -1.00179 1
gene 1 4 7 4.28479 0 9 4.28479 1
gene 2 5 7 -0.251331 0 10 -0.251331 1
genomeend 109

/* Organism #110 Fitness: 10 Error: 0 */
genomestart 110
trait 1 0.442021 0.934599 0 0 0 0 0 0 
trait 2 0.2 0 0 0 0 0 0 0 
trait 3 0.417008 0.351787 0 0 0 0 0 0 
node 1 3 1 3
node 2 3 1 1
node 3 1 1 1
node 4 2 1 1
node 5 1 1 1
node 6 2 0 2
node 7 1 0 2
gene 2 1 6 0.567721 0 1 0.567721 1
gene 3 2 6 -1.46624 0 2 -1.46624 1
gene 1 3 6 0.90109 0 3 0.90109 1
gene 2 4 6 -0.399285 0 4 -0.399285 1
gene 2 5 6 0.1596 0 5 0.1596 1
gene 2 1 7 0.826746 0 6 0.826746 1
gene 1 2 7 -1.07479 0 7 -1.07479 1
gene 2 3 7 0.669847 0 8 0.669847 1
gene 1 4 7 1.66414 0 9 1.66414 1
gene 2 5 7 0.305666 0 10 0.305666 1
genomeend 110

/* Organism #111 Fitness: 9 Error: 0 */
genomestart 111
trait 1 0.1 0 0 0 0 0 0 0 
trait 2 0.2 0 0 0 0 0 0 0 
trait 3 0.3 0 0 0 0 0 0 0 
node 1 3 1 3
node 2 2 1 1
node 3 2 1 1
node 4 2 1 1
node 5 3 1 1
node 6 1 0 2
node 7 3 0 2
gene 2 1 6 3.12368 0 1 3.12368 1
gene 1 2 6 -0.079577 0 2 -0.079577 1
gene 1 3 6 -0.690512 0 3 -0.690512 1
gene 1 4 6 -0.930815 0 4 -0.930815 1
gene 2 5 6 1.31279 0 5 1.31279 1
gene 2 1 7 1.62166 0 6 1.62166 1
gene 1 2 7 -1.8424 0 7 -1.8424 1
gene 1 3 7 0.0576495 0 8 0.0576495 1
gene 1 4 7 4.03144 0 9 4.03144 1
gene 2 5 7 1.1655 0 10 1.1655 1
genomeend 111

/* Organism #112 Fitness: 24 Error: 0 */
genomestart 112
trait 1 0.1 0 0 0 0 0 0 0 
trait 2 0.380105 0 0 0 0 0 0 0 
trait 3 0.329252 0.0879467 0 0 0 0 0 0 
node 1 1 1 3
node 2 2 1 1
node 3 2 1 1
node 4 2 1 1
node 5 2 1 1
node 6 3 0 2
node 7 2 0 2
gene 2 1 6 -0.261086 0 1 -0.261086 1
gene 1 2 6 1.46437 0 2 1.46437 1
gene 1 3 6 -1.82295 0 3 -1.82295 1
gene 2 4 6 -2.81906 0 4 -2.81906 1
gene 3 5 6 -3.92457 0 5 -3.92457 1
gene 3 1 7 -3.85905 0 6 -3.85905 1
gene 3 2 7 5.94006 0 7 5.94006 1
gene 3 3 7 -5.59055 0 8 -5.59055 1
gene 1 4 7 3.63535 0 9 3.63535 1
gene 2 5 7 0.179811 0 10 0.179811 1
genomeend 112

/* Organism #113 Fitness: 25 Error: 0 */
genomestart 113
trait 1 0.1 0.0273827 0 0 0 0.0236099 0.030879 0 
trait 2 0.2 0 0 0 0 0 0 0 
trait 3 0.28125 0 0 0 0 0 0 0 
node 1 3 1 3
node 2 1 1 1
node 3 2 1 1
node 4 1 1 1
node 5 2 1 1
node 6 3 0 2
node 7 1 0 2
gene 2 1 6 0.172658 0 1 0.172658 1
gene 3 2 6 -1.28712 0 2 -1.28712 1
gene 1 3 6 1.38653 0 3 1.38653 1
gene 2 4 6 -1.89917 0 4 -1.89917 1
gene 1 5 6 -1.44951 0 5 -1.44951 1
gene 3 1 7 -0.0934477 0 6 -0.0934477 1
gene 3 2 7 -2.38426 0 7 -2.38426 1
gene 3 3 7 -0.671789 0 8 -0.671789 1
gene 1 4 7 0.117649 0 9 0.117649 1
gene 2 5 7 2.93348 0 10 2.93348 1
gene 3 7 6 -1.20922 0 27 -1.20922 1
genomeend 113

/* Organism #114 Fitness: 2 Error: 0 */
genomestart 114
trait 1 0.1 0.0273827 0 0 0 0.0236099 0.030879 0 
trait 2 0.2 0 0 0 0 0 0 0 
trait 3 0.290625 0 0 0 0 0 0 0 
node 1 3 1 3
node 2 2 1 1
node 3 3 1 1
node 4 3 1 1
node 5 2 1 1
node 6 3 0 2
node 7 2 0 2
gene 1 1 6 1.46293 0 1 1.46293 1
gene 3 2 6 0.505387 0 2 0.505387 1
gene 1 3 6 2.35456 0 3 2.35456 1
gene 1 4 6 -1.19041 0 4 -1.19041 1
gene 1 5 6 -2.19929 0 5 -2.19929 1
gene 3 1 7 -2.23639 0 6 -2.23639 1
gene 3 2 7 -1.45641 0 7 -1.45641 1
gene 2 3 7 -0.358341 0 8 -0.358341 1
gene 2 4 7 3.08702 0 9 3.08702 1
gene 2 5 7 1.00374 0 10 1.00374 1
genomeend 114

/* Organism #115 Fitness: 94 Error: 0 */
genomestart 115
trait 1 0.1 0.0136914 0 0 0 0.0118049 0.0154395 0 
trait 2 0.2 0 0 0 0 0 0 0 
trait 3 0.329252 0.0879467 0 0 0 0 0 0 
node 1 2 1 3
node 2 1 1 1
node 3 2 1 1
node 4 1 1 1
node 5 2 1 1
node 6 3 0 2
node 7 1 0 2
gene 2 1 6 3.38566 0 1 3.38566 1
gene 3 2 6 -2.82363 0 2 -2.82363 1
gene 1 3 6 -0.380524 0 3 -0.380524 1
gene 2 4 6 -2.265 0 4 -2.265 1
gene 2 5 6 -1.94743 0 5 -1.94743 1
gene 3 1 7 -1.50055 0 6 -1.50055 1
gene 1 2 7 0.934935 0 7 0.934935 1
gene 3 3 7 -0.712415 0 8 -0.712415 1
gene 1 4 7 2.24493 0 9 2.24493 1
gene 2 5 7 0.659791 0 10 0.659791 1
genomeend 115

/* Organism #116 Fitness: 6 Error: 0 */
genomestart 116
trait 1 0.1 0.0136914 0 0 0 0.0118049 0.0154395 0 
trait 2 0.2 0 0 0 0 0 0 0 
trait 3 0.3 0 0 0 0 0 0 0 
node 1 3 1 3
node 2 2 1 1
node 3 2 1 1
node 4 2 1 1
node 5 3 1 1
node 6 1 0 2
node 7 3 0 2
gene 2 1 6 2.40078 0 1 2.40078 1
gene 3 2 6 -3.13958 0 2 -3.13958 1
gene 2 3 6 -2.09425 0 3 -2.09425 1
gene 1 4 6 1.0168 0 4 1.0168 1
gene 2 5 6 -2.47346 0 5 -2.47346 1
gene 3 1 7 -2.4977 0 6 -2.4977 1
gene 1 2 7 -0.62912 0 7 -0.62912 1
gene 1 3 7 0.916852 0 8 0.916852 1
gene 2 4 7 1.04823 0 9 1.04823 1
gene 2 5 7 1.25202 0 10 1.25202 1
genomeend 116

/* Organism #117 Fitness: 7 Error: 0 */
genomestart 117
trait 1 0.1 0 0 0 0 0 0 0 
trait 2 0.2 0 0 0 0 0 0 0 
trait 3 0.15 0 0.391949 0.473251 0 0.312662 0 0 
node 1 3 1 3
node 2 2 1 1
node 3 3 1 1
node 4 3 1 1
node 5 2 1 1
node 6 3 0 2
node 7 2 0 2
gene 1 1 6 1.3258 0 1 1.3258 1
gene 2 2 6 -0.359325 0 2 -0.359325 1
gene 1 3 6 0.671102 0 3 0.671102 1
gene 1 4 6 -1.86485 0 4 -1.86485 1
gene 3 5 6 -3.64708 0 5 -3.64708 1
gene 2 1 7 0.482803 0 6 0.482803 1
gene 1 2 7 -1.86758 0 7 -1.86758 1
gene 3 3 7 0.83552 0 8 0.83552 1
gene 1 4 7 2.02821 0 9 2.02821 1
gene 2 5 7 0.862011 0 10 0.862011 1
gene 2 6 7 1.92193 0 46 1.92193 1
genomeend 117

/* Organism #118 Fitness: 32 Error: 0 */
genomestart 118
trait 1 0.1 0.0136914 0 0 0 0.0118049 0.0154395 0 
trait 2 0.2 0 0 0 0 0 0 0 
trait 3 0.3 0.19779 0 0.631275 0 0 0.421186 0 
node 1 2 1 3
node 2 1 1 1
node 3 2 1 1
node 4 1 1 1
node 5 2 1 1
node 6 3 0 2
node 7 1 0 2
gene 2 1 6 2.10529 0 1 2.10529 1
gene 1 2 6 1.79564 0 2 1.79564 1
gene 1 3 6 1.16956 0 3 1.16956 1
gene 1 4 6 -2.60296 0 4 -2.60296 1
gene 2 5 6 0.480888 0 5 0.480888 1
gene 2 1 7 1.0188 0 6 1.0188 1
gene 1 2 7 -1.30427 0 7 -1.30427 1
gene 1 3 7 -0.112568 0 8 -0.112568 1
gene 1 4 7 3.22168 0 9 3.22168 1
gene 2 5 7 1.71344 0 10 1.71344 1
genomeend 118

/* Organism #119 Fitness: 12 Error: 0 */
genomestart 119
trait 1 0.1 0.0273827 0 0 0 0.0236099 0.030879 0 
trait 2 0.2 0 0 0 0 0 0 0 
trait 3 0.2625 0 0 0 0 0 0 0 
node 1 2 1 3
node 2 1 1 1
node 3 2 1 1
node 4 1 1 1
node 5 2 1 1
node 6 3 0 2
node 7 1 0 2
gene 1 1 6 0.73352 0 1 0.73352 1
gene 3 2 6 -2.0098 0 2 -2.0098 1
gene 1 3 6 -0.985343 0 3 -0.985343 1
gene 2 4 6 -0.127796 0 4 -0.127796 1
gene 1 5 6 -2.26115 0 5 -2.26115 1
gene 2 1 7 1.5806 0 6 1.5806 1
gene 3 2 7 -2.19001 0 7 -2.19001 1
gene 2 3 7 -1.28903 0 8 -1.28903 1
gene 2 4 7 1.76627 0 9 1.76627 1
gene 3 5 7 1.50264 0 10 1.50264 1
genomeend 119

/* Organism #120 Fitness: 124 Error: 0 */
genomestart 120
trait 1 0.1 0 0 0 0 0 0 0 
trait 2 0.2 0 0 0 0 0 0 0 
trait 3 0.349129 0.175893 0 0 0 0 0 0 
node 1 3 1 3
node 2 2 1 1
node 3 3 1 1
node 4 3 1 1
node 5 2 1 1
node 6 3 0 2
node 7 2 0 2
gene 2 1 6 2.29362 0 1 2.29362 1
gene 3 2 6 -0.881195 0 2 -0.881195 1
gene 2 3 6 1.14918 0 3 1.14918 1
gene 2 4 6 -2.41396 0 4 -2.41396 1
gene 2 5 6 -2.13743 0 5 -2.13743 1
gene 2 1 7 -0.82461 0 6 -0.82461 1
gene 1 2 7 0.230567 0 7 0.230567 1
gene 3 3 7 -1.71583 0 8 -1.71583 1
gene 1 4 7 3.2496 0 9 3.2496 1
gene 2 5 7 0.165012 0 10 0.165012 1
genomeend 120

/* Organism #121 Fitness: 174 Error: 0 */
genomestart 121
trait 1 0.1 0 0 0 0 0 0 0 
trait 2 0.245026 0.136196 0 0.142041 0 0.111217 0 0.066393 
trait 3 0.329252 0.0879467 0 0 0 0 0 0 
node 1 3 1 3
node 2 3 1 1
node 3 2 1 1
node 4 2 1 1
node 5 1 1 1
node 6 2 0 2
node 7 1 0 2
gene 2 1 6 4.64258 0 1 4.64258 1
gene 3 2 6 1.53104 0 2 1.53104 1
gene 1 3 6 -1.77551 0 3 -1.77551 1
gene 1 4 6 -6.36433 0 4 -6.36433 1
gene 2 5 6 -5.43557 0 5 -5.43557 1
gene 1 1 7 -1.47002 0 6 -1.47002 1
gene 1 2 7 -2.21084 0 7 -2.21084 1
gene 3 3 7 -2.10935 0 8 -2.10935 1
gene 2 4 7 1.29934 0 9 1.29934 1
gene 2 5 7 -1.80151 0 10 -1.80151 1
genomeend 121

/* Organism #122 Fitness: 5 Error: 0 */
genomestart 122
trait 1 0.1 0 0 0 0 0 0 0 
trait 2 0.2 0 0 0 0 0 0 0 
trait 3 0.231022 0 0 0 0 0 0 0 
node 1 3 1 3
node 2 2 1 1
node 3 3 1 1
node 4 3 1 1
node 5 2 1 1
node 6 3 0 2
node 7 2 0 2
gene 1 1 6 0.792602 0 1 0.792602 1
gene 3 2 6 0.586538 0 2 0.586538 1
gene 2 3 6 1.14918 0 3 1.14918 1
gene 1 4 6 -1.42765 0 4 -1.42765 1
gene 2 5 6 -2.13743 0 5 -2.13743 1
gene 3 1 7 -4.05071 0 6 -4.05071 1
gene 3 2 7 0.900921 0 7 0.900921 1
gene 3 3 7 -1.71583 0 8 -1.71583 1
gene 1 4 7 3.2496 0 9 3.2496 1
gene 1 5 7 0.485549 0 10 0.485549 1
genomeend 122

/* Organism #123 Fitness: 72 Error: 0 */
genomestart 123
trait 1 0.1 0 0 0 0 0 0 0 
trait 2 0.290052 0.136196 0 0.142041 0 0.111217 0 0.066393 
trait 3 0.3 0 0 0 0 0 0 0 
node 1 1 1 3
node 2 3 1 1
node 3 2 1 1
node 4 2 1 1
node 5 2 1 1
node 6 3 0 2
node 7 2 0 2
gene 2 1 6 3.30506 0 1 3.30506 1
gene 1 2 6 0.692347 0 2 0.692347 1
gene 1 3 6 2.36963 0 3 2.36963 1
gene 1 4 6 -3.14635 0 4 -3.14635 1
gene 3 5 6 -4.88863 0 5 -4.88863 1
gene 1 1 7 -1.05979 0 6 -1.05979 1
gene 1 2 7 0.377354 0 7 0.377354 1
gene 3 3 7 -2.39219 0 8 -2.39219 1
gene 1 4 7 3.08449 0 9 3.08449 1
gene 2 5 7 2.83803 0 10 2.83803 1
genomeend 123

/* Organism #124 Fitness: 100001 Error: 0 */
/* ##------$ WINNER 124 SPECIES #1 $------## */
genomestart 124
trait 1 0.1 0 0 0 0 0 0 0 
trait 2 0.380105 0 0 0 0 0 0 0 
trait 3 0.3 0 0 0 0 0 0 0 
node 1 1 1 3
node 2 2 1 1
node 3 2 1 1
node 4 2 1 1
node 5 2 1 1
node 6 3 0 2
node 7 2 0 2
gene 1 1 6 4.5143 0 1 4.5143 1
gene 3 2 6 -1.46104 0 2 -1.46104 1
gene 2 3 6 -2.68336 0 3 -2.68336 1
gene 1 4 6 -1.44758 0 4 -1.44758 1
gene 2 5 6 -3.10351 0 5 -3.10351 1
gene 1 1 7 -3.66321 0 6 -3.66321 1
gene 3 2 7 3.15629 0 7 3.15629 1
gene 3 3 7 -1.6962 0 8 -1.6962 1
gene 2 4 7 4.05879 0 9 4.05879 1
gene 1 5 7 0.967666 0 10 0.967666 1
genomeend 124

/* Organism #125 Fitness: 184 Error: 0 */
genomestart 125
trait 1 0.1 0 0 0 0 0 0 0 
trait 2 0.290052 0 0 0 0 0 0 0 
trait 3 0.28125 0 0 0 0 0 0 0 
node 1 1 1 3
node 2 2 1 1
node 3 2 1 1
node 4 2 1 1
node 5 2 1 1
node 6 3 0 2
node 7 2 0 2
gene 2 1 6 1.17329 0 1 1.17329 1
gene 3 2 6 -0.484191 0 2 -0.484191 1
gene 1 3 6 -1.55684 0 3 -1.55684 1
gene 1 4 6 -2.76378 0 4 -2.76378 1
gene 3 5 6 -2.22548 0 5 -2.22548 1
gene 3 1 7 -2.45462 0 6 -2.45462 1
gene 3 2 7 0.518265 0 7 0.518265 1
gene 3 3 7 -1.49463 0 8 -1.49463 1
gene 1 4 7 0.677824 0 9 0.677824 1
gene 2 5 7 1.67129 0 10 1.67129 1
gene 3 7 6 -1.45552 0 27 -1.45552 1
genomeend 125

/* Organism #126 Fitness: 25 Error: 0 */
genomestart 126
trait 1 0.1 0 0 0 0 0 0 0 
trait 2 0.2 0.136196 0 0.142041 0 0.111217 0 0.066393 
trait 3 0.3 0 0 0 0 0 0 0 
node 1 1 1 3
node 2 3 1 1
node 3 2 1 1
node 4 2 1 1
node 5 3 1 1
node 6 2 0 2
node 7 3 0 2
gene 1 1 6 -1.76941 0 1 -1.76941 1
gene 2 2 6 2.41082 0 2 2.41082 1
gene 1 3 6 1.85328 0 3 1.85328 1
gene 1 4 6 -0.343127 0 4 -0.343127 1
gene 2 5 6 -2.84878 0 5 -2.84878 1
gene 3 1 7 -0.807234 0 6 -0.807234 1
gene 3 2 7 -2.18414 0 7 -2.18414 1
gene 1 3 7 -2.51473 0 8 -2.51473 1
gene 1 4 7 1.4437 0 9 1.4437 1
gene 2 5 7 1.87139 0 10 1.87139 1
genomeend 126

/* Organism #127 Fitness: 33 Error: 0 */
genomestart 127
trait 1 0.1 0 0 0 0 0 0 0 
trait 2 0.2 0 0 0 0 0 0 0 
trait 3 0.329252 0.0879467 0 0 0 0 0 0 
node 1 3 1 3
node 2 2 1 1
node 3 2 1 1
node 4 2 1 1
node 5 3 1 1
node 6 1 0 2
node 7 2 0 2
gene 3 1 6 3.46525 0 1 3.46525 1
gene 1 2 6 -0.552226 0 2 -0.552226 1
gene 1 3 6 0.370363 0 3 0.370363 1
gene 2 4 6 1.89085 0 4 1.89085 1
gene 2 5 6 -3.67658 0 5 -3.67658 1
gene 1 1 7 1.6895 0 6 1.6895 1
gene 1 2 7 -1.72124 0 7 -1.72124 1
gene 3 3 7 1.32429 0 8 1.32429 1
gene 2 4 7 0.669988 0 9 0.669988 1
gene 2 5 7 1.09694 0 10 1.09694 1
genomeend 127

/* Organism #128 Fitness: 43 Error: 0 */
genomestart 128
trait 1 0.1 0 0 0 0 0 0 0 
trait 2 0.2 0 0 0 0 0 0 0 
trait 3 0.290625 0 0 0 0 0 0 0 
node 1 3 1 3
node 2 2 1 1
node 3 2 1 1
node 4 2 1 1
node 5 3 1 1
node 6 1 0 2
node 7 3 0 2
gene 1 1 6 1.57383 0 1 1.57383 1
gene 3 2 6 1.04933 0 2 1.04933 1
gene 2 3 6 0.683526 0 3 0.683526 1
gene 1 4 6 -1.95829 0 4 -1.95829 1
gene 2 5 6 -1.41913 0 5 -1.41913 1
gene 2 1 7 -1.29537 0 6 -1.29537 1
gene 3 2 7 0.402726 0 7 0.402726 1
gene 1 3 7 -1.40234 0 8 -1.40234 1
gene 1 4 7 3.69198 0 9 3.69198 1
gene 2 5 7 1.90553 0 10 1.90553 1
genomeend 128

/* Organism #129 Fitness: 4 Error: 0 */
genomestart 129
trait 1 0.1 0.0273827 0 0 0 0.0236099 0.030879 0 
trait 2 0.2 0.136196 0 0.142041 0 0.111217 0 0.066393 
trait 3 0.3 0 0 0 0 0 0 0 
node 1 2 1 3
node 2 2 1 1
node 3 1 1 1
node 4 2 1 1
node 5 3 1 1
node 6 2 0 2
node 7 3 0 2
gene 1 1 6 0.73352 0 1 0.73352 1
gene 2 2 6 0.611267 0 2 0.611267 1
gene 1 3 6 1.24095 0 3 1.24095 1
gene 2 4 6 -0.127796 0 4 -0.127796 1
gene 2 5 6 -3.07065 0 5 -3.07065 0
gene 3 1 7 -1.26818 0 6 -1.26818 1
gene 1 2 7 -1.92718 0 7 -1.92718 1
gene 2 3 7 -0.989746 0 8 -0.989746 1
gene 1 4 7 2.39739 0 9 2.39739 1
gene 2 5 7 0.65392 0 10 0.65392 1
genomeend 129

/* Organism #130 Fitness: 7 Error: 0 */
genomestart 130
trait 1 0.1 0 0 0 0 0 0 0 
trait 2 0.380105 0 0 0 0 0 0 0 
trait 3 0.225 0 0.195975 0.236625 0 0.156331 0 0 
node 1 1 1 3
node 2 3 1 1
node 3 2 1 1
node 4 2 1 1
node 5 2 1 1
node 6 3 0 2
node 7 2 0 2
gene 2 1 6 -0.333003 0 1 -0.333003 1
gene 3 2 6 0.819847 0 2 0.819847 1
gene 1 3 6 -1.24248 0 3 -1.24248 1
gene 1 4 6 -2.35753 0 4 -2.35753 1
gene 3 5 6 -3.47195 0 5 -3.47195 1
gene 3 1 7 -4.34284 0 6 -4.34284 1
gene 3 2 7 2.98061 0 7 2.98061 1
gene 3 3 7 -0.0634938 0 8 -0.0634938 1
gene 1 4 7 4.38981 0 9 4.38981 1
gene 2 5 7 -0.310175 0 10 -0.310175 1
gene 3 7 6 0.0112308 0 33 0.0112308 1
genomeend 130

/* Organism #131 Fitness: 65 Error: 0 */
genomestart 131
trait 1 0.1 0 0 0 0 0 0 0 
trait 2 0.2 0 0 0 0 0 0 0 
trait 3 0.387756 0.26384 0 0 0 0 0 0 
node 1 3 1 3
node 2 2 1 1
node 3 2 1 1
node 4 2 1 1
node 5 3 1 1
node 6 1 0 2
node 7 2 0 2
gene 2 1 6 2.83964 0 1 2.83964 1
gene 3 2 6 0.719189 0 2 0.719189 1
gene 1 3 6 -0.337575 0 3 -0.337575 1
gene 2 4 6 -2.38534 0 4 -2.38534 1
gene 2 5 6 -1.79413 0 5 -1.79413 1
gene 1 1 7 0.19781 0 6 0.19781 1
gene 1 2 7 0.582751 0 7 0.582751 1
gene 2 3 7 -0.380792 0 8 -0.380792 1
gene 1 4 7 2.79959 0 9 2.79959 1
gene 2 5 7 0.482728 0 10 0.482728 1
genomeend 131

/* Organism #132 Fitness: 10 Error: 0 */
genomestart 132
trait 1 0.1 0 0 0 0 0 0 0 
trait 2 0.380105 0 0 0 0 0 0 0 
trait 3 0.329252 0.0879467 0 0 0 0 0 0 
node 1 3 1 3
node 2 2 1 1
node 3 2 1 1
node 4 2 1 1
node 5 3 1 1
node 6 1 0 2
node 7 2 0 2
gene 2 1 6 0.362636 0 1 0.362636 1
gene 1 2 6 2.8992 0 2 2.8992 1
gene 1 3 6 -3.38008 0 3 -3.38008 1
gene 2 4 6 -1.69293 0 4 -1.69293 1
gene 2 5 6 -2.1902 0 5 -2.1902 1
gene 1 1 7 1.29485 0 6 1.29485 1
gene 1 2 7 2.17086 0 7 2.17086 1
gene 3 3 7 -3.96246 0 8 -3.96246 1
gene 1 4 7 2.1214 0 9 2.1214 1
gene 2 5 7 2.285 0 10 2.285 1
genomeend 132

/* Organism #133 Fitness: 14 Error: 0 */
genomestart 133
trait 1 0.1 0 0 0 0 0 0 0 
trait 2 0.2 0 0 0 0 0 0 0 
trait 3 0.253125 0 0 0 0 0 0 0 
node 1 3 1 3
node 2 2 1 1
node 3 3 1 1
node 4 3 1 1
node 5 2 1 1
node 6 3 0 2
node 7 2 0 2
gene 1 1 6 3.28017 0 1 3.28017 1
gene 1 2 6 4.28449 0 2 4.28449 1
gene 1 3 6 -1.04755 0 3 -1.04755 1
gene 1 4 6 -1.04258 0 4 -1.04258 1
gene 2 5 6 -1.29772 0 5 -1.29772 1
gene 2 1 7 -0.291604 0 6 -0.291604 1
gene 2 2 7 0.723365 0 7 0.723365 1
gene 3 3 7 -1.87323 0 8 -1.87323 1
gene 1 4 7 2.43828 0 9 2.43828 1
gene 3 5 7 2.4214 0 10 2.4214 1
genomeend 133

/* Organism #134 Fitness: 11 Error: 0 */
genomestart 134
trait 1 0.1 0.0273827 0 0 0 0.0236099 0.030879 0 
trait 2 0.2 0.136196 0 0.142041 0 0.111217 0 0.066393 
trait 3 0.65902 0 0 0 0.505478 0 0 0 
node 1 1 1 3
node 2 3 1 1
node 3 2 1 1
node 4 2 1 1
node 5 2 1 1
node 6 3 0 2
node 7 2 0 2
gene 2 1 6 3.00923 0 1 3.00923 1
gene 3 2 6 -1.92564 0 2 -1.92564 1
gene 1 3 6 -2.82363 0 3 -2.82363 1
gene 1 4 6 -4.07053 0 4 -4.07053 1
gene 1 5 6 -2.26115 0 5 -2.26115 1
gene 1 1 7 -2.32482 0 6 -2.32482 1
gene 3 2 7 -0.249489 0 7 -0.249489 1
gene 2 3 7 -0.52736 0 8 -0.52736 1
gene 2 4 7 3.12373 0 9 3.12373 1
gene 2 5 7 0.643559 0 10 0.643559 1
genomeend 134

/* Organism #135 Fitness: 31 Error: 0 */
genomestart 135
trait 1 0.1 0 0 0 0 0 0 0 
trait 2 0.380105 0 0 0 0 0 0 0 
trait 3 0.3 0 0 0 0 0 0 0 
node 1 1 1 3
node 2 2 1 1
node 3 2 1 1
node 4 2 1 1
node 5 2 1 1
node 6 3 0 2
node 7 2 0 2
gene 2 1 6 1.5624 0 1 1.5624 1
gene 1 2 6 0.0940275 0 2 0.0940275 1
gene 1 3 6 -2.75109 0 3 -2.75109 1
gene 1 4 6 -2.20951 0 4 -2.20951 1
gene 3 5 6 -2.57471 0 5 -2.57471 1
gene 3 1 7 1.38279 0 6 1.38279 1
gene 3 2 7 2.15094 0 7 2.15094 1
gene 3 3 7 -4.95599 0 8 -4.95599 1
gene 2 4 7 0.719077 0 9 0.719077 1
gene 1 5 7 1.79197 0 10 1.79197 1
genomeend 135

/* Species #2 : (Size 3) (AF 44.3333) (Age 1)  */


/* Organism #136 Fitness: 52 Error: 0 */
genomestart 136
trait 1 0.1 0 0 0 0 0 0 0 
trait 2 0.380105 0 0 0 0 0 0 0 
trait 3 0.3 0 0 0 0 0 0 0 
node 1 1 1 3
node 2 2 1 1
node 3 2 1 1
node 4 2 1 1
node 5 2 1 1
node 6 3 0 2
node 7 2 0 2
node 20 1 0 0
gene 2 1 6 1.27099 0 1 1.27099 1
gene 3 2 6 0.393796 0 2 0.393796 1
gene 2 3 6 -0.988392 0 3 -0.988392 1
gene 1 4 6 -2.4996 0 4 -2.4996 1
gene 3 5 6 -1.36008 0 5 -1.36008 1
gene 1 1 7 -2.22505 0 6 -2.22505 1
gene 3 2 7 2.09725 0 7 2.09725 1
gene 3 3 7 -1.90837 0 8 -1.90837 1
gene 1 4 7 2.4626 0 9 2.4626 1
gene 2 5 7 1.12812 0 10 1.12812 1
gene 3 2 20 1 0 44 0 1
gene 3 20 7 1.57496 0 45 0 1
genomeend 136

/* Organism #137 Fitness: 13 Error: 0 */
genomestart 137
trait 1 0.1 0.0273827 0 0 0 0.0236099 0.030879 0 
trait 2 0.290052 0 0 0 0 0 0 0 
trait 3 0.3 0 0 0 0 0 0 0 
node 1 2 1 3
node 2 1 1 1
node 3 2 1 1
node 4 1 1 1
node 5 2 1 1
node 6 3 0 2
node 7 1 0 2
node 20 1 0 0
gene 1 1 6 1.35651 0 1 1.35651 1
gene 3 2 6 -0.77047 0 2 -0.77047 1
gene 1 3 6 -1.4517 0 3 -1.4517 1
gene 1 4 6 -1.43525 0 4 -1.43525 1
gene 1 5 6 -2.18972 0 5 -2.18972 1
gene 1 1 7 -1.52169 0 6 -1.52169 1
gene 3 2 7 -0.307524 0 7 -0.307524 0
gene 2 3 7 -1.66034 0 8 -1.66034 1
gene 2 4 7 1.59221 0 9 1.59221 1
gene 2 5 7 0.724284 0 10 0.724284 1
gene 3 2 20 1 0 44 0 1
gene 3 20 7 1.57496 0 45 0 1
genomeend 137

/* Organism #138 Fitness: 68 Error: 0 */
genomestart 138
trait 1 0.1 0 0 0 0 0 0 0 
trait 2 0.380105 0 0 0 0 0 0 0 
trait 3 0.3 0 0 0 0 0 0 0 
node 1 1 1 3
node 2 2 1 1
node 3 2 1 1
node 4 2 1 1
node 5 2 1 1
node 6 3 0 2
node 7 2 0 2
node 20 1 0 0
gene 2 1 6 1.9795 0 1 1.9795 1
gene 3 2 6 0.468856 0 2 0.468856 1
gene 1 3 6 -1.91805 0 3 -1.91805 1
gene 1 4 6 -2.25651 0 4 -2.25651 1
gene 3 5 6 -0.601871 0 5 -0.601871 1
gene 3 1 7 -2.67491 0 6 -2.67491 1
gene 3 2 7 2.61955 0 7 2.61955 0
gene 1 3 7 -2.33094 0 8 -2.33094 1
gene 2 4 7 1.41815 0 9 1.41815 1
gene 2 5 7 0.794649 0 10 0.794649 1
gene 3 2 20 1 0 44 0 1
gene 3 20 7 1.57496 0 45 0 1
genomeend 138

/* Species #3 : (Size 5) (AF 30.2) (Age 1)  */


/* Organism #139 Fitness: 16 Error: 0 */
genomestart 139
trait 1 0.1 0 0 0 0 0 0 0 
trait 2 0.2 0.136196 0 0.142041 0 0.111217 0 0.066393 
trait 3 0.225 0 0.195975 0.236625 0 0.156331 0 0 
node 1 2 1 3
node 2 2 1 1
node 3 1 1 1
node 4 2 1 1
node 5 3 1 1
node 6 2 0 2
node 7 3 0 2
gene 1 1 6 0.785762 0 1 0.785762 1
gene 2 2 6 2.89442 0 2 2.89442 1
gene 1 3 6 2.65857 0 3 2.65857 1
gene 1 4 6 -3.2449 0 4 -3.2449 1
gene 2 5 6 -0.163501 0 5 -0.163501 1
gene 2 1 7 -0.827338 0 6 -0.827338 1
gene 1 2 7 1.21631 0 7 1.21631 1
gene 3 3 7 -0.363857 0 8 -0.363857 1
gene 1 4 7 2.93467 0 9 2.93467 1
gene 2 5 7 -0.415815 0 10 -0.415815 1
gene 2 6 7 -2.77837 0 46 -2.77837 1
genomeend 139

/* Organism #140 Fitness: 2 Error: 0 */
genomestart 140
trait 1 0.1 0 0 0 0 0 0 0 
trait 2 0.2 0 0 0 0 0 0 0 
trait 3 0.215625 0 0.195975 0.236625 0 0.156331 0 0 
node 1 1 1 3
node 2 3 1 1
node 3 2 1 1
node 4 2 1 1
node 5 2 1 1
node 6 3 0 2
node 7 2 0 2
gene 2 1 6 5.20309 0 1 5.20309 1
gene 2 2 6 3.52332 0 2 3.52332 1
gene 1 3 6 2.7578 0 3 2.7578 1
gene 1 4 6 -3.33226 0 4 -3.33226 1
gene 3 5 6 -1.5384 0 5 -1.5384 1
gene 2 1 7 -1.20615 0 6 -1.20615 1
gene 1 2 7 -0.761135 0 7 -0.761135 1
gene 3 3 7 1.77842 0 8 1.77842 1
gene 1 4 7 1.67267 0 9 1.67267 1
gene 2 5 7 -1.95637 0 10 -1.95637 1
gene 2 6 7 -1.61486 0 46 -1.61486 1
genomeend 140

/* Organism #141 Fitness: 28 Error: 0 */
genomestart 141
trait 1 0.1 0 0 0 0 0 0 0 
trait 2 0.290052 0 0 0 0 0 0 0 
trait 3 0.1875 0 0.293962 0.354938 0 0.234497 0 0 
node 1 3 1 3
node 2 2 1 1
node 3 3 1 1
node 4 3 1 1
node 5 2 1 1
node 6 3 0 2
node 7 2 0 2
gene 1 1 6 -0.274823 0 1 -0.274823 1
gene 2 2 6 1.23672 0 2 1.23672 1
gene 1 3 6 -0.524995 0 3 -0.524995 1
gene 1 4 6 -1.70652 0 4 -1.70652 1
gene 3 5 6 -1.55694 0 5 -1.55694 1
gene 2 1 7 -3.22701 0 6 -3.22701 1
gene 1 2 7 0.792333 0 7 0.792333 1
gene 2 3 7 -1.4378 0 8 -1.4378 1
gene 1 4 7 5.40737 0 9 5.40737 1
gene 2 5 7 -2.36662 0 10 -2.36662 1
gene 2 6 7 -0.541215 0 46 -0.541215 1
genomeend 141

/* Organism #142 Fitness: 98 Error: 0 */
genomestart 142
trait 1 0.1 0 0 0 0 0 0 0 
trait 2 0.2 0 0 0 0 0 0 0 
trait 3 0.15 0 0.391949 0.473251 0 0.312662 0 0 
node 1 3 1 3
node 2 2 1 1
node 3 3 1 1
node 4 3 1 1
node 5 2 1 1
node 6 3 0 2
node 7 2 0 2
gene 2 1 6 0.491913 0 1 0.491913 1
gene 3 2 6 1.88052 0 2 1.88052 1
gene 1 3 6 2.73731 0 3 2.73731 1
gene 1 4 6 -1.51575 0 4 -1.51575 1
gene 3 5 6 -1.3289 0 5 -1.3289 1
gene 1 1 7 -0.583659 0 6 -0.583659 1
gene 1 2 7 2.486 0 7 2.486 1
gene 3 3 7 -3.57875 0 8 -3.57875 1
gene 1 4 7 4.97325 0 9 4.97325 1
gene 2 5 7 1.65378 0 10 1.65378 1
gene 3 7 6 2.2599 0 33 2.2599 1
genomeend 142

/* Organism #143 Fitness: 7 Error: 0 */
genomestart 143
trait 1 0.1 0 0 0 0 0 0 0 
trait 2 0.2 0 0 0 0 0 0 0 
trait 3 0.15 0 0.391949 0.473251 0 0.312662 0 0 
node 1 3 1 3
node 2 2 1 1
node 3 3 1 1
node 4 3 1 1
node 5 1 1 1
node 6 3 0 2
node 7 2 0 2
gene 1 1 6 -1.34244 0 1 -1.34244 1
gene 2 2 6 1.06993 0 2 1.06993 1
gene 1 3 6 3.25562 0 3 3.25562 1
gene 1 4 6 -1.67174 0 4 -1.67174 1
gene 3 5 6 -2.36866 0 5 -2.36866 1
gene 2 1 7 -3.03169 0 6 -3.03169 1
gene 1 2 7 1.46542 0 7 1.46542 1
gene 3 3 7 -1.55046 0 8 -1.55046 1
gene 1 4 7 2.42243 0 9 2.42243 1
gene 2 5 7 -2.31542 0 10 -2.31542 1
gene 2 6 7 -0.267769 0 46 -0.267769 1
genomeend 143

/* Species #4 : (Size 2) (AF 10) (Age 1)  */


/* Organism #144 Fitness: 18 Error: 0 */
genomestart 144
trait 1 0.1 0 0 0 0 0 0 0 
trait 2 0.2 0.272393 0 0.284082 0 0.222434 0 0.132786 
trait 3 0.3 0 0 0 0 0 0 0 
node 1 2 1 3
node 2 2 1 1
node 3 1 1 1
node 4 2 1 1
node 5 3 1 1
node 6 2 0 2
node 7 3 0 2
node 19 1 0 0
gene 1 1 6 0.00455489 0 1 0.00455489 1
gene 2 2 6 0.611267 0 2 0.611267 1
gene 1 3 6 1.24095 0 3 1.24095 1
gene 1 4 6 -1.76705 0 4 -1.76705 1
gene 2 5 6 -3.07065 0 5 -3.07065 0
gene 2 1 7 -0.761338 0 6 -0.761338 1
gene 1 2 7 -1.92718 0 7 -1.92718 1
gene 1 3 7 -1.83335 0 8 -1.83335 1
gene 1 4 7 2.39739 0 9 2.39739 1
gene 2 5 7 3.25723 0 10 3.25723 1
gene 2 5 19 1 0 42 0 1
gene 2 19 6 -3.07065 0 43 0 1
gene 1 1 19 0.501816 0 49 0.501816 1
genomeend 144

/* Organism #145 Fitness: 2 Error: 0 */
genomestart 145
trait 1 0.1 0 0 0 0 0 0 0 
trait 2 0.2 0.136196 0 0.142041 0 0.111217 0 0.066393 
trait 3 0.3 0 0 0 0 0 0 0 
node 1 2 1 3
node 2 2 1 1
node 3 1 1 1
node 4 2 1 1
node 5 3 1 1
node 6 2 0 2
node 7 3 0 2
node 19 1 0 0
gene 3 1 6 3.62464 0 1 3.62464 1
gene 1 2 6 -3.72997 0 2 -3.72997 1
gene 1 3 6 1.92136 0 3 1.92136 1
gene 1 4 6 0.6713 0 4 0.6713 1
gene 2 5 6 -1.91563 0 5 -1.91563 0
gene 2 1 7 -0.583872 0 6 -0.583872 1
gene 1 2 7 0.480361 0 7 0.480361 1
gene 2 3 7 -0.118824 0 8 -0.118824 1
gene 1 4 7 0.410249 0 9 0.410249 1
gene 2 5 7 4.17981 0 10 4.17981 1
gene 2 5 19 -1.84072 0 42 -1.84072 1
gene 2 19 6 -5.23457 0 43 -5.23457 1
genomeend 145

/* Species #5 : (Size 2) (AF 10.5) (Age 1)  */


/* Organism #146 Fitness: 12 Error: 0 */
genomestart 146
trait 1 0.1 0 0 0 0 0 0 0 
trait 2 0.380105 0 0 0 0 0 0 0 
trait 3 0.225 0 0.195975 0.236625 0 0.156331 0 0 
node 1 1 1 3
node 2 2 1 1
node 3 2 1 1
node 4 2 1 1
node 5 2 1 1
node 6 2 0 2
node 7 2 0 2
node 21 1 0 0
gene 2 1 6 1.29188 0 1 1.29188 1
gene 3 2 6 0.412717 0 2 0.412717 1
gene 1 3 6 -0.470061 0 3 -0.470061 1
gene 1 4 6 -4.81571 0 4 -4.81571 1
gene 3 5 6 -2.63112 0 5 -2.63112 0
gene 2 1 7 -3.87843 0 6 -3.87843 1
gene 1 2 7 0.18944 0 7 0.18944 1
gene 3 3 7 -3.5072 0 8 -3.5072 1
gene 2 4 7 1.23453 0 9 1.23453 1
gene 2 5 7 -1.08446 0 10 -1.08446 1
gene 3 5 21 1 0 50 0 1
gene 3 21 6 -2.63112 0 51 0 1
genomeend 146

/* Organism #147 Fitness: 9 Error: 0 */
genomestart 147
trait 1 0.1 0 0 0 0 0 0 0 
trait 2 0.2 0 0 0 0 0 0 0 
trait 3 0.3 0 0 0 0 0 0 0 
node 1 1 1 3
node 2 3 1 1
node 3 2 1 1
node 4 2 1 1
node 5 3 1 1
node 6 2 0 2
node 7 3 0 2
node 21 1 0 0
gene 1 1 6 1.19082 0 1 1.19082 1
gene 1 2 6 0.0940275 0 2 0.0940275 1
gene 3 3 6 -2.10906 0 3 -2.10906 1
gene 2 4 6 -1.30834 0 4 -1.30834 1
gene 2 5 6 -2.26634 0 5 -2.26634 0
gene 3 1 7 0.434278 0 6 0.434278 1
gene 3 2 7 -2.26318 0 7 -2.26318 1
gene 3 3 7 -1.55573 0 8 -1.55573 1
gene 2 4 7 0.464797 0 9 0.464797 1
gene 1 5 7 1.79197 0 10 1.79197 1
gene 2 5 21 1 0 50 0 1
gene 2 21 6 -2.26634 0 51 0 1
genomeend 147

/* Species #6 : (Size 1) (AF 17) (Age 1)  */


/* Organism #148 Fitness: 17 Error: 0 */
genomestart 148
trait 1 0.1 0.0410741 0 0 0 0.0354148 0.0463185 0 
trait 2 0.2 0 0 0 0 0 0 0 
trait 3 0.3 0 0 0 0 0 0 0 
node 1 2 1 3
node 2 1 1 1
node 3 2 1 1
node 4 1 1 1
node 5 2 1 1
node 6 3 0 2
node 7 1 0 2
node 23 1 0 0
gene 1 1 6 1.0821 0 1 1.0821 1
gene 3 2 6 -2.41671 0 2 -2.41671 1
gene 1 3 6 -0.973466 0 3 -0.973466 1
gene 2 4 6 -1.1964 0 4 -1.1964 1
gene 1 5 6 -2.2636 0 5 -2.2636 1
gene 3 1 7 -1.38437 0 6 -1.38437 1
gene 3 2 7 -1.67639 0 7 -1.67639 0
gene 2 3 7 -0.890294 0 8 -0.890294 1
gene 2 4 7 1.87451 0 9 1.87451 1
gene 2 5 7 0.217376 0 10 0.217376 1
gene 3 2 23 1 0 54 0 1
gene 3 23 7 -1.67639 0 55 0 1
genomeend 148

/* Species #7 : (Size 1) (AF 29) (Age 1)  */


/* Organism #149 Fitness: 29 Error: 0 */
genomestart 149
trait 1 0.1 0.0273827 0 0 0 0.0236099 0.030879 0 
trait 2 0.2 0.136196 0 0.142041 0 0.111217 0 0.066393 
trait 3 0.3 0 0 0 0 0 0 0 
node 1 2 1 3
node 2 2 1 1
node 3 1 1 1
node 4 2 1 1
node 5 3 1 1
node 6 2 0 2
node 7 3 0 2
node 24 1 0 0
gene 1 1 6 0.00455489 0 1 0.00455489 1
gene 3 2 6 -2.0098 0 2 -2.0098 1
gene 1 3 6 -0.985343 0 3 -0.985343 0
gene 1 4 6 -1.76705 0 4 -1.76705 1
gene 2 5 6 -3.07065 0 5 -3.07065 0
gene 2 1 7 -0.761338 0 6 -0.761338 1
gene 3 2 7 -2.19001 0 7 -2.19001 1
gene 2 3 7 -0.989746 0 8 -0.989746 1
gene 1 4 7 2.39739 0 9 2.39739 1
gene 2 5 7 3.25723 0 10 3.25723 1
gene 1 3 24 1 0 56 0 1
gene 1 24 6 -0.985343 0 57 0 1
genomeend 149
