
/* Species #1 : (Size 760) (AF 276.454) (Age 3)  */


/* Organism #0 Fitness: 65 Error: 0 */
genomestart 0
trait 1 0.1 0 0 0 0 0 0 0 
trait 2 0.2 0 0 0 0 0 0 0 
trait 3 0.3 0 0 0 0 0 0 0 
node 1 1 1 3
node 2 3 1 1
node 3 2 1 1
node 4 2 1 1
node 5 3 1 1
node 6 2 0 2
node 7 2 0 2
gene 1 1 6 0.488479 0 1 0.488479 1
gene 2 2 6 0.10416 0 2 0.10416 1
gene 1 3 6 0.47618 0 3 0.47618 1
gene 2 4 6 -0.246376 0 4 -0.246376 1
gene 2 5 6 -0.975188 0 5 -0.975188 1
gene 2 1 7 0.0633869 0 6 0.0633869 1
gene 2 2 7 -0.308939 0 7 -0.308939 1
gene 3 3 7 0.66332 0 8 0.66332 1
gene 2 4 7 0.489639 0 9 0.489639 1
gene 1 5 7 0.265023 0 10 0.265023 1
gene 3 7 6 0.669881 0 12 0 1
genomeend 0

/* Organism #1 Fitness: 8 Error: 0 */
genomestart 1
trait 1 0.1 0 0 0 0 0 0 0 
trait 2 0.2 0 0 0 0 0 0 0 
trait 3 0.3 0 0 0 0 0 0 0 
node 1 3 1 3
node 2 1 1 1
node 3 1 1 1
node 4 2 1 1
node 5 3 1 1
node 6 2 0 2
node 7 3 0 2
gene 1 1 6 0.158635 0 1 0.158635 1
gene 3 2 6 -0.599384 0 2 -0.599384 1
gene 2 3 6 0.772423 0 3 0.772423 1
gene 1 4 6 -0.597064 0 4 -0.597064 1
gene 3 5 6 -0.98648 0 5 -0.98648 1
gene 3 1 7 -0.109592 0 6 -0.109592 1
gene 2 2 7 0.0856655 0 7 0.0856655 1
gene 1 3 7 0.737785 0 8 0.737785 1
gene 2 4 7 -0.413587 0 9 -0.413587 1
gene 2 5 7 1.18125 0 10 1.18125 1
gene 3 7 6 0.708701 0 12 0.708701 1
genomeend 1

/* Organism #2 Fitness: 3 Error: 0 */
genomestart 2
trait 1 0.1 0 0 0 0 0 0 0 
trait 2 0.2 0 0 0 0 0 0 0 
trait 3 0.3 0 0 0 0 0 0 0 
node 1 1 1 3
node 2 2 1 1
node 3 1 1 1
node 4 1 1 1
node 5 1 1 1
node 6 1 0 2
node 7 3 0 2
gene 2 1 6 -0.742027 0 1 -0.742027 1
gene 3 2 6 -1.18192 0 2 -1.18192 1
gene 3 3 6 1.13926 0 3 1.13926 1
gene 1 4 6 0.512833 0 4 0.512833 1
gene 3 5 6 0.513565 0 5 0.513565 1
gene 2 1 7 1.76104 0 6 1.76104 1
gene 1 2 7 -1.17783 0 7 -1.17783 1
gene 3 3 7 0.4485 0 8 0.4485 1
gene 3 4 7 0.918882 0 9 0.918882 1
gene 2 5 7 -0.619312 0 10 -0.619312 1
genomeend 2

/* Organism #3 Fitness: 2 Error: 0 */
genomestart 3
trait 1 0.1 0 0 0 0 0 0 0 
trait 2 0.2 0 0 0 0 0 0 0 
trait 3 0.3 0 0 0 0 0 0 0 
node 1 2 1 3
node 2 1 1 1
node 3 3 1 1
node 4 3 1 1
node 5 2 1 1
node 6 1 0 2
node 7 3 0 2
gene 3 1 6 0.829379 0 1 0.829379 1
gene 3 2 6 0.0234993 0 2 0.0234993 1
gene 1 3 6 1.34111 0 3 1.34111 1
gene 2 4 6 0.219604 0 4 0.219604 1
gene 3 5 6 -0.723411 0 5 -0.723411 1
gene 3 1 7 0.268197 0 6 0.268197 1
gene 1 2 7 1.39405 0 7 1.39405 1
gene 2 3 7 0.994125 0 8 0.994125 1
gene 1 4 7 -0.22013 0 9 -0.22013 1
gene 1 5 7 0.14629 0 10 0.14629 1
genomeend 3

/* Organism #4 Fitness: 8 Error: 0 */
genomestart 4
trait 1 0.1 0 0 0 0 0 0 0 
trait 2 0.2 0 0 0 0 0 0 0 
trait 3 0.3 0 0 0 0 0 0 0 
node 1 2 1 3
node 2 2 1 1
node 3 3 1 1
node 4 3 1 1
node 5 1 1 1
node 6 3 0 2
node 7 3 0 2
gene 3 1 6 0.153447 0 1 0.153447 1
gene 2 2 6 0.597613 0 2 0.597613 1
gene 1 3 6 0.398862 0 3 0.398862 1
gene 2 4 6 0.354717 0 4 0.354717 1
gene 2 5 6 -1.48905 0 5 -1.48905 1
gene 1 1 7 -0.45603 0 6 -0.45603 1
gene 1 2 7 -0.741203 0 7 -0.741203 1
gene 2 3 7 0.359661 0 8 0.359661 1
gene 3 4 7 0.526681 0 9 0.526681 1
gene 2 5 7 -0.422468 0 10 -0.422468 1
genomeend 4

/* Organism #5 Fitness: 3 Error: 0 */
genomestart 5
trait 1 0.1 0 0 0 0 0 0 0 
trait 2 0.2 0 0 0 0 0 0 0 
trait 3 0.3 0 0 0 0 0 0 0 
node 1 1 1 3
node 2 2 1 1
node 3 2 1 1
node 4 1 1 1
node 5 2 1 1
node 6 2 0 2
node 7 1 0 2
gene 1 1 6 -0.690054 0 1 -0.690054 1
gene 2 2 6 0.51323 0 2 0.51323 1
gene 3 3 6 0.748222 0 3 0.748222 1
gene 2 4 6 0.366558 0 4 0.366558 1
gene 1 5 6 -0.899625 0 5 -0.899625 1
gene 1 1 7 -0.510269 0 6 -0.510269 1
gene 2 2 7 0.908994 0 7 0.908994 1
gene 2 3 7 0.433027 0 8 0.433027 1
gene 2 4 7 0.383465 0 9 0.383465 1
gene 3 5 7 0.473128 0 10 0.473128 1
gene 2 6 7 -0.28663 0 80 -0.28663 1
genomeend 5

/* Organism #6 Fitness: 8 Error: 0 */
genomestart 6
trait 1 0.1 0 0 0 0 0 0 0 
trait 2 0.2 0 0 0 0 0 0 0 
trait 3 0.3 0 0 0 0 0 0 0 
node 1 1 1 3
node 2 3 1 1
node 3 3 1 1
node 4 2 1 1
node 5 1 1 1
node 6 2 0 2
node 7 3 0 2
gene 2 1 6 -0.489639 0 1 -0.489639 1
gene 1 2 6 0.204627 0 2 0.204627 1
gene 2 3 6 -0.0312967 0 3 -0.0312967 1
gene 1 4 6 -0.528611 0 4 -0.528611 1
gene 3 5 6 0.0987884 0 5 0.0987884 1
gene 2 1 7 0.456038 0 6 0.456038 1
gene 1 2 7 0.551469 0 7 0.551469 1
gene 2 3 7 0.760063 0 8 0.760063 1
gene 1 4 7 0.418332 0 9 0.418332 1
gene 2 5 7 0.615253 0 10 0.615253 1
gene 2 6 7 -0.28663 0 80 0 1
genomeend 6

/* Organism #7 Fitness: 3 Error: 0 */
genomestart 7
trait 1 0.55 0 0.189459 0 0.00184637 0 0 0 
trait 2 0.2 0 0 0 0 0 0 0 
trait 3 0.3 0 0 0 0 0 0 0 
node 1 3 1 3
node 2 3 1 1
node 3 2 1 1
node 4 3 1 1
node 5 3 1 1
node 6 3 0 2
node 7 2 0 2
gene 1 1 6 -0.0169836 0 1 -0.0169836 1
gene 3 2 6 -0.378094 0 2 -0.378094 1
gene 3 3 6 -1.41127 0 3 -1.41127 1
gene 1 4 6 0.411802 0 4 0.411802 1
gene 1 5 6 -0.387112 0 5 -0.387112 1
gene 3 1 7 -0.497375 0 6 -0.497375 1
gene 2 2 7 0.00270089 0 7 0.00270089 1
gene 3 3 7 0.073397 0 8 0.073397 1
gene 2 4 7 -0.362575 0 9 -0.362575 1
gene 2 5 7 -0.189032 0 10 -0.189032 1
genomeend 7

/* Organism #8 Fitness: 84 Error: 0 */
genomestart 8
trait 1 0.1 0 0 0 0 0 0 0 
trait 2 0.2 0 0 0 0.452712 0 0 0 
trait 3 0.3 0 0 0 0 0 0 0 
node 1 1 1 3
node 2 3 1 1
node 3 2 1 1
node 4 2 1 1
node 5 3 1 1
node 6 2 0 2
node 7 2 0 2
gene 1 1 6 0.18659 0 1 0.18659 1
gene 2 2 6 0.827029 0 2 0.827029 1
gene 1 3 6 -0.703413 0 3 -0.703413 1
gene 2 4 6 -0.797632 0 4 -0.797632 1
gene 2 5 6 -0.784013 0 5 -0.784013 1
gene 3 1 7 -0.212043 0 6 -0.212043 1
gene 1 2 7 0.249512 0 7 0.249512 1
gene 3 3 7 -0.762383 0 8 -0.762383 1
gene 3 4 7 0.292199 0 9 0.292199 1
gene 3 5 7 0.284333 0 10 0.284333 1
gene 3 7 6 0.930815 0 12 0.930815 1
genomeend 8

/* Organism #9 Fitness: 8 Error: 0 */
genomestart 9
trait 1 0.1 0 0 0 0 0 0 0 
trait 2 0.2 0 0 0 0 0 0 0 
trait 3 0.3 0 0 0 0 0 0 0 
node 1 3 1 3
node 2 1 1 1
node 3 3 1 1
node 4 1 1 1
node 5 2 1 1
node 6 1 0 2
node 7 2 0 2
gene 3 1 6 -0.972808 0 1 -0.972808 1
gene 3 2 6 -0.0950041 0 2 -0.0950041 1
gene 3 3 6 0.0348521 0 3 0.0348521 1
gene 3 4 6 0.465346 0 4 0.465346 1
gene 2 5 6 0.783685 0 5 0.783685 1
gene 2 1 7 0.183554 0 6 0.183554 1
gene 2 2 7 -1.13666 0 7 -1.13666 1
gene 1 3 7 0.322886 0 8 0.322886 1
gene 2 4 7 -0.844661 0 9 -0.844661 1
gene 1 5 7 0.736717 0 10 0.736717 1
genomeend 9

/* Organism #10 Fitness: 19 Error: 0 */
genomestart 10
trait 1 0.1 0 0 0 0 0 0 0 
trait 2 0.2 0 0 0 0 0 0 0 
trait 3 0.3 0 0 0 0 0 0 0 
node 1 3 1 3
node 2 2 1 1
node 3 3 1 1
node 4 2 1 1
node 5 3 1 1
node 6 2 0 2
node 7 1 0 2
gene 3 1 6 -0.505463 0 1 -0.505463 1
gene 3 2 6 -0.220496 0 2 -0.220496 1
gene 3 3 6 0.727241 0 3 0.727241 1
gene 1 4 6 -0.637791 0 4 -0.637791 1
gene 2 5 6 0.116169 0 5 0.116169 1
gene 1 1 7 -0.589389 0 6 -0.589389 1
gene 1 2 7 -0.633366 0 7 -0.633366 1
gene 3 3 7 0.458861 0 8 0.458861 1
gene 2 4 7 0.203436 0 9 0.203436 1
gene 1 5 7 0.419385 0 10 0.419385 1
gene 2 6 7 -0.588672 0 15 0 1
genomeend 10

/* Organism #11 Fitness: 11 Error: 0 */
genomestart 11
trait 1 0.1 0 0 0 0 0 0 0 
trait 2 0.2 0 0 0 0 0 0 0 
trait 3 0.3 0 0 0 0 0 0 0 
node 1 1 1 3
node 2 1 1 1
node 3 1 1 1
node 4 2 1 1
node 5 3 1 1
node 6 2 0 2
node 7 3 0 2
gene 3 1 6 0.183508 0 1 0.183508 1
gene 2 2 6 0.216926 0 2 0.216926 1
gene 2 3 6 0.518006 0 3 0.518006 1
gene 3 4 6 0.942366 0 4 0.942366 1
gene 2 5 6 -0.407682 0 5 -0.407682 1
gene 1 1 7 0.0858486 0 6 0.0858486 1
gene 1 2 7 0.211798 0 7 0.211798 1
gene 3 3 7 0.395169 0 8 0.395169 1
gene 2 4 7 0.0154881 0 9 0.0154881 1
gene 1 5 7 0.67983 0 10 0.67983 1
genomeend 11

/* Organism #12 Fitness: 9 Error: 0 */
genomestart 12
trait 1 0.1 0 0 0 0 0 0 0 
trait 2 0.2 0 0 0 0 0 0 0 
trait 3 0.3 0 0 0 0 0 0 0 
node 1 1 1 3
node 2 1 1 1
node 3 1 1 1
node 4 1 1 1
node 5 3 1 1
node 6 1 0 2
node 7 2 0 2
gene 2 1 6 0.0327464 0 1 0.0327464 1
gene 2 2 6 -0.622303 0 2 -0.622303 1
gene 3 3 6 0.0613727 0 3 0.0613727 1
gene 3 4 6 0.685064 0 4 0.685064 1
gene 2 5 6 0.707892 0 5 0.707892 1
gene 2 1 7 0.282754 0 6 0.282754 1
gene 2 2 7 0.0783105 0 7 0.0783105 1
gene 2 3 7 0.796167 0 8 0.796167 1
gene 1 4 7 -0.369243 0 9 -0.369243 1
gene 1 5 7 0.755516 0 10 0.755516 1
genomeend 12

/* Organism #13 Fitness: 8 Error: 0 */
genomestart 13
trait 1 0.1 0 0 0 0 0 0 0 
trait 2 0.2 0 0 0 0 0 0 0 
trait 3 0.3 0 0 0 0 0 0 0 
node 1 1 1 3
node 2 3 1 1
node 3 2 1 1
node 4 2 1 1
node 5 3 1 1
node 6 2 0 2
node 7 2 0 2
gene 3 1 6 -0.283135 0 1 -0.283135 1
gene 2 2 6 -1.6223 0 2 -1.6223 1
gene 1 3 6 -0.0657826 0 3 -0.0657826 1
gene 2 4 6 -1.00583 0 4 -1.00583 1
gene 2 5 6 0.298959 0 5 0.298959 1
gene 1 1 7 -0.402478 0 6 -0.402478 1
gene 2 2 7 0.0450301 0 7 0.0450301 1
gene 1 3 7 -0.0657826 0 8 -0.0657826 1
gene 2 4 7 0.320215 0 9 0.320215 1
gene 2 5 7 0.699042 0 10 0.699042 1
gene 3 7 6 1.20026 0 12 1.20026 1
genomeend 13

/* Organism #14 Fitness: 5 Error: 0 */
genomestart 14
trait 1 0.1 0 0 0 0 0 0 0 
trait 2 0.2 0 0 0 0 0 0 0 
trait 3 0.3 0 0 0 0 0 0 0 
node 1 1 1 3
node 2 3 1 1
node 3 2 1 1
node 4 1 1 1
node 5 2 1 1
node 6 1 0 2
node 7 3 0 2
gene 2 1 6 0.516648 0 1 0.516648 1
gene 3 2 6 -0.641285 0 2 -0.641285 1
gene 2 3 6 0.657949 0 3 0.657949 1
gene 2 4 6 -0.242866 0 4 -0.242866 1
gene 1 5 6 0.570605 0 5 0.570605 1
gene 3 1 7 -0.313852 0 6 -0.313852 1
gene 1 2 7 0.000122074 0 7 0.000122074 1
gene 2 3 7 0.981414 0 8 0.981414 1
gene 2 4 7 0.822169 0 9 0.822169 1
gene 2 5 7 -0.658101 0 10 -0.658101 1
gene 2 6 7 -0.28663 0 80 0 1
genomeend 14

/* Organism #15 Fitness: 10 Error: 0 */
genomestart 15
trait 1 0.1 0 0 0 0 0 0 0 
trait 2 0.2 0 0 0 0 0 0 0 
trait 3 0.3 0 0 0 0 0 0 0 
node 1 3 1 3
node 2 3 1 1
node 3 1 1 1
node 4 3 1 1
node 5 3 1 1
node 6 3 0 2
node 7 2 0 2
gene 2 1 6 -0.475539 0 1 -0.475539 1
gene 2 2 6 -0.634846 0 2 -0.634846 1
gene 2 3 6 -0.247047 0 3 -0.247047 1
gene 1 4 6 0.914396 0 4 0.914396 1
gene 1 5 6 -0.449141 0 5 -0.449141 1
gene 2 1 7 1.70016 0 6 1.70016 1
gene 1 2 7 -1.68792 0 7 -1.68792 1
gene 2 3 7 -1.54457 0 8 -1.54457 1
gene 2 4 7 1.04855 0 9 1.04855 1
gene 1 5 7 0.357707 0 10 0.357707 1
genomeend 15

/* Organism #16 Fitness: 3 Error: 0 */
genomestart 16
trait 1 0.541816 0 0.372677 0 0 0 0 0 
trait 2 0.2 0 0 0 0 0 0 0 
trait 3 0.3 0 0 0 0 0 0 0 
node 1 1 1 3
node 2 3 1 1
node 3 2 1 1
node 4 1 1 1
node 5 1 1 1
node 6 3 0 2
node 7 2 0 2
gene 3 1 6 0.91937 0 1 0.91937 1
gene 1 2 6 0.0599689 0 2 0.0599689 1
gene 2 3 6 0.11713 0 3 0.11713 1
gene 2 4 6 -0.359874 0 4 -0.359874 1
gene 1 5 6 -0.105106 0 5 -0.105106 1
gene 2 1 7 -0.966552 0 6 -0.966552 1
gene 2 2 7 -0.520524 0 7 -0.520524 1
gene 2 3 7 -0.61681 0 8 -0.61681 1
gene 1 4 7 -0.442885 0 9 -0.442885 1
gene 2 5 7 0.970061 0 10 0.970061 1
genomeend 16

/* Organism #17 Fitness: 14 Error: 0 */
genomestart 17
trait 1 0.1 0 0 0 0 0 0 0 
trait 2 0.2 0 0 0 0 0 0 0 
trait 3 0.3 0 0 0 0 0 0 0 
node 1 1 1 3
node 2 3 1 1
node 3 1 1 1
node 4 2 1 1
node 5 1 1 1
node 6 1 0 2
node 7 3 0 2
gene 2 1 6 -0.193426 0 1 -0.193426 1
gene 3 2 6 -0.0100024 0 2 -0.0100024 1
gene 2 3 6 0.159909 0 3 0.159909 1
gene 3 4 6 -0.102718 0 4 -0.102718 1
gene 1 5 6 -0.103038 0 5 -0.103038 1
gene 1 1 7 0.0532777 0 6 0.0532777 1
gene 1 2 7 -0.00883511 0 7 -0.00883511 1
gene 1 3 7 -0.253273 0 8 -0.253273 1
gene 3 4 7 0.170736 0 9 0.170736 1
gene 2 5 7 0.120304 0 10 0.120304 1
genomeend 17

/* Organism #18 Fitness: 3 Error: 0 */
genomestart 18
trait 1 0.1 0 0 0 0 0 0 0 
trait 2 0.2 0 0 0 0 0 0 0 
trait 3 0.3 0 0 0 0 0 0 0 
node 1 1 1 3
node 2 3 1 1
node 3 2 1 1
node 4 1 1 1
node 5 3 1 1
node 6 3 0 2
node 7 1 0 2
gene 2 1 6 -0.814692 0 1 -0.814692 1
gene 3 2 6 -0.70745 0 2 -0.70745 1
gene 2 3 6 0.662816 0 3 0.662816 1
gene 1 4 6 0.669164 0 4 0.669164 1
gene 1 5 6 -0.503555 0 5 -0.503555 1
gene 3 1 7 -0.636265 0 6 -0.636265 1
gene 2 2 7 1.47858 0 7 1.47858 1
gene 3 3 7 0.444441 0 8 0.444441 1
gene 3 4 7 -1.16179 0 9 -1.16179 1
gene 3 5 7 -0.233283 0 10 -0.233283 1
gene 2 7 7 0.908048 1 81 0.908048 1
genomeend 18

/* Organism #19 Fitness: 14 Error: 0 */
genomestart 19
trait 1 0 0 0 0 0 0 0 0 
trait 2 0.2 0 0 0 0 0 0 0 
trait 3 0.3 0 0 0 0 0 0 0 
node 1 1 1 3
node 2 1 1 1
node 3 3 1 1
node 4 3 1 1
node 5 2 1 1
node 6 1 0 2
node 7 2 0 2
gene 2 1 6 -0.127262 0 1 -0.127262 1
gene 3 2 6 0.652913 0 2 0.652913 1
gene 3 3 6 -0.484329 0 3 -0.484329 1
gene 3 4 6 -0.745628 0 4 -0.745628 1
gene 3 5 6 -0.42317 0 5 -0.42317 1
gene 2 1 7 -0.633961 0 6 -0.633961 1
gene 1 2 7 -0.198828 0 7 -0.198828 1
gene 3 3 7 0.420209 0 8 0.420209 1
gene 1 4 7 1.70421 0 9 1.70421 1
gene 1 5 7 -0.746086 0 10 -0.746086 1
genomeend 19

/* Organism #20 Fitness: 13 Error: 0 */
genomestart 20
trait 1 0.1 0 0 0 0 0 0 0 
trait 2 0.2 0 0 0 0 0 0 0 
trait 3 0.3 0 0 0 0 0 0 0 
node 1 2 1 3
node 2 1 1 1
node 3 1 1 1
node 4 1 1 1
node 5 1 1 1
node 6 1 0 2
node 7 2 0 2
gene 1 1 6 0.518143 0 1 0.518143 1
gene 1 2 6 0.266549 0 2 0.266549 1
gene 2 3 6 0.706839 0 3 0.706839 1
gene 1 4 6 0.329447 0 4 0.329447 1
gene 1 5 6 -0.161931 0 5 -0.161931 1
gene 2 1 7 0.286416 0 6 0.286416 1
gene 1 2 7 0.0466628 0 7 0.0466628 1
gene 3 3 7 0.283639 0 8 0.283639 1
gene 1 4 7 -0.214148 0 9 -0.214148 1
gene 3 5 7 -0.0796533 0 10 -0.0796533 1
gene 3 7 6 -0.185339 0 82 -0.185339 1
genomeend 20

/* Organism #21 Fitness: 12 Error: 0 */
genomestart 21
trait 1 0.1 0 0 0 0 0 0 0 
trait 2 0.2 0 0 0 0 0 0 0 
trait 3 0.3 0 0 0 0 0 0 0 
node 1 1 1 3
node 2 2 1 1
node 3 2 1 1
node 4 3 1 1
node 5 1 1 1
node 6 1 0 2
node 7 1 0 2
gene 1 1 6 -0.809503 0 1 -0.809503 1
gene 3 2 6 0.497757 0 2 0.497757 1
gene 1 3 6 -0.504349 0 3 -0.504349 1
gene 3 4 6 0.922849 0 4 0.922849 1
gene 1 5 6 -0.682119 0 5 -0.682119 1
gene 3 1 7 0.880642 0 6 0.880642 1
gene 1 2 7 0.100925 0 7 0.100925 1
gene 3 3 7 -1.82553 0 8 -1.82553 1
gene 2 4 7 0.9635 0 9 0.9635 1
gene 1 5 7 0.500931 0 10 0.500931 1
gene 2 6 7 -0.28663 0 80 0 1
genomeend 21

/* Organism #22 Fitness: 5 Error: 0 */
genomestart 22
trait 1 0.1 0 0 0 0 0 0 0 
trait 2 0.2 0 0 0 0 0 0 0 
trait 3 0.3 0 0 0 0 0 0 0 
node 1 3 1 3
node 2 1 1 1
node 3 1 1 1
node 4 3 1 1
node 5 1 1 1
node 6 2 0 2
node 7 2 0 2
gene 3 1 6 -0.50737 0 1 -0.50737 1
gene 3 2 6 0.0677206 0 2 0.0677206 1
gene 1 3 6 -0.897122 0 3 -0.897122 1
gene 3 4 6 0.594653 0 4 0.594653 1
gene 1 5 6 -0.58208 0 5 -0.58208 1
gene 1 1 7 0.0580462 0 6 0.0580462 1
gene 2 2 7 -0.840724 0 7 -0.840724 1
gene 3 3 7 0.165807 0 8 0.165807 1
gene 2 4 7 -0.271737 0 9 -0.271737 1
gene 1 5 7 -0.963744 0 10 -0.963744 1
genomeend 22

/* Organism #23 Fitness: 14 Error: 0 */
genomestart 23
trait 1 0.1 0 0 0 0 0 0 0 
trait 2 0.2 0 0 0 0 0 0 0 
trait 3 0.3 0 0 0 0 0 0 0 
node 1 1 1 3
node 2 1 1 1
node 3 2 1 1
node 4 2 1 1
node 5 1 1 1
node 6 1 0 2
node 7 2 0 2
gene 3 1 6 -0.320536 0 1 -0.320536 1
gene 3 2 6 -1.16941 0 2 -1.16941 1
gene 3 3 6 -0.960021 0 3 -0.960021 1
gene 2 4 6 -0.229072 0 4 -0.229072 1
gene 3 5 6 -0.893521 0 5 -0.893521 1
gene 3 1 7 -0.356456 0 6 -0.356456 1
gene 3 2 7 -1.20481 0 7 -1.20481 1
gene 1 3 7 -0.098056 0 8 -0.098056 1
gene 3 4 7 0.796442 0 9 0.796442 1
gene 3 5 7 0.35374 0 10 0.35374 1
gene 3 7 6 0.557543 0 12 0.557543 1
genomeend 23

/* Organism #24 Fitness: 15 Error: 0 */
genomestart 24
trait 1 0.1 0 0 0 0 0 0 0 
trait 2 0.2 0 0 0 0 0 0 0 
trait 3 0.3 0 0 0 0 0 0 0 
node 1 1 1 3
node 2 1 1 1
node 3 3 1 1
node 4 3 1 1
node 5 2 1 1
node 6 1 0 2
node 7 3 0 2
gene 1 1 6 0.911634 0 1 0.911634 1
gene 3 2 6 0.318171 0 2 0.318171 1
gene 3 3 6 0.032136 0 3 0.032136 1
gene 2 4 6 -0.692679 0 4 -0.692679 1
gene 3 5 6 -0.449919 0 5 -0.449919 1
gene 3 1 7 -0.336741 0 6 -0.336741 1
gene 3 2 7 0.00424207 0 7 0.00424207 1
gene 3 3 7 0.0249336 0 8 0.0249336 1
gene 2 4 7 -0.263878 0 9 -0.263878 1
gene 3 5 7 -0.632405 0 10 -0.632405 1
genomeend 24

/* Organism #25 Fitness: 9 Error: 0 */
genomestart 25
trait 1 0.1 0 0 0 0 0 0 0 
trait 2 0.2 0 0 0 0 0 0 0 
trait 3 0.3 0 0 0 0 0 0 0 
node 1 2 1 3
node 2 2 1 1
node 3 3 1 1
node 4 1 1 1
node 5 2 1 1
node 6 3 0 2
node 7 1 0 2
gene 3 1 6 -0.941038 0 1 -0.941038 1
gene 3 2 6 -0.897015 0 2 -0.897015 1
gene 2 3 6 -0.53753 0 3 -0.53753 1
gene 1 4 6 -1.05529 0 4 -1.05529 1
gene 2 5 6 0.210494 0 5 0.210494 1
gene 2 1 7 1.0137 0 6 1.0137 1
gene 3 2 7 -0.585368 0 7 -0.585368 1
gene 3 3 7 0.0927534 0 8 0.0927534 1
gene 3 4 7 0.0518281 0 9 0.0518281 1
gene 3 5 7 -0.00673696 0 10 -0.00673696 1
genomeend 25

/* Organism #26 Fitness: 21 Error: 0 */
genomestart 26
trait 1 0.1 0 0 0 0 0 0 0 
trait 2 0.2 0 0 0.203681 0.0384533 0 0 0.260567 
trait 3 0.3 0 0 0 0 0 0 0 
node 1 3 1 3
node 2 1 1 1
node 3 1 1 1
node 4 2 1 1
node 5 1 1 1
node 6 1 0 2
node 7 1 0 2
gene 1 1 6 -0.488784 0 1 -0.488784 1
gene 1 2 6 -0.475265 0 2 -0.475265 1
gene 1 3 6 -0.248085 0 3 -0.248085 1
gene 2 4 6 -0.161901 0 4 -0.161901 1
gene 3 5 6 -0.340663 0 5 -0.340663 1
gene 3 1 7 0.251289 0 6 0.251289 1
gene 2 2 7 -0.849651 0 7 -0.849651 1
gene 2 3 7 -0.55826 0 8 -0.55826 1
gene 1 4 7 -0.177648 0 9 -0.177648 1
gene 3 5 7 -0.119831 0 10 -0.119831 1
gene 1 6 6 -0.693594 1 83 -0.693594 1
genomeend 26

/* Organism #27 Fitness: 21 Error: 0 */
genomestart 27
trait 1 0.1 0 0 0 0 0 0 0 
trait 2 0.2 0 0 0 0 0 0 0 
trait 3 0.3 0 0 0 0 0 0 0 
node 1 2 1 3
node 2 2 1 1
node 3 1 1 1
node 4 2 1 1
node 5 3 1 1
node 6 1 0 2
node 7 2 0 2
gene 3 1 6 0.250862 0 1 0.250862 1
gene 1 2 6 1.24589 0 2 1.24589 1
gene 1 3 6 1.4254 0 3 1.4254 1
gene 2 4 6 -0.444563 0 4 -0.444563 1
gene 2 5 6 -1.34352 0 5 -1.34352 1
gene 1 1 7 -1.48323 0 6 -1.48323 1
gene 3 2 7 1.44768 0 7 1.44768 1
gene 3 3 7 0.769951 0 8 0.769951 1
gene 3 4 7 0.974578 0 9 0.974578 1
gene 1 5 7 0.766259 0 10 0.766259 1
gene 2 6 7 -1.17051 0 15 -1.17051 1
genomeend 27

/* Organism #28 Fitness: 13 Error: 0 */
genomestart 28
trait 1 0.1 0 0 0 0 0 0 0 
trait 2 0.2 0 0 0 0 0 0 0 
trait 3 0.3 0 0 0 0 0 0 0 
node 1 2 1 3
node 2 1 1 1
node 3 2 1 1
node 4 2 1 1
node 5 1 1 1
node 6 2 0 2
node 7 3 0 2
gene 2 1 6 -0.935957 0 1 -0.935957 1
gene 3 2 6 -0.114368 0 2 -0.114368 1
gene 3 3 6 0.604343 0 3 0.604343 1
gene 2 4 6 -0.997925 0 4 -0.997925 1
gene 2 5 6 1.09172 0 5 1.09172 1
gene 1 1 7 -0.203459 0 6 -0.203459 1
gene 3 2 7 -1.36123 0 7 -1.36123 1
gene 3 3 7 0.703986 0 8 0.703986 1
gene 2 4 7 0.621578 0 9 0.621578 1
gene 1 5 7 0.738578 0 10 0.738578 1
gene 2 6 7 -1.45589 0 15 -1.45589 1
genomeend 28

/* Organism #29 Fitness: 8 Error: 0 */
genomestart 29
trait 1 0.1 0 0 0 0 0 0 0 
trait 2 0.2 0 0 0 0 0 0 0 
trait 3 0.3 0 0 0 0.411481 0.133732 0 0 
node 1 2 1 3
node 2 2 1 1
node 3 2 1 1
node 4 3 1 1
node 5 1 1 1
node 6 3 0 2
node 7 3 0 2
gene 3 1 6 0.814661 0 1 0.814661 1
gene 1 2 6 0.506394 0 2 0.506394 1
gene 3 3 6 0.499802 0 3 0.499802 1
gene 3 4 6 -1.22294 0 4 -1.22294 1
gene 2 5 6 -0.368297 0 5 -0.368297 1
gene 2 1 7 -0.79342 0 6 -0.79342 1
gene 2 2 7 0.449873 0 7 0.449873 1
gene 1 3 7 0.745628 0 8 0.745628 1
gene 2 4 7 -0.312143 0 9 -0.312143 1
gene 3 5 7 0.825922 0 10 0.825922 1
gene 3 7 6 0.669881 0 12 0.669881 1
genomeend 29

/* Organism #30 Fitness: 21 Error: 0 */
genomestart 30
trait 1 0.1 0 0 0 0 0 0 0 
trait 2 0.2 0 0 0 0 0 0 0 
trait 3 0.3 0 0 0 0 0 0 0 
node 1 3 1 3
node 2 3 1 1
node 3 1 1 1
node 4 2 1 1
node 5 3 1 1
node 6 2 0 2
node 7 2 0 2
gene 3 1 6 -0.745384 0 1 -0.745384 1
gene 3 2 6 -0.744285 0 2 -0.744285 1
gene 1 3 6 -0.00930815 0 3 -0.00930815 1
gene 1 4 6 0.891018 0 4 0.891018 1
gene 1 5 6 -1.21537 0 5 -1.21537 1
gene 3 1 7 -0.0712912 0 6 -0.0712912 1
gene 3 2 7 0.226051 0 7 0.226051 1
gene 1 3 7 -0.201453 0 8 -0.201453 1
gene 1 4 7 -0.713157 0 9 -0.713157 1
gene 2 5 7 0.314859 0 10 0.314859 1
gene 3 7 6 -0.185339 0 82 0 1
genomeend 30

/* Organism #31 Fitness: 4 Error: 0 */
genomestart 31
trait 1 0.1 0 0 0 0 0 0 0 
trait 2 0.2 0 0 0 0 0 0 0 
trait 3 0.3 0 0 0 0 0 0 0 
node 1 2 1 3
node 2 1 1 1
node 3 1 1 1
node 4 1 1 1
node 5 1 1 1
node 6 1 0 2
node 7 1 0 2
gene 3 1 6 1.27967 0 1 1.27967 1
gene 3 2 6 1.09897 0 2 1.09897 1
gene 1 3 6 -0.297311 0 3 -0.297311 1
gene 3 4 6 -0.317286 0 4 -0.317286 1
gene 1 5 6 0.821986 0 5 0.821986 1
gene 1 1 7 0.0299997 0 6 0.0299997 1
gene 1 2 7 0.692495 0 7 0.692495 1
gene 1 3 7 0.108661 0 8 0.108661 1
gene 2 4 7 1.33415 0 9 1.33415 1
gene 2 5 7 -0.223029 0 10 -0.223029 1
genomeend 31

/* Organism #32 Fitness: 16 Error: 0 */
genomestart 32
trait 1 0.1 0 0 0 0 0 0 0 
trait 2 0.2 0 0 0 0 0 0 0 
trait 3 0.3 0 0 0 0 0 0 0 
node 1 1 1 3
node 2 3 1 1
node 3 3 1 1
node 4 2 1 1
node 5 3 1 1
node 6 1 0 2
node 7 3 0 2
gene 1 1 6 0.69216 0 1 0.69216 1
gene 2 2 6 -0.670949 0 2 -0.670949 1
gene 2 3 6 0.478927 0 3 0.478927 1
gene 2 4 6 -0.665334 0 4 -0.665334 1
gene 2 5 6 1.00729 0 5 1.00729 1
gene 1 1 7 -0.698386 0 6 -0.698386 1
gene 2 2 7 0.569597 0 7 0.569597 1
gene 2 3 7 0.421155 0 8 0.421155 1
gene 2 4 7 1.03574 0 9 1.03574 1
gene 2 5 7 0.693625 0 10 0.693625 1
genomeend 32

/* Organism #33 Fitness: 47 Error: 0 */
genomestart 33
trait 1 0.1 0 0 0 0 0 0 0 
trait 2 0.2 0 0 0 0 0 0 0 
trait 3 0.3 0 0 0 0 0 0 0 
node 1 2 1 3
node 2 3 1 1
node 3 3 1 1
node 4 1 1 1
node 5 1 1 1
node 6 2 0 2
node 7 2 0 2
gene 3 1 6 0.425306 0 1 0.425306 1
gene 2 2 6 -0.246055 0 2 -0.246055 1
gene 2 3 6 0.64565 0 3 0.64565 1
gene 1 4 6 0.14536 0 4 0.14536 1
gene 2 5 6 -0.513031 0 5 -0.513031 1
gene 1 1 7 0.203543 0 6 0.203543 1
gene 2 2 7 0.437452 0 7 0.437452 1
gene 3 3 7 -0.340617 0 8 -0.340617 1
gene 2 4 7 0.920866 0 9 0.920866 1
gene 2 5 7 0.533738 0 10 0.533738 1
gene 2 6 7 -0.28663 0 80 0 1
genomeend 33

/* Organism #34 Fitness: 7 Error: 0 */
genomestart 34
trait 1 0.1 0 0 0 0 0 0 0 
trait 2 0.2 0 0 0 0 0 0 0 
trait 3 0.3 0 0 0 0 0 0 0 
node 1 3 1 3
node 2 1 1 1
node 3 2 1 1
node 4 2 1 1
node 5 2 1 1
node 6 1 0 2
node 7 3 0 2
gene 3 1 6 -0.12534 0 1 -0.12534 1
gene 3 2 6 -0.0207526 0 2 -0.0207526 1
gene 3 3 6 1.54201 0 3 1.54201 1
gene 1 4 6 0.457015 0 4 0.457015 1
gene 1 5 6 -0.523728 0 5 -0.523728 1
gene 3 1 7 0.733604 0 6 0.733604 1
gene 3 2 7 -2.11637 0 7 -2.11637 1
gene 3 3 7 -1.14383 0 8 -1.14383 1
gene 1 4 7 1.91321 0 9 1.91321 1
gene 1 5 7 -0.969237 0 10 -0.969237 1
genomeend 34

/* Organism #35 Fitness: 4 Error: 0 */
genomestart 35
trait 1 0.1 0 0 0 0 0 0 0 
trait 2 0.2 0 0 0 0 0 0 0 
trait 3 0.3 0 0 0 0 0 0 0 
node 1 3 1 3
node 2 3 1 1
node 3 3 1 1
node 4 1 1 1
node 5 1 1 1
node 6 3 0 2
node 7 3 0 2
gene 1 1 6 -0.270089 0 1 -0.270089 1
gene 1 2 6 0.556871 0 2 0.556871 1
gene 1 3 6 -0.325846 0 3 -0.325846 1
gene 2 4 6 -0.336711 0 4 -0.336711 1
gene 1 5 6 -0.295053 0 5 -0.295053 1
gene 3 1 7 0.363964 0 6 0.363964 1
gene 1 2 7 0.0195013 0 7 0.0195013 1
gene 2 3 7 0.001648 0 8 0.001648 1
gene 3 4 7 -0.0776696 0 9 -0.0776696 1
gene 3 5 7 0.758995 0 10 0.758995 1
gene 3 7 6 0.135838 0 12 0.135838 1
genomeend 35

/* Organism #36 Fitness: 7 Error: 0 */
genomestart 36
trait 1 0.1 0 0 0 0 0 0 0 
trait 2 0.2 0.215674 0.59566 0 0 0 0 0.123753 
trait 3 0.3 0 0 0 0 0 0 0 
node 1 2 1 3
node 2 2 1 1
node 3 1 1 1
node 4 1 1 1
node 5 3 1 1
node 6 3 0 2
node 7 3 0 2
gene 2 1 6 -0.16689 0 1 -0.16689 1
gene 2 2 6 -0.182928 0 2 -0.182928 1
gene 1 3 6 -0.506638 0 3 -0.506638 1
gene 1 4 6 0.434553 0 4 0.434553 1
gene 3 5 6 0.11832 0 5 0.11832 1
gene 3 1 7 -0.266839 0 6 -0.266839 1
gene 3 2 7 -0.558046 0 7 -0.558046 1
gene 1 3 7 0.934904 0 8 0.934904 1
gene 3 4 7 -0.106723 0 9 -0.106723 1
gene 2 5 7 0.128697 0 10 0.128697 1
genomeend 36

/* Organism #37 Fitness: 11 Error: 0 */
genomestart 37
trait 1 0.1 0 0 0 0 0 0 0 
trait 2 0.2 0 0 0 0 0 0 0 
trait 3 0.3 0 0 0 0 0 0 0 
node 1 1 1 3
node 2 3 1 1
node 3 3 1 1
node 4 1 1 1
node 5 3 1 1
node 6 1 0 2
node 7 1 0 2
gene 3 1 6 1.65369 0 1 1.65369 1
gene 3 2 6 -0.635136 0 2 -0.635136 1
gene 3 3 6 0.0863521 0 3 0.0863521 1
gene 2 4 6 -0.837443 0 4 -0.837443 1
gene 3 5 6 -0.0652181 0 5 -0.0652181 1
gene 1 1 7 -0.955687 0 6 -0.955687 1
gene 2 2 7 -0.7219 0 7 -0.7219 1
gene 1 3 7 0.0213172 0 8 0.0213172 1
gene 3 4 7 -1.22532 0 9 -1.22532 1
gene 1 5 7 0.297143 0 10 0.297143 1
gene 3 7 6 -0.319407 0 12 -0.319407 1
genomeend 37

/* Organism #38 Fitness: 18 Error: 0 */
genomestart 38
trait 1 0.1 0 0 0 0 0 0 0 
trait 2 0.2 0 0 0 0 0 0 0 
trait 3 0.3 0 0 0 0 0 0 0 
node 1 2 1 3
node 2 2 1 1
node 3 3 1 1
node 4 3 1 1
node 5 1 1 1
node 6 1 0 2
node 7 2 0 2
gene 3 1 6 1.05573 0 1 1.05573 1
gene 3 2 6 0.684469 0 2 0.684469 1
gene 1 3 6 -0.215369 0 3 -0.215369 1
gene 3 4 6 -0.471694 0 4 -0.471694 1
gene 3 5 6 -0.672658 0 5 -0.672658 1
gene 1 1 7 -0.378735 0 6 -0.378735 1
gene 2 2 7 -1.19224 0 7 -1.19224 1
gene 3 3 7 0.287942 0 8 0.287942 1
gene 1 4 7 0.72747 0 9 0.72747 1
gene 1 5 7 -0.138524 0 10 -0.138524 1
gene 3 7 6 -0.185339 0 82 0 1
genomeend 38

/* Organism #39 Fitness: 15 Error: 0 */
genomestart 39
trait 1 0.1 0 0 0 0 0 0 0 
trait 2 0.2 0 0 0 0 0 0 0 
trait 3 0.3 0 0 0 0 0 0 0 
node 1 3 1 3
node 2 2 1 1
node 3 2 1 1
node 4 1 1 1
node 5 1 1 1
node 6 1 0 2
node 7 2 0 2
gene 2 1 6 0.117695 0 1 0.117695 1
gene 3 2 6 0.214805 0 2 0.214805 1
gene 2 3 6 0.000350963 0 3 0.000350963 1
gene 1 4 6 -0.325869 0 4 -0.325869 1
gene 1 5 6 0.40389 0 5 0.40389 1
gene 1 1 7 -0.412198 0 6 -0.412198 1
gene 1 2 7 0.133488 0 7 0.133488 1
gene 1 3 7 -0.125019 0 8 -0.125019 1
gene 3 4 7 0.576685 0 9 0.576685 1
gene 3 5 7 0.105052 0 10 0.105052 1
genomeend 39

/* Organism #40 Fitness: 2 Error: 0 */
genomestart 40
trait 1 0.1 0 0 0 0 0 0 0 
trait 2 0.2 0 0 0 0 0 0 0 
trait 3 0.3 0 0 0 0 0 0 0 
node 1 2 1 3
node 2 2 1 1
node 3 2 1 1
node 4 1 1 1
node 5 2 1 1
node 6 3 0 2
node 7 3 0 2
gene 3 1 6 -0.260498 0 1 -0.260498 1
gene 3 2 6 -0.36034 0 2 -0.36034 1
gene 3 3 6 0.184973 0 3 0.184973 1
gene 1 4 6 -0.127476 0 4 -0.127476 1
gene 3 5 6 -0.715926 0 5 -0.715926 1
gene 2 1 7 0.62917 0 6 0.62917 1
gene 1 2 7 -0.0299692 0 7 -0.0299692 1
gene 3 3 7 0.493759 0 8 0.493759 1
gene 3 4 7 -1.08749 0 9 -1.08749 1
gene 1 5 7 0.563196 0 10 0.563196 1
genomeend 40

/* Organism #41 Fitness: 6 Error: 0 */
genomestart 41
trait 1 0.1 0 0 0 0 0 0 0 
trait 2 0.2 0 0 0 0 0 0 0 
trait 3 0.3 0 0 0 0 0 0 0 
node 1 1 1 3
node 2 3 1 1
node 3 2 1 1
node 4 1 1 1
node 5 3 1 1
node 6 3 0 2
node 7 2 0 2
gene 1 1 6 -0.484542 0 1 -0.484542 1
gene 2 2 6 0.462004 0 2 0.462004 1
gene 2 3 6 0.171255 0 3 0.171255 1
gene 1 4 6 -0.200156 0 4 -0.200156 1
gene 3 5 6 -0.0463881 0 5 -0.0463881 1
gene 1 1 7 0.0218513 0 6 0.0218513 1
gene 1 2 7 -0.0408643 0 7 -0.0408643 1
gene 2 3 7 0.104892 0 8 0.104892 1
gene 3 4 7 0.814631 0 9 0.814631 1
gene 3 5 7 0.891873 0 10 0.891873 1
genomeend 41

/* Organism #42 Fitness: 32 Error: 0 */
genomestart 42
trait 1 0.1 0 0 0 0 0 0 0 
trait 2 0.2 0 0 0 0 0 0 0 
trait 3 0.3 0 0 0 0 0 0 0 
node 1 2 1 3
node 2 3 1 1
node 3 1 1 1
node 4 2 1 1
node 5 3 1 1
node 6 3 0 2
node 7 2 0 2
gene 2 1 6 -0.0240791 0 1 -0.0240791 1
gene 1 2 6 0.150319 0 2 0.150319 1
gene 1 3 6 -0.297494 0 3 -0.297494 1
gene 2 4 6 0.0144963 0 4 0.0144963 1
gene 2 5 6 -0.868496 0 5 -0.868496 1
gene 2 1 7 0.395672 0 6 0.395672 1
gene 3 2 7 -0.940611 0 7 -0.940611 1
gene 3 3 7 -0.560717 0 8 -0.560717 1
gene 1 4 7 0.746361 0 9 0.746361 1
gene 3 5 7 0.0429395 0 10 0.0429395 1
gene 2 6 7 -0.588672 0 15 0 1
genomeend 42

/* Organism #43 Fitness: 36 Error: 0 */
genomestart 43
trait 1 0.1 0 0 0 0 0 0 0 
trait 2 0.2 0 0 0 0 0 0 0 
trait 3 0.3 0 0 0 0 0 0 0 
node 1 2 1 3
node 2 1 1 1
node 3 3 1 1
node 4 1 1 1
node 5 3 1 1
node 6 2 0 2
node 7 1 0 2
gene 1 1 6 0.164663 0 1 0.164663 1
gene 2 2 6 -0.544046 0 2 -0.544046 1
gene 2 3 6 0.584239 0 3 0.584239 1
gene 2 4 6 -0.0999023 0 4 -0.0999023 1
gene 2 5 6 -0.0840098 0 5 -0.0840098 1
gene 2 1 7 -0.393254 0 6 -0.393254 1
gene 2 2 7 0.096614 0 7 0.096614 1
gene 1 3 7 0.303751 0 8 0.303751 1
gene 3 4 7 0.0744881 0 9 0.0744881 1
gene 2 5 7 0.227813 0 10 0.227813 1
genomeend 43

/* Organism #44 Fitness: 3 Error: 0 */
genomestart 44
trait 1 0.1 0 0 0 0 0 0 0 
trait 2 0.2 0 0 0 0 0 0 0 
trait 3 0.3 0 0 0 0 0 0 0 
node 1 3 1 3
node 2 3 1 1
node 3 1 1 1
node 4 3 1 1
node 5 3 1 1
node 6 3 0 2
node 7 2 0 2
gene 2 1 6 0.244942 0 1 0.244942 1
gene 2 2 6 1.87384 0 2 1.87384 1
gene 2 3 6 0.418409 0 3 0.418409 1
gene 2 4 6 -0.354137 0 4 -0.354137 1
gene 3 5 6 1.14054 0 5 1.14054 1
gene 3 1 7 -0.180059 0 6 -0.180059 1
gene 3 2 7 -0.367107 0 7 -0.367107 1
gene 1 3 7 0.561541 0 8 0.561541 1
gene 1 4 7 -0.39552 0 9 -0.39552 1
gene 2 5 7 -0.884579 0 10 -0.884579 1
gene 3 7 6 1.64449 0 12 1.64449 1
genomeend 44

/* Organism #45 Fitness: 4 Error: 0 */
genomestart 45
trait 1 0.1 0 0 0 0 0 0 0 
trait 2 0.2 0 0 0 0 0 0 0 
trait 3 0.3 0 0 0 0 0 0 0 
node 1 3 1 3
node 2 2 1 1
node 3 3 1 1
node 4 3 1 1
node 5 3 1 1
node 6 2 0 2
node 7 1 0 2
gene 1 1 6 -0.65215 0 1 -0.65215 1
gene 1 2 6 -0.705512 0 2 -0.705512 1
gene 2 3 6 -0.0707724 0 3 -0.0707724 1
gene 2 4 6 -0.0765709 0 4 -0.0765709 1
gene 2 5 6 0.284875 0 5 0.284875 1
gene 1 1 7 0.301523 0 6 0.301523 1
gene 3 2 7 0.605701 0 7 0.605701 1
gene 1 3 7 -0.871838 0 8 -0.871838 1
gene 2 4 7 0.570086 0 9 0.570086 1
gene 2 5 7 -0.857234 0 10 -0.857234 1
genomeend 45

/* Organism #46 Fitness: 9 Error: 0 */
genomestart 46
trait 1 0.1 0 0 0 0 0 0 0 
trait 2 0.2 0 0 0 0 0 0 0 
trait 3 0.3 0 0 0 0 0 0 0 
node 1 1 1 3
node 2 2 1 1
node 3 2 1 1
node 4 1 1 1
node 5 2 1 1
node 6 3 0 2
node 7 2 0 2
gene 2 1 6 -0.418088 0 1 -0.418088 1
gene 1 2 6 0.326121 0 2 0.326121 1
gene 2 3 6 0.627598 0 3 0.627598 1
gene 1 4 6 -0.82519 0 4 -0.82519 1
gene 3 5 6 0.0269173 0 5 0.0269173 1
gene 1 1 7 0.585391 0 6 0.585391 1
gene 1 2 7 -0.119007 0 7 -0.119007 1
gene 2 3 7 -0.187567 0 8 -0.187567 1
gene 3 4 7 0.279962 0 9 0.279962 1
gene 1 5 7 0.3464 0 10 0.3464 1
gene 1 7 7 0.709037 1 55 0.709037 1
genomeend 46

/* Organism #47 Fitness: 10 Error: 0 */
genomestart 47
trait 1 0.1 0 0 0 0 0 0 0 
trait 2 0.2 0 0 0 0 0 0 0 
trait 3 0.3 0 0 0 0 0 0 0 
node 1 1 1 3
node 2 3 1 1
node 3 3 1 1
node 4 1 1 1
node 5 3 1 1
node 6 3 0 2
node 7 1 0 2
gene 2 1 6 0.0174337 0 1 0.0174337 1
gene 1 2 6 0.0545061 0 2 0.0545061 1
gene 1 3 6 0.594073 0 3 0.594073 1
gene 2 4 6 0.569651 0 4 0.569651 1
gene 3 5 6 0.256012 0 5 0.256012 1
gene 3 1 7 0.392743 0 6 0.392743 1
gene 2 2 7 0.376499 0 7 0.376499 1
gene 1 3 7 0.0484939 0 8 0.0484939 1
gene 1 4 7 0.202048 0 9 0.202048 1
gene 1 5 7 -0.20555 0 10 -0.20555 1
genomeend 47

/* Organism #48 Fitness: 2 Error: 0 */
genomestart 48
trait 1 0.1 0 0 0 0 0 0 0 
trait 2 0.2 0 0 0 0 0 0 0 
trait 3 0.3 0 0 0 0 0 0 0 
node 1 3 1 3
node 2 2 1 1
node 3 1 1 1
node 4 1 1 1
node 5 3 1 1
node 6 3 0 2
node 7 1 0 2
gene 1 1 6 -0.238609 0 1 -0.238609 1
gene 1 2 6 0.259484 0 2 0.259484 1
gene 1 3 6 0.961272 0 3 0.961272 1
gene 2 4 6 -1.41159 0 4 -1.41159 1
gene 2 5 6 0.151357 0 5 0.151357 1
gene 3 1 7 -0.0921049 0 6 -0.0921049 1
gene 1 2 7 -0.576769 0 7 -0.576769 1
gene 3 3 7 -0.813257 0 8 -0.813257 1
gene 3 4 7 0.367718 0 9 0.367718 1
gene 1 5 7 -0.00393689 0 10 -0.00393689 1
gene 2 6 7 -0.28663 0 80 0 1
genomeend 48

/* Organism #49 Fitness: 11 Error: 0 */
genomestart 49
trait 1 0.1 0 0 0 0 0 0 0 
trait 2 0.2 0 0 0 0 0 0 0 
trait 3 0.3 0 0 0 0 0 0 0 
node 1 1 1 3
node 2 1 1 1
node 3 3 1 1
node 4 3 1 1
node 5 3 1 1
node 6 2 0 2
node 7 2 0 2
gene 2 1 6 0.404706 0 1 0.404706 1
gene 1 2 6 -0.475845 0 2 -0.475845 1
gene 1 3 6 -0.225959 0 3 -0.225959 1
gene 1 4 6 0.378414 0 4 0.378414 1
gene 3 5 6 0.209387 0 5 0.209387 1
gene 3 1 7 -0.771722 0 6 -0.771722 1
gene 3 2 7 1.27122 0 7 1.27122 1
gene 3 3 7 0.715903 0 8 0.715903 1
gene 2 4 7 0.440199 0 9 0.440199 1
gene 1 5 7 -0.563448 0 10 -0.563448 1
genomeend 49

/* Organism #50 Fitness: 8 Error: 0 */
genomestart 50
trait 1 0.1 0 0 0 0 0 0 0 
trait 2 0.2 0 0 0 0 0 0 0 
trait 3 0.3 0 0 0 0 0 0 0 
node 1 3 1 3
node 2 2 1 1
node 3 2 1 1
node 4 2 1 1
node 5 3 1 1
node 6 2 0 2
node 7 1 0 2
gene 2 1 6 0.524842 0 1 0.524842 1
gene 2 2 6 -0.447737 0 2 -0.447737 1
gene 2 3 6 0.181555 0 3 0.181555 1
gene 2 4 6 1.24267 0 4 1.24267 1
gene 2 5 6 0.416639 0 5 0.416639 1
gene 3 1 7 -1.21653 0 6 -1.21653 1
gene 1 2 7 1.33787 0 7 1.33787 1
gene 1 3 7 1.12571 0 8 1.12571 1
gene 3 4 7 0.421415 0 9 0.421415 1
gene 2 5 7 -0.117588 0 10 -0.117588 1
genomeend 50

/* Organism #51 Fitness: 7 Error: 0 */
genomestart 51
trait 1 0.926228 0 0 0 0 0 0 0.302194 
trait 2 0.2 0 0 0 0 0 0 0 
trait 3 0.3 0 0 0 0 0 0 0 
node 1 1 1 3
node 2 3 1 1
node 3 2 1 1
node 4 1 1 1
node 5 1 1 1
node 6 2 0 2
node 7 1 0 2
gene 2 1 6 0.829432 0 1 0.829432 1
gene 2 2 6 -0.843989 0 2 -0.843989 1
gene 2 3 6 -1.31535 0 3 -1.31535 1
gene 3 4 6 -0.651967 0 4 -0.651967 1
gene 1 5 6 -0.150212 0 5 -0.150212 1
gene 3 1 7 -0.0945463 0 6 -0.0945463 1
gene 2 2 7 -0.425489 0 7 -0.425489 1
gene 2 3 7 1.33569 0 8 1.33569 1
gene 2 4 7 -0.13155 0 9 -0.13155 1
gene 2 5 7 0.184637 0 10 0.184637 1
genomeend 51

/* Organism #52 Fitness: 55 Error: 0 */
genomestart 52
trait 1 0.1 0 0 0 0 0 0 0 
trait 2 0.2 0 0 0 0 0 0 0 
trait 3 0.3 0.988647 0.595019 0.162572 0.583087 0 0 0 
node 1 1 1 3
node 2 2 1 1
node 3 2 1 1
node 4 2 1 1
node 5 3 1 1
node 6 1 0 2
node 7 2 0 2
gene 2 1 6 1.77356 0 1 1.77356 1
gene 3 2 6 -0.0203864 0 2 -0.0203864 1
gene 3 3 6 -0.176428 0 3 -0.176428 1
gene 1 4 6 -1.0299 0 4 -1.0299 1
gene 2 5 6 -0.565622 0 5 -0.565622 1
gene 2 1 7 1.23669 0 6 1.23669 1
gene 1 2 7 0.77295 0 7 0.77295 1
gene 2 3 7 -0.29255 0 8 -0.29255 1
gene 3 4 7 0.262055 0 9 0.262055 1
gene 1 5 7 -0.158727 0 10 -0.158727 1
genomeend 52

/* Organism #53 Fitness: 8 Error: 0 */
genomestart 53
trait 1 0.1 0 0 0 0 0 0 0 
trait 2 0.2 0 0 0 0 0 0 0 
trait 3 0.3 0 0 0 0 0 0 0 
node 1 3 1 3
node 2 1 1 1
node 3 3 1 1
node 4 1 1 1
node 5 3 1 1
node 6 3 0 2
node 7 2 0 2
gene 2 1 6 -0.840999 0 1 -0.840999 1
gene 1 2 6 0.448042 0 2 0.448042 1
gene 2 3 6 -0.432966 0 3 -0.432966 1
gene 3 4 6 -0.10947 0 4 -0.10947 1
gene 1 5 6 -1.24195 0 5 -1.24195 1
gene 1 1 7 -0.649525 0 6 -0.649525 1
gene 3 2 7 0.557726 0 7 0.557726 1
gene 1 3 7 0.365795 0 8 0.365795 1
gene 3 4 7 1.08969 0 9 1.08969 1
gene 3 5 7 1.66506 0 10 1.66506 1
genomeend 53

/* Organism #54 Fitness: 30 Error: 0 */
genomestart 54
trait 1 0.1 0 0 0 0 0 0 0 
trait 2 0.2 0.26043 0 0 0 0 0 0 
trait 3 0.3 0 0 0 0 0 0 0 
node 1 2 1 3
node 2 3 1 1
node 3 1 1 1
node 4 2 1 1
node 5 3 1 1
node 6 3 0 2
node 7 2 0 2
gene 1 1 6 -0.229591 0 1 -0.229591 1
gene 1 2 6 0.42497 0 2 0.42497 1
gene 2 3 6 -0.616871 0 3 -0.616871 1
gene 1 4 6 -0.279427 0 4 -0.279427 1
gene 2 5 6 -0.868496 0 5 -0.868496 1
gene 2 1 7 0.395672 0 6 0.395672 1
gene 3 2 7 -0.749138 0 7 -0.749138 1
gene 3 3 7 -0.9729 0 8 -0.9729 1
gene 1 4 7 0.746361 0 9 0.746361 1
gene 3 5 7 0.0429395 0 10 0.0429395 1
gene 3 7 6 0.669881 0 12 0 1
genomeend 54

/* Organism #55 Fitness: 7 Error: 0 */
genomestart 55
trait 1 0.1 0 0 0 0 0 0 0 
trait 2 0.492688 0 0 0 0.373257 0 0 0 
trait 3 0.3 0 0 0 0 0 0 0 
node 1 3 1 3
node 2 3 1 1
node 3 2 1 1
node 4 1 1 1
node 5 2 1 1
node 6 1 0 2
node 7 1 0 2
gene 3 1 6 1.65884 0 1 1.65884 1
gene 1 2 6 -1.07685 0 2 -1.07685 1
gene 3 3 6 -0.230499 0 3 -0.230499 1
gene 2 4 6 1.22741 0 4 1.22741 1
gene 1 5 6 -0.763077 0 5 -0.763077 1
gene 3 1 7 -0.735611 0 6 -0.735611 1
gene 2 2 7 -0.158063 0 7 -0.158063 1
gene 1 3 7 -0.272301 0 8 -0.272301 1
gene 3 4 7 1.09607 0 9 1.09607 1
gene 2 5 7 -0.218314 0 10 -0.218314 1
genomeend 55

/* Organism #56 Fitness: 45 Error: 0 */
genomestart 56
trait 1 0.05 0 0 0 0 0 0 0 
trait 2 0.2 0 0 0 0 0 0 0 
trait 3 0.3 0 0 0 0 0 0 0 
node 1 2 1 3
node 2 2 1 1
node 3 3 1 1
node 4 3 1 1
node 5 1 1 1
node 6 1 0 2
node 7 2 0 2
gene 2 1 6 -0.138112 0 1 -0.138112 1
gene 3 2 6 0.35783 0 2 0.35783 1
gene 3 3 6 0.343501 0 3 0.343501 1
gene 1 4 6 -0.014069 0 4 -0.014069 1
gene 3 5 6 -0.17101 0 5 -0.17101 1
gene 3 1 7 0.273492 0 6 0.273492 1
gene 3 2 7 -0.50679 0 7 -0.50679 1
gene 1 3 7 -0.140919 0 8 -0.140919 1
gene 1 4 7 1.09447 0 9 1.09447 1
gene 1 5 7 -0.609119 0 10 -0.609119 1
gene 3 7 7 -0.998321 1 84 -0.998321 1
genomeend 56

/* Organism #57 Fitness: 9 Error: 0 */
genomestart 57
trait 1 0.1 0 0 0 0 0 0 0 
trait 2 0.2 0 0 0 0 0 0 0 
trait 3 0.3 0 0 0 0 0 0 0 
node 1 2 1 3
node 2 1 1 1
node 3 1 1 1
node 4 3 1 1
node 5 1 1 1
node 6 1 0 2
node 7 3 0 2
gene 2 1 6 -0.15907 0 1 -0.15907 1
gene 2 2 6 0.235473 0 2 0.235473 1
gene 2 3 6 -0.532716 0 3 -0.532716 1
gene 1 4 6 0.626354 0 4 0.626354 1
gene 2 5 6 0.0253304 0 5 0.0253304 1
gene 2 1 7 -0.0660878 0 6 -0.0660878 1
gene 2 2 7 -0.0743431 0 7 -0.0743431 1
gene 1 3 7 -0.392117 0 8 -0.392117 1
gene 3 4 7 -0.532327 0 9 -0.532327 1
gene 1 5 7 0.314478 0 10 0.314478 1
gene 2 6 7 -0.28663 0 80 0 1
genomeend 57

/* Organism #58 Fitness: 9 Error: 0 */
genomestart 58
trait 1 0.1 0 0 0 0 0 0 0 
trait 2 0.2 0 0 0 0 0 0 0 
trait 3 0.3 0 0.321238 0.0271767 0 0 0.173605 0 
node 1 2 1 3
node 2 3 1 1
node 3 2 1 1
node 4 3 1 1
node 5 1 1 1
node 6 2 0 2
node 7 3 0 2
gene 1 1 6 0.395276 0 1 0.395276 1
gene 3 2 6 0.51442 0 2 0.51442 1
gene 1 3 6 0.12946 0 3 0.12946 1
gene 2 4 6 -0.101505 0 4 -0.101505 1
gene 2 5 6 -0.527665 0 5 -0.527665 1
gene 3 1 7 0.499069 0 6 0.499069 1
gene 1 2 7 0.888272 0 7 0.888272 1
gene 2 3 7 1.07981 0 8 1.07981 1
gene 3 4 7 0.273965 0 9 0.273965 1
gene 3 5 7 -1.13477 0 10 -1.13477 1
genomeend 58

/* Organism #59 Fitness: 4 Error: 0 */
genomestart 59
trait 1 0.1 0 0 0 0 0 0 0 
trait 2 0.2 0 0 0 0 0 0 0 
trait 3 0.3 0 0 0 0 0 0 0 
node 1 2 1 3
node 2 3 1 1
node 3 1 1 1
node 4 1 1 1
node 5 1 1 1
node 6 2 0 2
node 7 1 0 2
gene 2 1 6 -1.45648 0 1 -1.45648 1
gene 2 2 6 -1.41249 0 2 -1.41249 1
gene 3 3 6 1.31544 0 3 1.31544 1
gene 2 4 6 0.110935 0 4 0.110935 1
gene 3 5 6 -1.07596 0 5 -1.07596 1
gene 1 1 7 -0.244942 0 6 -0.244942 1
gene 1 2 7 0.528382 0 7 0.528382 1
gene 1 3 7 0.374859 0 8 0.374859 1
gene 2 4 7 -0.914243 0 9 -0.914243 1
gene 3 5 7 0.714164 0 10 0.714164 1
gene 1 6 6 -0.293222 1 71 -0.293222 1
genomeend 59

/* Organism #60 Fitness: 4 Error: 0 */
genomestart 60
trait 1 0.1 0 0 0 0 0 0 0 
trait 2 0.2 0 0 0 0 0 0 0 
trait 3 0.3 0 0 0 0 0 0 0 
node 1 2 1 3
node 2 3 1 1
node 3 2 1 1
node 4 3 1 1
node 5 2 1 1
node 6 2 0 2
node 7 3 0 2
gene 2 1 6 -1.48006 0 1 -1.48006 1
gene 3 2 6 0.146031 0 2 0.146031 1
gene 2 3 6 -1.67916 0 3 -1.67916 1
gene 3 4 6 -0.0146794 0 4 -0.0146794 1
gene 1 5 6 -0.954833 0 5 -0.954833 1
gene 1 1 7 1.47232 0 6 1.47232 1
gene 1 2 7 0.48619 0 7 0.48619 1
gene 3 3 7 0.748466 0 8 0.748466 1
gene 1 4 7 -1.05391 0 9 -1.05391 1
gene 2 5 7 -0.743217 0 10 -0.743217 1
genomeend 60

/* Organism #61 Fitness: 5 Error: 0 */
genomestart 61
trait 1 0.1 0 0 0 0 0 0 0 
trait 2 0.2 0 0 0 0 0 0 0 
trait 3 0.3 0 0 0 0 0 0 0 
node 1 1 1 3
node 2 3 1 1
node 3 2 1 1
node 4 1 1 1
node 5 3 1 1
node 6 3 0 2
node 7 1 0 2
gene 1 1 6 -0.331477 0 1 -0.331477 1
gene 3 2 6 0.458106 0 2 0.458106 1
gene 3 3 6 0.638791 0 3 0.638791 1
gene 1 4 6 -0.423719 0 4 -0.423719 1
gene 1 5 6 -0.274377 0 5 -0.274377 1
gene 2 1 7 -0.17906 0 6 -0.17906 1
gene 3 2 7 -0.00443281 0 7 -0.00443281 1
gene 2 3 7 -0.177885 0 8 -0.177885 1
gene 3 4 7 -0.210784 0 9 -0.210784 1
gene 2 5 7 -0.419301 0 10 -0.419301 1
genomeend 61

/* Organism #62 Fitness: 6 Error: 0 */
genomestart 62
trait 1 0.1 0 0 0 0 0 0 0 
trait 2 0.2 0 0 0 0 0 0 0 
trait 3 0.3 0 0 0 0 0 0 0 
node 1 1 1 3
node 2 1 1 1
node 3 3 1 1
node 4 3 1 1
node 5 1 1 1
node 6 2 0 2
node 7 1 0 2
gene 1 1 6 -0.157155 0 1 -0.157155 1
gene 3 2 6 -0.853786 0 2 -0.853786 1
gene 2 3 6 0.295007 0 3 0.295007 1
gene 3 4 6 -0.12157 0 4 -0.12157 1
gene 3 5 6 -0.537568 0 5 -0.537568 1
gene 2 1 7 0.16303 0 6 0.16303 1
gene 3 2 7 0.0100864 0 7 0.0100864 1
gene 1 3 7 -1.13958 0 8 -1.13958 1
gene 1 4 7 1.41752 0 9 1.41752 1
gene 2 5 7 -0.556749 0 10 -0.556749 1
gene 3 7 6 -0.185339 0 82 0 1
genomeend 62

/* Organism #63 Fitness: 11 Error: 0 */
genomestart 63
trait 1 0.1 0 0 0 0 0 0 0 
trait 2 0.2 0 0 0 0 0 0 0 
trait 3 0.3 0 0 0 0 0 0 0 
node 1 3 1 3
node 2 3 1 1
node 3 1 1 1
node 4 2 1 1
node 5 3 1 1
node 6 3 0 2
node 7 3 0 2
gene 3 1 6 0.861843 0 1 0.861843 1
gene 1 2 6 -0.704337 0 2 -0.704337 1
gene 2 3 6 0.731773 0 3 0.731773 1
gene 1 4 6 -0.883053 0 4 -0.883053 1
gene 1 5 6 -0.642445 0 5 -0.642445 1
gene 2 1 7 -0.9082 0 6 -0.9082 1
gene 1 2 7 0.772729 0 7 0.772729 1
gene 3 3 7 0.542802 0 8 0.542802 1
gene 1 4 7 -0.348613 0 9 -0.348613 1
gene 3 5 7 0.446547 0 10 0.446547 1
gene 3 7 6 0.669881 0 12 0 1
genomeend 63

/* Organism #64 Fitness: 4 Error: 0 */
genomestart 64
trait 1 0.1 0 0 0 0 0 0 0 
trait 2 0.2 0 0 0 0 0 0 0 
trait 3 0.3 0 0 0 0 0 0 0 
node 1 3 1 3
node 2 1 1 1
node 3 1 1 1
node 4 2 1 1
node 5 2 1 1
node 6 2 0 2
node 7 3 0 2
gene 2 1 6 0.156713 0 1 0.156713 1
gene 1 2 6 0.281533 0 2 0.281533 1
gene 1 3 6 -0.905484 0 3 -0.905484 1
gene 1 4 6 0.0927152 0 4 0.0927152 1
gene 2 5 6 0.00451674 0 5 0.00451674 1
gene 1 1 7 0.34666 0 6 0.34666 1
gene 3 2 7 -0.0907926 0 7 -0.0907926 1
gene 1 3 7 -0.952696 0 8 -0.952696 1
gene 3 4 7 -0.111759 0 9 -0.111759 1
gene 1 5 7 0.667837 0 10 0.667837 1
gene 2 6 6 -0.988403 1 69 -0.988403 1
gene 2 6 7 -0.28663 0 80 0 1
genomeend 64

/* Organism #65 Fitness: 13 Error: 0 */
genomestart 65
trait 1 0.1 0 0 0 0 0 0 0 
trait 2 0.2 0 0 0 0 0 0 0 
trait 3 0.3 0 0 0 0 0 0 0 
node 1 1 1 3
node 2 1 1 1
node 3 1 1 1
node 4 1 1 1
node 5 3 1 1
node 6 1 0 2
node 7 2 0 2
gene 2 1 6 0.0327464 0 1 0.0327464 1
gene 1 2 6 0.13358 0 2 0.13358 1
gene 1 3 6 -0.449049 0 3 -0.449049 1
gene 3 4 6 0.685064 0 4 0.685064 1
gene 2 5 6 0.707892 0 5 0.707892 1
gene 3 1 7 0.621128 0 6 0.621128 1
gene 2 2 7 0.388348 0 7 0.388348 1
gene 2 3 7 -0.622547 0 8 -0.622547 1
gene 3 4 7 0.845119 0 9 0.845119 1
gene 3 5 7 0.699286 0 10 0.699286 1
gene 3 7 6 -0.185339 0 82 0 1
genomeend 65

/* Organism #66 Fitness: 12 Error: 0 */
genomestart 66
trait 1 0.1 0 0 0 0 0 0 0 
trait 2 0.2 0 0 0 0 0 0 0 
trait 3 0.3 0 0 0 0 0 0 0 
node 1 3 1 3
node 2 2 1 1
node 3 1 1 1
node 4 2 1 1
node 5 1 1 1
node 6 3 0 2
node 7 2 0 2
gene 1 1 6 -0.437696 0 1 -0.437696 1
gene 2 2 6 -0.164846 0 2 -0.164846 1
gene 3 3 6 -0.0428632 0 3 -0.0428632 1
gene 3 4 6 -0.369488 0 4 -0.369488 1
gene 3 5 6 1.22987 0 5 1.22987 1
gene 2 1 7 -0.73513 0 6 -0.73513 1
gene 3 2 7 0.580065 0 7 0.580065 1
gene 3 3 7 0.185507 0 8 0.185507 1
gene 1 4 7 -0.386761 0 9 -0.386761 1
gene 1 5 7 -0.200278 0 10 -0.200278 1
genomeend 66

/* Organism #67 Fitness: 64 Error: 0 */
genomestart 67
trait 1 0.1 0 0 0 0 0 0 0 
trait 2 0.2 0 0 0 0 0 0 0 
trait 3 0.3 0 0 0 0 0 0 0 
node 1 1 1 3
node 2 3 1 1
node 3 1 1 1
node 4 3 1 1
node 5 2 1 1
node 6 2 0 2
node 7 2 0 2
gene 2 1 6 0.231651 0 1 0.231651 1
gene 3 2 6 0.414228 0 2 0.414228 1
gene 1 3 6 0.572565 0 3 0.572565 1
gene 3 4 6 -0.547678 0 4 -0.547678 1
gene 3 5 6 -0.650327 0 5 -0.650327 1
gene 2 1 7 0.313303 0 6 0.313303 1
gene 2 2 7 -0.545099 0 7 -0.545099 1
gene 3 3 7 0.300493 0 8 0.300493 1
gene 1 4 7 0.1732 0 9 0.1732 1
gene 1 5 7 0.307993 0 10 0.307993 1
gene 2 6 7 -0.588672 0 15 0 1
genomeend 67

/* Organism #68 Fitness: 436 Error: 0 */
genomestart 68
trait 1 0.1 0 0 0 0 0 0 0 
trait 2 0.2 0 0 0 0 0 0 0 
trait 3 0.3 0 0 0 0 0 0 0 
node 1 2 1 3
node 2 2 1 1
node 3 1 1 1
node 4 3 1 1
node 5 1 1 1
node 6 3 0 2
node 7 3 0 2
gene 1 1 6 1.02829 0 1 1.02829 1
gene 3 2 6 -0.319193 0 2 -0.319193 1
gene 1 3 6 0.0735191 0 3 0.0735191 1
gene 2 4 6 -0.178167 0 4 -0.178167 1
gene 3 5 6 -1.24436 0 5 -1.24436 1
gene 3 1 7 0.105655 0 6 0.105655 1
gene 3 2 7 -0.710562 0 7 -0.710562 1
gene 3 3 7 -0.897916 0 8 -0.897916 1
gene 2 4 7 0.90109 0 9 0.90109 1
gene 1 5 7 0.641408 0 10 0.641408 1
genomeend 68

/* Organism #69 Fitness: 11 Error: 0 */
genomestart 69
trait 1 0.1 0 0 0 0 0 0 0 
trait 2 0.2 0 0 0 0 0 0 0 
trait 3 0.3 0 0 0 0 0 0 0 
node 1 3 1 3
node 2 2 1 1
node 3 2 1 1
node 4 2 1 1
node 5 3 1 1
node 6 2 0 2
node 7 3 0 2
gene 2 1 6 -0.506867 0 1 -0.506867 1
gene 2 2 6 0.383038 0 2 0.383038 1
gene 2 3 6 0.25547 0 3 0.25547 1
gene 1 4 6 1.09244 0 4 1.09244 1
gene 1 5 6 -1.47105 0 5 -1.47105 1
gene 1 1 7 -1.65896 0 6 -1.65896 1
gene 3 2 7 -1.71445 0 7 -1.71445 1
gene 1 3 7 -0.351939 0 8 -0.351939 1
gene 1 4 7 0.121525 0 9 0.121525 1
gene 1 5 7 0.0306406 0 10 0.0306406 1
genomeend 69

/* Organism #70 Fitness: 10 Error: 0 */
genomestart 70
trait 1 0.1 0 0 0 0 0 0 0 
trait 2 0.1 0 0 0 0 0.103992 0.147191 0.267159 
trait 3 0.3 0 0 0 0 0 0 0 
node 1 1 1 3
node 2 3 1 1
node 3 2 1 1
node 4 1 1 1
node 5 3 1 1
node 6 3 0 2
node 7 1 0 2
gene 2 1 6 0.338099 0 1 0.338099 1
gene 3 2 6 0.225929 0 2 0.225929 1
gene 3 3 6 -2.34065 0 3 -2.34065 1
gene 1 4 6 -0.975585 0 4 -0.975585 1
gene 3 5 6 -1.08011 0 5 -1.08011 1
gene 3 1 7 -0.667379 0 6 -0.667379 1
gene 3 2 7 -0.0531938 0 7 -0.0531938 1
gene 3 3 7 -0.756523 0 8 -0.756523 1
gene 1 4 7 -0.160924 0 9 -0.160924 1
gene 1 5 7 0.747917 0 10 0.747917 1
genomeend 70

/* Organism #71 Fitness: 100001 Error: 0 */
/* ##------$ WINNER 71 SPECIES #1 $------## */
genomestart 71
trait 1 0.1 0 0 0 0 0 0 0 
trait 2 0.2 0 0 0.930143 0 0 0 0.486435 
trait 3 0.3 0 0 0 0 0 0 0 
node 1 2 1 3
node 2 1 1 1
node 3 3 1 1
node 4 1 1 1
node 5 3 1 1
node 6 1 0 2
node 7 1 0 2
gene 2 1 6 0.643086 0 1 0.643086 1
gene 3 2 6 -0.404035 0 2 -0.404035 1
gene 2 3 6 0.178472 0 3 0.178472 1
gene 1 4 6 -0.814081 0 4 -0.814081 1
gene 2 5 6 -0.343486 0 5 -0.343486 1
gene 2 1 7 -0.445479 0 6 -0.445479 1
gene 2 2 7 0.317148 0 7 0.317148 1
gene 2 3 7 0.587298 0 8 0.587298 1
gene 2 4 7 -0.684286 0 9 -0.684286 1
gene 3 5 7 0.16007 0 10 0.16007 1
genomeend 71

/* Organism #72 Fitness: 3 Error: 0 */
genomestart 72
trait 1 0.1 0 0 0 0 0 0 0 
trait 2 0.2 0 0 0 0 0 0 0 
trait 3 0.3 0 0 0 0 0 0 0 
node 1 2 1 3
node 2 3 1 1
node 3 1 1 1
node 4 1 1 1
node 5 1 1 1
node 6 2 0 2
node 7 1 0 2
gene 1 1 6 0.175176 0 1 0.175176 1
gene 3 2 6 -0.284005 0 2 -0.284005 1
gene 1 3 6 0.204535 0 3 0.204535 1
gene 1 4 6 0.710593 0 4 0.710593 1
gene 3 5 6 -0.558702 0 5 -0.558702 1
gene 3 1 7 -0.551653 0 6 -0.551653 1
gene 2 2 7 1.42903 0 7 1.42903 1
gene 3 3 7 0.389904 0 8 0.389904 1
gene 2 4 7 0.398999 0 9 0.398999 1
gene 3 5 7 0.863521 0 10 0.863521 1
gene 1 6 6 -0.27195 1 71 -0.27195 1
genomeend 72

/* Organism #73 Fitness: 47 Error: 0 */
genomestart 73
trait 1 0.1 0 0 0 0 0 0 0 
trait 2 0.2 0 0 0 0 0 0 0 
trait 3 0.3 0 0 0 0 0 0 0 
node 1 2 1 3
node 2 1 1 1
node 3 2 1 1
node 4 3 1 1
node 5 3 1 1
node 6 3 0 2
node 7 2 0 2
gene 1 1 6 0.84341 0 1 0.84341 1
gene 3 2 6 0.380291 0 2 0.380291 1
gene 2 3 6 0.168615 0 3 0.168615 1
gene 1 4 6 0.0228278 0 4 0.0228278 1
gene 2 5 6 -0.601794 0 5 -0.601794 1
gene 2 1 7 0.00479141 0 6 0.00479141 1
gene 3 2 7 -0.265084 0 7 -0.265084 1
gene 1 3 7 -1.13633 0 8 -1.13633 1
gene 1 4 7 1.32464 0 9 1.32464 1
gene 1 5 7 0.979339 0 10 0.979339 1
gene 2 6 7 -0.588672 0 15 -0.588672 1
genomeend 73

/* Organism #74 Fitness: 9 Error: 0 */
genomestart 74
trait 1 0.1 0 0 0 0 0 0 0 
trait 2 0.2 0 0 0 0 0 0 0 
trait 3 0.3 0 0 0 0 0 0 0 
node 1 3 1 3
node 2 1 1 1
node 3 2 1 1
node 4 2 1 1
node 5 2 1 1
node 6 1 0 2
node 7 3 0 2
gene 2 1 6 -0.461104 0 1 -0.461104 1
gene 3 2 6 -0.309061 0 2 -0.309061 1
gene 3 3 6 -0.167592 0 3 -0.167592 1
gene 2 4 6 -0.0249794 0 4 -0.0249794 1
gene 3 5 6 -0.670415 0 5 -0.670415 1
gene 1 1 7 0.251656 0 6 0.251656 1
gene 1 2 7 0.818049 0 7 0.818049 1
gene 1 3 7 -0.41934 0 8 -0.41934 1
gene 1 4 7 -0.253609 0 9 -0.253609 1
gene 1 5 7 0.170766 0 10 0.170766 1
gene 2 6 7 -0.588672 0 15 0 1
genomeend 74

/* Organism #75 Fitness: 45 Error: 0 */
genomestart 75
trait 1 0.1 0 0 0 0 0 0 0 
trait 2 0.2 0 0 0 0 0 0 0 
trait 3 0.3 0 0 0 0 0 0 0 
node 1 3 1 3
node 2 1 1 1
node 3 2 1 1
node 4 1 1 1
node 5 1 1 1
node 6 3 0 2
node 7 1 0 2
gene 1 1 6 -0.117161 0 1 -0.117161 1
gene 2 2 6 0.209357 0 2 0.209357 1
gene 3 3 6 0.0746178 0 3 0.0746178 1
gene 1 4 6 0.134159 0 4 0.134159 1
gene 2 5 6 -0.933836 0 5 -0.933836 1
gene 1 1 7 -0.302362 0 6 -0.302362 1
gene 1 2 7 -0.49115 0 7 -0.49115 1
gene 1 3 7 -0.0266732 0 8 -0.0266732 1
gene 3 4 7 -0.227287 0 9 -0.227287 1
gene 3 5 7 0.192129 0 10 0.192129 1
gene 2 6 7 -0.588672 0 15 0 1
genomeend 75

/* Organism #76 Fitness: 9 Error: 0 */
genomestart 76
trait 1 0.05 0.227973 0 0 0 0 0 0 
trait 2 0.2 0 0 0 0 0 0 0 
trait 3 0.3 0 0 0 0 0 0 0 
node 1 3 1 3
node 2 2 1 1
node 3 2 1 1
node 4 1 1 1
node 5 3 1 1
node 6 2 0 2
node 7 1 0 2
gene 2 1 6 -1.49074 0 1 -1.49074 1
gene 1 2 6 1.28074 0 2 1.28074 1
gene 2 3 6 0.700583 0 3 0.700583 1
gene 2 4 6 0.645802 0 4 0.645802 1
gene 2 5 6 -0.278787 0 5 -0.278787 1
gene 3 1 7 -1.19211 0 6 -1.19211 1
gene 1 2 7 -0.501968 0 7 -0.501968 1
gene 2 3 7 -0.585559 0 8 -0.585559 1
gene 1 4 7 0.120701 0 9 0.120701 1
gene 2 5 7 -0.384198 0 10 -0.384198 1
genomeend 76

/* Organism #77 Fitness: 5 Error: 0 */
genomestart 77
trait 1 0.1 0 0 0 0 0 0 0 
trait 2 0.2 0 0 0 0 0 0 0 
trait 3 0.3 0 0 0 0 0 0 0 
node 1 1 1 3
node 2 2 1 1
node 3 2 1 1
node 4 3 1 1
node 5 1 1 1
node 6 2 0 2
node 7 1 0 2
gene 3 1 6 0.0127567 0 1 0.0127567 1
gene 1 2 6 -0.114017 0 2 -0.114017 1
gene 2 3 6 -1.03729 0 3 -1.03729 1
gene 2 4 6 0.0184332 0 4 0.0184332 1
gene 2 5 6 -0.973907 0 5 -0.973907 1
gene 1 1 7 -0.689383 0 6 -0.689383 1
gene 2 2 7 -0.600635 0 7 -0.600635 1
gene 2 3 7 0.625538 0 8 0.625538 1
gene 1 4 7 1.84124 0 9 1.84124 1
gene 1 5 7 -0.938444 0 10 -0.938444 1
genomeend 77

/* Organism #78 Fitness: 11 Error: 0 */
genomestart 78
trait 1 0.1 0 0 0 0 0 0 0 
trait 2 0.2 0 0 0 0 0 0 0 
trait 3 0.3 0 0 0 0 0 0 0 
node 1 2 1 3
node 2 1 1 1
node 3 1 1 1
node 4 2 1 1
node 5 3 1 1
node 6 1 0 2
node 7 3 0 2
gene 3 1 6 -0.000976592 0 1 -0.000976592 1
gene 3 2 6 -0.375973 0 2 -0.375973 1
gene 2 3 6 0.166997 0 3 0.166997 1
gene 3 4 6 -0.0511185 0 4 -0.0511185 1
gene 2 5 6 -0.000549333 0 5 -0.000549333 1
gene 3 1 7 -0.469024 0 6 -0.469024 1
gene 3 2 7 0.738136 0 7 0.738136 1
gene 3 3 7 0.584887 0 8 0.584887 1
gene 2 4 7 0.157994 0 9 0.157994 1
gene 1 5 7 0.0919065 0 10 0.0919065 1
gene 3 7 6 -0.185339 0 82 0 1
genomeend 78

/* Organism #79 Fitness: 14 Error: 0 */
genomestart 79
trait 1 0.1 0 0 0 0 0 0 0 
trait 2 0.2 0 0 0 0 0 0 0 
trait 3 0.3 0 0 0 0 0 0 0 
node 1 1 1 3
node 2 3 1 1
node 3 2 1 1
node 4 2 1 1
node 5 3 1 1
node 6 2 0 2
node 7 2 0 2
gene 1 1 6 0.108371 0 1 0.108371 1
gene 2 2 6 1.01028 0 2 1.01028 1
gene 3 3 6 0.236091 0 3 0.236091 1
gene 2 4 6 -0.184942 0 4 -0.184942 1
gene 3 5 6 -1.06833 0 5 -1.06833 1
gene 2 1 7 -0.43646 0 6 -0.43646 1
gene 2 2 7 0.0457778 0 7 0.0457778 1
gene 3 3 7 -1.15291 0 8 -1.15291 1
gene 2 4 7 -1.21853 0 9 -1.21853 1
gene 1 5 7 -0.112705 0 10 -0.112705 1
gene 3 7 6 0.476302 0 12 0.476302 1
genomeend 79

/* Organism #80 Fitness: 4 Error: 0 */
genomestart 80
trait 1 0.1 0 0 0 0 0 0 0 
trait 2 0.2 0 0 0 0 0 0 0 
trait 3 0.3 0 0 0 0 0 0 0 
node 1 1 1 3
node 2 3 1 1
node 3 2 1 1
node 4 2 1 1
node 5 3 1 1
node 6 2 0 2
node 7 2 0 2
gene 1 1 6 0.672109 0 1 0.672109 1
gene 2 2 6 -0.289468 0 2 -0.289468 1
gene 1 3 6 1.09432 0 3 1.09432 1
gene 2 4 6 0.700186 0 4 0.700186 1
gene 2 5 6 -0.878063 0 5 -0.878063 1
gene 2 1 7 0.242653 0 6 0.242653 1
gene 3 2 7 0.141346 0 7 0.141346 1
gene 3 3 7 -0.0512711 0 8 -0.0512711 1
gene 2 4 7 -0.0317087 0 9 -0.0317087 1
gene 1 5 7 0.14835 0 10 0.14835 1
gene 3 7 6 -0.146672 0 12 -0.146672 1
genomeend 80

/* Organism #81 Fitness: 5 Error: 0 */
genomestart 81
trait 1 0.1 0 0 0 0 0 0 0 
trait 2 0.2 0 0 0 0 0 0 0 
trait 3 0.3 0 0 0 0 0 0 0 
node 1 1 1 3
node 2 3 1 1
node 3 3 1 1
node 4 2 1 1
node 5 1 1 1
node 6 3 0 2
node 7 1 0 2
gene 1 1 6 -0.0174337 0 1 -0.0174337 1
gene 1 2 6 -0.760338 0 2 -0.760338 1
gene 2 3 6 -0.632099 0 3 -0.632099 1
gene 3 4 6 -0.927778 0 4 -0.927778 1
gene 2 5 6 0.716468 0 5 0.716468 1
gene 2 1 7 1.31803 0 6 1.31803 1
gene 3 2 7 0.121197 0 7 0.121197 1
gene 3 3 7 -0.495117 0 8 -0.495117 1
gene 3 4 7 -0.124943 0 9 -0.124943 1
gene 1 5 7 -0.416349 0 10 -0.416349 1
genomeend 81

/* Organism #82 Fitness: 10 Error: 0 */
genomestart 82
trait 1 0.1 0 0 0 0 0 0.925687 0 
trait 2 0.2 0 0 0 0 0 0 0 
trait 3 0.3 0 0 0 0 0 0 0 
node 1 3 1 3
node 2 3 1 1
node 3 2 1 1
node 4 3 1 1
node 5 2 1 1
node 6 2 0 2
node 7 3 0 2
gene 2 1 6 0.713477 0 1 0.713477 1
gene 3 2 6 0.843013 0 2 0.843013 1
gene 2 3 6 -0.990432 0 3 -0.990432 1
gene 2 4 6 0.338969 0 4 0.338969 1
gene 1 5 6 0.620273 0 5 0.620273 1
gene 2 1 7 -1.46466 0 6 -1.46466 1
gene 3 2 7 0.103671 0 7 0.103671 1
gene 3 3 7 0.0956908 0 8 0.0956908 1
gene 2 4 7 1.06119 0 9 1.06119 1
gene 3 5 7 0.692129 0 10 0.692129 1
gene 2 6 7 -0.588672 0 15 -0.588672 1
genomeend 82

/* Organism #83 Fitness: 17 Error: 0 */
genomestart 83
trait 1 0.1 0 0 0 0 0 0 0 
trait 2 0.2 0 0 0 0 0 0 0 
trait 3 0.3 0 0 0 0 0 0 0 
node 1 2 1 3
node 2 2 1 1
node 3 3 1 1
node 4 3 1 1
node 5 1 1 1
node 6 2 0 2
node 7 2 0 2
gene 3 1 6 -0.215888 0 1 -0.215888 1
gene 3 2 6 -0.118023 0 2 -0.118023 1
gene 2 3 6 0.0553148 0 3 0.0553148 1
gene 1 4 6 -0.168836 0 4 -0.168836 1
gene 1 5 6 -1.24013 0 5 -1.24013 1
gene 1 1 7 0.286889 0 6 0.286889 1
gene 3 2 7 -0.84109 0 7 -0.84109 1
gene 1 3 7 -0.815256 0 8 -0.815256 1
gene 2 4 7 -0.0368969 0 9 -0.0368969 1
gene 1 5 7 -0.516823 0 10 -0.516823 1
genomeend 83

/* Organism #84 Fitness: 2 Error: 0 */
genomestart 84
trait 1 0.1 0 0 0 0 0 0 0 
trait 2 0.2 0 0 0 0 0 0 0 
trait 3 0.3 0 0 0 0 0 0 0 
node 1 1 1 3
node 2 3 1 1
node 3 3 1 1
node 4 1 1 1
node 5 2 1 1
node 6 2 0 2
node 7 2 0 2
gene 1 1 6 -0.411847 0 1 -0.411847 1
gene 2 2 6 -0.449019 0 2 -0.449019 1
gene 3 3 6 0.1489 0 3 0.1489 1
gene 2 4 6 -0.481887 0 4 -0.481887 1
gene 2 5 6 -0.115665 0 5 -0.115665 1
gene 3 1 7 -1.34291 0 6 -1.34291 1
gene 1 2 7 -0.564196 0 7 -0.564196 1
gene 2 3 7 0.0141758 0 8 0.0141758 1
gene 1 4 7 0.280984 0 9 0.280984 1
gene 2 5 7 0.147481 0 10 0.147481 1
genomeend 84

/* Organism #85 Fitness: 3 Error: 0 */
genomestart 85
trait 1 0.1 0 0 0 0 0 0 0 
trait 2 0.2 0 0 0 0 0 0 0 
trait 3 0.3 0 0 0 0 0 0 0 
node 1 3 1 3
node 2 2 1 1
node 3 3 1 1
node 4 3 1 1
node 5 3 1 1
node 6 2 0 2
node 7 1 0 2
gene 3 1 6 -0.492447 0 1 -0.492447 1
gene 2 2 6 0.935209 0 2 0.935209 1
gene 2 3 6 -0.782891 0 3 -0.782891 1
gene 1 4 6 -0.00262459 0 4 -0.00262459 1
gene 2 5 6 -0.100864 0 5 -0.100864 1
gene 2 1 7 -0.422803 0 6 -0.422803 1
gene 1 2 7 0.345927 0 7 0.345927 1
gene 2 3 7 1.1409 0 8 1.1409 1
gene 2 4 7 0.664937 0 9 0.664937 1
gene 2 5 7 0.822687 0 10 0.822687 1
gene 3 7 6 1.17621 0 12 1.17621 1
genomeend 85

/* Organism #86 Fitness: 2 Error: 0 */
genomestart 86
trait 1 0.1 0 0 0 0 0 0 0 
trait 2 0.2 0 0 0 0 0 0 0 
trait 3 0.3 0 0 0 0 0 0 0 
node 1 1 1 3
node 2 1 1 1
node 3 3 1 1
node 4 1 1 1
node 5 1 1 1
node 6 1 0 2
node 7 1 0 2
gene 3 1 6 1.44665 0 1 1.44665 1
gene 3 2 6 0.661245 0 2 0.661245 1
gene 1 3 6 0.87054 0 3 0.87054 1
gene 2 4 6 0.230613 0 4 0.230613 1
gene 3 5 6 1.33314 0 5 1.33314 1
gene 3 1 7 1.22506 0 6 1.22506 1
gene 2 2 7 -0.254387 0 7 -0.254387 1
gene 2 3 7 0.301645 0 8 0.301645 1
gene 3 4 7 1.73844 0 9 1.73844 1
gene 2 5 7 0.357891 0 10 0.357891 1
gene 2 6 7 -0.588672 0 15 -0.588672 1
genomeend 86

/* Organism #87 Fitness: 23 Error: 0 */
genomestart 87
trait 1 0.1 0 0 0 0 0 0 0 
trait 2 0.2 0 0 0 0 0 0 0 
trait 3 0.3 0.360118 0 0 0 0 0.750542 0 
node 1 2 1 3
node 2 1 1 1
node 3 1 1 1
node 4 3 1 1
node 5 1 1 1
node 6 1 0 2
node 7 3 0 2
gene 3 1 6 -1.7037 0 1 -1.7037 1
gene 2 2 6 0.347942 0 2 0.347942 1
gene 2 3 6 0.742393 0 3 0.742393 1
gene 2 4 6 1.30357 0 4 1.30357 1
gene 1 5 6 0.439253 0 5 0.439253 1
gene 2 1 7 -0.469832 0 6 -0.469832 1
gene 2 2 7 -0.0848109 0 7 -0.0848109 1
gene 3 3 7 -0.625355 0 8 -0.625355 1
gene 2 4 7 0.27604 0 9 0.27604 1
gene 3 5 7 0.896847 0 10 0.896847 1
genomeend 87

/* Organism #88 Fitness: 4 Error: 0 */
genomestart 88
trait 1 0.1 0 0 0 0 0 0 0 
trait 2 0.2 0 0 0 0 0 0 0 
trait 3 0.3 0 0 0 0 0 0 0 
node 1 2 1 3
node 2 2 1 1
node 3 2 1 1
node 4 2 1 1
node 5 3 1 1
node 6 1 0 2
node 7 2 0 2
gene 2 1 6 -0.365581 0 1 -0.365581 1
gene 2 2 6 -0.0152593 0 2 -0.0152593 1
gene 2 3 6 0.211966 0 3 0.211966 1
gene 1 4 6 0.132435 0 4 0.132435 1
gene 1 5 6 -0.402814 0 5 -0.402814 1
gene 3 1 7 -1.28039 0 6 -1.28039 1
gene 1 2 7 -0.288522 0 7 -0.288522 1
gene 3 3 7 -0.154973 0 8 -0.154973 1
gene 2 4 7 -0.378704 0 9 -0.378704 1
gene 3 5 7 -0.977752 0 10 -0.977752 1
genomeend 88

/* Organism #89 Fitness: 3 Error: 0 */
genomestart 89
trait 1 0.1 0 0 0 0 0 0 0 
trait 2 0.2 0 0 0 0 0 0 0 
trait 3 0.3 0 0 0 0 0 0 0 
node 1 3 1 3
node 2 1 1 1
node 3 1 1 1
node 4 2 1 1
node 5 1 1 1
node 6 1 0 2
node 7 1 0 2
gene 1 1 6 -0.320139 0 1 -0.320139 1
gene 1 2 6 -0.343883 0 2 -0.343883 1
gene 1 3 6 -0.037904 0 3 -0.037904 1
gene 2 4 6 -0.25721 0 4 -0.25721 1
gene 1 5 6 -0.213935 0 5 -0.213935 1
gene 3 1 7 -0.452681 0 6 -0.452681 1
gene 2 2 7 -0.531846 0 7 -0.531846 1
gene 2 3 7 0.250771 0 8 0.250771 1
gene 1 4 7 -0.750633 0 9 -0.750633 1
gene 3 5 7 0.248085 0 10 0.248085 1
genomeend 89

/* Organism #90 Fitness: 8 Error: 0 */
genomestart 90
trait 1 0.1 0 0 0 0 0 0 0 
trait 2 0.2 0 0 0 0 0 0 0 
trait 3 0.3 0 0 0 0 0 0 0 
node 1 3 1 3
node 2 1 1 1
node 3 1 1 1
node 4 3 1 1
node 5 1 1 1
node 6 2 0 2
node 7 2 0 2
gene 3 1 6 -0.770806 0 1 -0.770806 1
gene 2 2 6 0.572649 0 2 0.572649 1
gene 3 3 6 0.748222 0 3 0.748222 1
gene 2 4 6 0.897794 0 4 0.897794 1
gene 2 5 6 -0.988128 0 5 -0.988128 1
gene 1 1 7 -0.634053 0 6 -0.634053 1
gene 2 2 7 0.908994 0 7 0.908994 1
gene 3 3 7 -0.787378 0 8 -0.787378 1
gene 1 4 7 0.470107 0 9 0.470107 1
gene 1 5 7 -0.620777 0 10 -0.620777 1
gene 3 7 6 0.669881 0 12 0 1
genomeend 90

/* Organism #91 Fitness: 10 Error: 0 */
genomestart 91
trait 1 0.1 0 0 0 0 0 0 0 
trait 2 0.2 0 0 0 0 0 0 0 
trait 3 0.3 0 0 0 0 0 0 0 
node 1 1 1 3
node 2 3 1 1
node 3 2 1 1
node 4 1 1 1
node 5 3 1 1
node 6 3 0 2
node 7 1 0 2
gene 2 1 6 0.802683 0 1 0.802683 1
gene 3 2 6 0.245308 0 2 0.245308 1
gene 3 3 6 -0.547655 0 3 -0.547655 1
gene 1 4 6 -0.626392 0 4 -0.626392 1
gene 3 5 6 0.725242 0 5 0.725242 1
gene 2 1 7 0.765526 0 6 0.765526 1
gene 3 2 7 -0.94676 0 7 -0.94676 1
gene 3 3 7 1.55199 0 8 1.55199 1
gene 3 4 7 0.677267 0 9 0.677267 1
gene 2 5 7 -0.387494 0 10 -0.387494 1
genomeend 91

/* Organism #92 Fitness: 31 Error: 0 */
genomestart 92
trait 1 0.1 0 0 0 0 0 0 0 
trait 2 0.2 0 0 0 0 0 0 0 
trait 3 0.3 0 0 0 0 0 0 0 
node 1 1 1 3
node 2 1 1 1
node 3 2 1 1
node 4 1 1 1
node 5 1 1 1
node 6 1 0 2
node 7 3 0 2
gene 3 1 6 0.645405 0 1 0.645405 1
gene 2 2 6 0.289071 0 2 0.289071 1
gene 2 3 6 -0.746239 0 3 -0.746239 1
gene 1 4 6 0.638722 0 4 0.638722 1
gene 2 5 6 -0.932951 0 5 -0.932951 1
gene 2 1 7 -0.389538 0 6 -0.389538 1
gene 2 2 7 0.591205 0 7 0.591205 1
gene 3 3 7 0.0226447 0 8 0.0226447 1
gene 1 4 7 0.909024 0 9 0.909024 1
gene 2 5 7 0.373455 0 10 0.373455 1
genomeend 92

/* Organism #93 Fitness: 9 Error: 0 */
genomestart 93
trait 1 0.1 0 0 0 0 0 0 0 
trait 2 0.2 0 0 0 0 0 0 0 
trait 3 0.3 0 0 0 0 0 0 0 
node 1 1 1 3
node 2 2 1 1
node 3 1 1 1
node 4 1 1 1
node 5 1 1 1
node 6 1 0 2
node 7 3 0 2
gene 1 1 6 -0.57503 0 1 -0.57503 1
gene 3 2 6 -1.08292 0 2 -1.08292 1
gene 3 3 6 -1.38874 0 3 -1.38874 1
gene 1 4 6 -1.17042 0 4 -1.17042 1
gene 2 5 6 -0.234138 0 5 -0.234138 1
gene 3 1 7 0.365062 0 6 0.365062 1
gene 1 2 7 -0.386364 0 7 -0.386364 1
gene 3 3 7 -0.109714 0 8 -0.109714 1
gene 3 4 7 -0.877712 0 9 -0.877712 1
gene 2 5 7 -0.574755 0 10 -0.574755 1
genomeend 93

/* Organism #94 Fitness: 14 Error: 0 */
genomestart 94
trait 1 0.1 0 0 0 0 0 0 0 
trait 2 0.2 0 0 0 0 0 0 0 
trait 3 0.3 0 0 0 0 0 0 0 
node 1 3 1 3
node 2 2 1 1
node 3 2 1 1
node 4 1 1 1
node 5 3 1 1
node 6 2 0 2
node 7 1 0 2
gene 1 1 6 1.15177 0 1 1.15177 1
gene 1 2 6 0.741966 0 2 0.741966 1
gene 2 3 6 1.24802 0 3 1.24802 1
gene 3 4 6 -0.995758 0 4 -0.995758 1
gene 2 5 6 0.473434 0 5 0.473434 1
gene 3 1 7 0.106845 0 6 0.106845 1
gene 3 2 7 0.26838 0 7 0.26838 1
gene 2 3 7 -0.000274667 0 8 -0.000274667 1
gene 1 4 7 -1.00613 0 9 -1.00613 1
gene 3 5 7 -0.594012 0 10 -0.594012 1
gene 3 6 6 0.964141 1 48 0.964141 1
genomeend 94

/* Organism #95 Fitness: 10 Error: 0 */
genomestart 95
trait 1 0.399509 0 0 0.785699 0.531846 0 0 0 
trait 2 0.2 0 0 0 0 0 0 0 
trait 3 0.3 0 0 0 0 0 0 0 
node 1 2 1 3
node 2 3 1 1
node 3 2 1 1
node 4 3 1 1
node 5 2 1 1
node 6 1 0 2
node 7 1 0 2
gene 1 1 6 0.106578 0 1 0.106578 1
gene 1 2 6 -0.964095 0 2 -0.964095 1
gene 2 3 6 -0.378521 0 3 -0.378521 1
gene 1 4 6 -0.584407 0 4 -0.584407 1
gene 3 5 6 -0.133389 0 5 -0.133389 1
gene 1 1 7 1.10228 0 6 1.10228 1
gene 2 2 7 0.323031 0 7 0.323031 1
gene 3 3 7 -0.637394 0 8 -0.637394 1
gene 3 4 7 -0.526467 0 9 -0.526467 1
gene 3 5 7 -0.462447 0 10 -0.462447 1
genomeend 95

/* Organism #96 Fitness: 3 Error: 0 */
genomestart 96
trait 1 0.1 0 0 0 0 0 0 0 
trait 2 0.2 0 0 0 0 0 0 0 
trait 3 0.3 0 0 0 0 0 0 0 
node 1 2 1 3
node 2 1 1 1
node 3 1 1 1
node 4 3 1 1
node 5 2 1 1
node 6 1 0 2
node 7 3 0 2
gene 2 1 6 1.78317 0 1 1.78317 1
gene 3 2 6 -0.285012 0 2 -0.285012 1
gene 2 3 6 0.430982 0 3 0.430982 1
gene 3 4 6 -1.37205 0 4 -1.37205 1
gene 1 5 6 0.0346385 0 5 0.0346385 1
gene 2 1 7 0.0947905 0 6 0.0947905 1
gene 3 2 7 -1.24226 0 7 -1.24226 1
gene 2 3 7 -0.441816 0 8 -0.441816 1
gene 2 4 7 0.85165 0 9 0.85165 1
gene 1 5 7 0.40907 0 10 0.40907 1
genomeend 96

/* Organism #97 Fitness: 49 Error: 0 */
genomestart 97
trait 1 0.1 0 0 0 0 0 0 0 
trait 2 0.2 0 0 0 0 0 0 0 
trait 3 0.3 0 0 0 0 0 0 0 
node 1 1 1 3
node 2 3 1 1
node 3 3 1 1
node 4 1 1 1
node 5 2 1 1
node 6 2 0 2
node 7 2 0 2
gene 3 1 6 0.125568 0 1 0.125568 1
gene 3 2 6 -0.317499 0 2 -0.317499 1
gene 2 3 6 -0.67922 0 3 -0.67922 1
gene 1 4 6 -0.293466 0 4 -0.293466 1
gene 1 5 6 -0.13715 0 5 -0.13715 1
gene 2 1 7 0.345317 0 6 0.345317 1
gene 3 2 7 -0.481017 0 7 -0.481017 1
gene 3 3 7 -0.923551 0 8 -0.923551 1
gene 3 4 7 -0.230262 0 9 -0.230262 1
gene 3 5 7 0.510193 0 10 0.510193 1
gene 3 7 6 0.669881 0 12 0 1
genomeend 97

/* Organism #98 Fitness: 27 Error: 0 */
genomestart 98
trait 1 0.1 0 0 0 0 0 0 0 
trait 2 0.2 0 0 0 0 0 0 0 
trait 3 0.3 0 0 0 0 0 0 0 
node 1 2 1 3
node 2 1 1 1
node 3 2 1 1
node 4 3 1 1
node 5 3 1 1
node 6 3 0 2
node 7 2 0 2
gene 1 1 6 0.464705 0 1 0.464705 1
gene 2 2 6 0.245109 0 2 0.245109 1
gene 3 3 6 0.967772 0 3 0.967772 1
gene 1 4 6 0.166372 0 4 0.166372 1
gene 2 5 6 -0.978668 0 5 -0.978668 1
gene 1 1 7 -0.847682 0 6 -0.847682 1
gene 3 2 7 -0.502609 0 7 -0.502609 1
gene 1 3 7 0.455061 0 8 0.455061 1
gene 3 4 7 0.257836 0 9 0.257836 1
gene 1 5 7 0.697714 0 10 0.697714 1
genomeend 98

/* Organism #99 Fitness: 3 Error: 0 */
genomestart 99
trait 1 0.1 0 0 0 0 0 0 0 
trait 2 0.2 0 0 0 0 0 0 0 
trait 3 0.3 0 0 0 0 0 0 0 
node 1 2 1 3
node 2 1 1 1
node 3 3 1 1
node 4 3 1 1
node 5 3 1 1
node 6 2 0 2
node 7 3 0 2
gene 2 1 6 -0.104251 0 1 -0.104251 1
gene 3 2 6 0.406262 0 2 0.406262 1
gene 3 3 6 -0.4691 0 3 -0.4691 1
gene 1 4 6 -0.641255 0 4 -0.641255 1
gene 1 5 6 -0.714408 0 5 -0.714408 1
gene 3 1 7 -0.760369 0 6 -0.760369 1
gene 2 2 7 0.568987 0 7 0.568987 1
gene 3 3 7 0.170568 0 8 0.170568 1
gene 2 4 7 0.89642 0 9 0.89642 1
gene 2 5 7 -0.354106 0 10 -0.354106 1
gene 3 7 6 0.669881 0 12 0 1
gene 3 6 6 0.111698 1 85 0.111698 1
genomeend 99

/* Organism #100 Fitness: 7 Error: 0 */
genomestart 100
trait 1 0.1 0 0 0 0 0 0 0 
trait 2 0.2 0 0 0 0 0 0 0 
trait 3 0.3 0 0 0 0 0 0 0 
node 1 1 1 3
node 2 3 1 1
node 3 2 1 1
node 4 2 1 1
node 5 3 1 1
node 6 1 0 2
node 7 1 0 2
gene 1 1 6 0.76838 0 1 0.76838 1
gene 2 2 6 -0.0807825 0 2 -0.0807825 1
gene 1 3 6 0.897214 0 3 0.897214 1
gene 1 4 6 -0.142628 0 4 -0.142628 1
gene 1 5 6 0.0710471 0 5 0.0710471 1
gene 1 1 7 -0.12476 0 6 -0.12476 1
gene 1 2 7 -0.260643 0 7 -0.260643 1
gene 2 3 7 -0.0925626 0 8 -0.0925626 1
gene 3 4 7 0.156865 0 9 0.156865 1
gene 2 5 7 -0.459899 0 10 -0.459899 1
gene 2 6 7 -1.56841 0 15 -1.56841 1
genomeend 100

/* Organism #101 Fitness: 2 Error: 0 */
genomestart 101
trait 1 0.1 0 0 0 0 0 0 0 
trait 2 0.2 0 0 0 0 0 0 0 
trait 3 0.3 0 0 0 0 0 0 0 
node 1 2 1 3
node 2 2 1 1
node 3 1 1 1
node 4 1 1 1
node 5 2 1 1
node 6 2 0 2
node 7 2 0 2
gene 1 1 6 -1.02161 0 1 -1.02161 1
gene 3 2 6 -1.53468 0 2 -1.53468 1
gene 1 3 6 -0.635426 0 3 -0.635426 1
gene 2 4 6 -0.334391 0 4 -0.334391 1
gene 2 5 6 -0.863338 0 5 -0.863338 1
gene 1 1 7 -0.508438 0 6 -0.508438 1
gene 2 2 7 0.0783105 0 7 0.0783105 1
gene 3 3 7 -0.760033 0 8 -0.760033 1
gene 2 4 7 0.0703452 0 9 0.0703452 1
gene 3 5 7 -0.307566 0 10 -0.307566 1
gene 3 7 6 -0.185339 0 82 0 1
genomeend 101

/* Organism #102 Fitness: 12 Error: 0 */
genomestart 102
trait 1 0.1 0 0 0 0 0 0 0 
trait 2 0.2 0 0 0 0 0 0 0 
trait 3 0.3 0 0 0 0 0 0 0 
node 1 2 1 3
node 2 1 1 1
node 3 1 1 1
node 4 3 1 1
node 5 1 1 1
node 6 1 0 2
node 7 3 0 2
gene 2 1 6 -0.114216 0 1 -0.114216 1
gene 2 2 6 -0.122822 0 2 -0.122822 1
gene 2 3 6 -0.159948 0 3 -0.159948 1
gene 3 4 6 0.47882 0 4 0.47882 1
gene 2 5 6 0.046144 0 5 0.046144 1
gene 2 1 7 -0.478835 0 6 -0.478835 1
gene 2 2 7 -0.0578936 0 7 -0.0578936 1
gene 2 3 7 -0.762535 0 8 -0.762535 1
gene 3 4 7 -0.295068 0 9 -0.295068 1
gene 3 5 7 -0.0388806 0 10 -0.0388806 1
gene 2 6 7 -0.28663 0 80 0 1
genomeend 102

/* Organism #103 Fitness: 70 Error: 0 */
genomestart 103
trait 1 0.1 0 0 0 0 0 0 0 
trait 2 0.2 0 0 0 0 0 0 0 
trait 3 0.3 0 0 0 0 0 0 0 
node 1 3 1 3
node 2 1 1 1
node 3 3 1 1
node 4 3 1 1
node 5 3 1 1
node 6 1 0 2
node 7 3 0 2
gene 2 1 6 -0.430113 0 1 -0.430113 1
gene 1 2 6 1.02339 0 2 1.02339 1
gene 2 3 6 -0.251152 0 3 -0.251152 1
gene 3 4 6 -0.747108 0 4 -0.747108 1
gene 1 5 6 -0.446883 0 5 -0.446883 1
gene 2 1 7 -0.00210578 0 6 -0.00210578 1
gene 2 2 7 0.698508 0 7 0.698508 1
gene 1 3 7 -1.06067 0 8 -1.06067 1
gene 3 4 7 -0.0988189 0 9 -0.0988189 1
gene 1 5 7 -0.51088 0 10 -0.51088 1
genomeend 103

/* Organism #104 Fitness: 4 Error: 0 */
genomestart 104
trait 1 0.1 0 0 0 0 0 0 0 
trait 2 0.2 0 0 0 0 0 0 0 
trait 3 0.3 0 0 0 0 0 0 0 
node 1 3 1 3
node 2 1 1 1
node 3 2 1 1
node 4 3 1 1
node 5 1 1 1
node 6 3 0 2
node 7 1 0 2
gene 3 1 6 0.939314 0 1 0.939314 1
gene 2 2 6 -1.18898 0 2 -1.18898 1
gene 3 3 6 -0.0153813 0 3 -0.0153813 1
gene 1 4 6 -1.02763 0 4 -1.02763 1
gene 1 5 6 -0.648579 0 5 -0.648579 1
gene 2 1 7 -0.505745 0 6 -0.505745 1
gene 2 2 7 -0.674558 0 7 -0.674558 1
gene 3 3 7 0.466063 0 8 0.466063 1
gene 1 4 7 -0.168737 0 9 -0.168737 1
gene 3 5 7 -0.298196 0 10 -0.298196 1
genomeend 104

/* Organism #105 Fitness: 4 Error: 0 */
genomestart 105
trait 1 0.1 0 0 0 0 0 0 0 
trait 2 0.2 0 0 0 0 0 0 0 
trait 3 0.3 0 0 0 0 0 0 0 
node 1 3 1 3
node 2 3 1 1
node 3 3 1 1
node 4 1 1 1
node 5 3 1 1
node 6 2 0 2
node 7 1 0 2
gene 2 1 6 1.36091 0 1 1.36091 1
gene 1 2 6 0.112506 0 2 0.112506 1
gene 3 3 6 0.463118 0 3 0.463118 1
gene 3 4 6 -0.333903 0 4 -0.333903 1
gene 2 5 6 -0.538774 0 5 -0.538774 1
gene 3 1 7 0.596866 0 6 0.596866 1
gene 2 2 7 0.201224 0 7 0.201224 1
gene 3 3 7 -0.847865 0 8 -0.847865 1
gene 3 4 7 0.337886 0 9 0.337886 1
gene 1 5 7 0.278909 0 10 0.278909 1
genomeend 105

/* Organism #106 Fitness: 45 Error: 0 */
genomestart 106
trait 1 0.1 0 0 0 0 0 0 0 
trait 2 0.2 0 0 0 0 0 0 0 
trait 3 0.3 0 0 0 0 0 0 0 
node 1 3 1 3
node 2 1 1 1
node 3 3 1 1
node 4 1 1 1
node 5 3 1 1
node 6 3 0 2
node 7 3 0 2
gene 1 1 6 -0.207038 0 1 -0.207038 1
gene 2 2 6 0.0531938 0 2 0.0531938 1
gene 3 3 6 0.491134 0 3 0.491134 1
gene 2 4 6 0.200323 0 4 0.200323 1
gene 3 5 6 0.387341 0 5 0.387341 1
gene 3 1 7 0.427595 0 6 0.427595 1
gene 3 2 7 0.190252 0 7 0.190252 1
gene 2 3 7 -0.30488 0 8 -0.30488 1
gene 2 4 7 0.178716 0 9 0.178716 1
gene 3 5 7 0.328776 0 10 0.328776 1
gene 2 6 7 -0.28663 0 80 0 1
genomeend 106

/* Organism #107 Fitness: 7 Error: 0 */
genomestart 107
trait 1 0.1 0 0 0 0 0 0 0 
trait 2 0.2 0 0 0 0 0 0 0 
trait 3 0.3 0 0 0 0 0 0 0 
node 1 2 1 3
node 2 1 1 1
node 3 1 1 1
node 4 3 1 1
node 5 1 1 1
node 6 1 0 2
node 7 3 0 2
gene 2 1 6 -0.756554 0 1 -0.756554 1
gene 1 2 6 -0.0668355 0 2 -0.0668355 1
gene 1 3 6 -0.151555 0 3 -0.151555 1
gene 1 4 6 -0.876247 0 4 -0.876247 1
gene 3 5 6 -0.253456 0 5 -0.253456 1
gene 2 1 7 0.55858 0 6 0.55858 1
gene 2 2 7 0.425703 0 7 0.425703 1
gene 2 3 7 -0.677145 0 8 -0.677145 1
gene 2 4 7 0.660329 0 9 0.660329 1
gene 3 5 7 -0.591632 0 10 -0.591632 1
genomeend 107

/* Organism #108 Fitness: 3 Error: 0 */
genomestart 108
trait 1 0.1 0 0 0 0 0 0 0 
trait 2 0.2 0 0 0 0 0 0 0 
trait 3 0.3 0 0 0 0 0 0 0 
node 1 3 1 3
node 2 1 1 1
node 3 3 1 1
node 4 1 1 1
node 5 1 1 1
node 6 1 0 2
node 7 3 0 2
gene 3 1 6 -0.338542 0 1 -0.338542 1
gene 2 2 6 -0.180761 0 2 -0.180761 1
gene 2 3 6 0.14362 0 3 0.14362 1
gene 1 4 6 -0.634327 0 4 -0.634327 1
gene 2 5 6 -0.531114 0 5 -0.531114 1
gene 1 1 7 0.254982 0 6 0.254982 1
gene 2 2 7 0.955809 0 7 0.955809 1
gene 3 3 7 -0.335887 0 8 -0.335887 1
gene 2 4 7 0.274483 0 9 0.274483 1
gene 1 5 7 1.50456 0 10 1.50456 1
genomeend 108

/* Organism #109 Fitness: 3 Error: 0 */
genomestart 109
trait 1 0.1 0 0 0 0 0 0 0 
trait 2 0.2 0 0 0 0 0 0 0 
trait 3 0.3 0 0 0 0 0 0 0 
node 1 3 1 3
node 2 1 1 1
node 3 3 1 1
node 4 1 1 1
node 5 2 1 1
node 6 1 0 2
node 7 1 0 2
gene 3 1 6 1.09828 0 1 1.09828 1
gene 3 2 6 -0.282098 0 2 -0.282098 1
gene 2 3 6 -0.356632 0 3 -0.356632 1
gene 3 4 6 -0.64024 0 4 -0.64024 1
gene 1 5 6 -0.448752 0 5 -0.448752 1
gene 2 1 7 0.249626 0 6 0.249626 1
gene 2 2 7 -0.117931 0 7 -0.117931 1
gene 1 3 7 -0.353328 0 8 -0.353328 1
gene 3 4 7 -0.309053 0 9 -0.309053 1
gene 1 5 7 -0.513886 0 10 -0.513886 1
genomeend 109

/* Organism #110 Fitness: 10 Error: 0 */
genomestart 110
trait 1 0.1 0 0 0 0 0 0 0 
trait 2 0.2 0 0 0 0 0 0 0 
trait 3 0.3 0 0 0 0 0 0 0 
node 1 3 1 3
node 2 3 1 1
node 3 3 1 1
node 4 1 1 1
node 5 1 1 1
node 6 2 0 2
node 7 1 0 2
gene 1 1 6 0.250771 0 1 0.250771 1
gene 3 2 6 -0.458892 0 2 -0.458892 1
gene 2 3 6 -0.4841 0 3 -0.4841 1
gene 2 4 6 0.0883816 0 4 0.0883816 1
gene 1 5 6 -0.283517 0 5 -0.283517 1
gene 3 1 7 0.143651 0 6 0.143651 1
gene 3 2 7 0.591906 0 7 0.591906 1
gene 3 3 7 -0.0259713 0 8 -0.0259713 1
gene 2 4 7 -0.360744 0 9 -0.360744 1
gene 3 5 7 -0.0533769 0 10 -0.0533769 1
genomeend 110

/* Organism #111 Fitness: 6 Error: 0 */
genomestart 111
trait 1 0.1 0 0 0 0 0 0 0 
trait 2 0.2 0 0 0 0 0 0 0 
trait 3 0.3 0 0 0 0 0 0 0 
node 1 3 1 3
node 2 1 1 1
node 3 2 1 1
node 4 2 1 1
node 5 1 1 1
node 6 1 0 2
node 7 1 0 2
gene 3 1 6 -1.40532 0 1 -1.40532 1
gene 1 2 6 0.329691 0 2 0.329691 1
gene 1 3 6 0.326212 0 3 0.326212 1
gene 3 4 6 0.223762 0 4 0.223762 1
gene 2 5 6 -0.760475 0 5 -0.760475 1
gene 1 1 7 0.472274 0 6 0.472274 1
gene 1 2 7 0.848415 0 7 0.848415 1
gene 2 3 7 0.561296 0 8 0.561296 1
gene 2 4 7 0.194586 0 9 0.194586 1
gene 2 5 7 -0.813501 0 10 -0.813501 1
genomeend 111

/* Organism #112 Fitness: 13 Error: 0 */
genomestart 112
trait 1 0.1 0 0 0 0 0 0 0 
trait 2 0.2 0 0 0 0 0 0 0 
trait 3 0.3 0 0 0 0 0 0 0 
node 1 2 1 3
node 2 3 1 1
node 3 2 1 1
node 4 2 1 1
node 5 1 1 1
node 6 3 0 2
node 7 3 0 2
gene 2 1 6 -0.803095 0 1 -0.803095 1
gene 2 2 6 0.294244 0 2 0.294244 1
gene 1 3 6 0.140996 0 3 0.140996 1
gene 3 4 6 0.616337 0 4 0.616337 1
gene 3 5 6 0.712119 0 5 0.712119 1
gene 1 1 7 1.11441 0 6 1.11441 1
gene 1 2 7 -1.06362 0 7 -1.06362 1
gene 2 3 7 -1.40216 0 8 -1.40216 1
gene 2 4 7 0.370479 0 9 0.370479 1
gene 3 5 7 -0.635716 0 10 -0.635716 1
genomeend 112

/* Organism #113 Fitness: 11 Error: 0 */
genomestart 113
trait 1 0.1 0 0 0 0 0 0 0 
trait 2 0.2 0 0 0 0 0 0 0 
trait 3 0.3 0 0 0 0 0 0 0 
node 1 3 1 3
node 2 1 1 1
node 3 1 1 1
node 4 3 1 1
node 5 1 1 1
node 6 1 0 2
node 7 2 0 2
gene 1 1 6 -0.506577 0 1 -0.506577 1
gene 3 2 6 1.4976 0 2 1.4976 1
gene 1 3 6 -0.520676 0 3 -0.520676 1
gene 2 4 6 0.269509 0 4 0.269509 1
gene 3 5 6 1.45756 0 5 1.45756 1
gene 1 1 7 0.115757 0 6 0.115757 1
gene 2 2 7 0.574297 0 7 0.574297 1
gene 2 3 7 -0.905972 0 8 -0.905972 1
gene 1 4 7 0.646229 0 9 0.646229 1
gene 1 5 7 -1.39976 0 10 -1.39976 1
genomeend 113

/* Organism #114 Fitness: 11 Error: 0 */
genomestart 114
trait 1 0.1 0 0 0 0 0 0 0 
trait 2 0.2 0 0 0 0 0 0 0 
trait 3 0.3 0 0 0 0 0 0 0 
node 1 1 1 3
node 2 3 1 1
node 3 2 1 1
node 4 1 1 1
node 5 2 1 1
node 6 1 0 2
node 7 3 0 2
gene 2 1 6 0.548021 0 1 0.548021 1
gene 2 2 6 0.461776 0 2 0.461776 1
gene 3 3 6 -0.61565 0 3 -0.61565 1
gene 3 4 6 -1.98831 0 4 -1.98831 1
gene 1 5 6 1.0174 0 5 1.0174 1
gene 3 1 7 0.129551 0 6 0.129551 1
gene 3 2 7 -0.837214 0 7 -0.837214 1
gene 2 3 7 0.319803 0 8 0.319803 1
gene 1 4 7 -0.324107 0 9 -0.324107 1
gene 3 5 7 -0.738426 0 10 -0.738426 1
genomeend 114

/* Organism #115 Fitness: 3 Error: 0 */
genomestart 115
trait 1 0.1 0 0 0 0 0 0 0 
trait 2 0.2 0 0 0 0 0 0 0 
trait 3 0.3 0 0 0 0 0 0 0 
node 1 3 1 3
node 2 1 1 1
node 3 2 1 1
node 4 2 1 1
node 5 2 1 1
node 6 1 0 2
node 7 3 0 2
gene 3 1 6 -0.198431 0 1 -0.198431 1
gene 3 2 6 -0.392163 0 2 -0.392163 1
gene 2 3 6 -1.81722 0 3 -1.81722 1
gene 1 4 6 -0.476943 0 4 -0.476943 1
gene 1 5 6 -0.45732 0 5 -0.45732 1
gene 3 1 7 -0.0989105 0 6 -0.0989105 1
gene 3 2 7 -0.798212 0 7 -0.798212 1
gene 3 3 7 -0.831202 0 8 -0.831202 1
gene 1 4 7 0.747246 0 9 0.747246 1
gene 2 5 7 -0.301096 0 10 -0.301096 1
genomeend 115

/* Organism #116 Fitness: 2 Error: 0 */
genomestart 116
trait 1 0.1 0 0 0 0 0 0 0 
trait 2 0.2 0 0 0 0 0 0 0 
trait 3 0.3 0 0 0 0 0 0 0 
node 1 2 1 3
node 2 2 1 1
node 3 2 1 1
node 4 3 1 1
node 5 1 1 1
node 6 1 0 2
node 7 3 0 2
gene 3 1 6 0.364818 0 1 0.364818 1
gene 1 2 6 0.279 0 2 0.279 1
gene 1 3 6 0.747734 0 3 0.747734 1
gene 1 4 6 -0.501083 0 4 -0.501083 1
gene 3 5 6 -0.0327464 0 5 -0.0327464 1
gene 2 1 7 1.19172 0 6 1.19172 1
gene 2 2 7 -0.182257 0 7 -0.182257 1
gene 3 3 7 0.0506302 0 8 0.0506302 1
gene 3 4 7 1.22153 0 9 1.22153 1
gene 3 5 7 0.293405 0 10 0.293405 1
gene 2 6 7 -0.28663 0 80 0 1
genomeend 116

/* Organism #117 Fitness: 7 Error: 0 */
genomestart 117
trait 1 0.1 0 0 0 0 0 0 0 
trait 2 0.2 0 0 0 0 0 0 0 
trait 3 0.3 0 0 0 0 0 0 0 
node 1 3 1 3
node 2 2 1 1
node 3 1 1 1
node 4 3 1 1
node 5 3 1 1
node 6 2 0 2
node 7 3 0 2
gene 2 1 6 -0.489639 0 1 -0.489639 1
gene 3 2 6 0.350749 0 2 0.350749 1
gene 2 3 6 0.178472 0 3 0.178472 1
gene 3 4 6 -0.0811182 0 4 -0.0811182 1
gene 2 5 6 -0.653554 0 5 -0.653554 1
gene 2 1 7 0.456038 0 6 0.456038 1
gene 2 2 7 -0.2425 0 7 -0.2425 1
gene 2 3 7 0.760063 0 8 0.760063 1
gene 1 4 7 0.640675 0 9 0.640675 1
gene 3 5 7 0.997681 0 10 0.997681 1
gene 3 7 6 0.669881 0 12 0 1
genomeend 117

/* Organism #118 Fitness: 18 Error: 0 */
genomestart 118
trait 1 0.1 0 0 0 0 0 0 0 
trait 2 0.2 0 0 0 0 0 0 0 
trait 3 0.3 0 0 0 0 0 0 0 
node 1 2 1 3
node 2 2 1 1
node 3 2 1 1
node 4 3 1 1
node 5 1 1 1
node 6 1 0 2
node 7 3 0 2
gene 3 1 6 -0.79165 0 1 -0.79165 1
gene 2 2 6 0.838221 0 2 0.838221 1
gene 3 3 6 -0.423841 0 3 -0.423841 1
gene 3 4 6 -0.191504 0 4 -0.191504 1
gene 2 5 6 0.641331 0 5 0.641331 1
gene 3 1 7 0.0270394 0 6 0.0270394 1
gene 3 2 7 1.06519 0 7 1.06519 1
gene 3 3 7 -0.616565 0 8 -0.616565 1
gene 1 4 7 0.564684 0 9 0.564684 1
gene 1 5 7 -0.215064 0 10 -0.215064 1
genomeend 118

/* Organism #119 Fitness: 10 Error: 0 */
genomestart 119
trait 1 0.1 0 0 0 0 0 0 0 
trait 2 0.2 0 0 0 0 0 0 0 
trait 3 0.3 0 0 0 0 0 0 0 
node 1 2 1 3
node 2 3 1 1
node 3 1 1 1
node 4 1 1 1
node 5 1 1 1
node 6 2 0 2
node 7 1 0 2
gene 2 1 6 -0.107105 0 1 -0.107105 1
gene 2 2 6 0.262123 0 2 0.262123 1
gene 3 3 6 0.636448 0 3 0.636448 1
gene 3 4 6 -0.809137 0 4 -0.809137 1
gene 3 5 6 -0.205313 0 5 -0.205313 1
gene 3 1 7 0.463973 0 6 0.463973 1
gene 2 2 7 0.116489 0 7 0.116489 1
gene 2 3 7 -0.0835597 0 8 -0.0835597 1
gene 3 4 7 -0.408002 0 9 -0.408002 1
gene 3 5 7 0.404813 0 10 0.404813 1
genomeend 119

/* Organism #120 Fitness: 9 Error: 0 */
genomestart 120
trait 1 0.1 0 0 0 0 0 0 0 
trait 2 0.2 0 0 0 0 0 0 0 
trait 3 0.3 0 0 0 0 0 0 0 
node 1 3 1 3
node 2 2 1 1
node 3 2 1 1
node 4 2 1 1
node 5 1 1 1
node 6 2 0 2
node 7 2 0 2
gene 2 1 6 1.16565 0 1 1.16565 1
gene 1 2 6 1.19004 0 2 1.19004 1
gene 3 3 6 -0.710685 0 3 -0.710685 1
gene 2 4 6 0.256294 0 4 0.256294 1
gene 3 5 6 -0.763909 0 5 -0.763909 1
gene 3 1 7 1.36699 0 6 1.36699 1
gene 3 2 7 -0.983825 0 7 -0.983825 1
gene 1 3 7 0.840449 0 8 0.840449 1
gene 3 4 7 1.10758 0 9 1.10758 1
gene 2 5 7 0.178198 0 10 0.178198 1
genomeend 120

/* Organism #121 Fitness: 5 Error: 0 */
genomestart 121
trait 1 0.1 0 0 0 0 0 0 0 
trait 2 0.2 0 0 0 0 0 0 0 
trait 3 0.3 0 0 0 0 0 0 0 
node 1 3 1 3
node 2 3 1 1
node 3 2 1 1
node 4 2 1 1
node 5 1 1 1
node 6 3 0 2
node 7 2 0 2
gene 2 1 6 0.916547 0 1 0.916547 1
gene 2 2 6 -0.826632 0 2 -0.826632 1
gene 1 3 6 0.711966 0 3 0.711966 1
gene 1 4 6 -0.849231 0 4 -0.849231 1
gene 3 5 6 -0.809038 0 5 -0.809038 1
gene 3 1 7 -0.716445 0 6 -0.716445 1
gene 2 2 7 -1.20727 0 7 -1.20727 1
gene 3 3 7 -0.753136 0 8 -0.753136 1
gene 2 4 7 -0.0396283 0 9 -0.0396283 1
gene 2 5 7 1.26748 0 10 1.26748 1
genomeend 121

/* Organism #122 Fitness: 4 Error: 0 */
genomestart 122
trait 1 0.1 0 0 0 0 0 0 0 
trait 2 0.2 0 0 0 0 0 0 0 
trait 3 0.3 0 0 0 0 0 0 0 
node 1 2 1 3
node 2 1 1 1
node 3 2 1 1
node 4 2 1 1
node 5 2 1 1
node 6 2 0 2
node 7 2 0 2
gene 3 1 6 0.163427 0 1 0.163427 1
gene 2 2 6 0.904706 0 2 0.904706 1
gene 2 3 6 0.899792 0 3 0.899792 1
gene 3 4 6 0.839579 0 4 0.839579 1
gene 1 5 6 0.423139 0 5 0.423139 1
gene 3 1 7 -0.00341807 0 6 -0.00341807 1
gene 2 2 7 -0.202368 0 7 -0.202368 1
gene 2 3 7 0.0688192 0 8 0.0688192 1
gene 3 4 7 0.45706 0 9 0.45706 1
gene 2 5 7 -0.80221 0 10 -0.80221 1
gene 2 6 7 0.0599384 0 15 0.0599384 1
genomeend 122

/* Organism #123 Fitness: 11 Error: 0 */
genomestart 123
trait 1 0.1 0 0 0 0 0 0 0 
trait 2 0.2 0 0 0 0 0 0 0 
trait 3 0.3 0 0 0 0 0 0 0 
node 1 2 1 3
node 2 3 1 1
node 3 2 1 1
node 4 3 1 1
node 5 1 1 1
node 6 2 0 2
node 7 3 0 2
gene 2 1 6 -0.836756 0 1 -0.836756 1
gene 3 2 6 0.51442 0 2 0.51442 1
gene 1 3 6 0.12946 0 3 0.12946 1
gene 1 4 6 -0.613025 0 4 -0.613025 1
gene 1 5 6 -0.161931 0 5 -0.161931 1
gene 1 1 7 -0.950194 0 6 -0.950194 1
gene 1 2 7 -0.40141 0 7 -0.40141 1
gene 2 3 7 0.394818 0 8 0.394818 1
gene 3 4 7 0.273965 0 9 0.273965 1
gene 3 5 7 -0.168737 0 10 -0.168737 1
genomeend 123

/* Organism #124 Fitness: 1 Error: 0 */
genomestart 124
trait 1 0.1 0 0 0 0 0 0 0 
trait 2 0.2 0 0 0 0 0 0 0 
trait 3 0.3 0 0 0 0 0 0 0 
node 1 1 1 3
node 2 3 1 1
node 3 2 1 1
node 4 1 1 1
node 5 3 1 1
node 6 3 0 2
node 7 1 0 2
gene 2 1 6 -0.819697 0 1 -0.819697 1
gene 3 2 6 0.147526 0 2 0.147526 1
gene 2 3 6 0.0131535 0 3 0.0131535 1
gene 1 4 6 -0.497238 0 4 -0.497238 1
gene 1 5 6 0.746178 0 5 0.746178 1
gene 3 1 7 -0.246681 0 6 -0.246681 1
gene 3 2 7 1.68447 0 7 1.68447 1
gene 3 3 7 -2.09027 0 8 -2.09027 1
gene 3 4 7 0.134037 0 9 0.134037 1
gene 3 5 7 -0.599536 0 10 -0.599536 1
genomeend 124

/* Organism #125 Fitness: 34 Error: 0 */
genomestart 125
trait 1 0.1 0 0 0 0 0 0 0 
trait 2 0.2 0 0 0 0 0 0 0 
trait 3 0.3 0 0 0 0 0 0 0 
node 1 1 1 3
node 2 3 1 1
node 3 1 1 1
node 4 3 1 1
node 5 1 1 1
node 6 2 0 2
node 7 2 0 2
gene 2 1 6 0.479324 0 1 0.479324 1
gene 2 2 6 0.14391 0 2 0.14391 1
gene 3 3 6 1.02554 0 3 1.02554 1
gene 1 4 6 -0.455184 0 4 -0.455184 1
gene 2 5 6 -0.0459761 0 5 -0.0459761 1
gene 1 1 7 -0.52504 0 6 -0.52504 1
gene 2 2 7 -0.886135 0 7 -0.886135 1
gene 3 3 7 -0.320612 0 8 -0.320612 1
gene 3 4 7 -0.0932798 0 9 -0.0932798 1
gene 2 5 7 1.12085 0 10 1.12085 1
genomeend 125

/* Organism #126 Fitness: 9 Error: 0 */
genomestart 126
trait 1 0.1 0 0 0 0 0 0 0 
trait 2 0.2 0 0 0 0 0 0 0 
trait 3 0.3 0 0 0 0 0 0 0 
node 1 2 1 3
node 2 3 1 1
node 3 1 1 1
node 4 2 1 1
node 5 3 1 1
node 6 3 0 2
node 7 2 0 2
gene 1 1 6 -0.386486 0 1 -0.386486 1
gene 1 2 6 0.186377 0 2 0.186377 1
gene 3 3 6 1.18033 0 3 1.18033 1
gene 1 4 6 -0.189428 0 4 -0.189428 1
gene 2 5 6 -2.05127 0 5 -2.05127 1
gene 2 1 7 1.36738 0 6 1.36738 1
gene 3 2 7 -1.69466 0 7 -1.69466 1
gene 3 3 7 0.334361 0 8 0.334361 1
gene 1 4 7 1.03113 0 9 1.03113 1
gene 3 5 7 0.0621662 0 10 0.0621662 1
genomeend 126

/* Organism #127 Fitness: 8 Error: 0 */
genomestart 127
trait 1 0 0.831202 0 0 0 0 0 0 
trait 2 0.2 0 0 0 0 0 0 0 
trait 3 0.3 0 0 0 0 0 0 0 
node 1 3 1 3
node 2 2 1 1
node 3 2 1 1
node 4 3 1 1
node 5 1 1 1
node 6 2 0 2
node 7 3 0 2
gene 2 1 6 0.0621357 0 1 0.0621357 1
gene 2 2 6 -0.413923 0 2 -0.413923 1
gene 3 3 6 -0.0392468 0 3 -0.0392468 1
gene 2 4 6 0.440504 0 4 0.440504 1
gene 3 5 6 0.597125 0 5 0.597125 1
gene 3 1 7 -0.552843 0 6 -0.552843 1
gene 1 2 7 -0.810968 0 7 -0.810968 1
gene 2 3 7 -0.625843 0 8 -0.625843 1
gene 3 4 7 -0.683645 0 9 -0.683645 1
gene 3 5 7 -1.00424 0 10 -1.00424 1
genomeend 127

/* Organism #128 Fitness: 6 Error: 0 */
genomestart 128
trait 1 0.1 0 0 0 0 0 0 0 
trait 2 0.2 0 0 0 0 0 0 0 
trait 3 0.3 0 0 0 0 0 0 0 
node 1 2 1 3
node 2 3 1 1
node 3 3 1 1
node 4 2 1 1
node 5 2 1 1
node 6 1 0 2
node 7 1 0 2
gene 1 1 6 0.683996 0 1 0.683996 1
gene 3 2 6 -0.192343 0 2 -0.192343 1
gene 3 3 6 -0.00100711 0 3 -0.00100711 1
gene 1 4 6 -0.255348 0 4 -0.255348 1
gene 2 5 6 -0.0513321 0 5 -0.0513321 1
gene 2 1 7 0.340327 0 6 0.340327 1
gene 1 2 7 0.102634 0 7 0.102634 1
gene 1 3 7 -0.185308 0 8 -0.185308 1
gene 3 4 7 -0.322657 0 9 -0.322657 1
gene 2 5 7 0.10654 0 10 0.10654 1
genomeend 128

/* Organism #129 Fitness: 2 Error: 0 */
genomestart 129
trait 1 0.1 0 0 0 0 0 0 0 
trait 2 0.2 0 0 0 0 0 0 0 
trait 3 0.3 0 0 0 0 0 0 0 
node 1 2 1 3
node 2 2 1 1
node 3 3 1 1
node 4 1 1 1
node 5 1 1 1
node 6 3 0 2
node 7 2 0 2
gene 1 1 6 -1.32994 0 1 -1.32994 1
gene 1 2 6 -0.180212 0 2 -0.180212 1
gene 1 3 6 -1.73455 0 3 -1.73455 1
gene 2 4 6 0.0682699 0 4 0.0682699 1
gene 3 5 6 -0.714255 0 5 -0.714255 1
gene 3 1 7 0.407636 0 6 0.407636 1
gene 2 2 7 0.664327 0 7 0.664327 1
gene 1 3 7 0.872311 0 8 0.872311 1
gene 3 4 7 -0.16007 0 9 -0.16007 1
gene 1 5 7 -0.36729 0 10 -0.36729 1
gene 3 7 6 -0.185339 0 82 0 1
genomeend 129

/* Organism #130 Fitness: 10 Error: 0 */
genomestart 130
trait 1 0.1 0 0 0 0 0 0 0 
trait 2 0.2 0 0 0 0 0 0 0 
trait 3 0.3 0 0 0 0 0 0 0 
node 1 3 1 3
node 2 1 1 1
node 3 2 1 1
node 4 2 1 1
node 5 1 1 1
node 6 1 0 2
node 7 2 0 2
gene 1 1 6 -0.162664 0 1 -0.162664 1
gene 3 2 6 -0.583636 0 2 -0.583636 1
gene 2 3 6 0.127354 0 3 0.127354 1
gene 3 4 6 0.287057 0 4 0.287057 1
gene 2 5 6 -0.0664693 0 5 -0.0664693 1
gene 1 1 7 0.945158 0 6 0.945158 1
gene 1 2 7 0.198035 0 7 0.198035 1
gene 1 3 7 -0.534135 0 8 -0.534135 1
gene 3 4 7 0.796442 0 9 0.796442 1
gene 3 5 7 0.329814 0 10 0.329814 1
gene 3 7 6 0.669881 0 12 0 1
genomeend 130

/* Organism #131 Fitness: 25 Error: 0 */
genomestart 131
trait 1 0.1 0 0 0 0 0 0 0 
trait 2 0.2 0 0 0 0 0 0 0 
trait 3 0.3 0 0 0 0 0 0 0 
node 1 3 1 3
node 2 1 1 1
node 3 2 1 1
node 4 1 1 1
node 5 1 1 1
node 6 3 0 2
node 7 1 0 2
gene 1 1 6 -0.63068 0 1 -0.63068 1
gene 2 2 6 0.200446 0 2 0.200446 1
gene 2 3 6 0.954299 0 3 0.954299 1
gene 3 4 6 0.198538 0 4 0.198538 1
gene 3 5 6 -0.686758 0 5 -0.686758 1
gene 2 1 7 -0.235069 0 6 -0.235069 1
gene 1 2 7 -0.913633 0 7 -0.913633 1
gene 1 3 7 -0.97235 0 8 -0.97235 1
gene 2 4 7 -0.889035 0 9 -0.889035 1
gene 3 5 7 -1.02292 0 10 -1.02292 1
gene 3 7 6 -0.185339 0 82 0 1
genomeend 131

/* Organism #132 Fitness: 1 Error: 0 */
genomestart 132
trait 1 0.1 0 0 0 0 0 0 0 
trait 2 0.2 0 0 0 0 0 0 0 
trait 3 0.3 0 0 0 0 0 0 0 
node 1 2 1 3
node 2 2 1 1
node 3 1 1 1
node 4 1 1 1
node 5 3 1 1
node 6 3 0 2
node 7 3 0 2
gene 2 1 6 -1.34367 0 1 -1.34367 1
gene 2 2 6 0.640461 0 2 0.640461 1
gene 3 3 6 1.22523 0 3 1.22523 1
gene 3 4 6 -0.344493 0 4 -0.344493 1
gene 2 5 6 -1.63326 0 5 -1.63326 1
gene 2 1 7 -0.811762 0 6 -0.811762 1
gene 2 2 7 0.861141 0 7 0.861141 1
gene 3 3 7 -0.305551 0 8 -0.305551 1
gene 1 4 7 -0.785882 0 9 -0.785882 1
gene 2 5 7 0.522721 0 10 0.522721 1
genomeend 132

/* Organism #133 Fitness: 13 Error: 0 */
genomestart 133
trait 1 0.1 0 0 0 0 0 0 0 
trait 2 0.2 0 0 0 0 0 0 0 
trait 3 0.3 0 0 0 0 0 0 0 
node 1 2 1 3
node 2 2 1 1
node 3 1 1 1
node 4 3 1 1
node 5 1 1 1
node 6 3 0 2
node 7 3 0 2
gene 2 1 6 0.0734733 0 1 0.0734733 1
gene 3 2 6 0.579775 0 2 0.579775 1
gene 3 3 6 1.08531 0 3 1.08531 1
gene 2 4 6 0.266198 0 4 0.266198 1
gene 2 5 6 -0.788537 0 5 -0.788537 1
gene 3 1 7 0.146214 0 6 0.146214 1
gene 3 2 7 -0.273156 0 7 -0.273156 1
gene 1 3 7 0.66068 0 8 0.66068 1
gene 1 4 7 -0.503861 0 9 -0.503861 1
gene 3 5 7 -0.836955 0 10 -0.836955 1
genomeend 133

/* Organism #134 Fitness: 14 Error: 0 */
genomestart 134
trait 1 0.1 0 0 0 0 0 0 0 
trait 2 0.2 0 0 0 0 0 0 0 
trait 3 0.3 0 0 0 0 0 0 0 
node 1 3 1 3
node 2 1 1 1
node 3 1 1 1
node 4 3 1 1
node 5 1 1 1
node 6 1 0 2
node 7 3 0 2
gene 1 1 6 -0.378666 0 1 -0.378666 1
gene 3 2 6 0.341792 0 2 0.341792 1
gene 2 3 6 0.72496 0 3 0.72496 1
gene 2 4 6 -0.590312 0 4 -0.590312 1
gene 1 5 6 -0.036813 0 5 -0.036813 1
gene 3 1 7 -0.043321 0 6 -0.043321 1
gene 3 2 7 -0.268273 0 7 -0.268273 1
gene 3 3 7 -0.360843 0 8 -0.360843 1
gene 2 4 7 0.557505 0 9 0.557505 1
gene 1 5 7 0.223762 0 10 0.223762 1
genomeend 134

/* Organism #135 Fitness: 2 Error: 0 */
genomestart 135
trait 1 0.1 0 0 0 0 0 0 0 
trait 2 0.2 0 0 0 0 0 0 0 
trait 3 0.3 0 0 0 0 0 0 0 
node 1 2 1 3
node 2 3 1 1
node 3 1 1 1
node 4 1 1 1
node 5 3 1 1
node 6 1 0 2
node 7 3 0 2
gene 2 1 6 -0.903653 0 1 -0.903653 1
gene 2 2 6 -0.540269 0 2 -0.540269 1
gene 1 3 6 -0.380902 0 3 -0.380902 1
gene 3 4 6 0.32693 0 4 0.32693 1
gene 3 5 6 -0.347484 0 5 -0.347484 1
gene 1 1 7 1.11057 0 6 1.11057 1
gene 1 2 7 -0.0254677 0 7 -0.0254677 1
gene 1 3 7 0.604617 0 8 0.604617 1
gene 3 4 7 -0.0573901 0 9 -0.0573901 1
gene 2 5 7 -0.447844 0 10 -0.447844 1
gene 2 7 7 0.927091 1 22 0.927091 1
genomeend 135

/* Organism #136 Fitness: 7 Error: 0 */
genomestart 136
trait 1 0.1 0 0 0 0 0 0 0 
trait 2 0.2 0 0 0 0 0 0 0 
trait 3 0.3 0 0 0 0 0 0 0 
node 1 2 1 3
node 2 1 1 1
node 3 1 1 1
node 4 1 1 1
node 5 1 1 1
node 6 1 0 2
node 7 2 0 2
gene 1 1 6 0.0457778 0 1 0.0457778 1
gene 1 2 6 -0.038728 0 2 -0.038728 1
gene 2 3 6 0.706839 0 3 0.706839 1
gene 1 4 6 -0.613025 0 4 -0.613025 1
gene 1 5 6 -0.161931 0 5 -0.161931 1
gene 2 1 7 0.53856 0 6 0.53856 1
gene 1 2 7 -0.40141 0 7 -0.40141 1
gene 3 3 7 -0.931089 0 8 -0.931089 1
gene 1 4 7 -0.214148 0 9 -0.214148 1
gene 3 5 7 -0.0796533 0 10 -0.0796533 1
genomeend 136

/* Organism #137 Fitness: 10 Error: 0 */
genomestart 137
trait 1 0.1 0 0 0 0 0 0 0 
trait 2 0.2 0 0 0 0 0 0 0 
trait 3 0.3 0 0 0 0 0 0 0 
node 1 1 1 3
node 2 1 1 1
node 3 1 1 1
node 4 3 1 1
node 5 3 1 1
node 6 2 0 2
node 7 1 0 2
gene 3 1 6 0.491165 0 1 0.491165 1
gene 2 2 6 0.744682 0 2 0.744682 1
gene 1 3 6 0.919065 0 3 0.919065 1
gene 1 4 6 -1.34077 0 4 -1.34077 1
gene 3 5 6 1.45006 0 5 1.45006 1
gene 1 1 7 0.679647 0 6 0.679647 1
gene 1 2 7 -1.30399 0 7 -1.30399 1
gene 2 3 7 0.420667 0 8 0.420667 1
gene 3 4 7 0.784967 0 9 0.784967 1
gene 2 5 7 -1.00928 0 10 -1.00928 1
gene 2 6 7 -1.36119 0 15 -1.36119 1
genomeend 137

/* Organism #138 Fitness: 6 Error: 0 */
genomestart 138
trait 1 0.1 0 0 0 0 0 0 0 
trait 2 0.2 0 0 0 0 0 0 0 
trait 3 0.3 0 0 0 0 0 0 0 
node 1 3 1 3
node 2 2 1 1
node 3 2 1 1
node 4 1 1 1
node 5 3 1 1
node 6 2 0 2
node 7 1 0 2
gene 1 1 6 1.30659 0 1 1.30659 1
gene 3 2 6 0.602031 0 2 0.602031 1
gene 1 3 6 -0.465705 0 3 -0.465705 1
gene 3 4 6 -0.385556 0 4 -0.385556 1
gene 3 5 6 -0.860477 0 5 -0.860477 1
gene 1 1 7 -0.865017 0 6 -0.865017 1
gene 2 2 7 -0.219665 0 7 -0.219665 1
gene 1 3 7 0.361705 0 8 0.361705 1
gene 1 4 7 -0.207053 0 9 -0.207053 1
gene 3 5 7 0.84621 0 10 0.84621 1
genomeend 138

/* Organism #139 Fitness: 11 Error: 0 */
genomestart 139
trait 1 0.1 0 0 0 0 0 0 0 
trait 2 0.2 0 0 0 0 0 0 0 
trait 3 0.3 0 0 0 0 0 0 0 
node 1 2 1 3
node 2 2 1 1
node 3 1 1 1
node 4 1 1 1
node 5 3 1 1
node 6 3 0 2
node 7 3 0 2
gene 2 1 6 0.050676 0 1 0.050676 1
gene 2 2 6 1.25123 0 2 1.25123 1
gene 1 3 6 0.307611 0 3 0.307611 1
gene 2 4 6 -1.09482 0 4 -1.09482 1
gene 2 5 6 -0.780633 0 5 -0.780633 1
gene 1 1 7 0.688162 0 6 0.688162 1
gene 3 2 7 -0.74073 0 7 -0.74073 1
gene 1 3 7 0.99826 0 8 0.99826 1
gene 3 4 7 -0.42851 0 9 -0.42851 1
gene 2 5 7 -0.0910062 0 10 -0.0910062 1
gene 3 7 6 0.0142521 0 12 0.0142521 1
genomeend 139

/* Organism #140 Fitness: 9 Error: 0 */
genomestart 140
trait 1 0.1 0 0 0 0 0 0 0 
trait 2 0.2 0 0 0 0 0 0 0 
trait 3 0.3 0 0 0 0 0 0 0 
node 1 1 1 3
node 2 2 1 1
node 3 2 1 1
node 4 3 1 1
node 5 2 1 1
node 6 3 0 2
node 7 3 0 2
gene 2 1 6 1.19373 0 1 1.19373 1
gene 1 2 6 1.35398 0 2 1.35398 1
gene 1 3 6 -0.115207 0 3 -0.115207 1
gene 2 4 6 -1.29038 0 4 -1.29038 1
gene 2 5 6 1.53432 0 5 1.53432 1
gene 3 1 7 -0.803858 0 6 -0.803858 1
gene 2 2 7 -1.19199 0 7 -1.19199 1
gene 2 3 7 -1.06793 0 8 -1.06793 1
gene 3 4 7 0.898953 0 9 0.898953 1
gene 2 5 7 0.0868557 0 10 0.0868557 1
genomeend 140

/* Organism #141 Fitness: 2 Error: 0 */
genomestart 141
trait 1 0.1 0 0 0 0 0 0 0 
trait 2 0.2 0 0 0 0 0 0 0 
trait 3 0.3 0 0 0 0 0 0 0 
node 1 3 1 3
node 2 2 1 1
node 3 3 1 1
node 4 2 1 1
node 5 1 1 1
node 6 1 0 2
node 7 3 0 2
gene 2 1 6 -0.790277 0 1 -0.790277 1
gene 1 2 6 -0.177984 0 2 -0.177984 1
gene 3 3 6 0.3184 0 3 0.3184 1
gene 1 4 6 -0.538896 0 4 -0.538896 1
gene 1 5 6 0.235725 0 5 0.235725 1
gene 2 1 7 0.657277 0 6 0.657277 1
gene 3 2 7 1.31101 0 7 1.31101 1
gene 3 3 7 -0.330424 0 8 -0.330424 1
gene 3 4 7 0.973693 0 9 0.973693 1
gene 3 5 7 1.06091 0 10 1.06091 1
gene 2 7 7 0.921873 1 49 0.921873 1
genomeend 141

/* Organism #142 Fitness: 3 Error: 0 */
genomestart 142
trait 1 0.1 0 0 0 0 0 0 0 
trait 2 0.2 0 0 0 0 0 0 0 
trait 3 0.3 0 0 0 0 0 0 0 
node 1 3 1 3
node 2 2 1 1
node 3 3 1 1
node 4 2 1 1
node 5 3 1 1
node 6 2 0 2
node 7 1 0 2
gene 2 1 6 -0.428365 0 1 -0.428365 1
gene 1 2 6 -0.423826 0 2 -0.423826 1
gene 2 3 6 0.718894 0 3 0.718894 1
gene 1 4 6 -0.339244 0 4 -0.339244 1
gene 2 5 6 -0.172704 0 5 -0.172704 1
gene 1 1 7 0.033227 0 6 0.033227 1
gene 2 2 7 -0.462828 0 7 -0.462828 1
gene 3 3 7 0.514443 0 8 0.514443 1
gene 2 4 7 0.0644475 0 9 0.0644475 1
gene 2 5 7 0.223609 0 10 0.223609 1
gene 2 6 7 -0.588672 0 15 0 1
genomeend 142

/* Organism #143 Fitness: 2 Error: 0 */
genomestart 143
trait 1 0.1 0 0 0 0 0 0 0 
trait 2 0.2 0 0 0 0 0 0 0 
trait 3 0.3 0 0 0 0 0 0 0 
node 1 2 1 3
node 2 3 1 1
node 3 2 1 1
node 4 1 1 1
node 5 3 1 1
node 6 2 0 2
node 7 3 0 2
gene 3 1 6 -1.09363 0 1 -1.09363 1
gene 2 2 6 1.17054 0 2 1.17054 1
gene 2 3 6 -0.120884 0 3 -0.120884 1
gene 2 4 6 -0.0458388 0 4 -0.0458388 1
gene 1 5 6 0.0502335 0 5 0.0502335 1
gene 2 1 7 1.04975 0 6 1.04975 1
gene 2 2 7 -0.922544 0 7 -0.922544 1
gene 2 3 7 -1.08393 0 8 -1.08393 1
gene 1 4 7 0.441359 0 9 0.441359 1
gene 3 5 7 -0.12479 0 10 -0.12479 1
genomeend 143

/* Organism #144 Fitness: 7 Error: 0 */
genomestart 144
trait 1 0.1 0 0 0 0 0 0 0 
trait 2 0.2 0 0 0 0 0 0 0 
trait 3 0.3 0 0 0 0 0 0 0 
node 1 2 1 3
node 2 2 1 1
node 3 2 1 1
node 4 3 1 1
node 5 1 1 1
node 6 1 0 2
node 7 3 0 2
gene 1 1 6 -0.422758 0 1 -0.422758 1
gene 3 2 6 0.809244 0 2 0.809244 1
gene 3 3 6 -1.22742 0 3 -1.22742 1
gene 1 4 6 -0.501083 0 4 -0.501083 1
gene 3 5 6 -0.0327464 0 5 -0.0327464 1
gene 3 1 7 0.639943 0 6 0.639943 1
gene 3 2 7 1.23106 0 7 1.23106 1
gene 2 3 7 0.586138 0 8 0.586138 1
gene 3 4 7 -0.522858 0 9 -0.522858 1
gene 2 5 7 0.083758 0 10 0.083758 1
gene 3 7 6 -0.185339 0 82 0 1
genomeend 144

/* Organism #145 Fitness: 12 Error: 0 */
genomestart 145
trait 1 0.1 0 0 0 0 0 0 0 
trait 2 0 0 0 0 0 0 0.433515 0 
trait 3 0.3 0 0 0 0 0 0 0 
node 1 3 1 3
node 2 3 1 1
node 3 1 1 1
node 4 1 1 1
node 5 2 1 1
node 6 3 0 2
node 7 3 0 2
gene 2 1 6 -0.653218 0 1 -0.653218 1
gene 1 2 6 0.725425 0 2 0.725425 1
gene 2 3 6 -1.31535 0 3 -1.31535 1
gene 3 4 6 0.881161 0 4 0.881161 1
gene 1 5 6 -0.899625 0 5 -0.899625 1
gene 1 1 7 -0.510269 0 6 -0.510269 1
gene 3 2 7 -0.868587 0 7 -0.868587 1
gene 3 3 7 0.0533464 0 8 0.0533464 1
gene 3 4 7 0.125431 0 9 0.125431 1
gene 2 5 7 -0.134342 0 10 -0.134342 1
genomeend 145

/* Organism #146 Fitness: 9 Error: 0 */
genomestart 146
trait 1 0.1 0 0 0 0 0 0 0 
trait 2 0.2 0 0 0 0 0 0 0 
trait 3 0.3 0 0 0 0 0 0 0 
node 1 1 1 3
node 2 3 1 1
node 3 2 1 1
node 4 1 1 1
node 5 2 1 1
node 6 1 0 2
node 7 3 0 2
gene 2 1 6 -0.432386 0 1 -0.432386 1
gene 1 2 6 -0.450026 0 2 -0.450026 1
gene 3 3 6 -0.37138 0 3 -0.37138 1
gene 3 4 6 1.3289 0 4 1.3289 1
gene 3 5 6 -1.22425 0 5 -1.22425 1
gene 3 1 7 -0.348247 0 6 -0.348247 1
gene 3 2 7 0.669668 0 7 0.669668 1
gene 3 3 7 0.414167 0 8 0.414167 1
gene 1 4 7 -0.529374 0 9 -0.529374 1
gene 2 5 7 1.34684 0 10 1.34684 1
genomeend 146

/* Organism #147 Fitness: 9 Error: 0 */
genomestart 147
trait 1 0.1 0 0 0 0 0 0 0 
trait 2 0.2 0 0 0 0 0 0 0 
trait 3 0.3 0 0 0 0 0 0 0 
node 1 3 1 3
node 2 1 1 1
node 3 1 1 1
node 4 3 1 1
node 5 1 1 1
node 6 2 0 2
node 7 2 0 2
gene 3 1 6 -1.68072 0 1 -1.68072 1
gene 3 2 6 -0.197943 0 2 -0.197943 1
gene 1 3 6 -0.408429 0 3 -0.408429 1
gene 2 4 6 0.350017 0 4 0.350017 1
gene 3 5 6 -0.288949 0 5 -0.288949 1
gene 1 1 7 0.0294504 0 6 0.0294504 1
gene 1 2 7 -1.19822 0 7 -1.19822 1
gene 3 3 7 0.971679 0 8 0.971679 1
gene 2 4 7 0.905911 0 9 0.905911 1
gene 3 5 7 -0.34077 0 10 -0.34077 1
gene 3 7 6 -0.212256 0 12 -0.212256 1
genomeend 147

/* Organism #148 Fitness: 9 Error: 0 */
genomestart 148
trait 1 0.1 0 0 0 0 0 0 0 
trait 2 0.2 0 0 0 0 0 0 0 
trait 3 0.3 0 0 0 0 0 0 0 
node 1 1 1 3
node 2 2 1 1
node 3 2 1 1
node 4 3 1 1
node 5 2 1 1
node 6 2 0 2
node 7 1 0 2
gene 3 1 6 -0.426893 0 1 -0.426893 1
gene 2 2 6 1.34452 0 2 1.34452 1
gene 3 3 6 0.508408 0 3 0.508408 1
gene 3 4 6 0.2949 0 4 0.2949 1
gene 1 5 6 -0.831416 0 5 -0.831416 1
gene 2 1 7 0.9476 0 6 0.9476 1
gene 1 2 7 1.45708 0 7 1.45708 1
gene 3 3 7 -0.909024 0 8 -0.909024 1
gene 1 4 7 -0.906705 0 9 -0.906705 1
gene 1 5 7 0.259285 0 10 0.259285 1
gene 1 6 6 -1.49471 1 77 -1.49471 1
genomeend 148

/* Organism #149 Fitness: 17 Error: 0 */
genomestart 149
trait 1 0.1 0 0 0 0 0 0 0 
trait 2 0.2 0 0 0 0 0 0 0 
trait 3 0.3 0 0 0 0 0 0 0 
node 1 1 1 3
node 2 1 1 1
node 3 2 1 1
node 4 1 1 1
node 5 1 1 1
node 6 1 0 2
node 7 1 0 2
gene 3 1 6 0.645405 0 1 0.645405 1
gene 2 2 6 0.289071 0 2 0.289071 1
gene 2 3 6 -0.746239 0 3 -0.746239 1
gene 3 4 6 0.997528 0 4 0.997528 1
gene 2 5 6 -0.932951 0 5 -0.932951 1
gene 1 1 7 -0.214209 0 6 -0.214209 1
gene 3 2 7 -1.02893 0 7 -1.02893 1
gene 3 3 7 -0.670614 0 8 -0.670614 1
gene 1 4 7 1.07089 0 9 1.07089 1
gene 1 5 7 0.132969 0 10 0.132969 1
gene 3 7 6 -0.185339 0 82 0 1
genomeend 149

/* Organism #150 Fitness: 48 Error: 0 */
genomestart 150
trait 1 0.1 0 0 0 0 0 0 0 
trait 2 0.2 0 0 0 0 0 0 0 
trait 3 0.3 0 0 0 0 0 0 0 
node 1 2 1 3
node 2 2 1 1
node 3 2 1 1
node 4 1 1 1
node 5 1 1 1
node 6 3 0 2
node 7 1 0 2
gene 3 1 6 0.873714 0 1 0.873714 1
gene 1 2 6 -1.52248 0 2 -1.52248 1
gene 2 3 6 0.554094 0 3 0.554094 1
gene 3 4 6 -1.2613 0 4 -1.2613 1
gene 3 5 6 0.318796 0 5 0.318796 1
gene 1 1 7 0.693716 0 6 0.693716 1
gene 2 2 7 0.861232 0 7 0.861232 1
gene 1 3 7 -0.843776 0 8 -0.843776 1
gene 1 4 7 0.646229 0 9 0.646229 1
gene 2 5 7 0.138096 0 10 0.138096 1
gene 3 7 6 -0.185339 0 82 0 1
genomeend 150

/* Organism #151 Fitness: 7 Error: 0 */
genomestart 151
trait 1 0.1 0 0 0 0 0 0 0 
trait 2 0.2 0 0 0 0 0 0 0 
trait 3 0.3 0 0 0 0 0 0 0 
node 1 3 1 3
node 2 1 1 1
node 3 1 1 1
node 4 2 1 1
node 5 1 1 1
node 6 1 0 2
node 7 1 0 2
gene 1 1 6 -0.867367 0 1 -0.867367 1
gene 1 2 6 -0.266976 0 2 -0.266976 1
gene 1 3 6 0.497177 0 3 0.497177 1
gene 2 4 6 -0.581408 0 4 -0.581408 1
gene 1 5 6 -0.386975 0 5 -0.386975 1
gene 3 1 7 -0.0765404 0 6 -0.0765404 1
gene 2 2 7 0.189306 0 7 0.189306 1
gene 2 3 7 -0.193823 0 8 -0.193823 1
gene 1 4 7 0.00119022 0 9 0.00119022 1
gene 3 5 7 -0.0803858 0 10 -0.0803858 1
genomeend 151

/* Organism #152 Fitness: 119 Error: 0 */
genomestart 152
trait 1 0.1 0 0 0 0 0 0 0 
trait 2 0.2 0 0 0 0 0 0 0 
trait 3 0.3 0 0 0 0 0 0 0 
node 1 1 1 3
node 2 2 1 1
node 3 1 1 1
node 4 2 1 1
node 5 2 1 1
node 6 1 0 2
node 7 1 0 2
gene 3 1 6 0.861843 0 1 0.861843 1
gene 2 2 6 -0.0539567 0 2 -0.0539567 1
gene 3 3 6 -0.681661 0 3 -0.681661 1
gene 2 4 6 -0.515625 0 4 -0.515625 1
gene 3 5 6 -0.846309 0 5 -0.846309 1
gene 2 1 7 0.56975 0 6 0.56975 1
gene 3 2 7 -0.809595 0 7 -0.809595 1
gene 1 3 7 -0.17307 0 8 -0.17307 1
gene 1 4 7 -0.0974151 0 9 -0.0974151 1
gene 3 5 7 0.446547 0 10 0.446547 1
gene 1 6 6 0.951109 1 39 0.951109 1
genomeend 152

/* Organism #153 Fitness: 13 Error: 0 */
genomestart 153
trait 1 0.1 0 0 0 0 0 0 0 
trait 2 0.2 0 0 0 0 0 0 0 
trait 3 0.3 0 0 0 0 0 0 0 
node 1 3 1 3
node 2 2 1 1
node 3 2 1 1
node 4 2 1 1
node 5 3 1 1
node 6 2 0 2
node 7 1 0 2
gene 2 1 6 -1.34367 0 1 -1.34367 1
gene 1 2 6 0.642476 0 2 0.642476 1
gene 3 3 6 1.22523 0 3 1.22523 1
gene 1 4 6 -0.216041 0 4 -0.216041 1
gene 2 5 6 -1.63326 0 5 -1.63326 1
gene 3 1 7 -1.21653 0 6 -1.21653 1
gene 2 2 7 0.861141 0 7 0.861141 1
gene 3 3 7 -0.449049 0 8 -0.449049 1
gene 3 4 7 -0.742546 0 9 -0.742546 1
gene 2 5 7 -0.117588 0 10 -0.117588 1
genomeend 153

/* Organism #154 Fitness: 7 Error: 0 */
genomestart 154
trait 1 0.1 0 0 0 0 0 0 0 
trait 2 0.2 0 0 0 0 0 0 0 
trait 3 0.3 0 0 0 0 0 0 0 
node 1 3 1 3
node 2 2 1 1
node 3 3 1 1
node 4 3 1 1
node 5 3 1 1
node 6 2 0 2
node 7 1 0 2
gene 3 1 6 -0.68952 0 1 -0.68952 1
gene 3 2 6 -0.706526 0 2 -0.706526 1
gene 3 3 6 0.0809198 0 3 0.0809198 1
gene 1 4 6 1.14233 0 4 1.14233 1
gene 1 5 6 -0.856517 0 5 -0.856517 1
gene 3 1 7 1.33605 0 6 1.33605 1
gene 1 2 7 0.00122074 0 7 0.00122074 1
gene 3 3 7 -0.979354 0 8 -0.979354 1
gene 1 4 7 -1.09839 0 9 -1.09839 1
gene 1 5 7 -0.957358 0 10 -0.957358 1
gene 3 7 6 0.669881 0 12 0.669881 1
genomeend 154

/* Organism #155 Fitness: 3 Error: 0 */
genomestart 155
trait 1 0.1 0 0 0 0 0 0 0 
trait 2 0.2 0 0 0 0 0 0 0 
trait 3 0.3 0 0 0 0 0 0 0 
node 1 3 1 3
node 2 3 1 1
node 3 2 1 1
node 4 2 1 1
node 5 1 1 1
node 6 3 0 2
node 7 2 0 2
gene 3 1 6 -0.531297 0 1 -0.531297 1
gene 3 2 6 -0.0918912 0 2 -0.0918912 1
gene 3 3 6 0.116245 0 3 0.116245 1
gene 3 4 6 0.886135 0 4 0.886135 1
