
/* Species #1 : (Size 58) (AF 58.5) (Age 13)  */


/* Organism #0 Fitness: 261 Error: 0 */
genomestart 0
trait 1 0.125903 0 0 0 0 0.00373202 0 0.00606365 
trait 2 0.1875 0 0.0300245 0.00898198 0.0107311 0 0 0 
trait 3 0.3 0 0.0328761 0.0100642 0 0 0.0507518 0 
node 1 2 1 3
node 2 2 1 1
node 3 1 1 1
node 4 3 1 1
node 5 2 1 1
node 6 1 0 2
node 7 1 0 2
gene 3 1 6 2.2555 0 1 2.2555 1
gene 3 2 6 0.626675 0 2 0.626675 1
gene 2 3 6 -1.70577 0 3 -1.70577 1
gene 1 4 6 -1.75335 0 4 -1.75335 1
gene 3 5 6 -2.18204 0 5 -2.18204 1
gene 3 1 7 -3.0893 0 6 -3.0893 1
gene 3 2 7 -2.36205 0 7 -2.36205 1
gene 2 3 7 -0.225043 0 8 -0.225043 1
gene 3 4 7 2.34669 0 9 2.34669 1
gene 1 5 7 2.71813 0 10 2.71813 1
genomeend 0

/* Organism #1 Fitness: 69 Error: 0 */
genomestart 1
trait 1 0.135046 0 0 0 0.0491272 0.0050492 0 0.00820376 
trait 2 0.231376 0.279869 0.0807863 0 0.124269 0.0391786 0 0 
trait 3 0.3 0 0 0.00769615 0 0 0.0507518 0 
node 1 2 1 3
node 2 2 1 1
node 3 3 1 1
node 4 3 1 1
node 5 2 1 1
node 6 1 0 2
node 7 1 0 2
node 35 1 0 0
gene 3 1 6 -1.82494 0 1 -1.82494 1
gene 3 2 6 -0.761965 0 2 -0.761965 1
gene 3 3 6 1.25692 0 3 1.25692 0
gene 3 4 6 -6.3118 0 4 -6.3118 1
gene 3 5 6 -0.129933 0 5 -0.129933 1
gene 1 1 7 -4.06775 0 6 -4.06775 1
gene 2 2 7 -1.79722 0 7 -1.79722 1
gene 2 3 7 -3.53795 0 8 -3.53795 1
gene 3 4 7 1.89492 0 9 1.89492 1
gene 1 5 7 2.64817 0 10 2.64817 1
gene 3 3 35 0.964675 0 94 0.964675 1
gene 3 35 6 -2.11351 0 95 -2.11351 1
genomeend 1

/* Organism #2 Fitness: 7 Error: 0 */
genomestart 2
trait 1 0.137331 0 0 0 0 0.0053785 0 0.00873878 
trait 2 0.19375 0.163007 0.0150122 0.00449099 0.00536554 0 0 0 
trait 3 0.3 0 0.016438 0.00976819 0 0 0.0566078 0 
node 1 2 1 3
node 2 2 1 1
node 3 1 1 1
node 4 3 1 1
node 5 2 1 1
node 6 1 0 2
node 7 1 0 2
gene 3 1 6 1.73645 0 1 1.73645 1
gene 1 2 6 -4.21262 0 2 -4.21262 1
gene 3 3 6 2.61483 0 3 2.61483 1
gene 1 4 6 -4.40915 0 4 -4.40915 1
gene 3 5 6 -3.79685 0 5 -3.79685 1
gene 3 1 7 -6.1452 0 6 -6.1452 1
gene 2 2 7 -5.19391 0 7 -5.19391 1
gene 2 3 7 -0.85754 0 8 -0.85754 1
gene 3 4 7 4.16706 0 9 4.16706 1
gene 1 5 7 -0.621281 0 10 -0.621281 1
genomeend 2

/* Organism #3 Fitness: 29 Error: 0 */
genomestart 3
trait 1 0.136188 0 0 0 0.0245636 0.00521385 0 0.00847127 
trait 2 0.212563 0.221438 0.0478993 0.00224549 0.0648175 0.0195893 0 0 
trait 3 0.3 0 0.00821902 0.00873217 0 0 0.0536798 0 
node 1 2 1 3
node 2 2 1 1
node 3 3 1 1
node 4 3 1 1
node 5 2 1 1
node 6 1 0 2
node 7 1 0 2
node 35 1 0 0
gene 3 1 6 3.23308 0 1 3.23308 1
gene 3 2 6 -1.94914 0 2 -1.94914 1
gene 3 3 6 3.20255 0 3 3.20255 0
gene 3 4 6 -6.4721 0 4 -6.4721 1
gene 3 5 6 -1.3321 0 5 -1.3321 1
gene 3 1 7 -5.34096 0 6 -5.34096 1
gene 2 2 7 -3.99056 0 7 -3.99056 1
gene 2 3 7 -2.37957 0 8 -2.37957 1
gene 3 4 7 1.86776 0 9 1.86776 1
gene 1 5 7 0.591906 0 10 0.591906 1
gene 3 3 35 0.964675 0 94 0.964675 1
gene 3 35 6 0.242744 0 95 0.242744 1
genomeend 3

/* Organism #4 Fitness: 28 Error: 0 */
genomestart 4
trait 1 0.135046 0 0 0 0.0491272 0.0050492 0 0.00820376 
trait 2 0.231376 0.279869 0.0807863 0 0.124269 0.0391786 0 0 
trait 3 0.3 0 0 0.00769615 0 0 0.0507518 0 
node 1 2 1 3
node 2 2 1 1
node 3 3 1 1
node 4 3 1 1
node 5 2 1 1
node 6 1 0 2
node 7 1 0 2
node 35 1 0 0
gene 3 1 6 -2.59432 0 1 -2.59432 1
gene 3 2 6 -1.65295 0 2 -1.65295 1
gene 3 3 6 1.71668 0 3 1.71668 0
gene 3 4 6 -8 0 4 -8 1
gene 1 5 6 -1.06037 0 5 -1.06037 1
gene 1 1 7 -3.15387 0 6 -3.15387 1
gene 2 2 7 -2.02145 0 7 -2.02145 1
gene 2 3 7 -3.3337 0 8 -3.3337 1
gene 3 4 7 0.552026 0 9 0.552026 1
gene 1 5 7 2.23189 0 10 2.23189 1
gene 3 3 35 -0.873836 0 94 -0.873836 1
gene 3 35 6 -1.79502 0 95 -1.79502 1
genomeend 4

/* Organism #5 Fitness: 49 Error: 0 */
genomestart 5
trait 1 0.135046 0 0 0 0.0491272 0.0050492 0 0.00820376 
trait 2 0.231376 0.279869 0.0807863 0 0.124269 0.0391786 0 0 
trait 3 0.3 0 0 0.00769615 0 0 0.0507518 0 
node 1 2 1 3
node 2 2 1 1
node 3 3 1 1
node 4 3 1 1
node 5 2 1 1
node 6 1 0 2
node 7 1 0 2
node 35 1 0 0
gene 3 1 6 -0.314889 0 1 -0.314889 1
gene 3 2 6 -3.97785 0 2 -3.97785 1
gene 3 3 6 3.20255 0 3 3.20255 0
gene 3 4 6 -6.4721 0 4 -6.4721 1
gene 3 5 6 -1.15246 0 5 -1.15246 1
gene 1 1 7 -2.47178 0 6 -2.47178 1
gene 2 2 7 -2.92396 0 7 -2.92396 1
gene 2 3 7 -1.92672 0 8 -1.92672 1
gene 3 4 7 0.568277 0 9 0.568277 1
gene 1 5 7 2.59178 0 10 2.59178 1
gene 3 3 35 0.110706 0 94 0.110706 1
gene 3 35 6 2.14107 0 95 2.14107 1
genomeend 5

/* Organism #6 Fitness: 236 Error: 0 */
genomestart 6
trait 1 0.134665 0 0 0 0 0.00499432 0 0.00811459 
trait 2 0.195493 0.169499 0.0195004 0.00449099 0.0122694 0.00217659 0 0 
trait 3 0.3 0 0.0184928 0.00902817 0 0 0.0507518 0 
node 1 2 1 3
node 2 2 1 1
node 3 1 1 1
node 4 3 1 1
node 5 2 1 1
node 6 1 0 2
node 7 1 0 2
gene 3 1 6 2.41665 0 1 2.41665 1
gene 2 2 6 0.725705 0 2 0.725705 1
gene 3 3 6 -0.449748 0 3 -0.449748 1
gene 1 4 6 -3.57802 0 4 -3.57802 1
gene 3 5 6 -3.76647 0 5 -3.76647 1
gene 1 1 7 -1.35166 0 6 -1.35166 1
gene 2 2 7 -2.59387 0 7 -2.59387 1
gene 2 3 7 0.487651 0 8 0.487651 1
gene 1 4 7 3.10031 0 9 3.10031 1
gene 1 5 7 2.25892 0 10 2.25892 1
genomeend 6

/* Organism #7 Fitness: 14 Error: 0 */
genomestart 7
trait 1 0.134665 0 0 0 0 0.00499432 0 0.00811459 
trait 2 0.195493 0.169499 0.0195004 0.00449099 0.0122694 0.00217659 0 0 
trait 3 0.3 0 0.0184928 0.00902817 0 0 0.0507518 0 
node 1 2 1 3
node 2 2 1 1
node 3 1 1 1
node 4 3 1 1
node 5 2 1 1
node 6 1 0 2
node 7 1 0 2
gene 3 1 6 3.82988 0 1 3.82988 1
gene 1 2 6 0.509787 0 2 0.509787 1
gene 2 3 6 0.65815 0 3 0.65815 1
gene 2 4 6 -1.85266 0 4 -1.85266 1
gene 3 5 6 -2.01394 0 5 -2.01394 1
gene 1 1 7 -2.75902 0 6 -2.75902 1
gene 2 2 7 -1.84098 0 7 -1.84098 1
gene 2 3 7 -2.2362 0 8 -2.2362 1
gene 1 4 7 3.83924 0 9 3.83924 1
gene 1 5 7 4.60763 0 10 4.60763 1
genomeend 7

/* Organism #8 Fitness: 4 Error: 0 */
genomestart 8
trait 1 0.134665 0 0 0 0 0.00499432 0 0.00811459 
trait 2 0.195493 0.169499 0.0195004 0.00449099 0.0122694 0.00217659 0 0 
trait 3 0.3 0 0.0184928 0.00902817 0 0 0.0507518 0 
node 1 2 1 3
node 2 2 1 1
node 3 1 1 1
node 4 3 1 1
node 5 2 1 1
node 6 1 0 2
node 7 1 0 2
gene 3 1 6 4.95625 0 1 4.95625 1
gene 2 2 6 -1.78749 0 2 -1.78749 1
gene 3 3 6 1.44553 0 3 1.44553 1
gene 1 4 6 -0.495193 0 4 -0.495193 1
gene 3 5 6 -0.944497 0 5 -0.944497 1
gene 3 1 7 -3.5187 0 6 -3.5187 1
gene 3 2 7 -0.939312 0 7 -0.939312 1
gene 2 3 7 -0.608573 0 8 -0.608573 1
gene 3 4 7 2.66687 0 9 2.66687 1
gene 1 5 7 2.25892 0 10 2.25892 1
genomeend 8

/* Organism #9 Fitness: 10 Error: 0 */
genomestart 9
trait 1 0.125903 0 0 0 0 0.00373202 0 0.00606365 
trait 2 0.1875 0 0.0300245 0.00898198 0.0107311 0 0 0 
trait 3 0.3 0 0.0328761 0.0100642 0 0 0.0507518 0 
node 1 2 1 3
node 2 2 1 1
node 3 1 1 1
node 4 3 1 1
node 5 2 1 1
node 6 1 0 2
node 7 1 0 2
gene 3 1 6 0.0162831 0 1 0.0162831 1
gene 3 2 6 2.01794 0 2 2.01794 1
gene 2 3 6 -3.97681 0 3 -3.97681 1
gene 1 4 6 -1.24736 0 4 -1.24736 1
gene 3 5 6 -3.75351 0 5 -3.75351 1
gene 3 1 7 -1.29542 0 6 -1.29542 1
gene 3 2 7 -3.26441 0 7 -3.26441 1
gene 2 3 7 -2.68163 0 8 -2.68163 1
gene 3 4 7 0.118683 0 9 0.118683 1
gene 1 5 7 -1.4742 0 10 -1.4742 1
genomeend 9

/* Organism #10 Fitness: 35 Error: 0 */
genomestart 10
trait 1 0.131998 0 0 0 0 0.00461014 0 0.00749039 
trait 2 0.197236 0.175992 0.0239885 0.00449099 0.0191733 0.00435318 0 0 
trait 3 0.3 0 0.0205475 0.00828816 0 0 0.0448958 0 
node 1 2 1 3
node 2 2 1 1
node 3 1 1 1
node 4 3 1 1
node 5 2 1 1
node 6 1 0 2
node 7 1 0 2
gene 3 1 6 2.34731 0 1 2.34731 1
gene 2 2 6 1.3935 0 2 1.3935 1
gene 2 3 6 -0.472695 0 3 -0.472695 1
gene 2 4 6 -1.05098 0 4 -1.05098 1
gene 3 5 6 -3.04232 0 5 -3.04232 1
gene 1 1 7 -1.55576 0 6 -1.55576 1
gene 3 2 7 -2.7109 0 7 -2.7109 1
gene 2 3 7 -0.810137 0 8 -0.810137 1
gene 1 4 7 3.44375 0 9 3.44375 1
gene 1 5 7 3.92594 0 10 3.92594 1
gene 3 7 6 -0.992553 0 112 -0.992553 1
genomeend 10

/* Organism #11 Fitness: 119 Error: 0 */
genomestart 11
trait 1 0.130474 0 0 0 0.0245636 0.00439061 0 0.0071337 
trait 2 0.209438 0.139935 0.0554054 0.00449099 0.0675003 0.0195893 0 0 
trait 3 0.3 0 0.016438 0.00888017 0 0 0.0507518 0 
node 1 2 1 3
node 2 2 1 1
node 3 1 1 1
node 4 3 1 1
node 5 2 1 1
node 6 1 0 2
node 7 1 0 2
gene 3 1 6 0.431235 0 1 0.431235 1
gene 3 2 6 -1.02753 0 2 -1.02753 1
gene 3 3 6 0.394222 0 3 0.394222 0
gene 3 4 6 -4.69754 0 4 -4.69754 1
gene 3 5 6 -1.81545 0 5 -1.81545 1
gene 1 1 7 -3.21974 0 6 -3.21974 1
gene 2 2 7 -0.532194 0 7 -0.532194 1
gene 2 3 7 -1.18552 0 8 -1.18552 1
gene 3 4 7 0.796298 0 9 0.796298 1
gene 1 5 7 2.02567 0 10 2.02567 1
genomeend 11

/* Organism #12 Fitness: 8 Error: 0 */
genomestart 12
trait 1 0.130474 0 0 0 0.0245636 0.00439061 0 0.0071337 
trait 2 0.209438 0.139935 0.0554054 0.00449099 0.0675003 0.0195893 0 0 
trait 3 0.3 0 0.016438 0.00888017 0 0 0.0507518 0 
node 1 2 1 3
node 2 2 1 1
node 3 1 1 1
node 4 3 1 1
node 5 2 1 1
node 6 1 0 2
node 7 1 0 2
gene 3 1 6 0.921592 0 1 0.921592 1
gene 3 2 6 0.397915 0 2 0.397915 1
gene 3 3 6 1.59719 0 3 1.59719 0
gene 3 4 6 -1.19869 0 4 -1.19869 1
gene 3 5 6 1.40858 0 5 1.40858 1
gene 3 1 7 -3.87475 0 6 -3.87475 1
gene 3 2 7 -2.81071 0 7 -2.81071 1
gene 2 3 7 1.06293 0 8 1.06293 1
gene 3 4 7 0.318531 0 9 0.318531 1
gene 1 5 7 -1.81867 0 10 -1.81867 1
genomeend 12

/* Organism #13 Fitness: 87 Error: 0 */
genomestart 13
trait 1 0.125903 0 0 0 0 0.00373202 0 0.00606365 
trait 2 0.1875 0 0.0300245 0.00898198 0.0107311 0 0 0 
trait 3 0.3 0 0.0328761 0.0100642 0 0 0.0507518 0 
node 1 2 1 3
node 2 2 1 1
node 3 1 1 1
node 4 3 1 1
node 5 2 1 1
node 6 1 0 2
node 7 1 0 2
gene 3 1 6 2.2555 0 1 2.2555 1
gene 3 2 6 -0.416982 0 2 -0.416982 1
gene 2 3 6 -1.21023 0 3 -1.21023 1
gene 1 4 6 -1.75335 0 4 -1.75335 1
gene 3 5 6 0.18658 0 5 0.18658 1
gene 3 1 7 -0.878008 0 6 -0.878008 1
gene 3 2 7 -2.36205 0 7 -2.36205 1
gene 2 3 7 -0.788064 0 8 -0.788064 1
gene 3 4 7 1.36147 0 9 1.36147 1
gene 1 5 7 2.33894 0 10 2.33894 1
genomeend 13

/* Organism #14 Fitness: 30 Error: 0 */
genomestart 14
trait 1 0.137331 0 0 0 0 0.0053785 0 0.00873878 
trait 2 0.19375 0.163007 0.0150122 0.00449099 0.00536554 0 0 0 
trait 3 0.3 0 0.016438 0.00976819 0 0 0.0566078 0 
node 1 2 1 3
node 2 1 1 1
node 3 1 1 1
node 4 3 1 1
node 5 2 1 1
node 6 1 0 2
node 7 1 0 2
gene 3 1 6 4.28284 0 1 4.28284 1
gene 1 2 6 -5.67156 0 2 -5.67156 1
gene 3 3 6 2.34695 0 3 2.34695 1
gene 1 4 6 -2.91207 0 4 -2.91207 1
gene 3 5 6 -1.29464 0 5 -1.29464 1
gene 3 1 7 -6.93952 0 6 -6.93952 1
gene 2 2 7 -1.6755 0 7 -1.6755 1
gene 2 3 7 -3.03778 0 8 -3.03778 1
gene 3 4 7 8 0 9 8 1
gene 1 5 7 0.591906 0 10 0.591906 1
genomeend 14

/* Organism #15 Fitness: 39 Error: 0 */
genomestart 15
trait 1 0.134665 0 0 0 0 0.00499432 0 0.00811459 
trait 2 0.195493 0.169499 0.0195004 0.00449099 0.0122694 0.00217659 0 0 
trait 3 0.3 0 0.0184928 0.00902817 0 0 0.0507518 0 
node 1 2 1 3
node 2 2 1 1
node 3 1 1 1
node 4 3 1 1
node 5 2 1 1
node 6 1 0 2
node 7 1 0 2
gene 3 1 6 0.625764 0 1 0.625764 1
gene 2 2 6 -1.83195 0 2 -1.83195 1
gene 2 3 6 -0.472695 0 3 -0.472695 1
gene 1 4 6 -1.07737 0 4 -1.07737 1
gene 3 5 6 -1.72361 0 5 -1.72361 1
gene 3 1 7 -3.87645 0 6 -3.87645 1
gene 3 2 7 -5.14017 0 7 -5.14017 1
gene 2 3 7 -2.95553 0 8 -2.95553 1
gene 3 4 7 8 0 9 8 1
gene 1 5 7 6.36529 0 10 6.36529 1
genomeend 15

/* Organism #16 Fitness: 114 Error: 0 */
genomestart 16
trait 1 0.134665 0 0 0 0 0.00499432 0 0.00811459 
trait 2 0.195493 0.169499 0.0195004 0.00449099 0.0122694 0.00217659 0 0 
trait 3 0.3 0 0.0184928 0.00902817 0 0 0.0507518 0 
node 1 2 1 3
node 2 2 1 1
node 3 1 1 1
node 4 3 1 1
node 5 2 1 1
node 6 1 0 2
node 7 1 0 2
gene 3 1 6 2.7902 0 1 2.7902 1
gene 1 2 6 -1.39899 0 2 -1.39899 1
gene 3 3 6 0.204035 0 3 0.204035 1
gene 2 4 6 -2.05965 0 4 -2.05965 1
gene 3 5 6 -2.18721 0 5 -2.18721 1
gene 1 1 7 -3.44836 0 6 -3.44836 1
gene 2 2 7 -3.35073 0 7 -3.35073 1
gene 2 3 7 -1.59486 0 8 -1.59486 1
gene 1 4 7 5.03046 0 9 5.03046 1
gene 1 5 7 2.25892 0 10 2.25892 1
genomeend 16

/* Organism #17 Fitness: 15 Error: 0 */
genomestart 17
trait 1 0.134665 0 0 0 0 0.00499432 0 0.00811459 
trait 2 0.195493 0.169499 0.0195004 0.00449099 0.0122694 0.00217659 0 0 
trait 3 0.3 0 0.0184928 0.00902817 0 0 0.0507518 0 
node 1 2 1 3
node 2 2 1 1
node 3 1 1 1
node 4 3 1 1
node 5 2 1 1
node 6 1 0 2
node 7 1 0 2
gene 3 1 6 2.36578 0 1 2.36578 1
gene 2 2 6 -0.953142 0 2 -0.953142 1
gene 2 3 6 -2.68162 0 3 -2.68162 1
gene 1 4 6 -1.50295 0 4 -1.50295 1
gene 3 5 6 -0.0900754 0 5 -0.0900754 1
gene 1 1 7 -3.69999 0 6 -3.69999 1
gene 2 2 7 -1.67558 0 7 -1.67558 1
gene 2 3 7 -4.79626 0 8 -4.79626 1
gene 1 4 7 2.48082 0 9 2.48082 1
gene 1 5 7 4.13164 0 10 4.13164 1
genomeend 17

/* Organism #18 Fitness: 248 Error: 0 */
genomestart 18
trait 1 0.134665 0 0 0 0 0.00499432 0 0.00811459 
trait 2 0.195493 0.169499 0.0195004 0.00449099 0.0122694 0.00217659 0 0 
trait 3 0.3 0 0.0184928 0.00902817 0 0 0.0507518 0 
node 1 2 1 3
node 2 2 1 1
node 3 1 1 1
node 4 3 1 1
node 5 2 1 1
node 6 1 0 2
node 7 1 0 2
gene 3 1 6 1.02067 0 1 1.02067 1
gene 2 2 6 1.99576 0 2 1.99576 1
gene 3 3 6 -0.254982 0 3 -0.254982 1
gene 1 4 6 -5.49477 0 4 -5.49477 1
gene 3 5 6 -2.56333 0 5 -2.56333 1
gene 1 1 7 -0.108343 0 6 -0.108343 1
gene 3 2 7 -1.10967 0 7 -1.10967 1
gene 2 3 7 -0.403348 0 8 -0.403348 1
gene 1 4 7 -1.11011 0 9 -1.11011 1
gene 1 5 7 0.353328 0 10 0.353328 1
genomeend 18

/* Organism #19 Fitness: 21 Error: 0 */
genomestart 19
trait 1 0.137331 0 0 0 0 0.0053785 0 0.00873878 
trait 2 0.19375 0.163007 0.0150122 0.00449099 0.00536554 0 0 0 
trait 3 0.3 0 0.196589 0.00976819 0.633778 0.256325 0.0566078 0 
node 1 2 1 3
node 2 2 1 1
node 3 1 1 1
node 4 3 1 1
node 5 2 1 1
node 6 1 0 2
node 7 1 0 2
gene 3 1 6 2.66353 0 1 2.66353 1
gene 1 2 6 -3.26075 0 2 -3.26075 1
gene 3 3 6 1.45459 0 3 1.45459 1
gene 1 4 6 -3.16598 0 4 -3.16598 1
gene 3 5 6 -1.6361 0 5 -1.6361 1
gene 3 1 7 -7.7063 0 6 -7.7063 1
gene 2 2 7 -3.76518 0 7 -3.76518 1
gene 2 3 7 -4.44041 0 8 -4.44041 1
gene 3 4 7 4.76499 0 9 4.76499 1
gene 1 5 7 -1.92679 0 10 -1.92679 1
genomeend 19

/* Organism #20 Fitness: 42 Error: 0 */
genomestart 20
trait 1 0.125903 0 0 0 0 0.00373202 0 0.00606365 
trait 2 0.1875 0 0.0300245 0.00898198 0.0107311 0 0 0 
trait 3 0.3 0 0.0328761 0.0100642 0 0 0.0507518 0 
node 1 2 1 3
node 2 2 1 1
node 3 1 1 1
node 4 3 1 1
node 5 2 1 1
node 6 1 0 2
node 7 1 0 2
gene 3 1 6 2.21758 0 1 2.21758 1
gene 3 2 6 -1.35558 0 2 -1.35558 1
gene 2 3 6 0.512923 0 3 0.512923 1
gene 1 4 6 0.492121 0 4 0.492121 1
gene 3 5 6 -1.79804 0 5 -1.79804 1
gene 3 1 7 -1.31854 0 6 -1.31854 1
gene 3 2 7 -0.922496 0 7 -0.922496 1
gene 2 3 7 0.0355846 0 8 0.0355846 1
gene 3 4 7 4.5988 0 9 4.5988 1
gene 1 5 7 2.71813 0 10 2.71813 1
genomeend 20

/* Organism #21 Fitness: 131 Error: 0 */
genomestart 21
trait 1 0.136188 0 0 0 0.0245636 0.00521385 0 0.00847127 
trait 2 0.212563 0.221438 0.0478993 0.00224549 0.0648175 0.0195893 0 0 
trait 3 0.3 0 0.00821902 0.00873217 0 0 0.0536798 0 
node 1 2 1 3
node 2 2 1 1
node 3 3 1 1
node 4 3 1 1
node 5 2 1 1
node 6 1 0 2
node 7 1 0 2
node 35 1 0 0
gene 3 1 6 -2.07825 0 1 -2.07825 1
gene 1 2 6 -3.2799 0 2 -3.2799 1
gene 3 3 6 0.842402 0 3 0.842402 0
gene 1 4 6 -2.93976 0 4 -2.93976 1
gene 3 5 6 -1.56893 0 5 -1.56893 1
gene 3 1 7 -6.08622 0 6 -6.08622 1
gene 2 2 7 -2.65515 0 7 -2.65515 1
gene 2 3 7 -1.3558 0 8 -1.3558 1
gene 3 4 7 1.57546 0 9 1.57546 1
gene 1 5 7 0.24308 0 10 0.24308 1
gene 3 3 35 0.964675 0 94 0.964675 1
gene 3 35 6 -1.63704 0 95 -1.63704 1
genomeend 21

/* Organism #22 Fitness: 5 Error: 0 */
genomestart 22
trait 1 0.137331 0 0 0 0 0.0053785 0 0.00873878 
trait 2 0.19375 0.163007 0.0150122 0.00449099 0.00536554 0 0 0 
trait 3 0.3 0 0.016438 0.00976819 0 0 0.0566078 0 
node 1 2 1 3
node 2 2 1 1
node 3 1 1 1
node 4 3 1 1
node 5 2 1 1
node 6 1 0 2
node 7 1 0 2
gene 3 1 6 1.46133 0 1 1.46133 1
gene 1 2 6 -3.91011 0 2 -3.91011 1
gene 3 3 6 -2.4987 0 3 -2.4987 1
gene 1 4 6 -3.06832 0 4 -3.06832 1
gene 3 5 6 1.01904 0 5 1.01904 1
gene 3 1 7 -6.90496 0 6 -6.90496 1
gene 2 2 7 -2.21912 0 7 -2.21912 1
gene 2 3 7 -2.37957 0 8 -2.37957 1
gene 3 4 7 6.70498 0 9 6.70498 1
gene 1 5 7 -1.7243 0 10 -1.7243 1
genomeend 22

/* Organism #23 Fitness: 153 Error: 0 */
genomestart 23
trait 1 0.131998 0 0 0 0 0.00461014 0 0.00749039 
trait 2 0.197236 0.175992 0.0239885 0.00449099 0.0191733 0.00435318 0 0 
trait 3 0.3 0 0.0205475 0.00828816 0 0 0.0448958 0 
node 1 2 1 3
node 2 2 1 1
node 3 1 1 1
node 4 3 1 1
node 5 2 1 1
node 6 1 0 2
node 7 1 0 2
gene 3 1 6 4.4846 0 1 4.4846 1
gene 2 2 6 1.83175 0 2 1.83175 1
gene 2 3 6 -1.8796 0 3 -1.8796 1
gene 2 4 6 -2.42698 0 4 -2.42698 1
gene 3 5 6 -2.47941 0 5 -2.47941 1
gene 1 1 7 -1.05228 0 6 -1.05228 1
gene 3 2 7 -5.09882 0 7 -5.09882 1
gene 2 3 7 -1.87645 0 8 -1.87645 1
gene 1 4 7 4.18276 0 9 4.18276 1
gene 1 5 7 2.12382 0 10 2.12382 1
genomeend 23

/* Organism #24 Fitness: 16 Error: 0 */
genomestart 24
trait 1 0.139617 0 0 0 0 0.0057078 0 0.00927381 
trait 2 0.190986 0.0129847 0.0390007 0.00898198 0.0245388 0.00435318 0 0 
trait 3 0.3 0 0.0328761 0.0165763 0 0 0.0936956 0 
node 1 2 1 3
node 2 2 1 1
node 3 1 1 1
node 4 3 1 1
node 5 2 1 1
node 6 1 0 2
node 7 1 0 2
gene 3 1 6 2.39078 0 1 2.39078 1
gene 3 2 6 1.35263 0 2 1.35263 1
gene 2 3 6 -2.839 0 3 -2.839 1
gene 1 4 6 -0.872895 0 4 -0.872895 1
gene 3 5 6 -4.05035 0 5 -4.05035 1
gene 1 1 7 -4.95912 0 6 -4.95912 1
gene 2 2 7 1.64373 0 7 1.64373 1
gene 2 3 7 1.00471 0 8 1.00471 1
gene 1 4 7 4.07505 0 9 4.07505 1
gene 1 5 7 0.253433 0 10 0.253433 1
genomeend 24

/* Organism #25 Fitness: 10 Error: 0 */
genomestart 25
trait 1 0.138093 0 0 0 0 0.00548827 0 0.00891713 
trait 2 0.707873 1 0.37508 0 0.0276154 0.869634 0 0.976592 
trait 3 0.3 0 0.00821902 0.00651213 0 0 0.0390398 0 
node 1 2 1 3
node 2 2 1 1
node 3 3 1 1
node 4 3 1 1
node 5 2 1 1
node 6 2 0 2
node 7 1 0 2
gene 3 1 6 2.56928 0 1 2.56928 1
gene 2 2 6 0.675222 0 2 0.675222 1
gene 2 3 6 -0.569018 0 3 -0.569018 1
gene 2 4 6 0.0503555 0 4 0.0503555 1
gene 3 5 6 -3.37837 0 5 -3.37837 1
gene 1 1 7 2.12209 0 6 2.12209 1
gene 2 2 7 -1.89547 0 7 -1.89547 1
gene 1 3 7 2.41127 0 8 2.41127 1
gene 1 4 7 0.326243 0 9 0.326243 1
gene 3 5 7 6.19915 0 10 6.19915 1
genomeend 25

/* Organism #26 Fitness: 14 Error: 0 */
genomestart 26
trait 1 0.134665 0 0 0 0 0.00499432 0 0.00811459 
trait 2 0.192368 0.0879958 0.0270065 0.00673648 0.0149522 0.00217659 0 0 
trait 3 0.3 0 0.024657 0.0111002 0 0 0.0614878 0 
node 1 2 1 3
node 2 2 1 1
node 3 1 1 1
node 4 3 1 1
node 5 2 1 1
node 6 1 0 2
node 7 1 0 2
gene 3 1 6 5.20908 0 1 5.20908 1
gene 3 2 6 -0.623668 0 2 -0.623668 1
gene 2 3 6 -1.67127 0 3 -1.67127 0
gene 1 4 6 -1.24836 0 4 -1.24836 1
gene 3 5 6 -1.55343 0 5 -1.55343 1
gene 1 1 7 2.16775 0 6 2.16775 1
gene 2 2 7 2.31445 0 7 2.31445 1
gene 2 3 7 0.477196 0 8 0.477196 1
gene 1 4 7 4.07505 0 9 4.07505 1
gene 1 5 7 3.30699 0 10 3.30699 1
genomeend 26

/* Organism #27 Fitness: 22 Error: 0 */
genomestart 27
trait 1 0.138093 0 0 0 0 0.00548827 0 0.00891713 
trait 2 0.707873 1 0.37508 0 0.0276154 0.869634 0 0.976592 
trait 3 0.3 0 0.00821902 0.00651213 0 0 0.0390398 0 
node 1 2 1 3
node 2 2 1 1
node 3 3 1 1
node 4 3 1 1
node 5 2 1 1
node 6 2 0 2
node 7 1 0 2
gene 3 1 6 1.06312 0 1 1.06312 1
gene 2 2 6 3.12548 0 2 3.12548 1
gene 2 3 6 0.0806604 0 3 0.0806604 1
gene 2 4 6 1.54584 0 4 1.54584 1
gene 3 5 6 -1.9453 0 5 -1.9453 1
gene 1 1 7 2.12209 0 6 2.12209 1
gene 2 2 7 -3.77602 0 7 -3.77602 1
gene 1 3 7 -3.1766 0 8 -3.1766 1
gene 1 4 7 6.45738 0 9 6.45738 1
gene 3 5 7 5.13375 0 10 5.13375 1
genomeend 27

/* Organism #28 Fitness: 209 Error: 0 */
genomestart 28
trait 1 0.134665 0 0 0 0 0.00499432 0 0.00811459 
trait 2 0.192368 0.0879958 0.0270065 0.00673648 0.0149522 0.00217659 0 0 
trait 3 0.3 0 0.024657 0.0111002 0 0 0.0614878 0 
node 1 2 1 3
node 2 2 1 1
node 3 1 1 1
node 4 3 1 1
node 5 2 1 1
node 6 1 0 2
node 7 1 0 2
gene 3 1 6 3.42238 0 1 3.42238 1
gene 3 2 6 1.15705 0 2 1.15705 1
gene 2 3 6 -0.352219 0 3 -0.352219 1
gene 1 4 6 -0.114892 0 4 -0.114892 1
gene 3 5 6 -3.78756 0 5 -3.78756 1
gene 1 1 7 -1.5609 0 6 -1.5609 1
gene 3 2 7 0.61266 0 7 0.61266 1
gene 2 3 7 -0.179681 0 8 -0.179681 1
gene 3 4 7 2.83583 0 9 2.83583 1
gene 1 5 7 1.78021 0 10 1.78021 1
gene 3 7 6 -0.992553 0 112 0 1
genomeend 28

/* Organism #29 Fitness: 13 Error: 0 */
genomestart 29
trait 1 0.139617 0 0 0 0 0.0057078 0 0.00927381 
trait 2 0.190986 0.0129847 0.0390007 0.00898198 0.0245388 0.00435318 0 0 
trait 3 0.3 0 0.0328761 0.0165763 0 0 0.0936956 0 
node 1 2 1 3
node 2 2 1 1
node 3 1 1 1
node 4 3 1 1
node 5 2 1 1
node 6 1 0 2
node 7 1 0 2
gene 3 1 6 0.816097 0 1 0.816097 1
gene 3 2 6 1.86382 0 2 1.86382 1
gene 2 3 6 -4.44862 0 3 -4.44862 1
gene 1 4 6 -1.73809 0 4 -1.73809 1
gene 3 5 6 -2.61811 0 5 -2.61811 1
gene 1 1 7 -5.72361 0 6 -5.72361 1
gene 1 2 7 1.32252 0 7 1.32252 1
gene 2 3 7 0.592174 0 8 0.592174 1
gene 1 4 7 2.55835 0 9 2.55835 1
gene 1 5 7 1.94378 0 10 1.94378 1
genomeend 29

/* Organism #30 Fitness: 1 Error: 0 */
genomestart 30
trait 1 0.133903 0 0 0 0 0.00488456 0 0.00793624 
trait 2 0.450811 0.581503 0.195046 0.00224549 0.0164905 0.434817 0 0.488296 
trait 3 0.3 0 0.0123285 0.00606812 0 0 0.0341599 0 
node 1 2 1 3
node 2 2 1 1
node 3 3 1 1
node 4 3 1 1
node 5 2 1 1
node 6 2 0 2
node 7 1 0 2
gene 3 1 6 2.39952 0 1 2.39952 1
gene 3 2 6 3.36469 0 2 3.36469 1
gene 2 3 6 0.0786038 0 3 0.0786038 0
gene 1 4 6 -0.758075 0 4 -0.758075 1
gene 3 5 6 -0.953747 0 5 -0.953747 1
gene 1 1 7 3.12918 0 6 3.12918 1
gene 2 2 7 -2.09721 0 7 -2.09721 1
gene 2 3 7 -3.47688 0 8 -3.47688 1
gene 3 4 7 4.47432 0 9 4.47432 1
gene 1 5 7 2.73999 0 10 2.73999 1
genomeend 30

/* Organism #31 Fitness: 53 Error: 0 */
genomestart 31
trait 1 0.129713 0 0 0 0 0.00428085 0 0.00695536 
trait 2 0.19375 0.163007 0.0150122 0.00449099 0.00536554 0 0 0 
trait 3 0.3 0 0.016438 0.00562411 0 0 0.0292799 0 
node 1 2 1 3
node 2 2 1 1
node 3 1 1 1
node 4 3 1 1
node 5 2 1 1
node 6 1 0 2
node 7 1 0 2
gene 3 1 6 5.22678 0 1 5.22678 1
gene 3 2 6 3.26546 0 2 3.26546 1
gene 2 3 6 1.99181 0 3 1.99181 0
gene 1 4 6 1.12187 0 4 1.12187 1
gene 3 5 6 -5.14241 0 5 -5.14241 1
gene 1 1 7 4.24751 0 6 4.24751 1
gene 3 2 7 0.854444 0 7 0.854444 1
gene 2 3 7 -0.800012 0 8 -0.800012 1
gene 3 4 7 -0.736217 0 9 -0.736217 1
gene 1 5 7 3.30699 0 10 3.30699 1
genomeend 31

/* Organism #32 Fitness: 135 Error: 0 */
genomestart 32
trait 1 0.134665 0 0 0 0 0.00499432 0 0.00811459 
trait 2 0.192368 0.0879958 0.0270065 0.00673648 0.0149522 0.00217659 0 0 
trait 3 0.3 0 0.024657 0.0111002 0 0 0.0614878 0 
node 1 2 1 3
node 2 2 1 1
node 3 1 1 1
node 4 3 1 1
node 5 2 1 1
node 6 1 0 2
node 7 1 0 2
gene 3 1 6 1.75401 0 1 1.75401 1
gene 3 2 6 2.64841 0 2 2.64841 1
gene 2 3 6 -2.57191 0 3 -2.57191 1
gene 1 4 6 0.0418971 0 4 0.0418971 1
gene 3 5 6 -1.57161 0 5 -1.57161 1
gene 1 1 7 -0.219385 0 6 -0.219385 1
gene 3 2 7 -1.28384 0 7 -1.28384 1
gene 2 3 7 -2.46063 0 8 -2.46063 1
gene 1 4 7 3.63359 0 9 3.63359 1
gene 1 5 7 4.10984 0 10 4.10984 1
genomeend 32

/* Organism #33 Fitness: 160 Error: 0 */
genomestart 33
trait 1 0.138855 0 0 0 0 0.00559803 0 0.00909547 
trait 2 0.44943 0.506492 0.20704 0.00449099 0.0260771 0.436993 0 0.488296 
trait 3 0.3 0 0.0205475 0.0115442 0 0 0.0663677 0 
node 1 2 1 3
node 2 2 1 1
node 3 3 1 1
node 4 3 1 1
node 5 2 1 1
node 6 2 0 2
node 7 1 0 2
gene 3 1 6 2.99176 0 1 2.99176 1
gene 3 2 6 0.199263 0 2 0.199263 1
gene 2 3 6 -1.14759 0 3 -1.14759 1
gene 1 4 6 -1.51821 0 4 -1.51821 1
gene 3 5 6 -3.10366 0 5 -3.10366 1
gene 1 1 7 -3.18111 0 6 -3.18111 1
gene 2 2 7 0.105518 0 7 0.105518 1
gene 1 3 7 -1.38737 0 8 -1.38737 1
gene 1 4 7 5.75721 0 9 5.75721 1
gene 1 5 7 -1.00299 0 10 -1.00299 1
genomeend 33

/* Organism #34 Fitness: 52 Error: 0 */
genomestart 34
trait 1 0.138855 0 0 0 0 0.00559803 0 0.00909547 
trait 2 0.44943 0.506492 0.20704 0.00449099 0.0260771 0.436993 0 0.488296 
trait 3 0.3 0 0.0205475 0.0115442 0 0 0.0663677 0 
node 1 2 1 3
node 2 2 1 1
node 3 3 1 1
node 4 3 1 1
node 5 2 1 1
node 6 2 0 2
node 7 1 0 2
gene 3 1 6 0.454707 0 1 0.454707 1
gene 3 2 6 3.70135 0 2 3.70135 1
gene 2 3 6 -2.6373 0 3 -2.6373 1
gene 1 4 6 0.0699689 0 4 0.0699689 1
gene 3 5 6 -4.81375 0 5 -4.81375 1
gene 1 1 7 -1.27172 0 6 -1.27172 1
gene 2 2 7 0.505406 0 7 0.505406 1
gene 2 3 7 -3.26825 0 8 -3.26825 1
gene 1 4 7 6.20092 0 9 6.20092 1
gene 3 5 7 2.69359 0 10 2.69359 1
genomeend 34

/* Organism #35 Fitness: 383 Error: 0 */
genomestart 35
trait 1 0.139617 0 0 0 0 0.0057078 0 0.00927381 
trait 2 0.190986 0.0129847 0.0390007 0.00898198 0.0245388 0.00435318 0 0 
trait 3 0.3 0 0.0328761 0.0165763 0 0 0.0936956 0 
node 1 2 1 3
node 2 2 1 1
node 3 1 1 1
node 4 3 1 1
node 5 2 1 1
node 6 1 0 2
node 7 1 0 2
gene 3 1 6 2.39078 0 1 2.39078 1
gene 3 2 6 1.35263 0 2 1.35263 1
gene 2 3 6 -2.839 0 3 -2.839 1
gene 1 4 6 -0.872895 0 4 -0.872895 1
gene 3 5 6 -4.05035 0 5 -4.05035 1
gene 1 1 7 -4.95912 0 6 -4.95912 1
gene 2 2 7 1.64373 0 7 1.64373 1
gene 2 3 7 1.00471 0 8 1.00471 1
gene 1 4 7 4.07505 0 9 4.07505 1
gene 1 5 7 0.253433 0 10 0.253433 1
genomeend 35

/* Organism #36 Fitness: 50 Error: 0 */
genomestart 36
trait 1 0.129713 0 0 0 0 0.00428085 0 0.00695536 
trait 2 0.19375 0.163007 0.0150122 0.00449099 0.00536554 0 0 0 
trait 3 0.3 0 0.016438 0.00562411 0 0 0.0292799 0 
node 1 2 1 3
node 2 2 1 1
node 3 1 1 1
node 4 3 1 1
node 5 2 1 1
node 6 1 0 2
node 7 1 0 2
node 43 1 0 0
gene 3 1 6 4.45398 0 1 4.45398 1
gene 3 2 6 0.961463 0 2 0.961463 0
gene 2 3 6 2.13456 0 3 2.13456 0
gene 1 4 6 0.643112 0 4 0.643112 1
gene 3 5 6 -3.52478 0 5 -3.52478 1
gene 1 1 7 1.83731 0 6 1.83731 1
gene 3 2 7 -0.418407 0 7 -0.418407 1
gene 2 3 7 -1.36407 0 8 -1.36407 1
gene 3 4 7 1.59662 0 9 1.59662 1
gene 1 5 7 3.30699 0 10 3.30699 1
gene 3 2 43 1 0 116 0 1
gene 3 43 6 0.961463 0 117 0 1
genomeend 36

/* Organism #37 Fitness: 3 Error: 0 */
genomestart 37
trait 1 0.139617 0 0 0 0 0.0057078 0 0.00927381 
trait 2 0.190986 0.0129847 0.0390007 0.00898198 0.0245388 0.00435318 0 0 
trait 3 0.3 0 0.0328761 0.0165763 0 0 0.0936956 0 
node 1 2 1 3
node 2 2 1 1
node 3 1 1 1
node 4 3 1 1
node 5 2 1 1
node 6 1 0 2
node 7 1 0 2
gene 3 1 6 3.65729 0 1 3.65729 1
gene 3 2 6 1.20256 0 2 1.20256 1
gene 2 3 6 -1.51023 0 3 -1.51023 1
gene 1 4 6 -0.241467 0 4 -0.241467 1
gene 3 5 6 -1.66586 0 5 -1.66586 1
gene 1 1 7 -3.62073 0 6 -3.62073 1
gene 2 2 7 -0.251854 0 7 -0.251854 1
gene 2 3 7 -0.788635 0 8 -0.788635 1
gene 1 4 7 4.07505 0 9 4.07505 1
gene 1 5 7 -0.498543 0 10 -0.498543 1
genomeend 37

/* Organism #38 Fitness: 19 Error: 0 */
genomestart 38
trait 1 0.138093 0.613666 0 0 0 0 0 0.00891713 
trait 2 0.707873 1 0.37508 0 0.0276154 0.869634 0 0.976592 
trait 3 0.3 0 0.00821902 0.00651213 0 0 0.0390398 0 
node 1 2 1 3
node 2 2 1 1
node 3 3 1 1
node 4 3 1 1
node 5 2 1 1
node 6 2 0 2
node 7 1 0 2
gene 3 1 6 -0.0292138 0 1 -0.0292138 1
gene 2 2 6 2.02872 0 2 2.02872 1
gene 2 3 6 -0.146245 0 3 -0.146245 1
gene 2 4 6 0.481964 0 4 0.481964 1
gene 3 5 6 -1.73655 0 5 -1.73655 1
gene 1 1 7 3.041 0 6 3.041 1
gene 2 2 7 -3.41842 0 7 -3.41842 1
gene 1 3 7 -2.57721 0 8 -2.57721 1
gene 1 4 7 7.73763 0 9 7.73763 1
gene 3 5 7 5.13375 0 10 5.13375 1
genomeend 38

/* Organism #39 Fitness: 14 Error: 0 */
genomestart 39
trait 1 0.139617 0 0 0 0 0.0057078 0 0.00927381 
trait 2 0.190986 0.0129847 0.0390007 0.00898198 0.0245388 0.00435318 0 0 
trait 3 0.3 0 0.0328761 0.0165763 0 0 0.0936956 0 
node 1 2 1 3
node 2 2 1 1
node 3 1 1 1
node 4 3 1 1
node 5 2 1 1
node 6 1 0 2
node 7 1 0 2
gene 3 1 6 1.44531 0 1 1.44531 1
gene 3 2 6 1.30678 0 2 1.30678 1
gene 2 3 6 -2.64643 0 3 -2.64643 1
gene 3 4 6 -0.880372 0 4 -0.880372 1
gene 3 5 6 -6.1443 0 5 -6.1443 1
gene 1 1 7 -5.98721 0 6 -5.98721 1
gene 2 2 7 3.52603 0 7 3.52603 1
gene 2 3 7 2.86298 0 8 2.86298 1
gene 1 4 7 5.43457 0 9 5.43457 1
gene 1 5 7 1.86321 0 10 1.86321 1
genomeend 39

/* Organism #40 Fitness: 19 Error: 0 */
genomestart 40
trait 1 0.129713 0 0 0 0 0.00428085 0 0.00695536 
trait 2 0.19375 0.163007 0.0150122 0.00449099 0.00536554 0 0 0 
trait 3 0.3 0 0.016438 0.00562411 0 0 0.0292799 0 
node 1 2 1 3
node 2 2 1 1
node 3 1 1 1
node 4 3 1 1
node 5 2 1 1
node 6 1 0 2
node 7 1 0 2
gene 3 1 6 5.59652 0 1 5.59652 1
gene 3 2 6 3.08845 0 2 3.08845 1
gene 2 3 6 0.875751 0 3 0.875751 0
gene 1 4 6 -0.441669 0 4 -0.441669 1
gene 3 5 6 -5.53694 0 5 -5.53694 1
gene 1 1 7 3.0772 0 6 3.0772 1
gene 3 2 7 -2.83563 0 7 -2.83563 1
gene 2 3 7 -3.09645 0 8 -3.09645 1
gene 3 4 7 3.98286 0 9 3.98286 1
gene 1 5 7 3.30699 0 10 3.30699 1
genomeend 40

/* Organism #41 Fitness: 12 Error: 0 */
genomestart 41
trait 1 0.138093 0 0 0 0 0.00548827 0 0.00891713 
trait 2 0.707873 1 0.37508 0 0.0276154 0.869634 0 0.976592 
trait 3 0.3 0 0.00821902 0.00651213 0 0 0.0390398 0 
node 1 2 1 3
node 2 2 1 1
node 3 3 1 1
node 4 3 1 1
node 5 2 1 1
node 6 2 0 2
node 7 1 0 2
gene 3 1 6 1.06312 0 1 1.06312 1
gene 2 2 6 4.21377 0 2 4.21377 1
gene 2 3 6 1.25494 0 3 1.25494 1
gene 2 4 6 1.9509 0 4 1.9509 1
gene 3 5 6 -2.36175 0 5 -2.36175 1
gene 1 1 7 -2.48321 0 6 -2.48321 1
gene 2 2 7 -3.048 0 7 -3.048 1
gene 1 3 7 -3.1766 0 8 -3.1766 1
gene 1 4 7 1.74078 0 9 1.74078 1
gene 3 5 7 3.46195 0 10 3.46195 1
genomeend 41

/* Organism #42 Fitness: 1 Error: 0 */
genomestart 42
trait 1 0.134665 0 0 0 0 0.00499432 0 0.00811459 
trait 2 0.192368 0.0879958 0.0270065 0.00673648 0.0149522 0.00217659 0 0 
trait 3 0.3 0 0.024657 0.0111002 0 0 0.0614878 0 
node 1 2 1 3
node 2 2 1 1
node 3 1 1 1
node 4 3 1 1
node 5 2 1 1
node 6 1 0 2
node 7 1 0 2
gene 3 1 6 2.2758 0 1 2.2758 1
gene 3 2 6 0.366429 0 2 0.366429 1
gene 2 3 6 -5.28422 0 3 -5.28422 0
gene 1 4 6 -1.71133 0 4 -1.71133 1
gene 3 5 6 -4.05035 0 5 -4.05035 1
gene 1 1 7 -0.442802 0 6 -0.442802 1
gene 2 2 7 -0.927227 0 7 -0.927227 1
gene 2 3 7 1.10328 0 8 1.10328 1
gene 3 4 7 1.61844 0 9 1.61844 1
gene 1 5 7 3.96603 0 10 3.96603 1
genomeend 42

/* Organism #43 Fitness: 49 Error: 0 */
genomestart 43
trait 1 0.133903 0 0 0 0 0.00488456 0 0.00793624 
trait 2 0.450811 0.581503 0.195046 0.00224549 0.0164905 0.434817 0 0.488296 
trait 3 0.3 0 0.0123285 0.00606812 0 0 0.0341599 0 
node 1 2 1 3
node 2 2 1 1
node 3 1 1 1
node 4 3 1 1
node 5 2 1 1
node 6 1 0 2
node 7 1 0 2
gene 3 1 6 1.06312 0 1 1.06312 1
gene 2 2 6 3.12548 0 2 3.12548 1
gene 2 3 6 0.0806604 0 3 0.0806604 0
gene 1 4 6 0.643112 0 4 0.643112 1
gene 3 5 6 -3.52478 0 5 -3.52478 1
gene 1 1 7 1.83731 0 6 1.83731 1
gene 2 2 7 -3.77602 0 7 -3.77602 1
gene 1 3 7 -3.1766 0 8 -3.1766 1
gene 3 4 7 1.59662 0 9 1.59662 1
gene 1 5 7 3.30699 0 10 3.30699 1
genomeend 43

/* Organism #44 Fitness: 16 Error: 0 */
genomestart 44
trait 1 0.134665 0 0 0 0 0.00499432 0 0.00811459 
trait 2 0.192368 0.0879958 0.0270065 0.00673648 0.0149522 0.00217659 0 0 
trait 3 0.3 0 0.024657 0.0111002 0 0 0.0614878 0 
node 1 2 1 3
node 2 2 1 1
node 3 1 1 1
node 4 3 1 1
node 5 2 1 1
node 6 1 0 2
node 7 1 0 2
gene 3 1 6 3.70902 0 1 3.70902 1
gene 3 2 6 3.66739 0 2 3.66739 1
gene 2 3 6 -2.92308 0 3 -2.92308 1
gene 1 4 6 0.376914 0 4 0.376914 1
gene 3 5 6 -3.69133 0 5 -3.69133 1
gene 1 1 7 0.890934 0 6 0.890934 1
gene 2 2 7 0.969573 0 7 0.969573 1
gene 2 3 7 1.97256 0 8 1.97256 1
gene 3 4 7 -0.43416 0 9 -0.43416 1
gene 1 5 7 3.30699 0 10 3.30699 1
genomeend 44

/* Organism #45 Fitness: 46 Error: 0 */
genomestart 45
trait 1 0.129713 0 0 0 0 0.00428085 0 0.00695536 
trait 2 0.19375 0.163007 0.0150122 0.00449099 0.00536554 0 0 0 
trait 3 0.3 0 0.016438 0.00562411 0 0 0.0292799 0 
node 1 2 1 3
node 2 2 1 1
node 3 1 1 1
node 4 3 1 1
node 5 2 1 1
node 6 1 0 2
node 7 1 0 2
gene 3 1 6 4.45398 0 1 4.45398 1
gene 3 2 6 0.961463 0 2 0.961463 1
gene 2 3 6 2.13456 0 3 2.13456 0
gene 1 4 6 0.643112 0 4 0.643112 1
gene 3 5 6 -3.52478 0 5 -3.52478 1
gene 1 1 7 1.83731 0 6 1.83731 1
gene 3 2 7 -0.418407 0 7 -0.418407 1
gene 2 3 7 -1.36407 0 8 -1.36407 1
gene 3 4 7 1.59662 0 9 1.59662 1
gene 1 5 7 3.30699 0 10 3.30699 1
genomeend 45

/* Organism #46 Fitness: 19 Error: 0 */
genomestart 46
trait 1 0.138855 0 0 0 0 0.00559803 0 0.00909547 
trait 2 0.44943 0.506492 0.20704 0.00449099 0.0260771 0.436993 0 0.488296 
trait 3 0.3 0 0.0205475 0.0115442 0 0 0.0663677 0 
node 1 2 1 3
node 2 2 1 1
node 3 3 1 1
node 4 3 1 1
node 5 2 1 1
node 6 2 0 2
node 7 1 0 2
gene 3 1 6 -0.163445 0 1 -0.163445 1
gene 3 2 6 4.35628 0 2 4.35628 1
gene 2 3 6 -3.49891 0 3 -3.49891 1
gene 1 4 6 2.32582 0 4 2.32582 1
gene 3 5 6 -1.62403 0 5 -1.62403 1
gene 1 1 7 -3.90241 0 6 -3.90241 1
gene 2 2 7 -3.4681 0 7 -3.4681 1
gene 1 3 7 -2.41914 0 8 -2.41914 1
gene 1 4 7 3.07651 0 9 3.07651 1
gene 1 5 7 2.69359 0 10 2.69359 1
genomeend 46

/* Organism #47 Fitness: 2 Error: 0 */
genomestart 47
trait 1 0.129713 0 0 0 0 0.00428085 0 0.00695536 
trait 2 0.19375 0.163007 0.0150122 0.00449099 0.00536554 0 0 0 
trait 3 0.3 0 0.016438 0.00562411 0 0 0.0292799 0 
node 1 2 1 3
node 2 2 1 1
node 3 1 1 1
node 4 3 1 1
node 5 2 1 1
node 6 1 0 2
node 7 1 0 2
gene 3 1 6 2.51682 0 1 2.51682 1
gene 3 2 6 0.0198909 0 2 0.0198909 1
gene 2 3 6 0.65762 0 3 0.65762 0
gene 1 4 6 1.06778 0 4 1.06778 1
gene 3 5 6 -5.32316 0 5 -5.32316 1
gene 1 1 7 1.03269 0 6 1.03269 1
gene 3 2 7 1.16367 0 7 1.16367 1
gene 2 3 7 -1.62081 0 8 -1.62081 1
gene 3 4 7 0.390679 0 9 0.390679 1
gene 1 5 7 3.30699 0 10 3.30699 1
genomeend 47

/* Organism #48 Fitness: 8 Error: 0 */
genomestart 48
trait 1 0.134665 0 0 0 0 0.00499432 0 0.00811459 
trait 2 0.192368 0.0879958 0.0270065 0.00673648 0.0149522 0.00217659 0 0 
trait 3 0.3 0 0.024657 0.0111002 0 0 0.0614878 0 
node 1 2 1 3
node 2 2 1 1
node 3 1 1 1
node 4 3 1 1
node 5 2 1 1
node 6 1 0 2
node 7 1 0 2
gene 3 1 6 4.45398 0 1 4.45398 1
gene 3 2 6 0.961463 0 2 0.961463 1
gene 2 3 6 -2.839 0 3 -2.839 0
gene 1 4 6 0.643112 0 4 0.643112 1
gene 3 5 6 -3.52478 0 5 -3.52478 1
gene 1 1 7 -4.95912 0 6 -4.95912 1
gene 2 2 7 1.64373 0 7 1.64373 1
gene 2 3 7 -1.36407 0 8 -1.36407 1
gene 3 4 7 1.59662 0 9 1.59662 1
gene 1 5 7 0.253433 0 10 0.253433 1
genomeend 48

/* Organism #49 Fitness: 196 Error: 0 */
genomestart 49
trait 1 0.133903 0 0 0 0 0.00488456 0 0.00793624 
trait 2 0.450811 0.581503 0.195046 0.00224549 0.0164905 0.434817 0 0.488296 
trait 3 0.3 0 0.0123285 0.00606812 0 0 0.0341599 0 
node 1 2 1 3
node 2 2 1 1
node 3 1 1 1
node 4 3 1 1
node 5 2 1 1
node 6 1 0 2
node 7 1 0 2
gene 3 1 6 2.75855 0 1 2.75855 1
gene 3 2 6 2.04347 0 2 2.04347 1
gene 2 3 6 1.10761 0 3 1.10761 0
gene 1 4 6 1.09448 0 4 1.09448 1
gene 3 5 6 -2.73504 0 5 -2.73504 1
gene 1 1 7 1.9797 0 6 1.9797 1
gene 2 2 7 -2.09721 0 7 -2.09721 1
gene 1 3 7 -2.27033 0 8 -2.27033 1
gene 1 4 7 4.027 0 9 4.027 1
gene 3 5 7 4.22037 0 10 4.22037 1
gene 3 6 7 0.385266 0 122 0.385266 1
genomeend 49

/* Organism #50 Fitness: 11 Error: 0 */
genomestart 50
trait 1 0.133903 0 0 0 0 0.00488456 0 0.00793624 
trait 2 0.450811 0.581503 0.195046 0.00224549 0.0164905 0.434817 0 0.488296 
trait 3 0.3 0 0.0123285 0.00606812 0 0 0.0341599 0 
node 1 2 1 3
node 2 2 1 1
node 3 3 1 1
node 4 3 1 1
node 5 2 1 1
node 6 2 0 2
node 7 1 0 2
gene 3 1 6 4.45398 0 1 4.45398 1
gene 3 2 6 0.961463 0 2 0.961463 1
gene 2 3 6 0.0806604 0 3 0.0806604 0
gene 1 4 6 0.643112 0 4 0.643112 1
gene 3 5 6 -1.9453 0 5 -1.9453 1
gene 1 1 7 1.83731 0 6 1.83731 1
gene 2 2 7 -3.77602 0 7 -3.77602 1
gene 2 3 7 -1.36407 0 8 -1.36407 1
gene 3 4 7 1.59662 0 9 1.59662 1
gene 1 5 7 3.30699 0 10 3.30699 1
genomeend 50

/* Organism #51 Fitness: 13 Error: 0 */
genomestart 51
trait 1 0.139617 0 0 0 0 0.0057078 0 0.00927381 
trait 2 0.190986 0.0129847 0.0390007 0.00898198 0.0245388 0.00435318 0 0 
trait 3 0.3 0 0.0328761 0.0165763 0 0 0.0936956 0 
node 1 2 1 3
node 2 2 1 1
node 3 1 1 1
node 4 3 1 1
node 5 2 1 1
node 6 1 0 2
node 7 1 0 2
gene 3 1 6 -0.0010362 0 1 -0.0010362 1
gene 3 2 6 -0.871936 0 2 -0.871936 1
gene 2 3 6 -1.72218 0 3 -1.72218 1
gene 1 4 6 1.27912 0 4 1.27912 1
gene 3 5 6 -3.86968 0 5 -3.86968 1
gene 1 1 7 -7.27921 0 6 -7.27921 1
gene 2 2 7 -0.525376 0 7 -0.525376 1
gene 2 3 7 1.01028 0 8 1.01028 1
gene 1 4 7 1.59488 0 9 1.59488 1
gene 1 5 7 0.287309 0 10 0.287309 1
genomeend 51

/* Organism #52 Fitness: 2 Error: 0 */
genomestart 52
trait 1 0.138855 0 0 0 0 0.00559803 0 0.00909547 
trait 2 0.44943 0.506492 0.20704 0.00449099 0.0260771 0.436993 0 0.488296 
trait 3 0.3 0 0.0205475 0.0115442 0 0 0.0663677 0 
node 1 2 1 3
node 2 2 1 1
node 3 1 1 1
node 4 3 1 1
node 5 2 1 1
node 6 1 0 2
node 7 1 0 2
gene 3 1 6 1.33682 0 1 1.33682 1
gene 2 2 6 5.45579 0 2 5.45579 1
gene 2 3 6 -0.172872 0 3 -0.172872 1
gene 2 4 6 2.25478 0 4 2.25478 1
gene 3 5 6 -1.54314 0 5 -1.54314 1
gene 1 1 7 1.42979 0 6 1.42979 1
gene 2 2 7 -5.14241 0 7 -5.14241 1
gene 2 3 7 -0.852687 0 8 -0.852687 1
gene 1 4 7 7.1043 0 9 7.1043 1
gene 1 5 7 0.800478 0 10 0.800478 1
genomeend 52

/* Organism #53 Fitness: 19 Error: 0 */
genomestart 53
trait 1 0.129713 0 0 0 0 0.00428085 0 0.00695536 
trait 2 0.19375 0.163007 0.0150122 0.00449099 0.00536554 0 0 0 
trait 3 0.3 0 0.016438 0.00562411 0 0 0.0292799 0 
node 1 2 1 3
node 2 2 1 1
node 3 1 1 1
node 4 3 1 1
node 5 2 1 1
node 6 1 0 2
node 7 1 0 2
gene 3 1 6 4.45398 0 1 4.45398 1
gene 3 2 6 0.961463 0 2 0.961463 1
gene 2 3 6 2.13456 0 3 2.13456 0
gene 1 4 6 0.643112 0 4 0.643112 1
gene 3 5 6 -3.52478 0 5 -3.52478 1
gene 1 1 7 1.83731 0 6 1.83731 1
gene 3 2 7 -0.418407 0 7 -0.418407 1
gene 2 3 7 -1.36407 0 8 -1.36407 1
gene 3 4 7 1.59662 0 9 1.59662 1
gene 1 5 7 3.30699 0 10 3.30699 1
genomeend 53

/* Organism #54 Fitness: 41 Error: 0 */
genomestart 54
trait 1 0.133903 0 0 0 0 0.00488456 0 0.00793624 
trait 2 0.450811 0.581503 0.195046 0.00224549 0.0164905 0.434817 0 0.488296 
trait 3 0.3 0 0.0123285 0.00606812 0 0 0.0341599 0 
node 1 2 1 3
node 2 2 1 1
node 3 1 1 1
node 4 3 1 1
node 5 2 1 1
node 6 1 0 2
node 7 1 0 2
gene 3 1 6 4.45398 0 1 4.45398 1
gene 3 2 6 0.961463 0 2 0.961463 1
gene 2 3 6 2.13456 0 3 2.13456 0
gene 1 4 6 0.643112 0 4 0.643112 1
gene 3 5 6 -1.9453 0 5 -1.9453 1
gene 1 1 7 2.12209 0 6 2.12209 1
gene 2 2 7 -3.77602 0 7 -3.77602 1
gene 1 3 7 -3.1766 0 8 -3.1766 1
gene 3 4 7 1.59662 0 9 1.59662 1
gene 3 5 7 5.13375 0 10 5.13375 1
genomeend 54

/* Organism #55 Fitness: 18 Error: 0 */
genomestart 55
trait 1 0.139617 0 0 0 0 0.0057078 0 0.00927381 
trait 2 0.190986 0.0129847 0.0390007 0.00898198 0.0245388 0.00435318 0 0 
trait 3 0.3 0 0.0328761 0.0165763 0 0 0.0936956 0 
node 1 2 1 3
node 2 2 1 1
node 3 1 1 1
node 4 3 1 1
node 5 2 1 1
node 6 1 0 2
node 7 1 0 2
gene 3 1 6 2.21438 0 1 2.21438 1
gene 3 2 6 0.783846 0 2 0.783846 1
gene 2 3 6 1.36052 0 3 1.36052 1
gene 1 4 6 1.47871 0 4 1.47871 1
gene 3 5 6 -4.45464 0 5 -4.45464 1
gene 1 1 7 -6.14415 0 6 -6.14415 1
gene 2 2 7 2.05947 0 7 2.05947 1
gene 2 3 7 1.83691 0 8 1.83691 1
gene 1 4 7 5.33447 0 9 5.33447 1
gene 1 5 7 0.785699 0 10 0.785699 1
genomeend 55

/* Organism #56 Fitness: 6 Error: 0 */
genomestart 56
trait 1 0.134665 0 0 0 0 0.00499432 0 0.00811459 
trait 2 0.192368 0.0879958 0.0270065 0.00673648 0.0149522 0.00217659 0 0 
trait 3 0.3 0 0.024657 0.0111002 0 0 0.0614878 0 
node 1 2 1 3
node 2 2 1 1
node 3 1 1 1
node 4 3 1 1
node 5 2 1 1
node 6 1 0 2
node 7 1 0 2
gene 3 1 6 3.77876 0 1 3.77876 1
gene 3 2 6 0.662382 0 2 0.662382 1
gene 2 3 6 4.23714 0 3 4.23714 0
gene 1 4 6 2.65878 0 4 2.65878 1
gene 3 5 6 -6.09501 0 5 -6.09501 1
gene 1 1 7 -7.02598 0 6 -7.02598 1
gene 2 2 7 3.09771 0 7 3.09771 1
gene 2 3 7 -0.849215 0 8 -0.849215 1
gene 1 4 7 5.28137 0 9 5.28137 1
gene 1 5 7 3.30699 0 10 3.30699 1
genomeend 56

/* Organism #57 Fitness: 7 Error: 0 */
genomestart 57
trait 1 0.133903 0 0 0 0 0.00488456 0 0.00793624 
trait 2 0.450811 0.581503 0.195046 0.00224549 0.0164905 0.434817 0 0.488296 
trait 3 0.3 0 0.0123285 0.00606812 0 0 0.0341599 0 
node 1 2 1 3
node 2 2 1 1
node 3 1 1 1
node 4 3 1 1
node 5 2 1 1
node 6 1 0 2
node 7 1 0 2
gene 3 1 6 0.310373 0 1 0.310373 1
gene 3 2 6 4.25576 0 2 4.25576 1
gene 2 3 6 1.10761 0 3 1.10761 0
gene 1 4 6 -1.22455 0 4 -1.22455 1
gene 3 5 6 -2.73504 0 5 -2.73504 1
gene 1 1 7 0.951838 0 6 0.951838 1
gene 3 2 7 -3.18962 0 7 -3.18962 1
gene 2 3 7 -2.27033 0 8 -2.27033 1
gene 3 4 7 6.35472 0 9 6.35472 1
gene 1 5 7 5.14111 0 10 5.14111 1
genomeend 57

/* Species #2 : (Size 16) (AF 113.312) (Age 10)  */


/* Organism #58 Fitness: 40 Error: 0 */
genomestart 58
trait 1 0.116761 0 0 0 0 0.00241484 0 0.00392354 
trait 2 0.930094 0 0 0 0 0 0.990936 0 
trait 3 0.3 0 0 0.00296006 0 0 0.0195199 0 
node 1 2 1 3
node 2 2 1 1
node 3 1 1 1
node 4 3 1 1
node 5 2 1 1
node 6 1 0 2
node 7 1 0 2
node 9 1 0 0
gene 3 1 6 -4.45563 0 1 -4.45563 1
gene 1 2 6 3.97725 0 2 3.97725 1
gene 2 3 6 -3.68656 0 3 -3.68656 0
gene 2 4 6 -0.251278 0 4 -0.251278 1
gene 1 5 6 2.35137 0 5 2.35137 0
gene 3 1 7 -5.24948 0 6 -5.24948 1
gene 3 2 7 -0.738012 0 7 -0.738012 1
gene 2 3 7 1.01877 0 8 1.01877 1
gene 3 4 7 5.03071 0 9 5.03071 1
gene 3 5 7 2.14171 0 10 2.14171 1
gene 2 3 9 -0.713294 0 15 -0.713294 1
gene 2 9 6 -0.389492 0 16 -0.389492 1
genomeend 58

/* Organism #59 Fitness: 109 Error: 0 */
genomestart 59
trait 1 0.127427 0 0 0 0 0.00395155 0 0.00642033 
trait 2 0.206973 0.0259693 0.32683 0.576556 0 0.947761 0 0 
trait 3 0.3 0 0.262993 0.00710414 0 0 0.191745 0 
node 1 2 1 3
node 2 2 1 1
node 3 1 1 1
node 4 3 1 1
node 5 2 1 1
node 6 1 0 2
node 7 1 0 2
node 9 1 0 0
node 34 1 0 0
gene 2 1 6 -0.78176 0 1 -0.78176 1
gene 3 2 6 -0.550338 0 2 -0.550338 1
gene 2 3 6 -2.01766 0 3 -2.01766 0
gene 2 4 6 -5.86226 0 4 -5.86226 1
gene 1 5 6 -1.46886 0 5 -1.46886 1
gene 3 1 7 -3.46354 0 6 -3.46354 1
gene 3 2 7 -1.46654 0 7 -1.46654 1
gene 3 3 7 -1.173 0 8 -1.173 0
gene 1 4 7 4.70262 0 9 4.70262 1
gene 1 5 7 1.84646 0 10 1.84646 1
gene 2 3 9 -1.08219 0 15 -1.08219 1
gene 2 9 6 0.0928526 0 16 0.0928526 1
gene 3 3 34 1 0 92 0 1
gene 3 34 7 -1.173 0 93 0 1
genomeend 59

/* Organism #60 Fitness: 159 Error: 0 */
genomestart 60
trait 1 0.122094 0 0 0 0 0.00318319 0 0.00517193 
trait 2 0.203486 0.0129847 0.00897626 0 0.0138077 0.00435318 0 0 
trait 3 0.3 0 0.193571 0.0050321 0 0.443434 0.105632 0 
node 1 2 1 3
node 2 2 1 1
node 3 1 1 1
node 4 3 1 1
node 5 2 1 1
node 6 1 0 2
node 7 1 0 2
node 9 1 0 0
node 34 1 0 0
gene 2 1 6 -1.558 0 1 -1.558 1
gene 3 2 6 1.14748 0 2 1.14748 1
gene 2 3 6 -1.87102 0 3 -1.87102 0
gene 2 4 6 -6.18965 0 4 -6.18965 1
gene 1 5 6 -0.982776 0 5 -0.982776 0
gene 3 1 7 -5.32242 0 6 -5.32242 1
gene 3 2 7 -1.08936 0 7 -1.08936 1
gene 2 3 7 2.26751 0 8 2.26751 0
gene 3 4 7 4.34748 0 9 4.34748 1
gene 1 5 7 4.13358 0 10 4.13358 1
gene 2 3 9 -0.204627 0 15 -0.204627 1
gene 2 9 6 -0.231483 0 16 -0.231483 1
gene 3 3 34 2.20602 0 92 2.20602 1
gene 3 34 7 -3.58457 0 93 -3.58457 1
genomeend 60

/* Organism #61 Fitness: 165 Error: 0 */
genomestart 61
trait 1 0.122094 0 0 0 0 0.00318319 0 0.00517193 
trait 2 0.203486 0.0129847 0.00897626 0 0.0138077 0.00435318 0 0 
trait 3 0.3 0 0.193571 0.0050321 0 0.443434 0.105632 0 
node 1 2 1 3
node 2 2 1 1
node 3 1 1 1
node 4 3 1 1
node 5 2 1 1
node 6 1 0 2
node 7 1 0 2
node 9 1 0 0
node 34 1 0 0
gene 2 1 6 1.51361 0 1 1.51361 1
gene 3 2 6 -0.0395348 0 2 -0.0395348 1
gene 2 3 6 -1.74093 0 3 -1.74093 0
gene 2 4 6 -7.82841 0 4 -7.82841 1
gene 1 5 6 0.622116 0 5 0.622116 0
gene 3 1 7 -4.70877 0 6 -4.70877 1
gene 3 2 7 -1.60365 0 7 -1.60365 1
gene 2 3 7 2.30932 0 8 2.30932 1
gene 3 4 7 6.03088 0 9 6.03088 1
gene 1 5 7 3.45914 0 10 3.45914 1
gene 2 3 9 0.524461 0 15 0.524461 1
gene 2 9 6 1.00162 0 16 1.00162 1
gene 3 3 34 2.43522 0 92 2.43522 1
gene 3 34 7 -4.88382 0 93 -4.88382 1
genomeend 61

/* Organism #62 Fitness: 10 Error: 0 */
genomestart 62
trait 1 0.122094 0 0 0 0 0.00318319 0 0.00517193 
trait 2 0.203486 0.0129847 0.00897626 0 0.0138077 0.00435318 0 0 
trait 3 0.3 0 0.131497 0.0050321 0 0 0.105632 0 
node 1 2 1 3
node 2 2 1 1
node 3 1 1 1
node 4 3 1 1
node 5 2 1 1
node 6 1 0 2
node 7 1 0 2
node 9 1 0 0
node 34 1 0 0
gene 3 1 6 1.72952 0 1 1.72952 1
gene 3 2 6 3.81351 0 2 3.81351 1
gene 2 3 6 -2.63865 0 3 -2.63865 1
gene 2 4 6 -4.68091 0 4 -4.68091 1
gene 1 5 6 0.260415 0 5 0.260415 0
gene 3 1 7 -2.01456 0 6 -2.01456 1
gene 3 2 7 -0.719371 0 7 -0.719371 1
gene 2 3 7 1.02325 0 8 1.02325 1
gene 1 4 7 3.40769 0 9 3.40769 1
gene 1 5 7 1.78295 0 10 1.78295 1
gene 2 3 9 -2.01149 0 15 -2.01149 1
gene 2 9 6 1.60077 0 16 1.60077 1
gene 3 3 34 -0.405713 0 92 -0.405713 1
gene 3 34 7 -0.256264 0 93 -0.256264 1
genomeend 62

/* Organism #63 Fitness: 191 Error: 0 */
genomestart 63
trait 1 0.122094 0 0 0 0 0.00318319 0 0.00517193 
trait 2 0.203486 0.0129847 0.00897626 0 0.0138077 0.00435318 0 0 
trait 3 0.3 0 0.193571 0.0050321 0 0.443434 0.105632 0 
node 1 2 1 3
node 2 2 1 1
node 3 1 1 1
node 4 3 1 1
node 5 2 1 1
node 6 1 0 2
node 7 1 0 2
node 9 1 0 0
node 34 1 0 0
gene 2 1 6 -2.15547 0 1 -2.15547 1
gene 3 2 6 -3.96132 0 2 -3.96132 1
gene 2 3 6 -2.38136 0 3 -2.38136 0
gene 2 4 6 -3.93028 0 4 -3.93028 1
gene 1 5 6 1.59016 0 5 1.59016 0
gene 3 1 7 -4.6665 0 6 -4.6665 1
gene 3 2 7 -3.26784 0 7 -3.26784 1
gene 2 3 7 0.588229 0 8 0.588229 0
gene 3 4 7 6.33492 0 9 6.33492 1
gene 1 5 7 5.67812 0 10 5.67812 1
gene 2 3 9 -2.96167 0 15 -2.96167 1
gene 2 9 6 2.13813 0 16 2.13813 1
gene 3 3 34 1 0 92 1 1
gene 3 34 7 -3.7168 0 93 -3.7168 1
genomeend 63

/* Organism #64 Fitness: 15 Error: 0 */
genomestart 64
trait 1 0.122094 0 0 0 0 0.00318319 0 0.00517193 
trait 2 0.203486 0.0129847 0.00897626 0 0.0138077 0.00435318 0 0 
trait 3 0.3 0 0.131497 0.0050321 0 0 0.105632 0 
node 1 2 1 3
node 2 2 1 1
node 3 1 1 1
node 4 3 1 1
node 5 2 1 1
node 6 1 0 2
node 7 1 0 2
node 9 1 0 0
node 34 1 0 0
gene 2 1 6 2.64905 0 1 2.64905 1
gene 3 2 6 3.01438 0 2 3.01438 1
gene 2 3 6 -3.34269 0 3 -3.34269 0
gene 2 4 6 -8 0 4 -8 1
gene 1 5 6 0.561079 0 5 0.561079 0
gene 3 1 7 -3.27226 0 6 -3.27226 1
gene 3 2 7 -2.45353 0 7 -2.45353 1
gene 2 3 7 -0.580325 0 8 -0.580325 0
gene 1 4 7 4.29901 0 9 4.29901 1
gene 1 5 7 3.46194 0 10 3.46194 1
gene 2 3 9 0.701086 0 15 0.701086 1
gene 2 9 6 0.87878 0 16 0.87878 1
gene 3 3 34 -1.65578 0 92 -1.65578 1
gene 3 34 7 -5.61688 0 93 -5.61688 1
genomeend 64

/* Organism #65 Fitness: 55 Error: 0 */
genomestart 65
trait 1 0.122094 0 0 0 0 0.00318319 0 0.00517193 
trait 2 0.203486 0.0129847 0.00897626 0 0.0138077 0.00435318 0 0 
trait 3 0.3 0 0.131497 0.0050321 0 0 0.105632 0 
node 1 2 1 3
node 2 2 1 1
node 3 1 1 1
node 4 3 1 1
node 5 2 1 1
node 6 1 0 2
node 7 1 0 2
node 9 1 0 0
node 34 1 0 0
gene 3 1 6 -2.77314 0 1 -2.77314 1
gene 3 2 6 1.08771 0 2 1.08771 1
gene 2 3 6 -2.61195 0 3 -2.61195 0
gene 2 4 6 -5.04179 0 4 -5.04179 1
gene 1 5 6 -1.99444 0 5 -1.99444 0
gene 3 1 7 -2.14041 0 6 -2.14041 1
gene 3 2 7 -2.7517 0 7 -2.7517 1
gene 2 3 7 -1.42105 0 8 -1.42105 1
gene 3 4 7 5.90602 0 9 5.90602 1
gene 1 5 7 1.75164 0 10 1.75164 1
gene 2 3 9 -2.40934 0 15 -2.40934 1
gene 2 9 6 1.0501 0 16 1.0501 1
gene 3 3 34 1.62647 0 92 1.62647 1
gene 3 34 7 -2.59303 0 93 -2.59303 1
genomeend 65

/* Organism #66 Fitness: 504 Error: 0 */
genomestart 66
trait 1 0.122094 0 0 0 0 0.00318319 0 0.00517193 
trait 2 0.203486 0.0129847 0.00897626 0 0.0138077 0.00435318 0 0 
trait 3 0.3 0 0.131497 0.0050321 0 0 0.105632 0 
node 1 2 1 3
node 2 2 1 1
node 3 1 1 1
node 4 3 1 1
node 5 2 1 1
node 6 1 0 2
node 7 1 0 2
node 9 1 0 0
node 34 1 0 0
gene 2 1 6 0.0252636 0 1 0.0252636 1
gene 3 2 6 0.165283 0 2 0.165283 1
gene 2 3 6 -3.0034 0 3 -3.0034 0
gene 2 4 6 -4.3342 0 4 -4.3342 1
gene 1 5 6 -1.50953 0 5 -1.50953 0
gene 3 1 7 -3.82148 0 6 -3.82148 1
gene 3 2 7 -1.81076 0 7 -1.81076 1
gene 2 3 7 0.331111 0 8 0.331111 1
gene 3 4 7 4.27362 0 9 4.27362 1
gene 1 5 7 2.78349 0 10 2.78349 1
gene 2 3 9 -0.666562 0 15 -0.666562 1
gene 2 9 6 0.100978 0 16 0.100978 1
gene 3 3 34 -0.405713 0 92 -0.905713 1
gene 3 34 7 -2.15238 0 93 -1.56588 1
genomeend 66

/* Organism #67 Fitness: 93 Error: 0 */
genomestart 67
trait 1 0.122094 0 0 0 0 0.00318319 0 0.00517193 
trait 2 0.203486 0.0129847 0.00897626 0 0.0138077 0.00435318 0 0 
trait 3 0.3 0 0.193571 0.0050321 0 0.443434 0.105632 0 
node 1 2 1 3
node 2 2 1 1
node 3 1 1 1
node 4 3 1 1
node 5 2 1 1
node 6 1 0 2
node 7 1 0 2
node 9 1 0 0
node 34 1 0 0
gene 3 1 6 -1.04175 0 1 -1.04175 1
gene 3 2 6 0.394515 0 2 0.394515 1
gene 2 3 6 -1.14895 0 3 -1.14895 0
gene 2 4 6 -7.01334 0 4 -7.01334 1
gene 1 5 6 -0.202342 0 5 -0.202342 0
gene 3 1 7 -3.55906 0 6 -3.55906 1
gene 3 2 7 -1.02496 0 7 -1.02496 1
gene 3 3 7 2.68965 0 8 2.68965 0
gene 1 4 7 5.5283 0 9 5.5283 1
gene 1 5 7 5.78196 0 10 5.78196 1
gene 2 3 9 -1.55248 0 15 -1.55248 1
gene 2 9 6 0.172964 0 16 0.172964 1
gene 3 3 34 1 0 92 1 1
gene 3 34 7 -1.64871 0 93 -1.64871 1
genomeend 67

/* Organism #68 Fitness: 8 Error: 0 */
genomestart 68
trait 1 0.122094 0 0 0 0 0.00318319 0 0.00517193 
trait 2 0.203486 0.0129847 0.00897626 0 0.0138077 0.00435318 0 0 
trait 3 0.3 0 0.131497 0.0050321 0 0 0.105632 0 
node 1 2 1 3
node 2 2 1 1
node 3 1 1 1
node 4 3 1 1
node 5 2 1 1
node 6 1 0 2
node 7 1 0 2
node 9 1 0 0
node 34 1 0 0
gene 2 1 6 1.33656 0 1 1.33656 1
gene 3 2 6 0.731897 0 2 0.731897 1
gene 2 3 6 -1.95281 0 3 -1.95281 0
gene 2 4 6 1.39843 0 4 1.39843 1
gene 1 5 6 1.29696 0 5 1.29696 0
gene 3 1 7 -5.77104 0 6 -5.77104 1
gene 3 2 7 -2.01857 0 7 -2.01857 1
gene 2 3 7 2.82997 0 8 2.82997 0
gene 1 4 7 3.3846 0 9 3.3846 1
gene 1 5 7 -1.45322 0 10 -1.45322 1
gene 2 3 9 0.825678 0 15 0.825678 1
gene 2 9 6 -0.711768 0 16 -0.711768 1
gene 3 3 34 -1.81143 0 92 -1.81143 1
gene 3 34 7 -1.34619 0 93 -1.34619 1
genomeend 68

/* Organism #69 Fitness: 160 Error: 0 */
genomestart 69
trait 1 0.12476 0 0 0 0 0.00356737 0 0.00579613 
trait 2 0.205229 0.019477 0.167903 0.288278 0.00690386 0.476057 0 0 
trait 3 0.3 0 0.197245 0.00606812 0 0 0.148689 0 
node 1 2 1 3
node 2 2 1 1
node 3 1 1 1
node 4 3 1 1
node 5 2 1 1
node 6 1 0 2
node 7 1 0 2
node 9 1 0 0
node 34 1 0 0
gene 2 1 6 0.0252636 0 1 0.0252636 1
gene 3 2 6 0.165283 0 2 0.165283 1
gene 2 3 6 -3.0034 0 3 -3.0034 0
gene 2 4 6 -6.40827 0 4 -6.40827 1
gene 1 5 6 -1.50953 0 5 -1.50953 0
gene 3 1 7 -3.38293 0 6 -3.38293 1
gene 3 2 7 -1.81076 0 7 -1.81076 1
gene 2 3 7 -0.335608 0 8 -0.335608 0
gene 1 4 7 4.35898 0 9 4.35898 1
gene 1 5 7 2.78349 0 10 2.78349 1
gene 2 3 9 -0.666562 0 15 -0.666562 1
gene 2 9 6 0.342151 0 16 0.342151 1
gene 3 3 34 -0.405713 0 92 -0.905713 1
gene 3 34 7 -2.15238 0 93 -1.56588 1
genomeend 69

/* Organism #70 Fitness: 53 Error: 0 */
genomestart 70
trait 1 0.122094 0 0 0 0 0.00318319 0 0.00517193 
trait 2 0.203486 0.0129847 0.00897626 0 0.0138077 0.00435318 0 0 
trait 3 0.3 0 0.131497 0.0050321 0 0 0.105632 0 
node 1 2 1 3
node 2 2 1 1
node 3 1 1 1
node 4 3 1 1
node 5 2 1 1
node 6 1 0 2
node 7 1 0 2
node 9 1 0 0
node 34 1 0 0
gene 2 1 6 0.832287 0 1 0.832287 1
gene 3 2 6 1.91641 0 2 1.91641 1
gene 2 3 6 -3.98915 0 3 -3.98915 0
gene 2 4 6 -3.78818 0 4 -3.78818 1
gene 1 5 6 -1.55019 0 5 -1.55019 0
gene 3 1 7 -3.30232 0 6 -3.30232 1
gene 3 2 7 -2.23993 0 7 -2.23993 1
gene 2 3 7 0.501785 0 8 0.501785 0
gene 1 4 7 4.61725 0 9 4.61725 1
gene 1 5 7 3.23112 0 10 3.23112 1
gene 2 3 9 -0.250938 0 15 -0.250938 1
gene 2 9 6 0.591449 0 16 0.591449 1
gene 3 3 34 1 0 92 0 1
gene 3 34 7 -1.173 0 93 0 1
genomeend 70

/* Organism #71 Fitness: 96 Error: 0 */
genomestart 71
trait 1 0.122094 0 0 0 0 0.00318319 0 0.00517193 
trait 2 0.203486 0.0129847 0.00897626 0 0.0138077 0.00435318 0 0 
trait 3 0.3 0 0.131497 0.0050321 0 0 0.105632 0 
node 1 2 1 3
node 2 2 1 1
node 3 1 1 1
node 4 3 1 1
node 5 2 1 1
node 6 1 0 2
node 7 1 0 2
node 9 1 0 0
node 34 1 0 0
gene 2 1 6 1.40382 0 1 1.40382 1
gene 3 2 6 3.06024 0 2 3.06024 1
gene 2 3 6 -4.75952 0 3 -4.75952 0
gene 2 4 6 -6.02401 0 4 -6.02401 1
gene 1 5 6 0.552421 0 5 0.552421 0
gene 3 1 7 -3.01369 0 6 -3.01369 1
gene 3 2 7 -0.640685 0 7 -0.640685 1
gene 2 3 7 -0.219256 0 8 -0.219256 0
gene 1 4 7 4.28681 0 9 4.28681 1
gene 1 5 7 3.12423 0 10 3.12423 1
gene 2 3 9 1.86064 0 15 1.86064 1
gene 2 9 6 1.84721 0 16 1.84721 1
gene 3 3 34 0.371014 0 92 0.371014 1
gene 3 34 7 -1.173 0 93 -1.173 1
genomeend 71

/* Organism #72 Fitness: 33 Error: 0 */
genomestart 72
trait 1 0.122094 0 0 0 0 0.00318319 0 0.00517193 
trait 2 0.203486 0.0129847 0.00897626 0 0.0138077 0.00435318 0 0 
trait 3 0.3 0 0.131497 0.0050321 0 0 0.105632 0 
node 1 2 1 3
node 2 2 1 1
node 3 1 1 1
node 4 3 1 1
node 5 2 1 1
node 6 1 0 2
node 7 1 0 2
node 9 1 0 0
node 34 1 0 0
gene 2 1 6 1.95593 0 1 1.95593 1
gene 3 2 6 1.20777 0 2 1.20777 1
gene 2 3 6 -2.77604 0 3 -2.77604 0
gene 2 4 6 -2.12504 0 4 -2.12504 1
gene 1 5 6 -0.483951 0 5 -0.483951 0
gene 3 1 7 -1.92136 0 6 -1.92136 1
gene 3 2 7 -0.734937 0 7 -0.734937 1
gene 2 3 7 -0.0857723 0 8 -0.0857723 1
gene 3 4 7 1.83714 0 9 1.83714 1
gene 1 5 7 3.0521 0 10 3.0521 1
gene 2 3 9 0.883969 0 15 0.883969 1
gene 2 9 6 1.75985 0 16 1.75985 1
gene 3 3 34 0.673757 0 92 0.673757 1
gene 3 34 7 0.663373 0 93 0.663373 1
genomeend 72

/* Organism #73 Fitness: 122 Error: 0 */
genomestart 73
trait 1 0.12476 0 0 0 0 0.00356737 0 0.00579613 
trait 2 0.205229 0.019477 0.167903 0.288278 0.00690386 0.476057 0 0 
trait 3 0.3 0 0.197245 0.00606812 0 0 0.148689 0 
node 1 2 1 3
node 2 2 1 1
node 3 1 1 1
node 4 3 1 1
node 5 2 1 1
node 6 1 0 2
node 7 1 0 2
node 9 1 0 0
node 34 1 0 0
gene 2 1 6 -0.78176 0 1 -0.78176 1
gene 3 2 6 1.91641 0 2 1.91641 1
gene 2 3 6 -3.14154 0 3 -3.14154 0
gene 2 4 6 -3.78818 0 4 -3.78818 1
gene 1 5 6 1.55022 0 5 1.55022 0
gene 3 1 7 -3.90209 0 6 -3.90209 1
gene 3 2 7 -1.46654 0 7 -1.46654 1
gene 3 3 7 -1.173 0 8 -1.173 0
gene 1 4 7 4.61725 0 9 4.61725 1
gene 1 5 7 1.84646 0 10 1.84646 1
gene 2 3 9 -1.08219 0 15 -1.08219 1
gene 2 9 6 -0.14832 0 16 -0.14832 1
gene 3 3 34 1 0 92 0 1
gene 3 34 7 -1.173 0 93 0 1
genomeend 73

/* Species #3 : (Size 4) (AF 9) (Age 10)  */


/* Organism #74 Fitness: 6 Error: 0 */
genomestart 74
trait 1 0.490072 0 0 0 0 0.0561998 0 0.0913114 
trait 2 0.2 0 0 0 0 0 0 0 
trait 3 0.568746 0 0.172994 0 0 0.254204 0 0 
node 1 1 1 3
node 2 1 1 1
node 3 2 1 1
node 4 1 1 1
node 5 3 1 1
node 6 1 0 2
node 7 1 0 2
node 13 1 0 0
node 20 1 0 0
gene 2 1 6 -2.5984 0 1 -2.5984 1
gene 3 2 6 2.22879 0 2 2.22879 1
gene 1 3 6 -3.65417 0 3 -3.65417 1
gene 3 4 6 1.84629 0 4 1.84629 1
gene 3 5 6 -1.04564 0 5 -1.04564 1
gene 2 1 7 1.05496 0 6 1.05496 1
gene 1 2 7 2.76818 0 7 2.76818 1
gene 1 3 7 -1.81001 0 8 -1.81001 1
gene 2 4 7 8 0 9 8 1
gene 3 5 7 -3.78758 0 10 -3.78758 1
gene 1 3 13 -6.03393 0 27 -6.03393 1
gene 1 13 7 2.93199 0 28 2.93199 1
gene 2 13 20 0.107486 0 48 0.107486 1
gene 1 20 7 -0.314341 0 49 -0.314341 1
genomeend 74

/* Organism #75 Fitness: 11 Error: 0 */
genomestart 75
trait 1 0.490072 0 0 0 0 0.0561998 0 0.0913114 
trait 2 0.2 0 0 0 0 0 0 0 
trait 3 0.568746 0 0.172994 0 0 0.254204 0 0 
node 1 1 1 3
node 2 1 1 1
node 3 2 1 1
node 4 1 1 1
node 5 3 1 1
node 6 1 0 2
node 7 1 0 2
node 13 1 0 0
node 20 1 0 0
gene 2 1 6 -3.0521 0 1 -3.0521 1
gene 3 2 6 2.833 0 2 2.833 1
gene 1 3 6 -3.54623 0 3 -3.54623 1
gene 3 4 6 1.93634 0 4 1.93634 1
gene 3 5 6 -0.111583 0 5 -0.111583 1
gene 2 1 7 -0.20357 0 6 -0.20357 1
gene 1 2 7 2.9156 0 7 2.9156 1
gene 1 3 7 -0.821768 0 8 -0.821768 0
gene 2 4 7 7.98762 0 9 7.98762 1
gene 3 5 7 -2.57641 0 10 -2.57641 1
gene 1 3 13 -4.15366 0 27 -4.15366 1
gene 1 13 7 3.52512 0 28 3.52512 1
gene 1 13 20 0.700079 0 48 0.700079 1
gene 1 20 7 0.651532 0 49 0.651532 1
genomeend 75

/* Organism #76 Fitness: 13 Error: 0 */
genomestart 76
trait 1 0.490072 0 0 0 0 0.0561998 0 0.0913114 
trait 2 0.2 0 0 0 0 0 0 0 
trait 3 0.568746 0 0.172994 0 0 0.254204 0 0 
node 1 1 1 3
node 2 1 1 1
node 3 2 1 1
node 4 1 1 1
node 5 3 1 1
node 6 1 0 2
node 7 1 0 2
node 13 1 0 0
node 20 1 0 0
gene 2 1 6 -3.50579 0 1 -3.50579 1
gene 3 2 6 3.43721 0 2 3.43721 1
gene 1 3 6 -3.43829 0 3 -3.43829 1
gene 3 4 6 2.02638 0 4 2.02638 1
gene 3 5 6 -1.04564 0 5 -1.04564 1
gene 2 1 7 1.05496 0 6 1.05496 1
gene 1 2 7 2.76818 0 7 2.76818 1
gene 1 3 7 0.166478 0 8 0.166478 0
gene 2 4 7 8 0 9 8 1
gene 3 5 7 -3.78758 0 10 -3.78758 1
gene 1 3 13 -6.03393 0 27 -6.03393 1
gene 1 13 7 2.93199 0 28 2.93199 1
gene 2 13 20 0.107486 0 48 0.107486 1
gene 1 20 7 1.6174 0 49 1.6174 1
genomeend 76

/* Organism #77 Fitness: 6 Error: 0 */
genomestart 77
trait 1 0.490072 0 0 0 0 0.0561998 0 0.0913114 
trait 2 0.2 0 0 0 0 0 0 0 
trait 3 0.568746 0 0.172994 0 0 0.254204 0 0 
node 1 1 1 3
node 2 1 1 1
node 3 2 1 1
node 4 1 1 1
node 5 3 1 1
node 6 1 0 2
node 7 1 0 2
node 13 1 0 0
node 20 1 0 0
gene 2 1 6 -2.32724 0 1 -2.32724 1
gene 3 2 6 2.22879 0 2 2.22879 1
gene 1 3 6 -2.55024 0 3 -2.55024 1
gene 3 4 6 1.30169 0 4 1.30169 1
gene 3 5 6 1.74772 0 5 1.74772 1
gene 2 1 7 1.54089 0 6 1.54089 1
gene 1 2 7 -0.264748 0 7 -0.264748 1
gene 1 3 7 -0.358669 0 8 -0.358669 0
gene 2 4 7 8 0 9 8 1
gene 3 5 7 -1.37188 0 10 -1.37188 1
gene 1 3 13 -7.56794 0 27 -7.56794 1
gene 1 13 7 4.51277 0 28 4.51277 1
gene 1 13 20 0.853664 0 48 0.853664 1
gene 1 20 7 1.42781 0 49 1.42781 1
genomeend 77

/* Species #4 : (Size 19) (AF 35.1053) (Age 10)  */


/* Organism #78 Fitness: 35 Error: 0 */
genomestart 78
trait 1 0.171234 0 0 0 0.061409 0.0102631 0 0.016675 
trait 2 0.240964 0.15257 0.105471 0.0314264 0.162241 0.0511499 0 0 
trait 3 0.3 0 0 0.00162803 0 0.0588716 0.0936009 0 
node 1 2 1 3
node 2 1 1 1
node 3 2 1 1
node 4 1 1 1
node 5 3 1 1
node 6 1 0 2
node 7 1 0 2
node 14 1 0 0
gene 2 1 6 -0.954924 0 1 -0.954924 1
gene 3 2 6 -1.59657 0 2 -1.59657 1
gene 3 3 6 -4.05665 0 3 -4.05665 0
gene 2 4 6 -6.07218 0 4 -6.07218 1
gene 3 5 6 1.56693 0 5 1.56693 1
gene 3 1 7 -2.16193 0 6 -2.16193 1
gene 1 2 7 -7.14998 0 7 -7.14998 1
gene 2 3 7 -3.17078 0 8 -3.17078 1
gene 2 4 7 6.54382 0 9 6.54382 1
gene 1 5 7 1.37415 0 10 1.37415 1
gene 2 6 7 4.10495 0 20 4.10495 1
gene 2 3 14 -0.809351 0 29 -0.809351 1
gene 2 14 6 -1.57385 0 30 -1.57385 1
genomeend 78

/* Organism #79 Fitness: 13 Error: 0 */
genomestart 79
trait 1 0.198756 0 0 0 0.0583385 0.0142283 0 0.0231177 
trait 2 0.11534 0.137981 0.845634 0 0.166556 0.0525102 0.884518 0.215766 
trait 3 0.3 0 0 0.00166503 0 0.0862049 0.132318 0 
node 1 2 1 3
node 2 3 1 1
node 3 2 1 1
node 4 1 1 1
node 5 3 1 1
node 6 1 0 2
node 7 1 0 2
node 14 1 0 0
gene 2 1 6 -1.79971 0 1 -1.79971 1
gene 3 2 6 2.9495 0 2 2.9495 1
gene 3 3 6 -4.76422 0 3 -4.76422 0
gene 2 4 6 -0.645505 0 4 -0.645505 1
gene 1 5 6 1.75283 0 5 1.75283 1
gene 3 1 7 -3.2679 0 6 -3.2679 1
gene 1 2 7 -4.1169 0 7 -4.1169 1
gene 3 3 7 -3.96505 0 8 -3.96505 1
gene 2 4 7 3.33271 0 9 3.33271 1
gene 3 5 7 1.04247 0 10 1.04247 1
gene 2 6 7 -1.29841 0 20 -1.29841 1
gene 2 3 14 0.691702 0 29 0.691702 1
gene 2 14 6 1.53666 0 30 1.53666 1
genomeend 79

/* Organism #80 Fitness: 1 Error: 0 */
genomestart 80
trait 1 0.17971 0 0 0 0.0829021 0.0114842 0 0.0186591 
trait 2 0.254255 0.202074 0.139693 0.0314264 0.214883 0.0677464 0 0 
trait 3 0.3 0 0 0.00136903 0 0.0693844 0.10669 0 
node 1 2 1 3
node 2 1 1 1
node 3 2 1 1
node 4 1 1 1
node 5 3 1 1
node 6 1 0 2
node 7 1 0 2
node 14 1 0 0
gene 2 1 6 -3.17309 0 1 -3.17309 1
gene 3 2 6 2.31399 0 2 2.31399 1
gene 2 3 6 1.35954 0 3 1.35954 0
gene 2 4 6 -1.97614 0 4 -1.97614 1
gene 1 5 6 0.644704 0 5 0.644704 1
gene 3 1 7 -3.4093 0 6 -3.4093 1
gene 1 2 7 -6.4423 0 7 -6.4423 1
gene 3 3 7 -2.2764 0 8 -2.2764 1
gene 2 4 7 5.85658 0 9 5.85658 1
gene 3 5 7 1.79442 0 10 1.79442 1
gene 2 6 7 -0.0816523 0 20 -0.0816523 1
gene 2 3 14 -1.30093 0 29 -1.30093 1
gene 2 14 6 1.36034 0 30 1.36034 1
genomeend 80

/* Organism #81 Fitness: 200 Error: 0 */
genomestart 81
trait 1 0.177234 0 0 0 0.0644794 0.0111275 0 0.0180795 
trait 2 0.24336 0.161497 0.111642 0.0314264 0.171733 0.0541427 0 0 
trait 3 0.3 0 0 0.00159103 0 0.0651793 0.102235 0 
node 1 2 1 3
node 2 1 1 1
node 3 2 1 1
node 4 1 1 1
node 5 3 1 1
node 6 1 0 2
node 7 1 0 2
node 14 1 0 0
gene 2 1 6 -2.064 0 1 -2.064 1
gene 3 2 6 0.35871 0 2 0.35871 1
gene 2 3 6 -2.69221 0 3 -2.69221 0
gene 2 4 6 -2.90123 0 4 -2.90123 1
gene 3 5 6 1.10582 0 5 1.10582 1
gene 3 1 7 -2.78562 0 6 -2.78562 1
gene 1 2 7 -5.21614 0 7 -5.21614 1
gene 2 3 7 -2.2764 0 8 -2.2764 1
gene 2 4 7 4.81358 0 9 4.81358 1
gene 1 5 7 1.80813 0 10 1.80813 1
gene 2 6 7 2.01165 0 20 2.01165 1
gene 2 3 14 -0.500389 0 29 -0.500389 1
gene 2 14 6 -1.50014 0 30 -1.50014 1
genomeend 81

/* Organism #82 Fitness: 40 Error: 0 */
genomestart 82
trait 1 0.176186 0 0 0 0.0982543 0.0109765 0 0.0178343 
trait 2 0.262753 0.233724 0.161573 0.0314264 0.248539 0.0783572 0 0 
trait 3 0.3 0 0 0.00118402 0 0.0672819 0.102511 0 
node 1 1 1 3
node 2 3 1 1
node 3 3 1 1
node 4 1 1 1
node 5 1 1 1
node 6 3 0 2
node 7 2 0 2
node 14 1 0 0
gene 2 1 6 -0.80958 0 1 -0.80958 1
gene 3 2 6 -0.67804 0 2 -0.67804 1
gene 2 3 6 -0.0495735 0 3 -0.0495735 1
gene 2 4 6 -3.5428 0 4 -3.5428 1
gene 1 5 6 -0.246971 0 5 -0.246971 1
gene 3 1 7 -1.28166 0 6 -1.28166 1
gene 1 2 7 -5.823 0 7 -5.823 1
gene 3 3 7 -3.05569 0 8 -3.05569 1
gene 2 4 7 5.81867 0 9 5.81867 1
gene 3 5 7 2.73561 0 10 2.73561 1
gene 2 6 7 4.92273 0 20 4.92273 1
gene 2 3 14 1.16764 0 29 1.16764 1
gene 2 14 6 -0.743202 0 30 -0.743202 1
genomeend 82

/* Organism #83 Fitness: 57 Error: 0 */
genomestart 83
trait 1 0.17971 0 0 0 0.0829021 0.0114842 0 0.0186591 
trait 2 0.254255 0.202074 0.139693 0.0314264 0.214883 0.0677464 0 0 
trait 3 0.3 0 0 0.00136903 0 0.0693844 0.10669 0 
node 1 1 1 3
node 2 3 1 1
node 3 3 1 1
node 4 1 1 1
node 5 1 1 1
node 6 3 0 2
node 7 3 0 2
node 14 1 0 0
gene 2 1 6 -3.60813 0 1 -3.60813 1
gene 3 2 6 -2.60483 0 2 -2.60483 1
gene 2 3 6 -0.459437 0 3 -0.459437 1
gene 2 4 6 -1.12589 0 4 -1.12589 1
gene 1 5 6 1.31886 0 5 1.31886 1
gene 3 1 7 -4.06892 0 6 -4.06892 1
gene 1 2 7 -3.98224 0 7 -3.98224 1
gene 3 3 7 -3.81297 0 8 -3.81297 1
gene 2 4 7 3.61073 0 9 3.61073 1
gene 3 5 7 3.36223 0 10 3.36223 1
gene 2 6 7 4.83187 0 20 4.83187 1
gene 2 3 14 0.442747 0 29 0.442747 1
gene 2 14 6 0.297021 0 30 0.297021 1
genomeend 83

/* Organism #84 Fitness: 9 Error: 0 */
genomestart 84
trait 1 0.214279 0 0 0 0.0491272 0.0164648 0 0.0267514 
trait 2 0.238349 0.142831 0.0987388 0.0314264 0.151885 0.047885 0 0 
trait 3 0.3 0 0 0.00177603 0 0.100923 0.153766 0 
node 1 2 1 3
node 2 1 1 1
node 3 2 1 1
node 4 1 1 1
node 5 3 1 1
node 6 1 0 2
node 7 1 0 2
node 14 1 0 0
gene 2 1 6 -1.77656 0 1 -1.77656 1
gene 3 2 6 1.63427 0 2 1.63427 1
gene 3 3 6 -2.20791 0 3 -2.20791 0
gene 1 4 6 -1.67066 0 4 -1.67066 1
gene 1 5 6 0.662404 0 5 0.662404 1
gene 2 1 7 0.679464 0 6 0.679464 1
gene 1 2 7 -7.57297 0 7 -7.57297 1
gene 3 3 7 -1.91933 0 8 -1.91933 1
gene 2 4 7 7.38652 0 9 7.38652 1
gene 3 5 7 -1.80096 0 10 -1.80096 1
gene 2 6 7 0.531693 0 20 0.531693 1
gene 2 3 14 -2.0098 0 29 -2.0098 1
gene 2 14 6 4.01238 0 30 4.01238 1
genomeend 84

/* Organism #85 Fitness: 4 Error: 0 */
genomestart 85
trait 1 0.177234 0 0 0 0.0644794 0.0111275 0 0.0180795 
trait 2 0.24336 0.161497 0.111642 0.0314264 0.171733 0.0541427 0 0 
trait 3 0.3 0 0 0.00159103 0 0.0651793 0.102235 0 
node 1 2 1 3
node 2 1 1 1
node 3 2 1 1
node 4 1 1 1
node 5 3 1 1
node 6 1 0 2
node 7 1 0 2
node 14 1 0 0
gene 2 1 6 1.91053 0 1 1.91053 1
gene 3 2 6 0.992996 0 2 0.992996 1
gene 2 3 6 -1.0338 0 3 -1.0338 0
gene 2 4 6 -4.51474 0 4 -4.51474 1
gene 1 5 6 -1.66326 0 5 -1.66326 1
gene 3 1 7 -3.09854 0 6 -3.09854 1
gene 1 2 7 -7.14998 0 7 -7.14998 1
gene 3 3 7 -0.937223 0 8 -0.937223 1
gene 2 4 7 0.751213 0 9 0.751213 1
gene 1 5 7 -0.0650807 0 10 -0.0650807 1
gene 2 6 7 1.82041 0 20 1.82041 1
gene 2 3 14 -2.48253 0 29 -2.48253 1
gene 2 14 6 0.499435 0 30 0.499435 1
genomeend 85

/* Organism #86 Fitness: 8 Error: 0 */
genomestart 86
trait 1 0.195233 0 0 0 0.0736908 0.0137207 0 0.0222928 
trait 2 0.250551 0.188278 0.130156 0.0314264 0.200212 0.0631211 0 0 
trait 3 0.3 0 0 0.00148003 0 0.0841023 0.128138 0 
node 1 1 1 3
node 2 3 1 1
node 3 3 1 1
node 4 1 1 1
node 5 1 1 1
node 6 3 0 2
node 7 2 0 2
node 14 1 0 0
gene 2 1 6 -0.426344 0 1 -0.426344 1
gene 3 2 6 3.83084 0 2 3.83084 1
gene 2 3 6 1.35954 0 3 1.35954 0
gene 2 4 6 -1.97614 0 4 -1.97614 1
gene 1 5 6 0.104831 0 5 0.104831 1
gene 3 1 7 -1.66772 0 6 -1.66772 1
gene 1 2 7 -8 0 7 -8 1
gene 3 3 7 -2.2764 0 8 -2.2764 1
gene 2 4 7 5.85658 0 9 5.85658 1
gene 3 5 7 1.79442 0 10 1.79442 1
gene 2 6 7 0.634999 0 20 0.634999 1
gene 2 3 14 -1.30093 0 29 -1.30093 1
gene 2 14 6 1.36034 0 30 1.36034 1
genomeend 86

/* Organism #87 Fitness: 11 Error: 0 */
genomestart 87
trait 1 0.171234 0 0 0 0.061409 0.0102631 0 0.016675 
trait 2 0.240964 0.15257 0.105471 0.0314264 0.162241 0.0511499 0 0 
trait 3 0.3 0 0 0.00162803 0 0.0588716 0.0936009 0 
node 1 2 1 3
node 2 1 1 1
node 3 2 1 1
node 4 1 1 1
node 5 3 1 1
node 6 1 0 2
node 7 1 0 2
node 14 1 0 0
gene 2 1 6 -2.03383 0 1 -2.03383 1
gene 3 2 6 -2.25806 0 2 -2.25806 1
gene 3 3 6 -0.299615 0 3 -0.299615 0
gene 2 4 6 -5.50026 0 4 -5.50026 1
gene 3 5 6 -0.614149 0 5 -0.614149 1
gene 3 1 7 -2.00552 0 6 -2.00552 1
gene 1 2 7 -6.68274 0 7 -6.68274 1
gene 2 3 7 -2.11789 0 8 -2.11789 1
gene 2 4 7 1.3332 0 9 1.3332 1
gene 1 5 7 2.08935 0 10 2.08935 1
gene 2 6 7 1.65271 0 20 1.65271 1
gene 2 3 14 1.97485 0 29 1.97485 1
gene 2 14 6 -1.53211 0 30 -1.53211 1
genomeend 87

/* Organism #88 Fitness: 11 Error: 0 */
genomestart 88
trait 1 0.171234 0 0 0 0.061409 0.0102631 0 0.016675 
trait 2 0.240964 0.15257 0.105471 0.0314264 0.162241 0.0511499 0 0 
trait 3 0 0 0 0.868476 0 0.0588716 1 0 
node 1 2 1 3
node 2 1 1 1
node 3 2 1 1
node 4 1 1 1
node 5 3 1 1
node 6 1 0 2
node 7 1 0 2
node 14 1 0 0
gene 2 1 6 -0.801798 0 1 -0.801798 1
gene 3 2 6 -1.49098 0 2 -1.49098 1
gene 3 3 6 -5.16935 0 3 -5.16935 0
gene 2 4 6 -4.19399 0 4 -4.19399 1
gene 3 5 6 0.806564 0 5 0.806564 1
gene 3 1 7 1.96554 0 6 1.96554 1
gene 1 2 7 0.65569 0 7 0.65569 1
gene 2 3 7 -2.08608 0 8 -2.08608 1
gene 2 4 7 1.31268 0 9 1.31268 1
gene 1 5 7 3.15888 0 10 3.15888 1
gene 2 6 7 4.37352 0 20 4.37352 1
gene 2 3 14 -1.36166 0 29 -1.36166 1
gene 2 14 6 -2.59027 0 30 -2.59027 1
genomeend 88

/* Organism #89 Fitness: 61 Error: 0 */
genomestart 89
trait 1 0.17371 0 0 0 0.0798317 0.0106198 0 0.0172546 
trait 2 0.251858 0.193147 0.133522 0.0314264 0.20539 0.0647535 0 0 
trait 3 0.3 0 0 0.00140603 0 0.0630768 0.0980558 0 
node 1 1 1 3
node 2 3 1 1
node 3 3 1 1
node 4 1 1 1
node 5 1 1 1
node 6 3 0 2
node 7 2 0 2
node 14 1 0 0
gene 2 1 6 0.0880078 0 1 0.0880078 1
gene 3 2 6 -1.99869 0 2 -1.99869 1
gene 3 3 6 -1.19558 0 3 -1.19558 0
gene 2 4 6 -2.00704 0 4 -2.00704 1
gene 3 5 6 0.525814 0 5 0.525814 1
gene 3 1 7 -1.30575 0 6 -1.30575 1
gene 1 2 7 -4.79596 0 7 -4.79596 1
gene 2 3 7 -2.01518 0 8 -2.01518 1
gene 2 4 7 5.86702 0 9 5.86702 1
gene 3 5 7 3.79108 0 10 3.79108 1
gene 2 6 7 3.32851 0 20 3.32851 1
gene 2 3 14 -2.35538 0 29 -2.35538 1
gene 2 14 6 0.27427 0 30 0.27427 1
genomeend 89

/* Organism #90 Fitness: 12 Error: 0 */
genomestart 90
trait 1 0.176186 0 0 0 0.0982543 0.0109765 0 0.0178343 
trait 2 0.262753 0.233724 0.161573 0.0314264 0.248539 0.0783572 0 0 
trait 3 0.3 0 0 0.00118402 0 0.0672819 0.102511 0 
node 1 1 1 3
node 2 3 1 1
node 3 3 1 1
node 4 1 1 1
node 5 1 1 1
node 6 3 0 2
node 7 2 0 2
node 14 1 0 0
gene 2 1 6 -2.75643 0 1 -2.75643 1
gene 3 2 6 -2.26256 0 2 -2.26256 1
gene 2 3 6 2.10633 0 3 2.10633 1
gene 2 4 6 -1.37172 0 4 -1.37172 1
gene 1 5 6 0.612049 0 5 0.612049 1
gene 3 1 7 1.9734 0 6 1.9734 1
gene 1 2 7 -1.17267 0 7 -1.17267 1
gene 3 3 7 -1.38373 0 8 -1.38373 1
gene 2 4 7 6.38494 0 9 6.38494 1
gene 3 5 7 3.08032 0 10 3.08032 1
gene 2 6 7 -1.66768 0 20 -1.66768 1
gene 2 3 14 -1.96104 0 29 -1.96104 1
gene 2 14 6 0.431967 0 30 0.431967 1
genomeend 90

/* Organism #91 Fitness: 8 Error: 0 */
genomestart 91
trait 1 0.195233 0 0 0 0.0736908 0.0137207 0 0.0222928 
trait 2 0.250551 0.188278 0.130156 0.0314264 0.200212 0.0631211 0 0 
trait 3 0.3 0 0 0.00148003 0 0.0841023 0.128138 0 
node 1 2 1 3
node 2 1 1 1
node 3 2 1 1
node 4 1 1 1
node 5 3 1 1
node 6 1 0 2
node 7 1 0 2
node 14 1 0 0
gene 2 1 6 -2.55055 0 1 -2.55055 1
gene 3 2 6 0.0288052 0 2 0.0288052 1
gene 3 3 6 -1.49554 0 3 -1.49554 0
gene 2 4 6 -0.275308 0 4 -0.275308 1
gene 1 5 6 2.25066 0 5 2.25066 1
gene 2 1 7 -2.20156 0 6 -2.20156 1
gene 1 2 7 -7.22115 0 7 -7.22115 1
gene 3 3 7 -4.75183 0 8 -4.75183 1
gene 2 4 7 5.01666 0 9 5.01666 1
gene 3 5 7 -0.51561 0 10 -0.51561 1
gene 2 6 7 -0.969344 0 20 -0.969344 1
gene 2 3 14 1.03137 0 29 1.03137 1
gene 2 14 6 2.47955 0 30 2.47955 1
genomeend 91

/* Organism #92 Fitness: 8 Error: 0 */
genomestart 92
trait 1 0.195233 0 0 0 0.0736908 0.0137207 0 0.0222928 
trait 2 0.250551 0.188278 0.130156 0.0314264 0.200212 0.0631211 0 0 
trait 3 0.3 0 0 0.00148003 0 0.0841023 0.128138 0 
node 1 2 1 3
node 2 1 1 1
node 3 2 1 1
node 4 1 1 1
node 5 3 1 1
node 6 1 0 2
node 7 1 0 2
node 14 1 0 0
gene 2 1 6 -0.644246 0 1 -0.644246 1
gene 3 2 6 -0.67804 0 2 -0.67804 1
gene 2 3 6 0.869034 0 3 0.869034 0
gene 1 4 6 -1.34037 0 4 -1.34037 1
gene 1 5 6 -2.6352 0 5 -2.6352 1
gene 2 1 7 0.835871 0 6 0.835871 1
gene 1 2 7 -8 0 7 -8 1
gene 1 3 7 -4.53378 0 8 -4.53378 1
gene 2 4 7 8 0 9 8 1
gene 3 5 7 1.79258 0 10 1.79258 1
gene 2 6 7 -2.45071 0 20 -2.45071 1
gene 2 3 14 0.311899 0 29 0.311899 1
gene 2 14 6 -2.31002 0 30 -2.31002 1
genomeend 92

/* Organism #93 Fitness: 1 Error: 0 */
genomestart 93
trait 1 0.177234 0 0 0 0.0644794 0.0111275 0 0.0180795 
trait 2 0.24336 0.161497 0.111642 0.0314264 0.171733 0.0541427 0 0 
trait 3 0.3 0 0 0.00159103 0 0.0651793 0.102235 0 
node 1 2 1 3
node 2 1 1 1
node 3 2 1 1
node 4 1 1 1
node 5 3 1 1
node 6 1 0 2
node 7 1 0 2
node 14 1 0 0
gene 2 1 6 -1.6723 0 1 -1.6723 1
gene 3 2 6 2.41879 0 2 2.41879 1
gene 3 3 6 -0.767939 0 3 -0.767939 0
gene 2 4 6 -3.51984 0 4 -3.51984 1
gene 1 5 6 0.938882 0 5 0.938882 1
gene 3 1 7 -4.88628 0 6 -4.88628 1
gene 1 2 7 -3.95115 0 7 -3.95115 1
gene 3 3 7 -2.66879 0 8 -2.66879 1
gene 2 4 7 6.5838 0 9 6.5838 1
gene 1 5 7 0.727008 0 10 0.727008 1
gene 2 6 7 -0.233291 0 20 -0.233291 1
gene 2 3 14 0.836131 0 29 0.836131 1
gene 2 14 6 -0.552999 0 30 -0.552999 1
genomeend 93

/* Organism #94 Fitness: 12 Error: 0 */
genomestart 94
trait 1 0.198756 0 0 0 0.0583385 0.0142283 0 0.0231177 
trait 2 0.242053 0.156628 0.108276 0.0314264 0.166556 0.0525102 0 0 
trait 3 0.3 0 0 0.00166503 0 0.0862049 0.132318 0 
node 1 2 1 3
node 2 1 1 1
node 3 2 1 1
node 4 1 1 1
node 5 3 1 1
node 6 1 0 2
node 7 1 0 2
node 14 1 0 0
gene 2 1 6 -0.925016 0 1 -0.925016 1
gene 3 2 6 6.0065 0 2 6.0065 1
gene 2 3 6 -0.522916 0 3 -0.522916 0
gene 1 4 6 -0.416349 0 4 -0.416349 1
gene 1 5 6 -1.84629 0 5 -1.84629 1
gene 3 1 7 -2.84806 0 6 -2.84806 1
gene 1 2 7 -3.10308 0 7 -3.10308 1
gene 3 3 7 -4.78265 0 8 -4.78265 1
gene 2 4 7 -1.34373 0 9 -1.34373 1
gene 3 5 7 -0.990469 0 10 -0.990469 1
gene 2 6 7 -0.186407 0 20 -0.186407 1
gene 2 3 14 0.589618 0 29 0.589618 1
gene 2 14 6 -1.23791 0 30 -1.23791 1
genomeend 94

/* Organism #95 Fitness: 37 Error: 0 */
genomestart 95
trait 1 0.183233 0 0 0 0.0675499 0.0119919 0 0.0194839 
trait 2 0.245757 0.170424 0.117813 0.0314264 0.181226 0.0571355 0 0 
trait 3 0.3 0 0 0.00155403 0 0.071487 0.11087 0 
node 1 2 1 3
node 2 1 1 1
node 3 2 1 1
node 4 1 1 1
node 5 3 1 1
node 6 1 0 2
node 7 1 0 2
node 14 1 0 0
gene 2 1 6 -1.90916 0 1 -1.90916 1
gene 3 2 6 0.79478 0 2 0.79478 1
gene 2 3 6 -1.60297 0 3 -1.60297 1
gene 2 4 6 0.690481 0 4 0.690481 1
gene 1 5 6 2.03574 0 5 2.03574 1
gene 3 1 7 -3.53748 0 6 -3.53748 1
gene 1 2 7 -3.10964 0 7 -3.10964 1
gene 3 3 7 -3.15636 0 8 -3.15636 1
gene 2 4 7 0.918423 0 9 0.918423 1
gene 1 5 7 3.62444 0 10 3.62444 1
gene 2 6 7 0.206137 0 20 0.206137 1
gene 2 3 14 1.34655 0 29 1.34655 1
gene 2 14 6 -2.29575 0 30 -2.29575 1
genomeend 95

/* Organism #96 Fitness: 139 Error: 0 */
genomestart 96
trait 1 0.183233 0 0 0 0.0675499 0.0119919 0 0.0194839 
trait 2 0.245757 0.170424 0.117813 0.0314264 0.181226 0.0571355 0 0 
trait 3 0.3 0 0 0.00155403 0 0.071487 0.11087 0 
node 1 2 1 3
node 2 1 1 1
node 3 2 1 1
node 4 1 1 1
node 5 3 1 1
node 6 1 0 2
node 7 2 0 2
node 14 1 0 0
gene 2 1 6 -1.0033 0 1 -1.0033 1
gene 3 2 6 1.82356 0 2 1.82356 1
gene 2 3 6 0.272015 0 3 0.272015 0
gene 2 4 6 -1.20212 0 4 -1.20212 1
gene 1 5 6 1.59925 0 5 1.59925 1
gene 3 1 7 -2.67396 0 6 -2.67396 1
gene 1 2 7 -5.63009 0 7 -5.63009 1
gene 3 3 7 -0.461732 0 8 -0.461732 1
gene 2 4 7 4.70577 0 9 4.70577 1
gene 1 5 7 2.75153 0 10 2.75153 1
gene 2 6 7 -1.8019 0 20 -1.8019 1
gene 2 3 14 0.0682852 0 29 0.0682852 1
gene 2 14 6 -1.42644 0 30 -1.42644 1
genomeend 96

/* Species #6 : (Size 10) (AF 10021.2) (Age 6)  */


/* Organism #97 Fitness: 67 Error: 0 */
genomestart 97
trait 1 0.295036 0 0 0 0 0.0280999 0 0.0456557 
trait 2 0.2 0 0 0 0 0 0 0 
trait 3 0.3 0 0 0.00947218 0 0 0.0624638 0 
node 1 2 1 3
node 2 1 1 1
node 3 2 1 1
node 4 1 1 1
node 5 3 1 1
node 6 1 0 2
node 7 1 0 2
node 13 1 0 0
node 25 1 0 0
gene 2 1 6 2.10965 0 1 2.10965 1
gene 2 2 6 -1.38966 0 2 -1.38966 1
gene 3 3 6 1.5153 0 3 1.5153 1
gene 2 4 6 -1.35792 0 4 -1.35792 1
gene 1 5 6 1.0396 0 5 1.0396 1
gene 1 1 7 -1.88004 0 6 -1.88004 1
gene 2 2 7 2.29163 0 7 2.29163 1
gene 1 3 7 -3.86542 0 8 -3.86542 1
gene 2 4 7 7.95885 0 9 7.95885 1
gene 3 5 7 1.53264 0 10 1.53264 1
gene 1 3 13 1.1051 0 27 1.1051 1
gene 1 13 7 -1.3056 0 28 -1.3056 1
gene 2 4 25 -0.612278 0 65 -0.612278 1
gene 2 25 7 3.28391 0 66 3.28391 1
genomeend 97

/* Organism #98 Fitness: 17 Error: 0 */
genomestart 98
trait 1 0.295036 0 0 0 0 0.0280999 0 0.0456557 
trait 2 0.2 0 0 0 0 0 0 0 
trait 3 0.3 0 0 0.00947218 0 0 0.0624638 0 
node 1 2 1 3
node 2 1 1 1
node 3 2 1 1
node 4 1 1 1
node 5 3 1 1
node 6 1 0 2
node 7 1 0 2
node 13 1 0 0
node 25 1 0 0
node 43 1 0 0
gene 2 1 6 2.10965 0 1 2.10965 1
gene 2 2 6 0.599654 0 2 0.599654 0
gene 3 3 6 1.5153 0 3 1.5153 1
gene 2 4 6 -0.618767 0 4 -0.618767 1
gene 1 5 6 1.0396 0 5 1.0396 1
gene 1 1 7 1.76601 0 6 1.76601 1
gene 2 2 7 2.29163 0 7 2.29163 1
gene 1 3 7 -3.86542 0 8 -3.86542 1
gene 2 4 7 7.95885 0 9 7.95885 1
gene 3 5 7 1.53264 0 10 1.53264 1
gene 1 3 13 1.62971 0 27 1.62971 1
gene 1 13 7 -4.46335 0 28 -4.46335 1
gene 2 4 25 1 0 65 1 1
gene 2 25 7 -4.10596 0 66 -4.10596 1
gene 2 2 43 1 0 116 0 1
gene 2 43 6 0.599654 0 117 0 1
genomeend 98

/* Organism #99 Fitness: 3 Error: 0 */
genomestart 99
trait 1 0.295036 0 0 0 0 0.0280999 0 0.0456557 
trait 2 0.2 0 0 0 0 0 0 0 
trait 3 0.3 0 0 0.00947218 0 0 0.0624638 0 
node 1 3 1 3
node 2 1 1 1
node 3 2 1 1
node 4 1 1 1
node 5 3 1 1
node 6 1 0 2
node 7 1 0 2
node 13 1 0 0
node 25 1 0 0
gene 2 1 6 -0.30681 0 1 -0.30681 1
gene 2 2 6 1.54893 0 2 1.54893 1
gene 3 3 6 -1.07794 0 3 -1.07794 1
gene 2 4 6 -0.119331 0 4 -0.119331 1
gene 3 5 6 1.2089 0 5 1.2089 1
gene 1 1 7 0.296411 0 6 0.296411 1
gene 2 2 7 2.23793 0 7 2.23793 1
gene 1 3 7 -0.682876 0 8 -0.682876 1
gene 2 4 7 5.60969 0 9 5.60969 1
gene 3 5 7 -1.08374 0 10 -1.08374 1
gene 1 3 13 -0.103359 0 27 -0.103359 1
gene 1 13 7 -1.48564 0 28 -1.48564 1
gene 2 4 25 -1.05815 0 65 -1.05815 1
gene 2 25 7 -4.10596 0 66 -4.10596 1
genomeend 99

/* Organism #100 Fitness: 100001 Error: 0 */
/* ##------$ WINNER 100 SPECIES #6 $------## */
genomestart 100
trait 1 0.295036 0 0 0 0 0.0280999 0 0.0456557 
trait 2 0.2 0 0 0 0 0 0 0 
trait 3 0.3 0 0 0.00947218 0 0 0.0624638 0 
node 1 1 1 3
node 2 1 1 1
node 3 2 1 1
node 4 1 1 1
node 5 3 1 1
node 6 1 0 2
node 7 1 0 2
node 13 1 0 0
node 25 1 0 0
gene 2 1 6 0.619121 0 1 0.619121 1
gene 2 2 6 0.599654 0 2 0.599654 1
gene 3 3 6 -2.2252 0 3 -2.2252 1
gene 2 4 6 -0.618767 0 4 -0.618767 1
gene 3 5 6 0.128313 0 5 0.128313 1
gene 1 1 7 1.76601 0 6 1.76601 1
gene 2 2 7 2.66207 0 7 2.66207 1
gene 1 3 7 -0.838139 0 8 -0.838139 1
gene 2 4 7 7.04734 0 9 7.04734 1
gene 3 5 7 0.959397 0 10 0.959397 1
gene 1 3 13 1.62971 0 27 1.62971 1
gene 1 13 7 -4.46335 0 28 -4.46335 1
gene 2 4 25 1 0 65 1 1
gene 2 25 7 -4.10596 0 66 -4.10596 1
genomeend 100

/* Organism #101 Fitness: 5 Error: 0 */
genomestart 101
trait 1 0.295036 0 0 0 0 0.0280999 0 0.0456557 
trait 2 0.2 0 0 0 0 0 0 0 
trait 3 0 0 0.257179 0 0 0 0 0 
node 1 2 1 3
node 2 1 1 1
node 3 2 1 1
node 4 1 1 1
node 5 3 1 1
node 6 1 0 2
node 7 1 0 2
node 13 1 0 0
node 25 1 0 0
gene 2 1 6 0.306917 0 1 0.306917 1
gene 2 2 6 -2.06885 0 2 -2.06885 1
gene 3 3 6 2.22157 0 3 2.22157 1
gene 2 4 6 0.0636273 0 4 0.0636273 1
gene 1 5 6 2.39683 0 5 2.39683 1
gene 1 1 7 -3.00533 0 6 -3.00533 1
gene 2 2 7 4.34576 0 7 4.34576 1
gene 1 3 7 -5.883 0 8 -5.883 1
gene 2 4 7 6.61154 0 9 6.61154 1
gene 3 5 7 2.00125 0 10 2.00125 1
gene 1 3 13 3.25551 0 27 3.25551 1
gene 1 13 7 -1.29576 0 28 -1.29576 1
gene 2 4 25 0.537049 0 65 0.537049 1
gene 2 25 7 -2.10623 0 66 -2.10623 1
genomeend 101

/* Organism #102 Fitness: 50 Error: 0 */
genomestart 102
trait 1 0.295036 0 0 0 0 0.0280999 0 0.0456557 
trait 2 0.2 0 0 0 0 0 0 0 
trait 3 0.3 0 0 0.00947218 0 0 0.0624638 0 
node 1 2 1 3
node 2 1 1 1
node 3 2 1 1
node 4 1 1 1
node 5 3 1 1
node 6 1 0 2
node 7 3 0 2
node 13 1 0 0
node 25 1 0 0
gene 2 1 6 -0.896657 0 1 -0.896657 1
gene 2 2 6 1.75501 0 2 1.75501 1
gene 3 3 6 -0.64629 0 3 -0.64629 1
gene 2 4 6 -4.46131 0 4 -4.46131 1
gene 1 5 6 0.648959 0 5 0.648959 1
gene 1 1 7 -2.59379 0 6 -2.59379 1
gene 2 2 7 2.0082 0 7 2.0082 1
gene 1 3 7 -2.83333 0 8 -2.83333 1
gene 2 4 7 4.6709 0 9 4.6709 1
gene 3 5 7 1.29996 0 10 1.29996 1
gene 1 3 13 1.90274 0 27 1.90274 1
gene 1 13 7 -4.80261 0 28 -4.80261 1
gene 2 4 25 0.235481 0 65 0.235481 1
gene 2 25 7 2.15918 0 66 2.15918 1
genomeend 102

/* Organism #103 Fitness: 10 Error: 0 */
genomestart 103
trait 1 0.295036 0 0 0 0 0.0280999 0 0.0456557 
trait 2 0.2 0 0 0 0 0 0 0 
trait 3 0.3 0 0 0.00947218 0 0 0.0624638 0 
node 1 2 1 3
node 2 1 1 1
node 3 2 1 1
node 4 1 1 1
node 5 3 1 1
node 6 1 0 2
node 7 1 0 2
node 13 1 0 0
node 25 1 0 0
gene 2 1 6 3.4549 0 1 3.4549 1
gene 2 2 6 8 0 2 8 1
gene 3 3 6 0.352161 0 3 0.352161 1
gene 2 4 6 -2.36687 0 4 -2.36687 1
gene 1 5 6 1.91647 0 5 1.91647 1
gene 1 1 7 -4.70766 0 6 -4.70766 1
gene 2 2 7 2.36145 0 7 2.36145 1
gene 1 3 7 -2.06788 0 8 -2.06788 1
gene 2 4 7 4.5214 0 9 4.5214 1
gene 3 5 7 0.946226 0 10 0.946226 1
gene 1 3 13 0.395009 0 27 0.395009 1
gene 1 13 7 0.873264 0 28 0.873264 1
gene 2 4 25 -1.5215 0 65 -1.5215 1
gene 2 25 7 -1.81822 0 66 -1.81822 1
genomeend 103

/* Organism #104 Fitness: 12 Error: 0 */
genomestart 104
trait 1 0.295036 0 0 0 0 0.0280999 0 0.0456557 
trait 2 0.2 0 0 0 0 0 0 0 
trait 3 0.3 0 0 0.00947218 0 0 0.0624638 0 
node 1 1 1 3
node 2 1 1 1
node 3 2 1 1
node 4 1 1 1
node 5 3 1 1
node 6 1 0 2
node 7 1 0 2
node 13 1 0 0
node 25 1 0 0
node 44 1 0 0
gene 2 1 6 0.619121 0 1 0.619121 1
gene 2 2 6 0.599654 0 2 0.599654 1
gene 3 3 6 -2.2252 0 3 -2.2252 1
gene 2 4 6 -0.618767 0 4 -0.618767 0
gene 3 5 6 0.128313 0 5 0.128313 1
gene 1 1 7 1.76601 0 6 1.76601 1
gene 2 2 7 2.66207 0 7 2.66207 1
gene 1 3 7 -0.838139 0 8 -0.838139 1
gene 2 4 7 7.04734 0 9 7.04734 1
gene 3 5 7 0.959397 0 10 0.959397 1
gene 1 3 13 1.62971 0 27 1.62971 1
gene 1 13 7 -4.46335 0 28 -4.46335 1
gene 2 4 25 1 0 65 1 1
gene 2 25 7 -4.10596 0 66 -4.10596 1
gene 2 4 44 1 0 118 0 1
gene 2 44 6 -0.618767 0 119 0 1
genomeend 104

/* Organism #105 Fitness: 5 Error: 0 */
genomestart 105
trait 1 0.295036 0 0 0 0 0.0280999 0 0.0456557 
trait 2 0.2 0 0 0 0 0 0 0 
trait 3 0.3 0 0 0.00947218 0 0 0.0624638 0 
node 1 1 1 3
node 2 1 1 1
node 3 2 1 1
node 4 1 1 1
node 5 3 1 1
node 6 1 0 2
node 7 1 0 2
node 13 1 0 0
node 25 1 0 0
gene 2 1 6 0.619121 0 1 0.619121 1
gene 2 2 6 -1.84228 0 2 -1.84228 1
gene 3 3 6 -1.06146 0 3 -1.06146 1
gene 2 4 6 1.88574 0 4 1.88574 1
gene 3 5 6 1.777 0 5 1.777 1
gene 1 1 7 3.10516 0 6 3.10516 1
gene 2 2 7 0.182119 0 7 0.182119 1
gene 2 3 7 -2.45216 0 8 -2.45216 1
gene 2 4 7 -0.151448 0 9 -0.151448 1
gene 3 5 7 0.0273141 0 10 0.0273141 1
gene 1 3 13 1.72172 0 27 1.72172 1
gene 1 13 7 -3.31998 0 28 -3.31998 1
gene 2 4 25 1 0 65 1 1
gene 2 25 7 -1.76954 0 66 -1.76954 1
genomeend 105

/* Organism #106 Fitness: 42 Error: 0 */
genomestart 106
trait 1 0.295036 0 0 0 0 0.0280999 0 0.0456557 
trait 2 0.2 0 0 0 0 0 0 0 
trait 3 0.3 0 0 0.00947218 0 0 0.0624638 0 
node 1 1 1 3
node 2 1 1 1
node 3 2 1 1
node 4 1 1 1
node 5 3 1 1
node 6 1 0 2
node 7 1 0 2
node 13 1 0 0
node 25 1 0 0
gene 2 1 6 1.11413 0 1 1.11413 1
gene 2 2 6 3.51974 0 2 3.51974 1
gene 3 3 6 -0.746162 0 3 -0.746162 1
gene 2 4 6 -2.38697 0 4 -2.38697 1
gene 1 5 6 1.47883 0 5 1.47883 1
gene 1 1 7 -0.405309 0 6 -0.405309 1
gene 2 2 7 1.30978 0 7 1.30978 1
gene 1 3 7 -2.18626 0 8 -2.18626 1
gene 2 4 7 6.47501 0 9 6.47501 1
gene 3 5 7 2.21246 0 10 2.21246 1
gene 1 3 13 0.710608 0 27 0.710608 1
gene 1 13 7 -3.93138 0 28 -3.93138 1
gene 2 4 25 0.235481 0 65 0.235481 1
gene 2 25 7 0.502585 0 66 0.502585 1
genomeend 106

/* Species #7 : (Size 16) (AF 75.4375) (Age 6)  */


/* Organism #107 Fitness: 9 Error: 0 */
genomestart 107
trait 1 0.1 0 0 0 0.196509 0 0 0 
trait 2 0.31156 0.41551 0.28724 0 0.441847 0.139302 0 0 
trait 3 0.3 0 0 0 0 0 0 0 
node 1 1 1 3
node 2 3 1 1
node 3 3 1 1
node 4 1 1 1
node 5 2 1 1
node 6 3 0 2
node 7 2 0 2
node 32 1 0 0
gene 3 1 6 2.67922 0 1 2.67922 1
gene 3 2 6 -1.4967 0 2 -1.4967 1
gene 2 3 6 -3.76848 0 3 -3.76848 0
gene 2 4 6 -7.82314 0 4 -7.82314 1
gene 1 5 6 0.0105289 0 5 0.0105289 1
gene 3 1 7 -2.11829 0 6 -2.11829 1
gene 1 2 7 -6.48416 0 7 -6.48416 1
gene 2 3 7 0.708195 0 8 0.708195 1
gene 2 4 7 0.23545 0 9 0.23545 1
gene 1 5 7 1.21784 0 10 1.21784 1
gene 2 6 7 -3.11388 0 20 -3.11388 1
gene 2 3 32 -0.994156 0 88 -0.994156 1
gene 2 32 6 -1.28733 0 89 -1.28733 1
genomeend 107

/* Organism #108 Fitness: 211 Error: 0 */
genomestart 108
trait 1 0.1 0 0 0 0.196509 0 0 0 
trait 2 0.31156 0.41551 0.28724 0 0.441847 0.139302 0 0 
trait 3 0.3 0 0 0 0 0 0 0 
node 1 1 1 3
node 2 3 1 1
node 3 3 1 1
node 4 3 1 1
node 5 2 1 1
node 6 3 0 2
node 7 2 0 2
node 32 1 0 0
gene 3 1 6 2.88774 0 1 2.88774 1
gene 3 2 6 -2.30372 0 2 -2.30372 1
gene 2 3 6 0.474658 0 3 0.474658 0
gene 2 4 6 -8 0 4 -8 1
gene 1 5 6 2.39368 0 5 2.39368 1
gene 3 1 7 -3.10453 0 6 -3.10453 1
gene 1 2 7 -3.96386 0 7 -3.96386 1
gene 2 3 7 -1.30423 0 8 -1.30423 1
gene 2 4 7 4.15908 0 9 4.15908 1
gene 1 5 7 3.64914 0 10 3.64914 1
gene 2 6 7 -0.299348 0 20 -0.299348 1
gene 2 3 32 -1.06662 0 88 -1.06662 1
gene 2 32 6 0.55887 0 89 0.55887 1
genomeend 108

/* Organism #109 Fitness: 2 Error: 0 */
genomestart 109
trait 1 0.1 0 0 0 0.196509 0 0 0 
trait 2 0.31156 0.41551 0.28724 0 0.441847 0.139302 0 0 
trait 3 0.3 0 0 0 0 0 0 0 
node 1 1 1 3
node 2 3 1 1
node 3 3 1 1
node 4 1 1 1
node 5 2 1 1
node 6 3 0 2
node 7 2 0 2
node 32 1 0 0
gene 3 1 6 0.0487533 0 1 0.0487533 1
gene 3 2 6 -1.17733 0 2 -1.17733 1
gene 2 3 6 -3.76848 0 3 -3.76848 0
gene 3 4 6 -7.82314 0 4 -7.82314 1
gene 1 5 6 -1.8754 0 5 -1.8754 1
gene 3 1 7 -1.29845 0 6 -1.29845 1
gene 1 2 7 0.566958 0 7 0.566958 1
gene 2 3 7 2.10846 0 8 2.10846 1
gene 2 4 7 1.99629 0 9 1.99629 1
gene 1 5 7 3.72536 0 10 3.72536 1
gene 2 6 7 -2.32475 0 20 -2.32475 1
gene 2 3 32 0.59006 0 88 0.59006 1
gene 2 32 6 -0.404275 0 89 -0.404275 1
genomeend 109

/* Organism #110 Fitness: 1 Error: 0 */
genomestart 110
trait 1 0.1 0 0 0 0.196509 0 0 0 
trait 2 0.31156 0.41551 0.28724 0 0.441847 0.139302 0 0 
trait 3 0.3 0 0 0 0 0 0 0 
node 1 1 1 3
node 2 3 1 1
node 3 3 1 1
node 4 1 1 1
node 5 2 1 1
node 6 3 0 2
node 7 2 0 2
node 32 1 0 0
gene 3 1 6 -0.08652 0 1 -0.08652 1
gene 3 2 6 -2.02501 0 2 -2.02501 1
gene 2 3 6 -3.43488 0 3 -3.43488 0
gene 2 4 6 -4.41182 0 4 -4.41182 1
gene 1 5 6 -2.04581 0 5 -2.04581 1
gene 3 1 7 0.236404 0 6 0.236404 1
gene 1 2 7 -4.70477 0 7 -4.70477 1
gene 2 3 7 -2.10901 0 8 -2.10901 1
gene 2 4 7 4.82229 0 9 4.82229 1
gene 1 5 7 4.35583 0 10 4.35583 1
gene 2 6 7 -3.78094 0 20 -3.78094 1
gene 2 3 32 0.610927 0 88 0.610927 1
gene 2 32 6 1.64754 0 89 1.64754 1
genomeend 110

/* Organism #111 Fitness: 28 Error: 0 */
genomestart 111
trait 1 0.1 0 0 0 0.320017 0 0.488159 0.395367 
trait 2 0.31156 0.41551 0.28724 0 0.441847 0.139302 0 0 
trait 3 0.3 0 0 0 0 0 0 0 
node 1 1 1 3
node 2 3 1 1
node 3 3 1 1
node 4 1 1 1
node 5 2 1 1
node 6 3 0 2
node 7 2 0 2
node 32 1 0 0
gene 3 1 6 1.68081 0 1 1.68081 1
gene 3 2 6 -2.96731 0 2 -2.96731 1
gene 2 3 6 -2.68546 0 3 -2.68546 0
gene 2 4 6 -6.67996 0 4 -6.67996 1
gene 1 5 6 3.38118 0 5 3.38118 1
gene 3 1 7 -0.814272 0 6 -0.814272 1
gene 1 2 7 -8 0 7 -8 1
gene 2 3 7 -1.36298 0 8 -1.36298 1
gene 2 4 7 5.71345 0 9 5.71345 1
gene 1 5 7 6.01825 0 10 6.01825 1
gene 2 6 7 0.902928 0 20 0.902928 1
gene 2 3 32 2.88658 0 88 2.88658 1
gene 2 32 6 2.88018 0 89 2.88018 1
genomeend 111

/* Organism #112 Fitness: 8 Error: 0 */
genomestart 112
trait 1 0.1 0 0 0 0.258263 0 0.244079 0.197684 
trait 2 0.31156 0.41551 0.28724 0 0.441847 0.139302 0 0 
trait 3 0.3 0 0 0 0 0 0 0 
node 1 1 1 3
node 2 3 1 1
node 3 3 1 1
node 4 1 1 1
node 5 2 1 1
node 6 3 0 2
node 7 2 0 2
node 32 1 0 0
gene 3 1 6 -0.246246 0 1 -0.246246 1
gene 3 2 6 -0.330511 0 2 -0.330511 0
gene 2 3 6 -2.11259 0 3 -2.11259 0
gene 2 4 6 -6.08938 0 4 -6.08938 1
gene 1 5 6 1.433 0 5 1.433 1
gene 3 1 7 -2.10734 0 6 -2.10734 1
gene 1 2 7 -7.50889 0 7 -7.50889 1
gene 2 3 7 2.35864 0 8 2.35864 1
gene 2 4 7 -1.42659 0 9 -1.42659 1
gene 1 5 7 1.45711 0 10 1.45711 1
gene 2 6 7 1.28567 0 20 1.28567 1
gene 2 3 32 -1.55583 0 88 -1.55583 1
gene 2 32 6 -1.421 0 89 -1.421 1
genomeend 112

/* Organism #113 Fitness: 2 Error: 0 */
genomestart 113
trait 1 0.1 0 0 0 0.196509 0 0 0 
trait 2 0.31156 0.41551 0.28724 0 0.441847 0.139302 0 0 
trait 3 0.3 0 0 0 0 0 0 0 
node 1 1 1 3
node 2 3 1 1
node 3 3 1 1
node 4 1 1 1
node 5 2 1 1
node 6 3 0 2
node 7 2 0 2
node 32 1 0 0
gene 3 1 6 1.92061 0 1 1.92061 1
gene 3 2 6 -2.55867 0 2 -2.55867 1
gene 2 3 6 -1.51965 0 3 -1.51965 0
gene 2 4 6 -4.29924 0 4 -4.29924 1
gene 1 5 6 2.54501 0 5 2.54501 1
gene 3 1 7 -2.44797 0 6 -2.44797 1
gene 1 2 7 -8 0 7 -8 1
gene 2 3 7 1.29835 0 8 1.29835 1
gene 2 4 7 6.75562 0 9 6.75562 1
gene 1 5 7 1.67287 0 10 1.67287 1
gene 2 6 7 0.618534 0 20 0.618534 1
gene 2 3 32 0.756081 0 88 0.756081 1
gene 2 32 6 0.562685 0 89 0.562685 1
genomeend 113

/* Organism #114 Fitness: 3 Error: 0 */
genomestart 114
trait 1 0.1 0 0 0 0.196509 0 0 0 
trait 2 0.31156 0.41551 0.28724 0 0.441847 0.139302 0 0 
trait 3 0.3 0 0 0 0 0 0 0 
node 1 1 1 3
node 2 3 1 1
node 3 3 1 1
node 4 1 1 1
node 5 2 1 1
node 6 3 0 2
node 7 2 0 2
node 32 1 0 0
gene 3 1 6 3.51909 0 1 3.51909 1
gene 3 2 6 -2.49252 0 2 -2.49252 1
gene 2 3 6 -3.53311 0 3 -3.53311 0
gene 2 4 6 -8 0 4 -8 1
gene 1 5 6 0.842769 0 5 0.842769 1
gene 3 1 7 -3.37947 0 6 -3.37947 1
gene 1 2 7 -6.90867 0 7 -6.90867 1
gene 2 3 7 -2.78152 0 8 -2.78152 1
gene 2 4 7 -1.49876 0 9 -1.49876 1
gene 1 5 7 3.02271 0 10 3.02271 1
gene 2 6 7 -3.28288 0 20 -3.28288 1
gene 2 3 32 -0.00894192 0 88 -0.00894192 1
gene 2 32 6 -2.38386 0 89 -2.38386 1
genomeend 114

/* Organism #115 Fitness: 18 Error: 0 */
genomestart 115
trait 1 0.1 0 0 0 0.258263 0 0.244079 0.197684 
trait 2 0.31156 0.41551 0.28724 0 0.441847 0.139302 0 0 
trait 3 0.3 0 0 0 0 0 0 0 
node 1 1 1 3
node 2 3 1 1
node 3 3 1 1
node 4 1 1 1
node 5 2 1 1
node 6 3 0 2
node 7 2 0 2
node 32 1 0 0
gene 3 1 6 1.29795 0 1 1.29795 1
gene 3 2 6 -0.7469 0 2 -0.7469 0
gene 2 3 6 0.275754 0 3 0.275754 0
gene 2 4 6 -4.56109 0 4 -4.56109 1
gene 1 5 6 1.74638 0 5 1.74638 1
gene 3 1 7 -1.92763 0 6 -1.92763 1
gene 1 2 7 -5.85761 0 7 -5.85761 1
gene 2 3 7 -0.647666 0 8 -0.647666 1
gene 2 4 7 1.90865 0 9 1.90865 1
gene 1 5 7 2.62902 0 10 2.62902 1
gene 2 6 7 0.148167 0 20 0.148167 1
gene 2 3 32 2.21601 0 88 2.21601 1
gene 2 32 6 -1.68155 0 89 -1.68155 1
genomeend 115

/* Organism #116 Fitness: 12 Error: 0 */
genomestart 116
trait 1 0.1 0 0 0 0.258263 0 0.244079 0.197684 
trait 2 0.31156 0.41551 0.28724 0 0.441847 0.139302 0 0 
trait 3 0.3 0 0 0 0 0 0 0 
node 1 1 1 3
node 2 3 1 1
node 3 3 1 1
node 4 1 1 1
node 5 2 1 1
node 6 3 0 2
node 7 2 0 2
node 32 1 0 0
gene 3 1 6 -0.250862 0 1 -0.250862 1
gene 3 2 6 -1.02035 0 2 -1.02035 0
gene 2 3 6 0.847861 0 3 0.847861 0
gene 2 4 6 -7.06449 0 4 -7.06449 1
gene 1 5 6 2.15987 0 5 2.15987 1
gene 3 1 7 -0.267037 0 6 -0.267037 1
gene 1 2 7 -4.54875 0 7 -4.54875 1
gene 2 3 7 2.41098 0 8 2.41098 1
gene 2 4 7 2.58891 0 9 2.58891 1
gene 1 5 7 6.21563 0 10 6.21563 1
gene 2 6 7 1.00551 0 20 1.00551 1
gene 2 3 32 3.54448 0 88 3.54448 1
gene 2 32 6 0.562685 0 89 0.562685 1
genomeend 116

/* Organism #117 Fitness: 72 Error: 0 */
genomestart 117
trait 1 0.1 0 0 0 0.258263 0 0.244079 0.197684 
trait 2 0.31156 0.41551 0.28724 0 0.441847 0.139302 0 0 
trait 3 0.3 0 0 0 0 0 0 0 
node 1 1 1 3
node 2 3 1 1
node 3 3 1 1
node 4 1 1 1
node 5 2 1 1
node 6 3 0 2
node 7 2 0 2
node 32 1 0 0
node 41 1 0 0
gene 3 1 6 0.691244 0 1 0.691244 1
gene 3 2 6 -0.192568 0 2 -0.192568 0
gene 2 3 6 -0.169626 0 3 -0.169626 1
gene 2 4 6 -7.48978 0 4 -7.48978 1
gene 1 5 6 0.306883 0 5 0.306883 1
gene 3 1 7 -1.94905 0 6 -1.94905 1
gene 1 2 7 -6.44185 0 7 -6.44185 1
gene 2 3 7 1.26087 0 8 1.26087 1
gene 2 4 7 3.95025 0 9 3.95025 1
gene 1 5 7 4.5609 0 10 4.5609 1
gene 2 6 7 -1.78749 0 20 -1.78749 1
gene 2 3 32 -2.30102 0 88 -2.30102 1
gene 2 32 6 0.249446 0 89 0.249446 1
gene 3 2 41 1 0 109 1 1
gene 3 41 6 -0.7469 0 110 -0.7469 1
genomeend 117

/* Organism #118 Fitness: 12 Error: 0 */
genomestart 118
trait 1 0.1 0 0 0 0.196509 0 0 0 
trait 2 0.31156 0.41551 0.28724 0 0.441847 0.139302 0 0 
trait 3 0.3 0 0 0 0 0 0 0 
node 1 1 1 3
node 2 3 1 1
node 3 2 1 1
node 4 1 1 1
node 5 2 1 1
node 6 3 0 2
node 7 2 0 2
node 32 1 0 0
gene 3 1 6 2.24574 0 1 2.24574 1
gene 3 2 6 -3.07187 0 2 -3.07187 1
gene 2 3 6 -1.89472 0 3 -1.89472 0
gene 2 4 6 -3.30419 0 4 -3.30419 1
gene 1 5 6 0.665838 0 5 0.665838 1
gene 3 1 7 0.983383 0 6 0.983383 1
gene 1 2 7 -7.82979 0 7 -7.82979 1
gene 2 3 7 -1.49566 0 8 -1.49566 1
gene 2 4 7 0.383564 0 9 0.383564 1
gene 1 5 7 1.41953 0 10 1.41953 1
gene 2 6 7 -1.89318 0 20 -1.89318 1
gene 2 3 32 -0.452437 0 88 -0.452437 1
gene 2 32 6 1.25863 0 89 1.25863 1
genomeend 118

/* Organism #119 Fitness: 195 Error: 0 */
genomestart 119
trait 1 0.1 0 0 0 0.258263 0 0.244079 0.197684 
trait 2 0.31156 0.41551 0.28724 0 0.441847 0.139302 0 0 
trait 3 0.3 0 0 0 0 0 0 0 
node 1 1 1 3
node 2 3 1 1
node 3 3 1 1
node 4 1 1 1
node 5 2 1 1
node 6 3 0 2
node 7 2 0 2
node 32 1 0 0
node 41 1 0 0
gene 3 1 6 1.6974 0 1 1.6974 1
gene 3 2 6 -3.55254 0 2 -3.55254 1
gene 2 3 6 -1.20222 0 3 -1.20222 0
gene 2 4 6 -6.19185 0 4 -6.19185 1
gene 1 5 6 0.461974 0 5 0.461974 1
gene 3 1 7 -2.64935 0 6 -2.64935 1
gene 1 2 7 -6.70328 0 7 -6.70328 1
gene 2 3 7 0.148181 0 8 0.148181 1
gene 2 4 7 1.90865 0 9 1.90865 1
gene 1 5 7 2.62902 0 10 2.62902 1
gene 2 6 7 -0.937109 0 20 -0.937109 1
gene 2 3 32 0.447729 0 88 0.447729 1
gene 2 32 6 1.25863 0 89 1.25863 1
gene 3 2 41 1 0 109 0 1
gene 3 41 6 -0.7469 0 110 0 1
genomeend 119

/* Organism #120 Fitness: 123 Error: 0 */
genomestart 120
trait 1 0.1 0 0 0 0.196509 0 0 0 
trait 2 0.31156 0.41551 0.28724 0 0.441847 0.139302 0 0 
trait 3 0.3 0 0 0 0 0 0 0 
node 1 1 1 3
node 2 3 1 1
node 3 3 1 1
node 4 1 1 1
node 5 2 1 1
node 6 3 0 2
node 7 2 0 2
node 32 1 0 0
gene 3 1 6 2.98063 0 1 2.98063 1
gene 3 2 6 -2.63302 0 2 -2.63302 1
gene 2 3 6 0.262211 0 3 0.262211 0
gene 2 4 6 -5.68394 0 4 -5.68394 1
gene 1 5 6 0.0975448 0 5 0.0975448 1
gene 3 1 7 -0.707648 0 6 -0.707648 1
gene 1 2 7 -5.74881 0 7 -5.74881 1
gene 2 3 7 -1.86837 0 8 -1.86837 1
gene 2 4 7 5.47915 0 9 5.47915 1
gene 1 5 7 2.61509 0 10 2.61509 1
gene 2 6 7 -0.444006 0 20 -0.444006 1
gene 2 3 32 -0.639378 0 88 -0.639378 1
gene 2 32 6 1.25863 0 89 1.25863 1
genomeend 120

/* Organism #121 Fitness: 407 Error: 0 */
genomestart 121
trait 1 0.1 0 0 0 0.196509 0 0 0 
trait 2 0.31156 0.41551 0.28724 0 0.441847 0.139302 0 0 
trait 3 0.3 0 0 0 0 0 0 0 
node 1 1 1 3
node 2 3 1 1
node 3 3 1 1
node 4 1 1 1
node 5 2 1 1
node 6 3 0 2
node 7 2 0 2
node 32 1 0 0
gene 3 1 6 2.98063 0 1 2.98063 1
gene 3 2 6 -3.55254 0 2 -3.55254 1
gene 2 3 6 0.262211 0 3 0.262211 0
gene 2 4 6 -6.19185 0 4 -6.19185 1
gene 1 5 6 0.461974 0 5 0.461974 1
gene 3 1 7 -0.707648 0 6 -0.707648 1
gene 1 2 7 -6.29944 0 7 -6.29944 1
gene 2 3 7 -1.86837 0 8 -1.86837 1
gene 2 4 7 5.47915 0 9 5.47915 1
gene 1 5 7 3.45542 0 10 3.45542 1
gene 2 6 7 -0.937109 0 20 -0.937109 1
gene 2 3 32 -0.639378 0 88 -0.639378 1
gene 2 32 6 1.25863 0 89 1.25863 1
genomeend 121

/* Organism #122 Fitness: 104 Error: 0 */
genomestart 122
trait 1 0.1 0 0 0 0.381771 0 0.732238 0.593051 
trait 2 0.31156 0.41551 0.28724 0 0.441847 0.139302 0 0 
trait 3 0.3 0 0 0 0 0 0 0 
node 1 1 1 3
node 2 3 1 1
node 3 3 1 1
node 4 1 1 1
node 5 2 1 1
node 6 3 0 2
node 7 2 0 2
node 32 1 0 0
gene 3 1 6 2.28729 0 1 2.28729 1
gene 3 2 6 1.14269 0 2 1.14269 0
gene 2 3 6 -1.08526 0 3 -1.08526 0
gene 2 4 6 -8 0 4 -8 1
gene 1 5 6 1.90409 0 5 1.90409 1
gene 3 1 7 -3.24423 0 6 -3.24423 1
gene 1 2 7 1.78167 0 7 1.78167 1
gene 2 3 7 1.06572 0 8 1.06572 1
gene 2 4 7 -0.489494 0 9 -0.489494 1
gene 1 5 7 6.40179 0 10 6.40179 1
gene 2 6 7 -0.637226 0 20 -0.637226 1
gene 2 3 32 -1.13475 0 88 -1.13475 1
gene 2 32 6 3.56952 0 89 3.56952 1
genomeend 122

/* Species #10 : (Size 6) (AF 124.833) (Age 3)  */


/* Organism #123 Fitness: 35 Error: 0 */
genomestart 123
trait 1 0.122094 0 0 0 0 0.00318319 0 0.00517193 
trait 2 0.203486 0.0129847 0.00897626 0 0.0138077 0.00435318 0 0 
trait 3 0.3 0 0.193571 0.0050321 0 0.443434 0.105632 0 
node 1 2 1 3
node 2 2 1 1
node 3 1 1 1
node 4 3 1 1
node 5 2 1 1
node 6 1 0 2
node 7 1 0 2
node 9 1 0 0
node 34 1 0 0
gene 3 1 6 -1.26965 0 1 -1.26965 1
gene 3 2 6 -0.283912 0 2 -0.283912 1
gene 2 3 6 -2.5164 0 3 -2.5164 0
gene 2 4 6 -6.04323 0 4 -6.04323 1
gene 1 5 6 -1.54462 0 5 -1.54462 0
gene 3 1 7 -3.01835 0 6 -3.01835 1
gene 3 2 7 -6.14459 0 7 -6.14459 1
gene 2 3 7 -1.08518 0 8 -1.08518 0
gene 3 4 7 4.18344 0 9 4.18344 1
gene 1 5 7 8 0 10 8 1
gene 2 3 9 0.239265 0 15 0.239265 1
gene 2 9 6 0.693686 0 16 0.693686 1
gene 3 3 34 1.32723 0 92 1.32723 1
gene 3 34 7 -3.61876 0 93 -3.61876 1
genomeend 123

/* Organism #124 Fitness: 237 Error: 0 */
genomestart 124
trait 1 0.122094 0 0 0 0 0.00318319 0 0.00517193 
trait 2 0.203486 0.0129847 0.00897626 0 0.0138077 0.00435318 0 0 
trait 3 0.3 0 0.255646 0.0050321 0 0.886868 0.105632 0 
node 1 2 1 3
node 2 2 1 1
node 3 1 1 1
node 4 3 1 1
node 5 2 1 1
node 6 1 0 2
node 7 1 0 2
node 9 1 0 0
node 34 1 0 0
gene 3 1 6 -0.643715 0 1 -0.643715 1
gene 3 2 6 -2.792 0 2 -2.792 1
gene 2 3 6 -2.53739 0 3 -2.53739 0
gene 2 4 6 -4.65044 0 4 -4.65044 1
gene 1 5 6 -1.89848 0 5 -1.89848 0
gene 3 1 7 -5.11367 0 6 -5.11367 1
gene 3 2 7 -4.02608 0 7 -4.02608 1
gene 3 3 7 0.50544 0 8 0.50544 0
gene 3 4 7 2.91052 0 9 2.91052 1
gene 1 5 7 6.33335 0 10 6.33335 1
gene 2 3 9 -2.01727 0 15 -2.01727 1
gene 2 9 6 -0.117344 0 16 -0.117344 1
gene 3 3 34 -0.787835 0 92 -0.787835 1
gene 3 34 7 -1.62483 0 93 -1.62483 1
genomeend 124

/* Organism #125 Fitness: 135 Error: 0 */
genomestart 125
trait 1 0.122094 0 0 0 0 0.00318319 0 0.00517193 
trait 2 0.203486 0.0129847 0.00897626 0 0.0138077 0.00435318 0 0 
trait 3 0.0935118 0.529557 0 0.0050321 0 0 0.163434 0 
node 1 2 1 3
node 2 2 1 1
node 3 1 1 1
node 4 3 1 1
node 5 2 1 1
node 6 1 0 2
node 7 1 0 2
node 9 1 0 0
node 34 1 0 0
gene 2 1 6 -0.762826 0 1 -0.762826 1
gene 3 2 6 -2.95642 0 2 -2.95642 1
gene 2 3 6 -3.0829 0 3 -3.0829 0
gene 2 4 6 -6.2693 0 4 -6.2693 1
gene 1 5 6 0.349548 0 5 0.349548 0
gene 3 1 7 -4.36242 0 6 -4.36242 1
gene 3 2 7 -1.07664 0 7 -1.07664 1
gene 3 3 7 2.70239 0 8 2.70239 0
gene 3 4 7 7.06798 0 9 7.06798 1
gene 1 5 7 6.457 0 10 6.457 1
gene 2 3 9 -1.11 0 15 -1.11 1
gene 2 9 6 1.26804 0 16 1.26804 1
gene 3 3 34 1 0 92 1 1
gene 3 34 7 -2.37879 0 93 -2.37879 1
genomeend 125

/* Organism #126 Fitness: 115 Error: 0 */
genomestart 126
trait 1 0.122094 0 0 0 0 0.00318319 0 0.00517193 
trait 2 0.203486 0.0129847 0.00897626 0 0.0138077 0.00435318 0 0 
trait 3 0.3 0 0.131497 0.0050321 0 0 0.105632 0 
node 1 2 1 3
node 2 2 1 1
node 3 1 1 1
node 4 3 1 1
node 5 2 1 1
node 6 1 0 2
node 7 1 0 2
node 9 1 0 0
node 34 1 0 0
gene 2 1 6 1.13999 0 1 1.13999 1
gene 3 2 6 1.1777 0 2 1.1777 1
gene 2 3 6 -4.66987 0 3 -4.66987 0
gene 2 4 6 -8 0 4 -8 1
gene 1 5 6 0.00274285 0 5 0.00274285 0
gene 3 1 7 -3.24937 0 6 -3.24937 1
gene 3 2 7 -1.19388 0 7 -1.19388 1
gene 2 3 7 -0.0525071 0 8 -0.0525071 0
gene 1 4 7 2.24596 0 9 2.24596 1
gene 1 5 7 1.97478 0 10 1.97478 1
gene 2 3 9 1.31008 0 15 1.31008 1
gene 2 9 6 1.64098 0 16 1.64098 1
gene 3 3 34 -1.81143 0 92 -1.81143 1
gene 3 34 7 -1.23556 0 93 -1.23556 1
genomeend 126

/* Organism #127 Fitness: 6 Error: 0 */
genomestart 127
trait 1 0.12476 0 0 0 0 0.00356737 0 0.00579613 
trait 2 0.205229 0.019477 0.167903 0.288278 0.00690386 0.476057 0 0 
trait 3 0.3 0.428663 0 0.00606812 0.72512 1 0 0.810907 
node 1 2 1 3
node 2 2 1 1
node 3 1 1 1
node 4 3 1 1
node 5 2 1 1
node 6 1 0 2
node 7 1 0 2
node 9 1 0 0
node 34 1 0 0
gene 2 1 6 0.340329 0 1 0.340329 1
gene 3 2 6 -2.29806 0 2 -2.29806 1
gene 2 3 6 -0.579548 0 3 -0.579548 0
gene 2 4 6 -4.09348 0 4 -4.09348 1
gene 1 5 6 -3.17614 0 5 -3.17614 0
gene 3 1 7 -2.14713 0 6 -2.14713 1
gene 3 2 7 -3.17092 0 7 -3.17092 1
gene 3 3 7 0.253433 0 8 0.253433 0
gene 3 4 7 3.89382 0 9 3.89382 1
gene 1 5 7 -2.42111 0 10 -2.42111 1
gene 2 3 9 1.23836 0 15 1.23836 1
gene 2 9 6 -1.27148 0 16 -1.27148 1
gene 3 3 34 0.530168 0 92 0.530168 1
gene 3 34 7 -2.01333 0 93 -2.01333 1
genomeend 127

/* Organism #128 Fitness: 221 Error: 0 */
genomestart 128
trait 1 0.122094 0 0 0 0 0.00318319 0 0.00517193 
trait 2 0.203486 0.0129847 0.00897626 0 0.0138077 0 0 0 
trait 3 0.3 0 0.255646 0.0050321 0 0.886868 0.105632 0 
node 1 2 1 3
node 2 2 1 1
node 3 1 1 1
node 4 3 1 1
node 5 2 1 1
node 6 1 0 2
node 7 1 0 2
node 9 1 0 0
